
Options: -P 100 -S 1 -I 200 -W weka.classifiers.trees.J48 -- -C 0.25 -M 2 

AdaBoostM1: Base classifiers and their weights: 

J48 pruned tree
------------------

health = recommended
|   social = nonprob
|   |   housing = convenient
|   |   |   finance = convenient: very_recom (20.0/1.0)
|   |   |   finance = inconv
|   |   |   |   children = 1: very_recom (5.0/1.0)
|   |   |   |   children = 2: very_recom (5.0/2.0)
|   |   |   |   children = 3: priority (5.0)
|   |   |   |   children = more: priority (5.0)
|   |   housing = less_conv
|   |   |   children = 1: very_recom (10.0/2.0)
|   |   |   children = 2
|   |   |   |   form = complete: very_recom (4.0)
|   |   |   |   form = completed: very_recom (2.0)
|   |   |   |   form = incomplete: priority (2.0)
|   |   |   |   form = foster: priority (2.0)
|   |   |   children = 3: priority (10.0)
|   |   |   children = more: priority (8.0)
|   |   housing = critical: priority (38.0/4.0)
|   social = slightly_prob
|   |   housing = convenient
|   |   |   finance = convenient: very_recom (20.0/1.0)
|   |   |   finance = inconv
|   |   |   |   children = 1: very_recom (5.0/1.0)
|   |   |   |   children = 2: very_recom (5.0/2.0)
|   |   |   |   children = 3: priority (5.0)
|   |   |   |   children = more: priority (4.0)
|   |   housing = less_conv
|   |   |   children = 1: very_recom (10.0/2.0)
|   |   |   children = 2
|   |   |   |   form = complete: very_recom (4.0)
|   |   |   |   form = completed: very_recom (2.0)
|   |   |   |   form = incomplete: priority (2.0)
|   |   |   |   form = foster: priority (2.0)
|   |   |   children = 3: priority (10.0)
|   |   |   children = more: priority (8.0)
|   |   housing = critical: priority (38.0/4.0)
|   social = problematic: priority (115.0)
health = priority: priority (346.0)
health = not_recom: not_recom (345.0)

Number of Leaves  : 	29

Size of the tree : 	41


Weight: 3.93

J48 pruned tree
------------------

health = recommended
|   form = complete
|   |   housing = convenient
|   |   |   children = 1: recommend (56.95/5.1)
|   |   |   children = 2
|   |   |   |   social = nonprob: very_recom (2.04)
|   |   |   |   social = slightly_prob: very_recom (2.04)
|   |   |   |   social = problematic: priority (2.04)
|   |   |   children = 3
|   |   |   |   finance = convenient: very_recom (3.06/1.02)
|   |   |   |   finance = inconv: priority (3.06)
|   |   |   children = more
|   |   |   |   finance = convenient: very_recom (3.06/1.02)
|   |   |   |   finance = inconv: priority (2.04)
|   |   housing = less_conv
|   |   |   children = 1
|   |   |   |   social = nonprob: very_recom (2.04)
|   |   |   |   social = slightly_prob: very_recom (2.04)
|   |   |   |   social = problematic: priority (2.04)
|   |   |   children = 2
|   |   |   |   social = nonprob: very_recom (2.04)
|   |   |   |   social = slightly_prob: very_recom (2.04)
|   |   |   |   social = problematic: priority (2.04)
|   |   |   children = 3: priority (6.12)
|   |   |   children = more: priority (3.06)
|   |   housing = critical
|   |   |   children = 1: very_recom (209.44/2.04)
|   |   |   children = 2: priority (6.12)
|   |   |   children = 3: priority (6.12)
|   |   |   children = more: priority (3.06)
|   form = completed: priority (36.71/10.2)
|   form = incomplete: priority (87.54/7.14)
|   form = foster: priority (240.03/4.08)
health = priority: priority (176.4)
health = not_recom: not_recom (175.89)

Number of Leaves  : 	25

Size of the tree : 	36


Weight: 3.49

J48 pruned tree
------------------

health = recommended
|   social = nonprob
|   |   form = complete
|   |   |   children = 1
|   |   |   |   housing = convenient
|   |   |   |   |   has_nurs = proper
|   |   |   |   |   |   finance = convenient: recommend (13.36)
|   |   |   |   |   |   finance = inconv: very_recom (8.64)
|   |   |   |   |   has_nurs = less_proper: very_recom (17.28)
|   |   |   |   |   has_nurs = improper: very_recom (0.0)
|   |   |   |   |   has_nurs = critical: very_recom (0.0)
|   |   |   |   |   has_nurs = very_crit: very_recom (0.0)
|   |   |   |   housing = less_conv: very_recom (1.05)
|   |   |   |   housing = critical: very_recom (53.43)
|   |   |   children = 2: very_recom (3.15/1.05)
|   |   |   children = 3: priority (3.15/0.53)
|   |   |   children = more: priority (2.1/0.53)
|   |   form = completed
|   |   |   housing = convenient: very_recom (52.38/0.53)
|   |   |   housing = less_conv: very_recom (35.62/1.05)
|   |   |   housing = critical: priority (2.1)
|   |   form = incomplete
|   |   |   finance = convenient: very_recom (45.05/1.84)
|   |   |   finance = inconv
|   |   |   |   children = 1: very_recom (17.55/0.26)
|   |   |   |   children = 2: priority (13.88)
|   |   |   |   children = 3: priority (0.79)
|   |   |   |   children = more: priority (0.79)
|   |   form = foster
|   |   |   finance = convenient
|   |   |   |   housing = convenient: very_recom (34.57)
|   |   |   |   housing = less_conv: priority (14.14)
|   |   |   |   housing = critical: priority (1.05)
|   |   |   finance = inconv: priority (42.43)
|   social = slightly_prob
|   |   form = complete
|   |   |   children = 1
|   |   |   |   housing = convenient
|   |   |   |   |   has_nurs = proper
|   |   |   |   |   |   finance = convenient: recommend (13.36)
|   |   |   |   |   |   finance = inconv: very_recom (8.64)
|   |   |   |   |   has_nurs = less_proper: very_recom (17.28)
|   |   |   |   |   has_nurs = improper: very_recom (0.0)
|   |   |   |   |   has_nurs = critical: very_recom (0.0)
|   |   |   |   |   has_nurs = very_crit: very_recom (0.0)
|   |   |   |   housing = less_conv: very_recom (1.05)
|   |   |   |   housing = critical: very_recom (53.43)
|   |   |   children = 2: very_recom (3.15/1.05)
|   |   |   children = 3: priority (3.15/0.53)
|   |   |   children = more: priority (1.84/0.53)
|   |   form = completed
|   |   |   housing = convenient: very_recom (52.38/0.53)
|   |   |   housing = less_conv: very_recom (35.62/1.05)
|   |   |   housing = critical: priority (2.1)
|   |   form = incomplete
|   |   |   finance = convenient: very_recom (45.05/1.84)
|   |   |   finance = inconv
|   |   |   |   children = 1: very_recom (17.55/0.26)
|   |   |   |   children = 2: priority (13.88)
|   |   |   |   children = 3: priority (0.79)
|   |   |   |   children = more: priority (0.79)
|   |   form = foster
|   |   |   finance = convenient
|   |   |   |   housing = convenient: very_recom (34.57)
|   |   |   |   housing = less_conv: priority (14.14)
|   |   |   |   housing = critical: priority (1.05)
|   |   |   finance = inconv: priority (42.43)
|   social = problematic: priority (130.75)
health = priority: priority (90.88)
health = not_recom: not_recom (90.62)

Number of Leaves  : 	49

Size of the tree : 	71


Weight: 4.49

J48 pruned tree
------------------

health = recommended
|   housing = convenient
|   |   finance = convenient
|   |   |   social = nonprob: very_recom (110.96/6.75)
|   |   |   social = slightly_prob: very_recom (110.96/6.75)
|   |   |   social = problematic: priority (28.08)
|   |   finance = inconv
|   |   |   children = 1
|   |   |   |   form = complete
|   |   |   |   |   social = nonprob: very_recom (8.74)
|   |   |   |   |   social = slightly_prob: very_recom (8.74)
|   |   |   |   |   social = problematic: priority (8.74)
|   |   |   |   form = completed: very_recom (8.87/0.13)
|   |   |   |   form = incomplete: very_recom (8.87/0.13)
|   |   |   |   form = foster: priority (13.64)
|   |   |   children = 2
|   |   |   |   form = complete: very_recom (0.8/0.27)
|   |   |   |   form = completed: very_recom (8.87/0.13)
|   |   |   |   form = incomplete: priority (13.64)
|   |   |   |   form = foster: priority (13.64)
|   |   |   children = 3: priority (25.29)
|   |   |   children = more: priority (25.03)
|   housing = less_conv
|   |   children = 1
|   |   |   form = complete: very_recom (1.59/0.53)
|   |   |   form = completed: very_recom (17.74/0.27)
|   |   |   form = incomplete: very_recom (17.74/0.27)
|   |   |   form = foster: priority (27.28)
|   |   children = 2
|   |   |   form = complete: very_recom (1.59/0.53)
|   |   |   form = completed: very_recom (17.74/0.27)
|   |   |   form = incomplete: priority (24.1)
|   |   |   form = foster: priority (0.8)
|   |   children = 3: priority (73.89)
|   |   children = more: priority (73.1)
|   housing = critical
|   |   children = 1
|   |   |   form = complete
|   |   |   |   social = nonprob: very_recom (27.01)
|   |   |   |   social = slightly_prob: very_recom (27.01)
|   |   |   |   social = problematic: priority (17.48)
|   |   |   form = completed: priority (0.8)
|   |   |   form = incomplete: priority (47.4)
|   |   |   form = foster: priority (0.8)
|   |   children = 2: priority (120.5)
|   |   children = 3: priority (27.29)
|   |   children = more: priority (26.49)
health = priority: priority (45.95)
health = not_recom: not_recom (45.82)

Number of Leaves  : 	36

Size of the tree : 	50


Weight: 4.15

J48 pruned tree
------------------

housing = convenient
|   finance = convenient
|   |   children = 1
|   |   |   form = complete
|   |   |   |   has_nurs = proper
|   |   |   |   |   social = nonprob: recommend (218.58/0.13)
|   |   |   |   |   social = slightly_prob: recommend (218.58/0.13)
|   |   |   |   |   social = problematic: priority (2.35/0.07)
|   |   |   |   has_nurs = less_proper
|   |   |   |   |   social = nonprob: very_recom (2.35/0.13)
|   |   |   |   |   social = slightly_prob: very_recom (2.35/0.13)
|   |   |   |   |   social = problematic: priority (2.35/0.07)
|   |   |   |   has_nurs = improper: recommend (0.0)
|   |   |   |   has_nurs = critical: recommend (0.0)
|   |   |   |   has_nurs = very_crit: recommend (0.0)
|   |   |   form = completed: very_recom (4.91/0.47)
|   |   |   form = incomplete: very_recom (4.91/0.47)
|   |   |   form = foster: very_recom (4.91/0.47)
|   |   children = 2: very_recom (15.94/2.36)
|   |   children = 3
|   |   |   social = nonprob: very_recom (19.3/0.67)
|   |   |   social = slightly_prob: very_recom (19.3/0.67)
|   |   |   social = problematic: priority (5.31/0.34)
|   |   children = more
|   |   |   social = nonprob: very_recom (19.3/0.67)
|   |   |   social = slightly_prob: very_recom (19.3/0.67)
|   |   |   social = problematic: priority (5.31/0.34)
|   finance = inconv
|   |   health = recommended
|   |   |   children = 1
|   |   |   |   social = nonprob
|   |   |   |   |   form = complete: very_recom (4.44)
|   |   |   |   |   form = completed: very_recom (2.22)
|   |   |   |   |   form = incomplete: very_recom (2.22)
|   |   |   |   |   form = foster: priority (3.43)
|   |   |   |   social = slightly_prob
|   |   |   |   |   form = complete: very_recom (4.44)
|   |   |   |   |   form = completed: very_recom (2.22)
|   |   |   |   |   form = incomplete: very_recom (2.22)
|   |   |   |   |   form = foster: priority (3.43)
|   |   |   |   social = problematic: priority (13.1)
|   |   |   children = 2: priority (31.45/4.71)
|   |   |   children = 3: priority (12.85)
|   |   |   children = more: priority (12.71)
|   |   health = priority: priority (3.91)
|   |   health = not_recom: not_recom (3.84)
housing = less_conv
|   health = recommended
|   |   children = 1
|   |   |   social = nonprob
|   |   |   |   form = complete: very_recom (0.27)
|   |   |   |   form = completed: very_recom (4.44)
|   |   |   |   form = incomplete: very_recom (4.44)
|   |   |   |   form = foster: priority (6.86)
|   |   |   social = slightly_prob
|   |   |   |   form = complete: very_recom (0.27)
|   |   |   |   form = completed: very_recom (4.44)
|   |   |   |   form = incomplete: very_recom (4.44)
|   |   |   |   form = foster: priority (6.86)
|   |   |   social = problematic: priority (34.5)
|   |   children = 2
|   |   |   social = nonprob
|   |   |   |   form = complete: very_recom (0.27)
|   |   |   |   form = completed: very_recom (4.44)
|   |   |   |   form = incomplete: priority (6.05)
|   |   |   |   form = foster: priority (0.13)
|   |   |   social = slightly_prob
|   |   |   |   form = complete: very_recom (0.27)
|   |   |   |   form = completed: very_recom (4.44)
|   |   |   |   form = incomplete: priority (6.05)
|   |   |   |   form = foster: priority (0.13)
|   |   |   social = problematic: priority (26.04)
|   |   children = 3: priority (37.53)
|   |   children = more: priority (37.12)
|   health = priority: priority (7.69)
|   health = not_recom: not_recom (7.69)
housing = critical
|   health = recommended
|   |   children = 1
|   |   |   form = complete
|   |   |   |   social = nonprob: very_recom (13.72)
|   |   |   |   social = slightly_prob: very_recom (13.72)
|   |   |   |   social = problematic: priority (8.88)
|   |   |   form = completed: priority (0.4)
|   |   |   form = incomplete: priority (24.07)
|   |   |   form = foster: priority (0.4)
|   |   children = 2: priority (61.19)
|   |   children = 3: priority (13.86)
|   |   children = more: priority (13.45)
|   health = priority: priority (7.69)
|   health = not_recom: not_recom (7.69)

Number of Leaves  : 	66

Size of the tree : 	92


Weight: 4.4

J48 pruned tree
------------------

health = recommended
|   finance = convenient
|   |   housing = convenient
|   |   |   children = 1
|   |   |   |   form = complete
|   |   |   |   |   has_nurs = proper: recommend (222.24/1.12)
|   |   |   |   |   has_nurs = less_proper: very_recom (3.37/1.12)
|   |   |   |   |   has_nurs = improper: recommend (0.0)
|   |   |   |   |   has_nurs = critical: recommend (0.0)
|   |   |   |   |   has_nurs = very_crit: recommend (0.0)
|   |   |   |   form = completed: priority (5.04/2.25)
|   |   |   |   form = incomplete: priority (5.04/2.25)
|   |   |   |   form = foster: priority (5.04/2.25)
|   |   |   children = 2
|   |   |   |   social = nonprob: very_recom (3.44)
|   |   |   |   social = slightly_prob: very_recom (3.44)
|   |   |   |   social = problematic: priority (13.95)
|   |   |   children = 3
|   |   |   |   social = nonprob: very_recom (9.43)
|   |   |   |   social = slightly_prob: very_recom (9.43)
|   |   |   |   social = problematic: priority (2.35)
|   |   |   children = more
|   |   |   |   social = nonprob: very_recom (9.43)
|   |   |   |   social = slightly_prob: very_recom (9.43)
|   |   |   |   social = problematic: priority (2.35)
|   |   housing = less_conv: priority (56.81/7.01)
|   |   housing = critical
|   |   |   form = complete
|   |   |   |   children = 1
|   |   |   |   |   social = nonprob: very_recom (3.47)
|   |   |   |   |   social = slightly_prob: very_recom (3.47)
|   |   |   |   |   social = problematic: priority (2.25)
|   |   |   |   children = 2: priority (12.18)
|   |   |   |   children = 3: priority (0.2)
|   |   |   |   children = more: priority (0.1)
|   |   |   form = completed: priority (0.41)
|   |   |   form = incomplete: priority (24.37)
|   |   |   form = foster: priority (0.41)
|   finance = inconv
|   |   housing = convenient
|   |   |   children = 1
|   |   |   |   social = nonprob: very_recom (6.23/1.74)
|   |   |   |   social = slightly_prob: very_recom (6.23/1.74)
|   |   |   |   social = problematic: priority (6.63)
|   |   |   children = 2
|   |   |   |   form = complete
|   |   |   |   |   social = nonprob: very_recom (5.58)
|   |   |   |   |   social = slightly_prob: very_recom (5.58)
|   |   |   |   |   social = problematic: priority (4.35)
|   |   |   |   form = completed
|   |   |   |   |   social = nonprob: very_recom (91.81)
|   |   |   |   |   social = slightly_prob: very_recom (91.81)
|   |   |   |   |   social = problematic: priority (2.17)
|   |   |   |   form = incomplete: priority (3.51)
|   |   |   |   form = foster: priority (3.51)
|   |   |   children = 3: priority (6.5)
|   |   |   children = more: priority (6.43)
|   |   housing = less_conv: priority (38.84/7.01)
|   |   housing = critical
|   |   |   children = 1
|   |   |   |   form = complete
|   |   |   |   |   social = nonprob: very_recom (3.47)
|   |   |   |   |   social = slightly_prob: very_recom (3.47)
|   |   |   |   |   social = problematic: priority (2.25)
|   |   |   |   form = completed: priority (0.1)
|   |   |   |   form = incomplete: priority (6.09)
|   |   |   |   form = foster: priority (0.1)
|   |   |   children = 2: priority (12.49)
|   |   |   children = 3: priority (0.51)
|   |   |   children = more: priority (0.41)
health = priority: priority (144.12)
health = not_recom: not_recom (177.17)

Number of Leaves  : 	52

Size of the tree : 	73


Weight: 3.64

J48 pruned tree
------------------

health = recommended
|   form = complete
|   |   social = nonprob
|   |   |   housing = convenient
|   |   |   |   children = 1: recommend (58.46/1.73)
|   |   |   |   children = 2: very_recom (2.9)
|   |   |   |   children = 3: very_recom (3.14/0.04)
|   |   |   |   children = more: very_recom (3.14/0.04)
|   |   |   housing = less_conv: very_recom (5.45/0.11)
|   |   |   housing = critical
|   |   |   |   children = 1: very_recom (3.56)
|   |   |   |   children = 2: priority (6.22)
|   |   |   |   children = 3: priority (0.07)
|   |   |   |   children = more: priority (0.04)
|   |   social = slightly_prob
|   |   |   housing = convenient
|   |   |   |   children = 1: recommend (58.46/1.73)
|   |   |   |   children = 2: very_recom (2.9)
|   |   |   |   children = 3: very_recom (3.14/0.04)
|   |   |   |   children = more: very_recom (3.13/0.02)
|   |   |   housing = less_conv: very_recom (5.45/0.11)
|   |   |   housing = critical
|   |   |   |   children = 1: very_recom (3.56)
|   |   |   |   children = 2: priority (6.22)
|   |   |   |   children = 3: priority (0.07)
|   |   |   |   children = more: priority (0.04)
|   |   social = problematic: priority (64.1)
|   form = completed
|   |   children = 1
|   |   |   social = nonprob: very_recom (66.59/0.04)
|   |   |   social = slightly_prob: very_recom (66.59/0.04)
|   |   |   social = problematic: priority (4.81)
|   |   children = 2
|   |   |   social = nonprob: very_recom (91.7/0.04)
|   |   |   social = slightly_prob: very_recom (91.7/0.04)
|   |   |   social = problematic: priority (4.81)
|   |   children = 3: priority (10.65/1.15)
|   |   children = more: priority (10.65/1.15)
|   form = incomplete
|   |   children = 1
|   |   |   housing = convenient
|   |   |   |   social = nonprob: very_recom (22.57)
|   |   |   |   social = slightly_prob: very_recom (22.57)
|   |   |   |   social = problematic: priority (2.55)
|   |   |   housing = less_conv
|   |   |   |   social = nonprob: very_recom (43.98)
|   |   |   |   social = slightly_prob: very_recom (43.98)
|   |   |   |   social = problematic: priority (2.23)
|   |   |   housing = critical: priority (6.25)
|   |   children = 2: priority (10.74/1.15)
|   |   children = 3: priority (7.58/1.15)
|   |   children = more: priority (7.58/1.15)
|   form = foster
|   |   finance = convenient
|   |   |   social = nonprob: very_recom (24.73/1.01)
|   |   |   social = slightly_prob: very_recom (24.73/1.01)
|   |   |   social = problematic: priority (3.04)
|   |   finance = inconv: priority (72.07)
health = priority: priority (73.95)
health = not_recom: not_recom (90.9)

Number of Leaves  : 	43

Size of the tree : 	61


Weight: 4.47

J48 pruned tree
------------------

health = recommended
|   form = complete
|   |   finance = convenient
|   |   |   has_nurs = proper
|   |   |   |   social = nonprob
|   |   |   |   |   housing = convenient: recommend (30.27/1.58)
|   |   |   |   |   housing = less_conv: priority (2.23/0.68)
|   |   |   |   |   housing = critical: priority (1.25/0.45)
|   |   |   |   social = slightly_prob
|   |   |   |   |   housing = convenient: recommend (30.27/1.58)
|   |   |   |   |   housing = less_conv: priority (2.23/0.68)
|   |   |   |   |   housing = critical: priority (1.25/0.45)
|   |   |   |   social = problematic: priority (13.89)
|   |   |   has_nurs = less_proper
|   |   |   |   social = nonprob: very_recom (29.77/1.57)
|   |   |   |   social = slightly_prob: very_recom (29.77/1.57)
|   |   |   |   social = problematic: priority (13.87)
|   |   |   has_nurs = improper: very_recom (0.0)
|   |   |   has_nurs = critical: very_recom (0.0)
|   |   |   has_nurs = very_crit: very_recom (0.0)
|   |   finance = inconv
|   |   |   children = 1
|   |   |   |   social = nonprob: very_recom (52.57)
|   |   |   |   social = slightly_prob: very_recom (52.57)
|   |   |   |   social = problematic: priority (2.29)
|   |   |   children = 2
|   |   |   |   housing = convenient: very_recom (4.02/1.13)
|   |   |   |   housing = less_conv: very_recom (2.48/1.13)
|   |   |   |   housing = critical: priority (3.16)
|   |   |   children = 3: priority (6.29)
|   |   |   children = more: priority (3.92)
|   form = completed
|   |   housing = convenient
|   |   |   social = nonprob: very_recom (88.09/1.57)
|   |   |   social = slightly_prob: very_recom (88.09/1.57)
|   |   |   social = problematic: priority (2.61)
|   |   housing = less_conv
|   |   |   children = 1: very_recom (45.61/1.13)
|   |   |   children = 2: very_recom (45.61/1.13)
|   |   |   children = 3: priority (3.16)
|   |   |   children = more: priority (3.16)
|   |   housing = critical: priority (6.34)
|   form = incomplete
|   |   housing = convenient
|   |   |   social = nonprob: very_recom (88.37/0.47)
|   |   |   social = slightly_prob: very_recom (88.37/0.47)
|   |   |   social = problematic: priority (2.06)
|   |   housing = less_conv: very_recom (50.44/5.95)
|   |   housing = critical: priority (7.98)
|   form = foster
|   |   housing = convenient
|   |   |   finance = convenient: very_recom (25.46/1.47)
|   |   |   finance = inconv: priority (35.35)
|   |   housing = less_conv: priority (84.48)
|   |   housing = critical: priority (6.34)
health = priority: priority (37.4)
health = not_recom: not_recom (45.97)

Number of Leaves  : 	40

Size of the tree : 	58


Weight: 3.72

J48 pruned tree
------------------

health = recommended
|   social = nonprob
|   |   housing = convenient
|   |   |   finance = convenient
|   |   |   |   children = 1
|   |   |   |   |   form = complete
|   |   |   |   |   |   has_nurs = proper: recommend (14.69)
|   |   |   |   |   |   has_nurs = less_proper: very_recom (13.06)
|   |   |   |   |   |   has_nurs = improper: recommend (0.0)
|   |   |   |   |   |   has_nurs = critical: recommend (0.0)
|   |   |   |   |   |   has_nurs = very_crit: recommend (0.0)
|   |   |   |   |   form = completed: very_recom (5.7)
|   |   |   |   |   form = incomplete: very_recom (5.7)
|   |   |   |   |   form = foster: very_recom (5.7)
|   |   |   |   children = 2: very_recom (13.55)
|   |   |   |   children = 3: very_recom (43.26)
|   |   |   |   children = more: very_recom (43.26)
|   |   |   finance = inconv
|   |   |   |   form = complete: very_recom (28.44/1.59)
|   |   |   |   form = completed
|   |   |   |   |   children = 1: very_recom (0.15)
|   |   |   |   |   children = 2: very_recom (12.2)
|   |   |   |   |   children = 3: priority (16.59)
|   |   |   |   |   children = more: priority (16.59)
|   |   |   |   form = incomplete: priority (10.03/0.15)
|   |   |   |   form = foster: priority (9.04)
|   |   housing = less_conv
|   |   |   form = complete
|   |   |   |   children = 1: very_recom (7.65)
|   |   |   |   children = 2: very_recom (7.65)
|   |   |   |   children = 3: priority (17.55)
|   |   |   |   children = more: priority (0.79)
|   |   |   form = completed: very_recom (24.39/1.61)
|   |   |   form = incomplete
|   |   |   |   children = 1: very_recom (11.39)
|   |   |   |   children = 2: priority (16.78)
|   |   |   |   children = 3: priority (16.78)
|   |   |   |   children = more: priority (16.78)
|   |   |   form = foster: priority (21.62)
|   |   housing = critical
|   |   |   children = 1: very_recom (12.2/2.0)
|   |   |   children = 2: priority (19.4)
|   |   |   children = 3: priority (1.02)
|   |   |   children = more: priority (0.83)
|   social = slightly_prob
|   |   housing = convenient
|   |   |   finance = convenient
|   |   |   |   children = 1
|   |   |   |   |   form = complete
|   |   |   |   |   |   has_nurs = proper: recommend (14.69)
|   |   |   |   |   |   has_nurs = less_proper: very_recom (13.06)
|   |   |   |   |   |   has_nurs = improper: recommend (0.0)
|   |   |   |   |   |   has_nurs = critical: recommend (0.0)
|   |   |   |   |   |   has_nurs = very_crit: recommend (0.0)
|   |   |   |   |   form = completed: very_recom (5.7)
|   |   |   |   |   form = incomplete: very_recom (5.7)
|   |   |   |   |   form = foster: very_recom (5.7)
|   |   |   |   children = 2: very_recom (13.55)
|   |   |   |   children = 3: very_recom (43.26)
|   |   |   |   children = more: very_recom (43.26)
|   |   |   finance = inconv
|   |   |   |   form = complete: very_recom (28.05/1.19)
|   |   |   |   form = completed
|   |   |   |   |   children = 1: very_recom (0.15)
|   |   |   |   |   children = 2: very_recom (12.2)
|   |   |   |   |   children = 3: priority (16.59)
|   |   |   |   |   children = more: priority (16.59)
|   |   |   |   form = incomplete: priority (10.03/0.15)
|   |   |   |   form = foster: priority (9.04)
|   |   housing = less_conv
|   |   |   form = complete
|   |   |   |   children = 1: very_recom (7.65)
|   |   |   |   children = 2: very_recom (7.65)
|   |   |   |   children = 3: priority (17.55)
|   |   |   |   children = more: priority (0.79)
|   |   |   form = completed: very_recom (24.39/1.61)
|   |   |   form = incomplete
|   |   |   |   children = 1: very_recom (11.39)
|   |   |   |   children = 2: priority (16.78)
|   |   |   |   children = 3: priority (16.78)
|   |   |   |   children = more: priority (16.78)
|   |   |   form = foster: priority (21.62)
|   |   housing = critical
|   |   |   children = 1: very_recom (12.2/2.0)
|   |   |   children = 2: priority (19.4)
|   |   |   children = 3: priority (1.02)
|   |   |   children = more: priority (0.83)
|   social = problematic: priority (169.17)
health = priority: priority (19.15)
health = not_recom: not_recom (23.54)

Number of Leaves  : 	67

Size of the tree : 	91


Weight: 4.6

J48 pruned tree
------------------

health = recommended
|   housing = convenient
|   |   finance = convenient
|   |   |   social = nonprob
|   |   |   |   children = 1
|   |   |   |   |   form = complete
|   |   |   |   |   |   has_nurs = proper: recommend (7.42)
|   |   |   |   |   |   has_nurs = less_proper: very_recom (6.59)
|   |   |   |   |   |   has_nurs = improper: recommend (0.0)
|   |   |   |   |   |   has_nurs = critical: recommend (0.0)
|   |   |   |   |   |   has_nurs = very_crit: recommend (0.0)
|   |   |   |   |   form = completed: very_recom (2.88)
|   |   |   |   |   form = incomplete: very_recom (2.88)
|   |   |   |   |   form = foster: very_recom (2.88)
|   |   |   |   children = 2: very_recom (6.84)
|   |   |   |   children = 3: very_recom (21.84)
|   |   |   |   children = more: very_recom (21.84)
|   |   |   social = slightly_prob
|   |   |   |   children = 1
|   |   |   |   |   form = complete
|   |   |   |   |   |   has_nurs = proper: recommend (7.42)
|   |   |   |   |   |   has_nurs = less_proper: very_recom (6.59)
|   |   |   |   |   |   has_nurs = improper: recommend (0.0)
|   |   |   |   |   |   has_nurs = critical: recommend (0.0)
|   |   |   |   |   |   has_nurs = very_crit: recommend (0.0)
|   |   |   |   |   form = completed: very_recom (2.88)
|   |   |   |   |   form = incomplete: very_recom (2.88)
|   |   |   |   |   form = foster: very_recom (2.88)
|   |   |   |   children = 2: very_recom (6.84)
|   |   |   |   children = 3: very_recom (21.84)
|   |   |   |   children = more: very_recom (21.84)
|   |   |   social = problematic: priority (22.81)
|   |   finance = inconv
|   |   |   children = 1
|   |   |   |   form = complete: very_recom (26.53/0.15)
|   |   |   |   form = completed: very_recom (0.3/0.15)
|   |   |   |   form = incomplete: very_recom (15.18/0.15)
|   |   |   |   form = foster: priority (8.89)
|   |   |   children = 2
|   |   |   |   form = complete: priority (12.78/0.75)
|   |   |   |   form = completed: very_recom (12.47/0.15)
|   |   |   |   form = incomplete: priority (9.61)
|   |   |   |   form = foster: priority (0.24)
|   |   |   children = 3: priority (96.9)
|   |   |   children = more: priority (76.91)
|   housing = less_conv
|   |   children = 1
|   |   |   social = nonprob
|   |   |   |   form = complete: very_recom (3.87)
|   |   |   |   form = completed: very_recom (5.75)
|   |   |   |   form = incomplete: very_recom (5.75)
|   |   |   |   form = foster: priority (10.31)
|   |   |   social = slightly_prob
|   |   |   |   form = complete: very_recom (3.87)
|   |   |   |   form = completed: very_recom (5.75)
|   |   |   |   form = incomplete: very_recom (5.75)
|   |   |   |   form = foster: priority (10.31)
|   |   |   social = problematic: priority (24.64)
|   |   children = 2
|   |   |   social = nonprob
|   |   |   |   form = complete: very_recom (3.87)
|   |   |   |   form = completed: very_recom (5.75)
|   |   |   |   form = incomplete: priority (8.47)
|   |   |   |   form = foster: priority (0.2)
|   |   |   social = slightly_prob
|   |   |   |   form = complete: very_recom (3.87)
|   |   |   |   form = completed: very_recom (5.75)
|   |   |   |   form = incomplete: priority (8.47)
|   |   |   |   form = foster: priority (0.2)
|   |   |   social = problematic: priority (24.54)
|   |   children = 3: priority (116.36)
|   |   children = more: priority (99.43)
|   housing = critical
|   |   form = complete
|   |   |   children = 1: very_recom (10.6/0.3)
|   |   |   children = 2: priority (17.99)
|   |   |   children = 3: priority (0.21)
|   |   |   children = more: priority (0.01)
|   |   form = completed: priority (80.77)
|   |   form = incomplete: priority (82.32)
|   |   form = foster: priority (41.66)
health = priority: priority (9.67)
health = not_recom: not_recom (11.89)

Number of Leaves  : 	62

Size of the tree : 	84


Weight: 6.45

J48 pruned tree
------------------

social = nonprob
|   housing = convenient
|   |   children = 1: very_recom (24.92/6.89)
|   |   children = 2: very_recom (128.41/3.41)
|   |   children = 3
|   |   |   finance = convenient: very_recom (11.88/0.94)
|   |   |   finance = inconv: priority (24.27/0.01)
|   |   children = more
|   |   |   finance = convenient: very_recom (11.88/0.94)
|   |   |   finance = inconv: priority (24.27/0.0)
|   housing = less_conv
|   |   children = 1
|   |   |   form = complete: very_recom (1.95/0.01)
|   |   |   form = completed: very_recom (2.89/0.0)
|   |   |   form = incomplete: very_recom (2.89/0.0)
|   |   |   form = foster: priority (5.17/0.0)
|   |   children = 2
|   |   |   form = complete: very_recom (1.95/0.01)
|   |   |   form = completed: very_recom (2.89/0.0)
|   |   |   form = incomplete: priority (4.25/0.0)
|   |   |   form = foster: priority (0.11/0.0)
|   |   children = 3: priority (29.11/0.01)
|   |   children = more: priority (24.86/0.01)
|   housing = critical: priority (58.48/2.62)
social = slightly_prob
|   housing = convenient
|   |   children = 1: very_recom (24.92/6.89)
|   |   children = 2: very_recom (128.41/3.41)
|   |   children = 3
|   |   |   finance = convenient: very_recom (11.88/0.94)
|   |   |   finance = inconv: priority (24.27/0.01)
|   |   children = more
|   |   |   finance = convenient: very_recom (11.88/0.94)
|   |   |   finance = inconv: priority (14.26/0.0)
|   housing = less_conv
|   |   children = 1
|   |   |   form = complete: very_recom (1.95/0.01)
|   |   |   form = completed: very_recom (2.89/0.0)
|   |   |   form = incomplete: very_recom (2.89/0.0)
|   |   |   form = foster: priority (5.17/0.0)
|   |   children = 2
|   |   |   form = complete: very_recom (1.95/0.01)
|   |   |   form = completed: very_recom (2.89/0.0)
|   |   |   form = incomplete: priority (4.25/0.0)
|   |   |   form = foster: priority (0.11/0.0)
|   |   children = 3: priority (29.11/0.01)
|   |   children = more: priority (24.86/0.01)
|   housing = critical: priority (58.48/2.62)
social = problematic: priority (326.72/1.98)

Number of Leaves  : 	35

Size of the tree : 	50


Weight: 3.46

J48 pruned tree
------------------

health = recommended
|   finance = convenient
|   |   housing = convenient
|   |   |   children = 1
|   |   |   |   form = complete
|   |   |   |   |   has_nurs = proper: recommend (122.18/0.74)
|   |   |   |   |   has_nurs = less_proper: very_recom (4.15/0.74)
|   |   |   |   |   has_nurs = improper: recommend (0.0)
|   |   |   |   |   has_nurs = critical: recommend (0.0)
|   |   |   |   |   has_nurs = very_crit: recommend (0.0)
|   |   |   |   form = completed: very_recom (1.53/0.05)
|   |   |   |   form = incomplete: very_recom (1.53/0.05)
|   |   |   |   form = foster: priority (3.48/1.49)
|   |   |   children = 2
|   |   |   |   form = complete: priority (0.15/0.05)
|   |   |   |   form = completed: priority (0.09/0.04)
|   |   |   |   form = incomplete: very_recom (3.45/0.05)
|   |   |   |   form = foster: priority (2.03/0.04)
|   |   |   children = 3: very_recom (11.35/0.06)
|   |   |   children = more: very_recom (11.35/0.06)
|   |   housing = less_conv: priority (57.14/8.27)
|   |   housing = critical
|   |   |   form = complete
|   |   |   |   social = nonprob
|   |   |   |   |   children = 1: very_recom (40.25)
|   |   |   |   |   children = 2: priority (2.22)
|   |   |   |   |   children = 3: priority (0.02)
|   |   |   |   |   children = more: priority (0.0)
|   |   |   |   social = slightly_prob
|   |   |   |   |   children = 1: very_recom (40.25)
|   |   |   |   |   children = 2: priority (2.22)
|   |   |   |   |   children = 3: priority (0.02)
|   |   |   |   |   children = more: priority (0.0)
|   |   |   |   social = problematic: priority (24.6)
|   |   |   form = completed: priority (10.43)
|   |   |   form = incomplete: priority (10.79)
|   |   |   form = foster: priority (10.64)
|   finance = inconv
|   |   form = complete
|   |   |   children = 1
|   |   |   |   social = nonprob: very_recom (5.36)
|   |   |   |   social = slightly_prob: very_recom (5.36)
|   |   |   |   social = problematic: priority (49.27)
|   |   |   children = 2
|   |   |   |   social = nonprob: very_recom (61.26/0.11)
|   |   |   |   social = slightly_prob: very_recom (61.26/0.11)
|   |   |   |   social = problematic: priority (6.21)
|   |   |   children = 3: priority (20.86)
|   |   |   children = more: priority (15.59)
|   |   form = completed: priority (96.95/6.19)
|   |   form = incomplete: priority (120.11/5.37)
|   |   form = foster: priority (74.86)
health = priority: priority (62.74)
health = not_recom: not_recom (97.3)

Number of Leaves  : 	40

Size of the tree : 	55


Weight: 3.77

J48 pruned tree
------------------

health = recommended
|   social = nonprob
|   |   children = 1
|   |   |   form = complete
|   |   |   |   housing = convenient: recommend (33.67/2.61)
|   |   |   |   housing = less_conv: very_recom (21.13)
|   |   |   |   housing = critical: very_recom (21.56)
|   |   |   form = completed
|   |   |   |   housing = convenient: very_recom (0.81)
|   |   |   |   housing = less_conv: very_recom (32.9)
|   |   |   |   housing = critical: priority (5.28)
|   |   |   form = incomplete
|   |   |   |   housing = convenient: very_recom (43.36)
|   |   |   |   housing = less_conv: very_recom (32.9)
|   |   |   |   housing = critical: priority (5.36)
|   |   |   form = foster
|   |   |   |   finance = convenient
|   |   |   |   |   housing = convenient: very_recom (16.45)
|   |   |   |   |   housing = less_conv: priority (1.35)
|   |   |   |   |   housing = critical: priority (2.64)
|   |   |   |   finance = inconv: priority (18.66)
|   |   children = 2
|   |   |   form = complete
|   |   |   |   housing = convenient: very_recom (31.82)
|   |   |   |   housing = less_conv: very_recom (21.13)
|   |   |   |   housing = critical: priority (3.46)
|   |   |   form = completed: very_recom (68.62/0.05)
|   |   |   form = incomplete: priority (22.12/0.87)
|   |   |   form = foster: priority (0.97/0.43)
|   |   children = 3
|   |   |   finance = convenient
|   |   |   |   housing = convenient: very_recom (2.89)
|   |   |   |   housing = less_conv: priority (4.93)
|   |   |   |   housing = critical: priority (0.07)
|   |   |   finance = inconv: priority (9.15)
|   |   children = more
|   |   |   finance = convenient
|   |   |   |   housing = convenient: very_recom (2.89)
|   |   |   |   housing = less_conv: priority (3.84)
|   |   |   |   housing = critical: priority (0.05)
|   |   |   finance = inconv: priority (9.12)
|   social = slightly_prob
|   |   children = 1
|   |   |   form = complete
|   |   |   |   housing = convenient: recommend (33.67/2.61)
|   |   |   |   housing = less_conv: very_recom (21.13)
|   |   |   |   housing = critical: very_recom (21.56)
|   |   |   form = completed
|   |   |   |   housing = convenient: very_recom (0.81)
|   |   |   |   housing = less_conv: very_recom (32.9)
|   |   |   |   housing = critical: priority (5.28)
|   |   |   form = incomplete
|   |   |   |   housing = convenient: very_recom (43.36)
|   |   |   |   housing = less_conv: very_recom (32.9)
|   |   |   |   housing = critical: priority (5.36)
|   |   |   form = foster
|   |   |   |   finance = convenient
|   |   |   |   |   housing = convenient: very_recom (16.45)
|   |   |   |   |   housing = less_conv: priority (1.35)
|   |   |   |   |   housing = critical: priority (2.64)
|   |   |   |   finance = inconv: priority (18.66)
|   |   children = 2
|   |   |   form = complete
|   |   |   |   housing = convenient: very_recom (31.82)
|   |   |   |   housing = less_conv: very_recom (21.13)
|   |   |   |   housing = critical: priority (3.46)
|   |   |   form = completed: very_recom (68.62/0.05)
|   |   |   form = incomplete: priority (22.12/0.87)
|   |   |   form = foster: priority (0.97/0.43)
|   |   children = 3
|   |   |   finance = convenient
|   |   |   |   housing = convenient: very_recom (2.89)
|   |   |   |   housing = less_conv: priority (4.93)
|   |   |   |   housing = critical: priority (0.07)
|   |   |   finance = inconv: priority (9.15)
|   |   children = more
|   |   |   finance = convenient
|   |   |   |   housing = convenient: very_recom (2.89)
|   |   |   |   housing = less_conv: priority (3.84)
|   |   |   |   housing = critical: priority (0.05)
|   |   |   finance = inconv: priority (6.48)
|   social = problematic: priority (123.52)
health = priority: priority (32.09)
health = not_recom: not_recom (49.77)

Number of Leaves  : 	57

Size of the tree : 	85


Weight: 4.86

J48 pruned tree
------------------

health = recommended
|   social = nonprob
|   |   children = 1
|   |   |   form = complete
|   |   |   |   has_nurs = proper
|   |   |   |   |   finance = convenient
|   |   |   |   |   |   housing = convenient: recommend (15.65)
|   |   |   |   |   |   housing = less_conv: very_recom (10.38)
|   |   |   |   |   |   housing = critical: very_recom (10.13)
|   |   |   |   |   finance = inconv: very_recom (57.16)
|   |   |   |   has_nurs = less_proper: very_recom (114.57)
|   |   |   |   has_nurs = improper: very_recom (0.0)
|   |   |   |   has_nurs = critical: very_recom (0.0)
|   |   |   |   has_nurs = very_crit: very_recom (0.0)
|   |   |   form = completed
|   |   |   |   housing = convenient: very_recom (0.41)
|   |   |   |   housing = less_conv: very_recom (16.58)
|   |   |   |   housing = critical: priority (2.66)
|   |   |   form = incomplete
|   |   |   |   housing = convenient: very_recom (21.85)
|   |   |   |   housing = less_conv: very_recom (16.58)
|   |   |   |   housing = critical: priority (2.7)
|   |   |   form = foster
|   |   |   |   finance = convenient: very_recom (10.3/2.01)
|   |   |   |   finance = inconv: priority (9.4)
|   |   children = 2
|   |   |   housing = convenient
|   |   |   |   finance = convenient: very_recom (85.56)
|   |   |   |   finance = inconv
|   |   |   |   |   form = complete: very_recom (15.75)
|   |   |   |   |   form = completed: very_recom (17.76)
|   |   |   |   |   form = incomplete: priority (10.13)
|   |   |   |   |   form = foster: priority (0.25)
|   |   |   housing = less_conv: very_recom (27.8/0.58)
|   |   |   housing = critical: priority (5.23)
|   |   children = 3: priority (8.58/1.45)
|   |   children = more: priority (8.01/1.45)
|   social = slightly_prob
|   |   children = 1
|   |   |   form = complete
|   |   |   |   has_nurs = proper
|   |   |   |   |   finance = convenient
|   |   |   |   |   |   housing = convenient: recommend (15.65)
|   |   |   |   |   |   housing = less_conv: very_recom (10.38)
|   |   |   |   |   |   housing = critical: very_recom (10.13)
|   |   |   |   |   finance = inconv: very_recom (57.16)
|   |   |   |   has_nurs = less_proper: very_recom (114.57)
|   |   |   |   has_nurs = improper: very_recom (0.0)
|   |   |   |   has_nurs = critical: very_recom (0.0)
|   |   |   |   has_nurs = very_crit: very_recom (0.0)
|   |   |   form = completed
|   |   |   |   housing = convenient: very_recom (0.41)
|   |   |   |   housing = less_conv: very_recom (16.58)
|   |   |   |   housing = critical: priority (2.66)
|   |   |   form = incomplete
|   |   |   |   housing = convenient: very_recom (21.85)
|   |   |   |   housing = less_conv: very_recom (16.58)
|   |   |   |   housing = critical: priority (2.7)
|   |   |   form = foster
|   |   |   |   finance = convenient: very_recom (10.3/2.01)
|   |   |   |   finance = inconv: priority (9.4)
|   |   children = 2
|   |   |   housing = convenient
|   |   |   |   finance = convenient: very_recom (85.56)
|   |   |   |   finance = inconv
|   |   |   |   |   form = complete: very_recom (15.75)
|   |   |   |   |   form = completed: very_recom (17.76)
|   |   |   |   |   form = incomplete: priority (10.13)
|   |   |   |   |   form = foster: priority (0.25)
|   |   |   housing = less_conv: very_recom (27.8/0.58)
|   |   |   housing = critical: priority (5.23)
|   |   children = 3: priority (8.58/1.45)
|   |   children = more: priority (6.68/1.45)
|   social = problematic: priority (62.24)
health = priority: priority (16.17)
health = not_recom: not_recom (25.08)

Number of Leaves  : 	53

Size of the tree : 	77


Weight: 4.54

J48 pruned tree
------------------

housing = convenient
|   health = recommended
|   |   social = nonprob
|   |   |   finance = convenient
|   |   |   |   children = 1
|   |   |   |   |   has_nurs = proper
|   |   |   |   |   |   form = complete: recommend (7.91)
|   |   |   |   |   |   form = completed: very_recom (0.1)
|   |   |   |   |   |   form = incomplete: very_recom (0.1)
|   |   |   |   |   |   form = foster: very_recom (4.19)
|   |   |   |   |   has_nurs = less_proper: very_recom (28.76)
|   |   |   |   |   has_nurs = improper: very_recom (0.0)
|   |   |   |   |   has_nurs = critical: very_recom (0.0)
|   |   |   |   |   has_nurs = very_crit: very_recom (0.0)
|   |   |   |   children = 2: very_recom (43.24)
|   |   |   |   children = 3: very_recom (68.61)
|   |   |   |   children = more: very_recom (68.61)
|   |   |   finance = inconv
|   |   |   |   form = complete
|   |   |   |   |   children = 1: very_recom (57.52)
|   |   |   |   |   children = 2: very_recom (7.96)
|   |   |   |   |   children = 3: priority (1.34)
|   |   |   |   |   children = more: priority (1.34)
|   |   |   |   form = completed: very_recom (9.65/0.56)
|   |   |   |   form = incomplete
|   |   |   |   |   children = 1: very_recom (10.94)
|   |   |   |   |   children = 2: priority (5.12)
|   |   |   |   |   children = 3: priority (0.0)
|   |   |   |   |   children = more: priority (0.0)
|   |   |   |   form = foster: priority (4.86)
|   |   social = slightly_prob
|   |   |   finance = convenient
|   |   |   |   children = 1
|   |   |   |   |   has_nurs = proper
|   |   |   |   |   |   form = complete: recommend (7.91)
|   |   |   |   |   |   form = completed: very_recom (0.1)
|   |   |   |   |   |   form = incomplete: very_recom (0.1)
|   |   |   |   |   |   form = foster: very_recom (4.19)
|   |   |   |   |   has_nurs = less_proper: very_recom (28.76)
|   |   |   |   |   has_nurs = improper: very_recom (0.0)
|   |   |   |   |   has_nurs = critical: very_recom (0.0)
|   |   |   |   |   has_nurs = very_crit: very_recom (0.0)
|   |   |   |   children = 2: very_recom (43.24)
|   |   |   |   children = 3: very_recom (68.61)
|   |   |   |   children = more: very_recom (68.61)
|   |   |   finance = inconv
|   |   |   |   form = complete: very_recom (67.5/2.02)
|   |   |   |   form = completed: very_recom (9.65/0.56)
|   |   |   |   form = incomplete
|   |   |   |   |   children = 1: very_recom (10.94)
|   |   |   |   |   children = 2: priority (5.12)
|   |   |   |   |   children = 3: priority (0.0)
|   |   |   |   |   children = more: priority (0.0)
|   |   |   |   form = foster: priority (4.86)
|   |   social = problematic: priority (23.37)
|   health = priority: priority (8.09)
|   health = not_recom: not_recom (12.12)
housing = less_conv
|   form = complete: very_recom (22.72/1.2)
|   form = completed
|   |   children = 1: very_recom (17.18/0.43)
|   |   children = 2: very_recom (17.18/0.43)
|   |   children = 3: priority (2.74/0.01)
|   |   children = more: priority (2.74/0.01)
|   form = incomplete
|   |   children = 1: very_recom (17.18/0.43)
|   |   children = 2: priority (53.25/0.01)
|   |   children = 3: priority (0.59/0.01)
|   |   children = more: priority (0.59/0.01)
|   form = foster: priority (65.39/0.06)
housing = critical
|   form = complete
|   |   social = nonprob: very_recom (6.41/0.92)
|   |   social = slightly_prob: very_recom (6.41/0.92)
|   |   social = problematic: priority (6.44/0.03)
|   form = completed: priority (6.25/0.06)
|   form = incomplete: priority (2.83/0.06)
|   form = foster: priority (125.65/0.06)

Number of Leaves  : 	58

Size of the tree : 	79


Weight: 4.88

J48 pruned tree
------------------

health = recommended
|   housing = convenient
|   |   finance = convenient
|   |   |   social = nonprob: very_recom (111.6/3.98)
|   |   |   social = slightly_prob: very_recom (111.6/3.98)
|   |   |   social = problematic: priority (5.27)
|   |   finance = inconv
|   |   |   children = 1
|   |   |   |   form = complete: very_recom (59.57/1.61)
|   |   |   |   form = completed: priority (1.67/0.11)
|   |   |   |   form = incomplete: very_recom (12.59/1.56)
|   |   |   |   form = foster: priority (4.77)
|   |   |   children = 2
|   |   |   |   form = complete: very_recom (8.22/0.2)
|   |   |   |   form = completed: very_recom (10.6/1.56)
|   |   |   |   form = incomplete: priority (5.16)
|   |   |   |   form = foster: priority (0.13)
|   |   |   children = 3: priority (127.3)
|   |   |   children = more: priority (82.69)
|   housing = less_conv
|   |   social = nonprob
|   |   |   form = complete
|   |   |   |   children = 1: very_recom (2.71)
|   |   |   |   children = 2: very_recom (2.71)
|   |   |   |   children = 3: priority (19.78)
|   |   |   |   children = more: priority (0.89)
|   |   |   form = completed: very_recom (9.82/1.37)
|   |   |   form = incomplete
|   |   |   |   children = 1: very_recom (4.22)
|   |   |   |   children = 2: priority (13.41)
|   |   |   |   children = 3: priority (0.14)
|   |   |   |   children = more: priority (0.14)
|   |   |   form = foster: priority (16.46)
|   |   social = slightly_prob
|   |   |   form = complete
|   |   |   |   children = 1: very_recom (2.71)
|   |   |   |   children = 2: very_recom (2.71)
|   |   |   |   children = 3: priority (19.78)
|   |   |   |   children = more: priority (0.89)
|   |   |   form = completed: very_recom (9.82/1.37)
|   |   |   form = incomplete
|   |   |   |   children = 1: very_recom (4.22)
|   |   |   |   children = 2: priority (13.41)
|   |   |   |   children = 3: priority (0.14)
|   |   |   |   children = more: priority (0.14)
|   |   |   form = foster: priority (16.46)
|   |   social = problematic: priority (109.39)
|   housing = critical: priority (193.89/5.53)
health = priority: priority (8.92)
health = not_recom: not_recom (43.05)

Number of Leaves  : 	37

Size of the tree : 	51


Weight: 3.86

J48 pruned tree
------------------

finance = convenient
|   housing = convenient
|   |   children = 1
|   |   |   has_nurs = proper
|   |   |   |   form = complete: recommend (195.29/1.33)
|   |   |   |   form = completed: priority (0.38/0.2)
|   |   |   |   form = incomplete: priority (0.38/0.2)
|   |   |   |   form = foster: very_recom (2.48/0.33)
|   |   |   has_nurs = less_proper: very_recom (16.13/1.33)
|   |   |   has_nurs = improper: recommend (0.0)
|   |   |   has_nurs = critical: recommend (0.0)
|   |   |   has_nurs = very_crit: recommend (0.0)
|   |   children = 2: very_recom (23.67/1.43)
|   |   children = 3: very_recom (36.67/1.38)
|   |   children = more: very_recom (36.67/1.38)
|   housing = less_conv
|   |   health = recommended: priority (117.04/11.99)
|   |   health = priority: priority (1.2)
|   |   health = not_recom: not_recom (4.71)
|   housing = critical
|   |   form = complete
|   |   |   children = 1: very_recom (129.9/1.33)
|   |   |   children = 2: priority (20.06/0.5)
|   |   |   children = 3: not_recom (0.73/0.23)
|   |   |   children = more: not_recom (0.26/0.01)
|   |   form = completed: not_recom (1.79/0.8)
|   |   form = incomplete: not_recom (1.35/0.36)
|   |   form = foster: priority (33.29/0.99)
finance = inconv
|   health = recommended
|   |   social = nonprob
|   |   |   children = 1: very_recom (25.72/1.57)
|   |   |   children = 2
|   |   |   |   housing = convenient: very_recom (5.7/1.35)
|   |   |   |   housing = less_conv: very_recom (1.16/0.08)
|   |   |   |   housing = critical: priority (20.28)
|   |   |   children = 3: priority (18.72)
|   |   |   children = more: priority (18.49)
|   |   social = slightly_prob
|   |   |   children = 1: very_recom (25.72/1.57)
|   |   |   children = 2
|   |   |   |   housing = convenient: very_recom (5.7/1.35)
|   |   |   |   housing = less_conv: very_recom (1.16/0.08)
|   |   |   |   housing = critical: priority (20.28)
|   |   |   children = 3: priority (63.92)
|   |   |   children = more: priority (40.91)
|   |   social = problematic: priority (156.53)
|   health = priority: priority (1.25)
|   health = not_recom: not_recom (9.46)

Number of Leaves  : 	36

Size of the tree : 	50


Weight: 3.52

J48 pruned tree
------------------

health = recommended
|   finance = convenient
|   |   housing = convenient
|   |   |   social = nonprob
|   |   |   |   children = 1
|   |   |   |   |   has_nurs = proper: recommend (51.34/1.42)
|   |   |   |   |   has_nurs = less_proper: very_recom (3.81)
|   |   |   |   |   has_nurs = improper: recommend (0.0)
|   |   |   |   |   has_nurs = critical: recommend (0.0)
|   |   |   |   |   has_nurs = very_crit: recommend (0.0)
|   |   |   |   children = 2: very_recom (5.72)
|   |   |   |   children = 3: very_recom (9.08)
|   |   |   |   children = more: very_recom (9.08)
|   |   |   social = slightly_prob
|   |   |   |   children = 1
|   |   |   |   |   has_nurs = proper: recommend (51.34/1.42)
|   |   |   |   |   has_nurs = less_proper: very_recom (3.81)
|   |   |   |   |   has_nurs = improper: recommend (0.0)
|   |   |   |   |   has_nurs = critical: recommend (0.0)
|   |   |   |   |   has_nurs = very_crit: recommend (0.0)
|   |   |   |   children = 2: very_recom (5.72)
|   |   |   |   children = 3: very_recom (9.08)
|   |   |   |   children = more: very_recom (9.08)
|   |   |   social = problematic: priority (44.46)
|   |   housing = less_conv
|   |   |   children = 1
|   |   |   |   form = complete: very_recom (48.29/0.17)
|   |   |   |   form = completed
|   |   |   |   |   social = nonprob: very_recom (18.75)
|   |   |   |   |   social = slightly_prob: very_recom (18.75)
|   |   |   |   |   social = problematic: priority (3.53)
|   |   |   |   form = incomplete
|   |   |   |   |   social = nonprob: very_recom (18.75)
|   |   |   |   |   social = slightly_prob: very_recom (18.75)
|   |   |   |   |   social = problematic: priority (3.53)
|   |   |   |   form = foster: priority (8.48)
|   |   |   children = 2
|   |   |   |   form = complete: very_recom (48.29/0.17)
|   |   |   |   form = completed
|   |   |   |   |   social = nonprob: very_recom (18.75)
|   |   |   |   |   social = slightly_prob: very_recom (18.75)
|   |   |   |   |   social = problematic: priority (3.53)
|   |   |   |   form = incomplete: priority (6.97)
|   |   |   |   form = foster: priority (0.17)
|   |   |   children = 3: priority (18.62)
|   |   |   children = more: priority (8.92)
|   |   housing = critical
|   |   |   form = complete
|   |   |   |   has_nurs = proper
|   |   |   |   |   social = nonprob: very_recom (32.52/0.21)
|   |   |   |   |   social = slightly_prob: very_recom (32.52/0.21)
|   |   |   |   |   social = problematic: priority (7.17)
|   |   |   |   has_nurs = less_proper: priority (22.31/1.57)
|   |   |   |   has_nurs = improper: very_recom (0.0)
|   |   |   |   has_nurs = critical: very_recom (0.0)
|   |   |   |   has_nurs = very_crit: very_recom (0.0)
|   |   |   form = completed: priority (13.85)
|   |   |   form = incomplete: priority (6.29)
|   |   |   form = foster: priority (16.63)
|   finance = inconv
|   |   children = 1
|   |   |   form = complete
|   |   |   |   social = nonprob: very_recom (9.18)
|   |   |   |   social = slightly_prob: very_recom (9.18)
|   |   |   |   social = problematic: priority (20.82)
|   |   |   form = completed: priority (12.45/2.49)
|   |   |   form = incomplete: priority (33.21/4.01)
|   |   |   form = foster: priority (42.52)
|   |   children = 2: priority (108.83/5.59)
|   |   children = 3: priority (42.54)
|   |   children = more: priority (30.58)
health = priority: priority (34.18)
health = not_recom: not_recom (96.86)

Number of Leaves  : 	54

Size of the tree : 	74


Weight: 4.08

J48 pruned tree
------------------

health = recommended
|   social = nonprob
|   |   children = 1
|   |   |   form = complete
|   |   |   |   housing = convenient
|   |   |   |   |   has_nurs = proper: recommend (27.32/1.94)
|   |   |   |   |   has_nurs = less_proper: very_recom (3.87)
|   |   |   |   |   has_nurs = improper: recommend (0.0)
|   |   |   |   |   has_nurs = critical: recommend (0.0)
|   |   |   |   |   has_nurs = very_crit: recommend (0.0)
|   |   |   |   housing = less_conv: very_recom (12.23)
|   |   |   |   housing = critical: very_recom (40.76)
|   |   |   form = completed
|   |   |   |   housing = convenient: very_recom (33.81)
|   |   |   |   housing = less_conv: very_recom (26.18)
|   |   |   |   housing = critical: priority (3.06)
|   |   |   form = incomplete
|   |   |   |   housing = convenient: very_recom (56.51)
|   |   |   |   housing = less_conv: very_recom (26.18)
|   |   |   |   housing = critical: priority (3.1)
|   |   |   form = foster
|   |   |   |   finance = convenient
|   |   |   |   |   housing = convenient: very_recom (16.65)
|   |   |   |   |   housing = less_conv: priority (2.15)
|   |   |   |   |   housing = critical: priority (4.23)
|   |   |   |   finance = inconv: priority (10.81)
|   |   children = 2
|   |   |   housing = convenient
|   |   |   |   form = complete: very_recom (31.65)
|   |   |   |   form = completed: very_recom (35.68)
|   |   |   |   form = incomplete: priority (13.58/1.94)
|   |   |   |   form = foster: very_recom (1.24/0.28)
|   |   |   housing = less_conv
|   |   |   |   form = complete: very_recom (12.26)
|   |   |   |   form = completed: very_recom (26.18)
|   |   |   |   form = incomplete: priority (2.45)
|   |   |   |   form = foster: priority (0.06)
|   |   |   housing = critical: priority (13.39)
|   |   children = 3
|   |   |   housing = convenient
|   |   |   |   finance = convenient: very_recom (4.62)
|   |   |   |   finance = inconv: priority (2.59)
|   |   |   housing = less_conv: priority (7.04)
|   |   |   housing = critical: priority (2.33)
|   |   children = more
|   |   |   housing = convenient
|   |   |   |   finance = convenient: very_recom (4.62)
|   |   |   |   finance = inconv: priority (2.59)
|   |   |   housing = less_conv: priority (4.52)
|   |   |   housing = critical: priority (1.38)
|   social = slightly_prob
|   |   children = 1
|   |   |   form = complete
|   |   |   |   housing = convenient
|   |   |   |   |   has_nurs = proper: recommend (27.32/1.94)
|   |   |   |   |   has_nurs = less_proper: very_recom (3.87)
|   |   |   |   |   has_nurs = improper: recommend (0.0)
|   |   |   |   |   has_nurs = critical: recommend (0.0)
|   |   |   |   |   has_nurs = very_crit: recommend (0.0)
|   |   |   |   housing = less_conv: very_recom (12.23)
|   |   |   |   housing = critical: very_recom (40.76)
|   |   |   form = completed
|   |   |   |   housing = convenient: very_recom (33.81)
|   |   |   |   housing = less_conv: very_recom (26.18)
|   |   |   |   housing = critical: priority (3.06)
|   |   |   form = incomplete
|   |   |   |   housing = convenient: very_recom (56.51)
|   |   |   |   housing = less_conv: very_recom (26.18)
|   |   |   |   housing = critical: priority (3.1)
|   |   |   form = foster
|   |   |   |   finance = convenient
|   |   |   |   |   housing = convenient: very_recom (16.65)
|   |   |   |   |   housing = less_conv: priority (2.15)
|   |   |   |   |   housing = critical: priority (4.23)
|   |   |   |   finance = inconv: priority (10.81)
|   |   children = 2
|   |   |   housing = convenient
|   |   |   |   form = complete: very_recom (31.65)
|   |   |   |   form = completed: very_recom (35.68)
|   |   |   |   form = incomplete: priority (13.58/1.94)
|   |   |   |   form = foster: very_recom (1.24/0.28)
|   |   |   housing = less_conv
|   |   |   |   form = complete: very_recom (12.26)
|   |   |   |   form = completed: very_recom (26.18)
|   |   |   |   form = incomplete: priority (2.45)
|   |   |   |   form = foster: priority (0.06)
|   |   |   housing = critical: priority (13.39)
|   |   children = 3
|   |   |   finance = convenient
|   |   |   |   housing = convenient: very_recom (4.62)
|   |   |   |   housing = less_conv: priority (4.73)
|   |   |   |   housing = critical: priority (2.33)
|   |   |   finance = inconv: priority (16.73)
|   |   children = more
|   |   |   finance = convenient
|   |   |   |   housing = convenient: very_recom (4.62)
|   |   |   |   housing = less_conv: priority (2.27)
|   |   |   |   housing = critical: priority (1.38)
|   |   |   finance = inconv: priority (10.71)
|   social = problematic: priority (86.53)
health = priority: priority (17.38)
health = not_recom: not_recom (49.25)

Number of Leaves  : 	71

Size of the tree : 	103


Weight: 4.82

J48 pruned tree
------------------

health = recommended
|   social = nonprob
|   |   form = complete
|   |   |   children = 1
|   |   |   |   finance = convenient
|   |   |   |   |   housing = convenient: recommend (13.77/0.98)
|   |   |   |   |   housing = less_conv: very_recom (6.17)
|   |   |   |   |   housing = critical: very_recom (20.14)
|   |   |   |   finance = inconv: very_recom (122.19)
|   |   |   children = 2
|   |   |   |   housing = convenient: very_recom (15.95)
|   |   |   |   housing = less_conv: very_recom (6.18)
|   |   |   |   housing = critical: priority (5.71)
|   |   |   children = 3: priority (3.46/0.91)
|   |   |   children = more: very_recom (1.71/0.79)
|   |   form = completed
|   |   |   children = 1: very_recom (31.78/1.54)
|   |   |   children = 2: very_recom (32.21/1.03)
|   |   |   children = 3: priority (4.17/0.7)
|   |   |   children = more: priority (4.17/0.7)
|   |   form = incomplete
|   |   |   finance = convenient: very_recom (135.29/1.72)
|   |   |   finance = inconv
|   |   |   |   children = 1: very_recom (31.1/0.78)
|   |   |   |   children = 2: priority (6.21)
|   |   |   |   children = 3: priority (0.0)
|   |   |   |   children = more: priority (0.0)
|   |   form = foster
|   |   |   finance = convenient
|   |   |   |   housing = convenient: very_recom (8.89)
|   |   |   |   housing = less_conv: priority (1.11)
|   |   |   |   housing = critical: priority (2.13)
|   |   |   finance = inconv: priority (23.09)
|   social = slightly_prob
|   |   children = 1
|   |   |   finance = convenient
|   |   |   |   housing = convenient
|   |   |   |   |   form = complete: recommend (13.77/0.98)
|   |   |   |   |   form = completed: very_recom (6.56)
|   |   |   |   |   form = incomplete: very_recom (6.56)
|   |   |   |   |   form = foster: very_recom (8.39)
|   |   |   |   housing = less_conv: very_recom (16.86/1.09)
|   |   |   |   housing = critical
|   |   |   |   |   form = complete: very_recom (20.14)
|   |   |   |   |   form = completed: priority (0.77)
|   |   |   |   |   form = incomplete: priority (0.78)
|   |   |   |   |   form = foster: priority (2.13)
|   |   |   finance = inconv
|   |   |   |   form = complete: very_recom (122.19)
|   |   |   |   form = completed: very_recom (19.65/0.77)
|   |   |   |   form = incomplete: very_recom (31.1/0.78)
|   |   |   |   form = foster: priority (5.45)
|   |   children = 2
|   |   |   form = complete
|   |   |   |   housing = convenient: very_recom (15.95)
|   |   |   |   housing = less_conv: very_recom (6.18)
|   |   |   |   housing = critical: priority (5.71)
|   |   |   form = completed: very_recom (32.21/1.03)
|   |   |   form = incomplete
|   |   |   |   finance = convenient: very_recom (121.71/0.9)
|   |   |   |   finance = inconv: priority (6.21)
|   |   |   form = foster: priority (18.15/0.48)
|   |   children = 3: priority (14.32/2.33)
|   |   children = more: priority (9.56/2.33)
|   social = problematic: priority (43.62)
health = priority: priority (8.76)
health = not_recom: not_recom (24.82)

Number of Leaves  : 	47

Size of the tree : 	68


Weight: 3.94

J48 pruned tree
------------------

housing = convenient
|   health = recommended
|   |   finance = convenient
|   |   |   social = nonprob: very_recom (166.59/6.52)
|   |   |   social = slightly_prob: very_recom (238.78/6.52)
|   |   |   social = problematic: priority (5.81)
|   |   finance = inconv
|   |   |   form = complete
|   |   |   |   children = 1
|   |   |   |   |   social = nonprob: very_recom (62.08)
|   |   |   |   |   social = slightly_prob: very_recom (62.08)
|   |   |   |   |   social = problematic: priority (2.64)
|   |   |   |   children = 2: very_recom (16.59/0.33)
|   |   |   |   children = 3: priority (3.09)
|   |   |   |   children = more: priority (2.72)
|   |   |   form = completed
|   |   |   |   social = nonprob: very_recom (15.79/1.28)
|   |   |   |   social = slightly_prob: very_recom (15.79/1.28)
|   |   |   |   social = problematic: priority (2.61)
|   |   |   form = incomplete
|   |   |   |   children = 1
|   |   |   |   |   social = nonprob: very_recom (11.18)
|   |   |   |   |   social = slightly_prob: very_recom (11.18)
|   |   |   |   |   social = problematic: priority (2.56)
|   |   |   |   children = 2: priority (5.99)
|   |   |   |   children = 3: priority (0.0)
|   |   |   |   children = more: priority (0.0)
|   |   |   form = foster: priority (23.52)
|   health = priority: priority (4.24)
|   health = not_recom: not_recom (7.01)
housing = less_conv
|   form = complete
|   |   social = nonprob: very_recom (8.67/2.38)
|   |   social = slightly_prob: very_recom (7.13/0.83)
|   |   social = problematic: priority (3.67/0.08)
|   form = completed: very_recom (33.43/6.52)
|   form = incomplete
|   |   children = 1: very_recom (14.43/0.98)
|   |   children = 2: priority (47.02/0.03)
|   |   children = 3: priority (0.29/0.03)
|   |   children = more: priority (0.29/0.03)
|   form = foster: priority (29.09/0.13)
housing = critical
|   health = recommended
|   |   form = complete
|   |   |   children = 1: very_recom (22.88/1.93)
|   |   |   children = 2: priority (5.82)
|   |   |   children = 3: priority (1.19)
|   |   |   children = more: priority (18.32)
|   |   form = completed: priority (114.75)
|   |   form = incomplete: priority (62.52)
|   |   form = foster: priority (2.18)
|   health = priority: priority (0.06)
|   health = not_recom: not_recom (5.01)

Number of Leaves  : 	39

Size of the tree : 	55


Weight: 3.55

J48 pruned tree
------------------

housing = convenient
|   finance = convenient
|   |   children = 1
|   |   |   has_nurs = proper
|   |   |   |   form = complete: recommend (235.63/1.56)
|   |   |   |   form = completed: very_recom (3.62/0.19)
|   |   |   |   form = incomplete: very_recom (3.62/0.19)
|   |   |   |   form = foster: very_recom (4.78/0.38)
|   |   |   has_nurs = less_proper: very_recom (27.78/1.56)
|   |   |   has_nurs = improper: recommend (0.0)
|   |   |   has_nurs = critical: recommend (0.0)
|   |   |   has_nurs = very_crit: recommend (0.0)
|   |   children = 2: very_recom (71.64/1.68)
|   |   children = 3: very_recom (54.8/1.61)
|   |   children = more: very_recom (42.75/1.61)
|   finance = inconv
|   |   children = 1: very_recom (86.41/5.55)
|   |   children = 2
|   |   |   form = complete
|   |   |   |   social = nonprob: very_recom (4.18/0.0)
|   |   |   |   social = slightly_prob: very_recom (4.18/0.0)
|   |   |   |   social = problematic: priority (5.99/0.0)
|   |   |   form = completed: very_recom (10.74/1.32)
|   |   |   form = incomplete: priority (3.08/0.0)
|   |   |   form = foster: priority (9.25/0.0)
|   |   children = 3: priority (24.63/0.0)
|   |   children = more: priority (24.44/0.0)
housing = less_conv
|   health = recommended
|   |   children = 1
|   |   |   social = nonprob: very_recom (8.82/0.29)
|   |   |   social = slightly_prob
|   |   |   |   form = complete: very_recom (1.62)
|   |   |   |   form = completed: very_recom (3.46)
|   |   |   |   form = incomplete: very_recom (3.46)
|   |   |   |   form = foster: priority (14.59)
|   |   |   social = problematic: priority (33.77)
|   |   children = 2
|   |   |   form = complete: very_recom (4.39/1.15)
|   |   |   form = completed
|   |   |   |   social = nonprob: very_recom (3.46)
|   |   |   |   social = slightly_prob: very_recom (3.46)
|   |   |   |   social = problematic: priority (16.54)
|   |   |   form = incomplete: priority (24.17)
|   |   |   form = foster: priority (0.02)
|   |   children = 3: priority (64.87)
|   |   children = more: priority (69.29)
|   health = priority: priority (2.85)
|   health = not_recom: not_recom (11.38)
housing = critical
|   health = recommended
|   |   has_nurs = proper: priority (125.47/4.45)
|   |   has_nurs = less_proper
|   |   |   social = nonprob: very_recom (3.97/0.8)
|   |   |   social = slightly_prob: very_recom (3.97/0.8)
|   |   |   social = problematic: priority (17.3)
|   |   has_nurs = improper: priority (0.0)
|   |   has_nurs = critical: priority (0.0)
|   |   has_nurs = very_crit: priority (0.0)
|   health = priority: priority (0.03)
|   health = not_recom: not_recom (2.58)

Number of Leaves  : 	45

Size of the tree : 	62


Weight: 3.78

J48 pruned tree
------------------

health = recommended
|   finance = convenient
|   |   housing = convenient
|   |   |   social = nonprob
|   |   |   |   children = 1
|   |   |   |   |   has_nurs = proper: recommend (62.74/2.88)
|   |   |   |   |   has_nurs = less_proper: very_recom (6.7)
|   |   |   |   |   has_nurs = improper: recommend (0.0)
|   |   |   |   |   has_nurs = critical: recommend (0.0)
|   |   |   |   |   has_nurs = very_crit: recommend (0.0)
|   |   |   |   children = 2: very_recom (16.26)
|   |   |   |   children = 3: very_recom (11.21)
|   |   |   |   children = more: very_recom (5.05)
|   |   |   social = slightly_prob
|   |   |   |   children = 1
|   |   |   |   |   has_nurs = proper: recommend (62.74/2.88)
|   |   |   |   |   has_nurs = less_proper: very_recom (6.7)
|   |   |   |   |   has_nurs = improper: recommend (0.0)
|   |   |   |   |   has_nurs = critical: recommend (0.0)
|   |   |   |   |   has_nurs = very_crit: recommend (0.0)
|   |   |   |   children = 2: very_recom (19.52)
|   |   |   |   children = 3: very_recom (15.99)
|   |   |   |   children = more: very_recom (15.99)
|   |   |   social = problematic: priority (66.96)
|   |   housing = less_conv: priority (101.59/7.17)
|   |   housing = critical
|   |   |   children = 1
|   |   |   |   social = nonprob
|   |   |   |   |   form = complete: very_recom (50.25)
|   |   |   |   |   form = completed: priority (5.3)
|   |   |   |   |   form = incomplete: priority (5.37)
|   |   |   |   |   form = foster: priority (0.29)
|   |   |   |   social = slightly_prob: very_recom (50.75/0.49)
|   |   |   |   social = problematic: priority (17.19)
|   |   |   children = 2: priority (29.17)
|   |   |   children = 3: priority (5.88)
|   |   |   children = more: priority (4.87)
|   finance = inconv
|   |   social = nonprob
|   |   |   form = complete
|   |   |   |   housing = convenient: very_recom (18.79/0.32)
|   |   |   |   housing = less_conv: priority (7.51/0.0)
|   |   |   |   housing = critical: priority (9.16/1.21)
|   |   |   form = completed
|   |   |   |   children = 1: priority (7.83/2.53)
|   |   |   |   children = 2: very_recom (3.74/0.2)
|   |   |   |   children = 3: priority (11.05)
|   |   |   |   children = more: priority (11.05)
|   |   |   form = incomplete
|   |   |   |   housing = convenient: very_recom (3.73/0.79)
|   |   |   |   housing = less_conv: very_recom (1.17/0.05)
|   |   |   |   housing = critical: priority (5.37)
|   |   |   form = foster: priority (34.34)
|   |   social = slightly_prob
|   |   |   form = complete
|   |   |   |   children = 1: very_recom (17.54)
|   |   |   |   children = 2
|   |   |   |   |   housing = convenient: very_recom (2.14)
|   |   |   |   |   housing = less_conv: very_recom (0.0)
|   |   |   |   |   housing = critical: priority (7.95)
|   |   |   |   children = 3: priority (1.09)
|   |   |   |   children = more: priority (0.54)
|   |   |   form = completed
|   |   |   |   children = 1: priority (7.83/2.53)
|   |   |   |   children = 2: very_recom (3.74/0.2)
|   |   |   |   children = 3: priority (11.05)
|   |   |   |   children = more: priority (11.05)
|   |   |   form = incomplete
|   |   |   |   housing = convenient: very_recom (3.73/0.79)
|   |   |   |   housing = less_conv: very_recom (1.17/0.05)
|   |   |   |   housing = critical: priority (5.37)
|   |   |   form = foster: priority (34.31)
|   |   social = problematic: priority (116.94)
health = priority: priority (50.36)
health = not_recom: not_recom (87.91)

Number of Leaves  : 	55

Size of the tree : 	76


Weight: 3.83

J48 pruned tree
------------------

health = recommended
|   social = nonprob
|   |   children = 1
|   |   |   form = complete
|   |   |   |   housing = convenient
|   |   |   |   |   finance = convenient
|   |   |   |   |   |   has_nurs = proper: recommend (30.58)
|   |   |   |   |   |   has_nurs = less_proper: very_recom (3.42)
|   |   |   |   |   |   has_nurs = improper: recommend (0.0)
|   |   |   |   |   |   has_nurs = critical: recommend (0.0)
|   |   |   |   |   |   has_nurs = very_crit: recommend (0.0)
|   |   |   |   |   finance = inconv: very_recom (8.34)
|   |   |   |   housing = less_conv: very_recom (19.4)
|   |   |   |   housing = critical: very_recom (54.01)
|   |   |   form = completed
|   |   |   |   housing = convenient: very_recom (53.61)
|   |   |   |   housing = less_conv: very_recom (41.52)
|   |   |   |   housing = critical: priority (5.41)
|   |   |   form = incomplete
|   |   |   |   housing = convenient: very_recom (22.13)
|   |   |   |   housing = less_conv: very_recom (15.69)
|   |   |   |   housing = critical: priority (5.49)
|   |   |   form = foster
|   |   |   |   finance = convenient
|   |   |   |   |   housing = convenient: very_recom (26.4)
|   |   |   |   |   housing = less_conv: priority (3.26)
|   |   |   |   |   housing = critical: priority (0.15)
|   |   |   |   finance = inconv: priority (16.34)
|   |   children = 2
|   |   |   finance = convenient
|   |   |   |   housing = convenient: very_recom (8.31)
|   |   |   |   housing = less_conv
|   |   |   |   |   form = complete: very_recom (19.4)
|   |   |   |   |   form = completed: very_recom (15.12)
|   |   |   |   |   form = incomplete: priority (3.13)
|   |   |   |   |   form = foster: priority (0.0)
|   |   |   |   housing = critical: priority (7.45)
|   |   |   finance = inconv: priority (32.53/2.94)
|   |   children = 3
|   |   |   housing = convenient
|   |   |   |   finance = convenient: very_recom (5.72)
|   |   |   |   finance = inconv: priority (3.15)
|   |   |   housing = less_conv: priority (8.49)
|   |   |   housing = critical: priority (1.52)
|   |   children = more: priority (28.07/2.58)
|   social = slightly_prob
|   |   finance = convenient
|   |   |   housing = convenient
|   |   |   |   form = complete
|   |   |   |   |   children = 1
|   |   |   |   |   |   has_nurs = proper: recommend (30.58)
|   |   |   |   |   |   has_nurs = less_proper: very_recom (3.42)
|   |   |   |   |   |   has_nurs = improper: recommend (0.0)
|   |   |   |   |   |   has_nurs = critical: recommend (0.0)
|   |   |   |   |   |   has_nurs = very_crit: recommend (0.0)
|   |   |   |   |   children = 2: very_recom (0.0)
|   |   |   |   |   children = 3: very_recom (3.21)
|   |   |   |   |   children = more: very_recom (3.21)
|   |   |   |   form = completed: very_recom (25.56)
|   |   |   |   form = incomplete: very_recom (33.83)
|   |   |   |   form = foster: very_recom (28.16)
|   |   |   housing = less_conv
|   |   |   |   children = 1
|   |   |   |   |   form = complete: very_recom (19.4)
|   |   |   |   |   form = completed: very_recom (15.12)
|   |   |   |   |   form = incomplete: very_recom (15.12)
|   |   |   |   |   form = foster: priority (3.81)
|   |   |   |   children = 2
|   |   |   |   |   form = complete: very_recom (19.4)
|   |   |   |   |   form = completed: very_recom (15.12)
|   |   |   |   |   form = incomplete: priority (3.13)
|   |   |   |   |   form = foster: priority (0.0)
|   |   |   |   children = 3: priority (5.68)
|   |   |   |   children = more: priority (2.71)
|   |   |   housing = critical
|   |   |   |   form = complete
|   |   |   |   |   children = 1: very_recom (25.67)
|   |   |   |   |   children = 2: priority (3.91)
|   |   |   |   |   children = 3: priority (1.49)
|   |   |   |   |   children = more: priority (0.05)
|   |   |   |   form = completed: priority (5.95)
|   |   |   |   form = incomplete: priority (2.49)
|   |   |   |   form = foster: priority (6.7)
|   |   finance = inconv
|   |   |   children = 1
|   |   |   |   form = complete: very_recom (8.96)
|   |   |   |   form = completed
|   |   |   |   |   housing = convenient: very_recom (32.99)
|   |   |   |   |   housing = less_conv: very_recom (26.4)
|   |   |   |   |   housing = critical: priority (2.71)
|   |   |   |   form = incomplete: priority (4.82/2.08)
|   |   |   |   form = foster: priority (16.32)
|   |   |   children = 2: priority (32.49/2.9)
|   |   |   children = 3: priority (6.2)
|   |   |   children = more: priority (5.93)
|   social = problematic: priority (117.17)
health = priority: priority (25.73)
health = not_recom: not_recom (44.91)

Number of Leaves  : 	70

Size of the tree : 	99


Weight: 4.58

J48 pruned tree
------------------

health = recommended
|   social = nonprob
|   |   form = complete
|   |   |   children = 1
|   |   |   |   housing = convenient
|   |   |   |   |   finance = convenient: recommend (17.17/1.73)
|   |   |   |   |   finance = inconv: very_recom (4.21)
|   |   |   |   housing = less_conv: very_recom (9.8)
|   |   |   |   housing = critical: very_recom (27.28)
|   |   |   children = 2
|   |   |   |   housing = convenient: very_recom (54.0)
|   |   |   |   housing = less_conv: very_recom (11.63)
|   |   |   |   housing = critical: priority (4.02)
|   |   |   children = 3: priority (4.05/1.62)
|   |   |   children = more: priority (11.76/3.1)
|   |   form = completed
|   |   |   housing = convenient: very_recom (214.14/3.04)
|   |   |   housing = less_conv
|   |   |   |   children = 1: very_recom (20.97)
|   |   |   |   children = 2: very_recom (36.05)
|   |   |   |   children = 3: priority (2.66)
|   |   |   |   children = more: priority (2.66)
|   |   |   housing = critical: priority (6.93)
|   |   form = incomplete
|   |   |   finance = convenient: very_recom (27.68/3.05)
|   |   |   finance = inconv: priority (12.31/1.05)
|   |   form = foster
|   |   |   finance = convenient: very_recom (15.1/1.72)
|   |   |   finance = inconv: priority (8.86)
|   social = slightly_prob
|   |   housing = convenient
|   |   |   finance = convenient
|   |   |   |   form = complete: recommend (20.42/4.97)
|   |   |   |   form = completed: very_recom (12.91)
|   |   |   |   form = incomplete: very_recom (17.09)
|   |   |   |   form = foster: very_recom (14.22)
|   |   |   finance = inconv
|   |   |   |   form = complete: very_recom (58.53/0.31)
|   |   |   |   form = completed
|   |   |   |   |   children = 1: very_recom (16.66)
|   |   |   |   |   children = 2: very_recom (60.87)
|   |   |   |   |   children = 3: priority (1.52)
|   |   |   |   |   children = more: priority (1.52)
|   |   |   |   form = incomplete
|   |   |   |   |   children = 1: very_recom (74.24)
|   |   |   |   |   children = 2: priority (9.33)
|   |   |   |   |   children = 3: priority (0.0)
|   |   |   |   |   children = more: priority (0.0)
|   |   |   |   form = foster: priority (8.85)
|   |   housing = less_conv
|   |   |   children = 1: very_recom (68.75/1.93)
|   |   |   children = 2
|   |   |   |   form = complete: very_recom (9.84)
|   |   |   |   form = completed: very_recom (36.05)
|   |   |   |   form = incomplete: priority (2.12)
|   |   |   |   form = foster: priority (0.0)
|   |   |   children = 3: priority (4.27)
|   |   |   children = more: priority (2.74)
|   |   housing = critical
|   |   |   form = complete
|   |   |   |   children = 1: very_recom (13.28)
|   |   |   |   children = 2: priority (4.02)
|   |   |   |   children = 3: priority (0.75)
|   |   |   |   children = more: priority (0.02)
|   |   |   form = completed: priority (6.79)
|   |   |   form = incomplete: priority (2.64)
|   |   |   form = foster: priority (3.38)
|   social = problematic: priority (59.18)
health = priority: priority (12.99)
health = not_recom: not_recom (22.69)

Number of Leaves  : 	50

Size of the tree : 	71


Weight: 3.81

J48 pruned tree
------------------

health = recommended
|   housing = convenient
|   |   finance = convenient
|   |   |   children = 1
|   |   |   |   has_nurs = proper
|   |   |   |   |   form = complete: recommend (19.51/3.72)
|   |   |   |   |   form = completed: very_recom (10.66/0.01)
|   |   |   |   |   form = incomplete: very_recom (10.66/0.01)
|   |   |   |   |   form = foster: very_recom (13.86/0.23)
|   |   |   |   has_nurs = less_proper: very_recom (83.4/3.72)
|   |   |   |   has_nurs = improper: very_recom (0.0)
|   |   |   |   has_nurs = critical: very_recom (0.0)
|   |   |   |   has_nurs = very_crit: very_recom (0.0)
|   |   |   children = 2: very_recom (5.21/0.49)
|   |   |   children = 3: very_recom (76.93/0.32)
|   |   |   children = more: very_recom (173.78/0.32)
|   |   finance = inconv
|   |   |   children = 1
|   |   |   |   form = complete
|   |   |   |   |   social = nonprob: very_recom (2.15)
|   |   |   |   |   social = slightly_prob: very_recom (2.15)
|   |   |   |   |   social = problematic: priority (4.02)
|   |   |   |   form = completed: very_recom (17.12/0.08)
|   |   |   |   form = incomplete
|   |   |   |   |   social = nonprob: very_recom (17.47)
|   |   |   |   |   social = slightly_prob: very_recom (37.95)
|   |   |   |   |   social = problematic: priority (3.89)
|   |   |   |   form = foster: priority (8.43)
|   |   |   children = 2
|   |   |   |   form = complete: very_recom (55.6/0.4)
|   |   |   |   form = completed
|   |   |   |   |   social = nonprob: very_recom (31.11)
|   |   |   |   |   social = slightly_prob: very_recom (31.11)
|   |   |   |   |   social = problematic: priority (3.89)
|   |   |   |   form = incomplete: priority (9.54)
|   |   |   |   form = foster: priority (0.62)
|   |   |   children = 3: priority (40.62)
|   |   |   children = more: priority (40.09)
|   housing = less_conv
|   |   form = complete: very_recom (28.03/7.04)
|   |   form = completed
|   |   |   children = 1: very_recom (22.55/1.12)
|   |   |   children = 2: very_recom (37.97/1.12)
|   |   |   children = 3: priority (2.72)
|   |   |   children = more: priority (2.72)
|   |   form = incomplete
|   |   |   children = 1: very_recom (30.13/1.12)
|   |   |   children = 2: priority (37.82)
|   |   |   children = 3: priority (0.39)
|   |   |   children = more: priority (0.39)
|   |   form = foster: priority (82.3)
|   housing = critical
|   |   form = complete
|   |   |   has_nurs = proper: very_recom (22.08/1.94)
|   |   |   has_nurs = less_proper: priority (6.5/0.59)
|   |   |   has_nurs = improper: very_recom (0.0)
|   |   |   has_nurs = critical: very_recom (0.0)
|   |   |   has_nurs = very_crit: very_recom (0.0)
|   |   form = completed: priority (7.01)
|   |   form = incomplete: priority (34.96)
|   |   form = foster: priority (3.43)
health = priority: priority (6.64)
health = not_recom: not_recom (11.6)

Number of Leaves  : 	47

Size of the tree : 	64


Weight: 3.82

J48 pruned tree
------------------

social = nonprob
|   housing = convenient
|   |   finance = convenient: very_recom (126.17/7.49)
|   |   finance = inconv
|   |   |   children = 1: very_recom (16.53/2.15)
|   |   |   children = 2
|   |   |   |   form = complete: very_recom (14.1/0.0)
|   |   |   |   form = completed: very_recom (15.9/0.0)
|   |   |   |   form = incomplete: priority (2.44/0.0)
|   |   |   |   form = foster: priority (0.16/0.0)
|   |   |   children = 3: priority (17.91/0.0)
|   |   |   children = more: priority (18.86/0.0)
|   housing = less_conv
|   |   form = complete
|   |   |   children = 1: very_recom (2.59/0.03)
|   |   |   children = 2: very_recom (3.06/0.03)
|   |   |   children = 3: priority (19.19/0.01)
|   |   |   children = more: priority (44.44/0.01)
|   |   form = completed: very_recom (16.32/1.43)
|   |   form = incomplete
|   |   |   children = 1: very_recom (5.42/0.01)
|   |   |   children = 2: priority (18.77/0.01)
|   |   |   children = 3: priority (0.21/0.01)
|   |   |   children = more: priority (0.21/0.01)
|   |   form = foster: priority (19.42/0.03)
|   housing = critical
|   |   form = complete
|   |   |   children = 1: very_recom (15.64/0.01)
|   |   |   children = 2: priority (2.32/0.01)
|   |   |   children = 3: priority (0.47/0.0)
|   |   |   children = more: priority (14.54/0.0)
|   |   form = completed: priority (1.81/0.0)
|   |   form = incomplete: priority (17.17/0.0)
|   |   form = foster: priority (0.88/0.01)
social = slightly_prob
|   housing = convenient
|   |   finance = convenient: very_recom (77.55/7.49)
|   |   finance = inconv
|   |   |   children = 1: very_recom (26.99/2.15)
|   |   |   children = 2
|   |   |   |   form = complete: very_recom (14.1/0.0)
|   |   |   |   form = completed: very_recom (15.9/0.0)
|   |   |   |   form = incomplete: priority (2.44/0.0)
|   |   |   |   form = foster: priority (0.16/0.0)
|   |   |   children = 3: priority (2.84/0.0)
|   |   |   children = more: priority (1.62/0.0)
|   housing = less_conv
|   |   form = complete
|   |   |   children = 1: very_recom (2.59/0.03)
|   |   |   children = 2: very_recom (2.6/0.03)
|   |   |   children = 3: priority (19.19/0.01)
|   |   |   children = more: priority (0.87/0.01)
|   |   form = completed: very_recom (16.32/1.43)
|   |   form = incomplete: very_recom (10.0/0.59)
|   |   form = foster: priority (22.69/0.03)
|   housing = critical
|   |   children = 1: very_recom (10.59/2.26)
|   |   children = 2: priority (3.42/0.01)
|   |   children = 3: priority (0.48/0.0)
|   |   children = more: priority (0.29/0.0)
social = problematic: priority (411.83/1.97)

Number of Leaves  : 	45

Size of the tree : 	62


Weight: 3.61

J48 pruned tree
------------------

health = recommended
|   housing = convenient
|   |   form = complete
|   |   |   social = nonprob
|   |   |   |   children = 1
|   |   |   |   |   has_nurs = proper: recommend (77.29/0.56)
|   |   |   |   |   has_nurs = less_proper: very_recom (10.46)
|   |   |   |   |   has_nurs = improper: recommend (0.0)
|   |   |   |   |   has_nurs = critical: recommend (0.0)
|   |   |   |   |   has_nurs = very_crit: recommend (0.0)
|   |   |   |   children = 2: very_recom (7.24)
|   |   |   |   children = 3: very_recom (9.81/0.01)
|   |   |   |   children = more: very_recom (19.21/0.5)
|   |   |   social = slightly_prob
|   |   |   |   children = 1
|   |   |   |   |   has_nurs = proper: recommend (77.29/0.56)
|   |   |   |   |   has_nurs = less_proper: very_recom (10.46)
|   |   |   |   |   has_nurs = improper: recommend (0.0)
|   |   |   |   |   has_nurs = critical: recommend (0.0)
|   |   |   |   |   has_nurs = very_crit: recommend (0.0)
|   |   |   |   children = 2: very_recom (7.24)
|   |   |   |   children = 3: very_recom (11.05/1.26)
|   |   |   |   children = more: very_recom (10.42/0.63)
|   |   |   social = problematic: priority (99.92)
|   |   form = completed
|   |   |   children = 1: very_recom (8.33/1.06)
|   |   |   children = 2: very_recom (17.41/1.09)
|   |   |   children = 3: priority (9.76/0.33)
|   |   |   children = more
|   |   |   |   finance = convenient: very_recom (16.55/0.04)
|   |   |   |   finance = inconv: priority (9.39)
|   |   form = incomplete
|   |   |   children = 1: very_recom (18.44/1.11)
|   |   |   children = 2: priority (6.53/1.12)
|   |   |   children = 3: very_recom (0.21/0.04)
|   |   |   children = more: very_recom (0.52/0.04)
|   |   form = foster: priority (94.24/3.7)
|   housing = less_conv
|   |   children = 1
|   |   |   social = nonprob
|   |   |   |   form = complete: very_recom (1.31)
|   |   |   |   form = completed: very_recom (2.81)
|   |   |   |   form = incomplete: very_recom (2.78)
|   |   |   |   form = foster: priority (9.95)
|   |   |   social = slightly_prob
|   |   |   |   form = complete: very_recom (1.31)
|   |   |   |   form = completed: very_recom (2.81)
|   |   |   |   form = incomplete: very_recom (4.83)
|   |   |   |   form = foster: priority (11.64)
|   |   |   social = problematic: priority (27.28)
|   |   children = 2
|   |   |   social = nonprob
|   |   |   |   form = complete: very_recom (1.56)
|   |   |   |   form = completed: very_recom (4.83)
|   |   |   |   form = incomplete: priority (9.64)
|   |   |   |   form = foster: priority (0.0)
|   |   |   social = slightly_prob
|   |   |   |   form = complete: very_recom (1.32)
|   |   |   |   form = completed: very_recom (4.83)
|   |   |   |   form = incomplete: priority (10.55)
|   |   |   |   form = foster: priority (0.0)
|   |   |   social = problematic: priority (54.2)
|   |   children = 3: priority (46.26)
|   |   children = more: priority (49.83)
|   housing = critical
|   |   has_nurs = proper: priority (82.01/5.29)
|   |   has_nurs = less_proper: very_recom (8.57/1.55)
|   |   has_nurs = improper: priority (0.0)
|   |   has_nurs = critical: priority (0.0)
|   |   has_nurs = very_crit: priority (0.0)
health = priority: priority (64.18)
health = not_recom: not_recom (112.71)

Number of Leaves  : 	54

Size of the tree : 	73


Weight: 3.99

J48 pruned tree
------------------

health = recommended
|   social = nonprob
|   |   housing = convenient
|   |   |   finance = convenient
|   |   |   |   form = complete
|   |   |   |   |   children = 1
|   |   |   |   |   |   has_nurs = proper: recommend (39.08)
|   |   |   |   |   |   has_nurs = less_proper: very_recom (5.32)
|   |   |   |   |   |   has_nurs = improper: recommend (0.0)
|   |   |   |   |   |   has_nurs = critical: recommend (0.0)
|   |   |   |   |   |   has_nurs = very_crit: recommend (0.0)
|   |   |   |   |   children = 2: very_recom (0.0)
|   |   |   |   |   children = 3: very_recom (4.99)
|   |   |   |   |   children = more: very_recom (9.53)
|   |   |   |   form = completed: very_recom (13.63)
|   |   |   |   form = incomplete: very_recom (16.28)
|   |   |   |   form = foster: very_recom (49.31)
|   |   |   finance = inconv
|   |   |   |   children = 1
|   |   |   |   |   form = complete: very_recom (15.4)
|   |   |   |   |   form = completed: very_recom (1.14)
|   |   |   |   |   form = incomplete: very_recom (2.33)
|   |   |   |   |   form = foster: priority (20.86)
|   |   |   |   children = 2: very_recom (8.52/0.68)
|   |   |   |   children = 3: priority (4.95)
|   |   |   |   children = more: priority (18.37)
|   |   housing = less_conv: priority (46.97/6.77)
|   |   housing = critical
|   |   |   children = 1
|   |   |   |   form = complete: very_recom (100.1)
|   |   |   |   form = completed: priority (0.19)
|   |   |   |   form = incomplete: priority (4.36)
|   |   |   |   form = foster: priority (0.23)
|   |   |   children = 2: priority (15.1)
|   |   |   children = 3: priority (2.8)
|   |   |   children = more: priority (3.84)
|   social = slightly_prob
|   |   finance = convenient
|   |   |   housing = convenient
|   |   |   |   form = complete
|   |   |   |   |   children = 1
|   |   |   |   |   |   has_nurs = proper: recommend (39.08)
|   |   |   |   |   |   has_nurs = less_proper: very_recom (5.32)
|   |   |   |   |   |   has_nurs = improper: recommend (0.0)
|   |   |   |   |   |   has_nurs = critical: recommend (0.0)
|   |   |   |   |   |   has_nurs = very_crit: recommend (0.0)
|   |   |   |   |   children = 2: very_recom (0.0)
|   |   |   |   |   children = 3: very_recom (4.99)
|   |   |   |   |   children = more: very_recom (4.99)
|   |   |   |   form = completed: very_recom (5.39)
|   |   |   |   form = incomplete: very_recom (16.28)
|   |   |   |   form = foster: very_recom (52.4)
|   |   |   housing = less_conv: priority (24.47/2.9)
|   |   |   housing = critical
|   |   |   |   form = complete
|   |   |   |   |   children = 1: very_recom (47.55)
|   |   |   |   |   children = 2: priority (7.23)
|   |   |   |   |   children = 3: priority (2.76)
|   |   |   |   |   children = more: priority (0.07)
|   |   |   |   form = completed: priority (3.22)
|   |   |   |   form = incomplete: priority (3.15)
|   |   |   |   form = foster: priority (8.56)
|   |   finance = inconv
|   |   |   children = 1
|   |   |   |   form = complete: very_recom (16.55)
|   |   |   |   form = completed: priority (5.51/2.05)
|   |   |   |   form = incomplete
|   |   |   |   |   housing = convenient: very_recom (5.07)
|   |   |   |   |   housing = less_conv: very_recom (1.94)
|   |   |   |   |   housing = critical: priority (3.51)
|   |   |   |   form = foster: priority (20.86)
|   |   |   children = 2
|   |   |   |   housing = convenient: very_recom (8.52/0.68)
|   |   |   |   housing = less_conv: very_recom (3.31/1.37)
|   |   |   |   housing = critical: priority (7.7)
|   |   |   children = 3: priority (38.22)
|   |   |   children = more: priority (20.85)
|   social = problematic: priority (206.12)
health = priority: priority (32.68)
health = not_recom: not_recom (57.4)

Number of Leaves  : 	59

Size of the tree : 	81


Weight: 4.26

J48 pruned tree
------------------

health = recommended
|   social = nonprob
|   |   housing = convenient
|   |   |   finance = convenient
|   |   |   |   form = complete
|   |   |   |   |   children = 1
|   |   |   |   |   |   has_nurs = proper: recommend (19.81)
|   |   |   |   |   |   has_nurs = less_proper: very_recom (2.7)
|   |   |   |   |   |   has_nurs = improper: recommend (0.0)
|   |   |   |   |   |   has_nurs = critical: recommend (0.0)
|   |   |   |   |   |   has_nurs = very_crit: recommend (0.0)
|   |   |   |   |   children = 2: very_recom (0.0)
|   |   |   |   |   children = 3: very_recom (2.53)
|   |   |   |   |   children = more: very_recom (4.83)
|   |   |   |   form = completed: very_recom (6.91)
|   |   |   |   form = incomplete: very_recom (8.25)
|   |   |   |   form = foster: very_recom (25.0)
|   |   |   finance = inconv
|   |   |   |   form = complete
|   |   |   |   |   children = 1: very_recom (7.81)
|   |   |   |   |   children = 2: very_recom (1.87)
|   |   |   |   |   children = 3: priority (0.14)
|   |   |   |   |   children = more: priority (6.94)
|   |   |   |   form = completed
|   |   |   |   |   children = 1: very_recom (0.58)
|   |   |   |   |   children = 2: very_recom (2.11)
|   |   |   |   |   children = 3: priority (2.37)
|   |   |   |   |   children = more: priority (2.37)
|   |   |   |   form = incomplete: priority (24.05/1.18)
|   |   |   |   form = foster: priority (12.07)
|   |   housing = less_conv
|   |   |   children = 1: very_recom (128.75/2.57)
|   |   |   children = 2
|   |   |   |   form = complete: very_recom (28.5)
|   |   |   |   form = completed: very_recom (88.34)
|   |   |   |   form = incomplete: priority (2.49)
|   |   |   |   form = foster: priority (0.0)
|   |   |   children = 3: priority (5.99)
|   |   |   children = more: priority (9.34)
|   |   housing = critical
|   |   |   children = 1
|   |   |   |   form = complete: very_recom (50.76)
|   |   |   |   form = completed: priority (0.09)
|   |   |   |   form = incomplete: priority (2.21)
|   |   |   |   form = foster: priority (0.11)
|   |   |   children = 2: priority (7.66)
|   |   |   children = 3: priority (1.42)
|   |   |   children = more: priority (1.95)
|   social = slightly_prob
|   |   finance = convenient
|   |   |   housing = convenient
|   |   |   |   form = complete
|   |   |   |   |   children = 1
|   |   |   |   |   |   has_nurs = proper: recommend (19.81)
|   |   |   |   |   |   has_nurs = less_proper: very_recom (2.7)
|   |   |   |   |   |   has_nurs = improper: recommend (0.0)
|   |   |   |   |   |   has_nurs = critical: recommend (0.0)
|   |   |   |   |   |   has_nurs = very_crit: recommend (0.0)
|   |   |   |   |   children = 2: very_recom (0.0)
|   |   |   |   |   children = 3: very_recom (2.53)
|   |   |   |   |   children = more: very_recom (2.53)
|   |   |   |   form = completed: very_recom (2.73)
|   |   |   |   form = incomplete: very_recom (8.26)
|   |   |   |   form = foster: very_recom (26.57)
|   |   |   housing = less_conv
|   |   |   |   children = 1: very_recom (64.44/3.0)
|   |   |   |   children = 2: very_recom (44.75/2.03)
|   |   |   |   children = 3: priority (4.14)
|   |   |   |   children = more: priority (1.77)
|   |   |   housing = critical
|   |   |   |   form = complete
|   |   |   |   |   children = 1: very_recom (24.11)
|   |   |   |   |   children = 2: priority (3.67)
|   |   |   |   |   children = 3: priority (1.4)
|   |   |   |   |   children = more: priority (0.04)
|   |   |   |   form = completed: priority (1.63)
|   |   |   |   form = incomplete: priority (1.6)
|   |   |   |   form = foster: priority (4.34)
|   |   finance = inconv
|   |   |   children = 1
|   |   |   |   form = complete: very_recom (8.39)
|   |   |   |   form = completed: very_recom (75.27/1.75)
|   |   |   |   form = incomplete: very_recom (5.33/1.78)
|   |   |   |   form = foster: priority (10.58)
|   |   |   children = 2
|   |   |   |   form = complete: priority (5.69/1.87)
|   |   |   |   form = completed: very_recom (3.18/0.08)
|   |   |   |   form = incomplete: priority (71.95)
|   |   |   |   form = foster: priority (1.5)
|   |   |   children = 3: priority (19.38)
|   |   |   children = more: priority (10.57)
|   social = problematic: priority (104.52)
health = priority: priority (16.57)
health = not_recom: not_recom (29.1)

Number of Leaves  : 	70

Size of the tree : 	95


Weight: 4.27

J48 pruned tree
------------------

health = recommended
|   form = complete
|   |   social = nonprob
|   |   |   children = 1
|   |   |   |   housing = convenient
|   |   |   |   |   finance = convenient: recommend (11.41/1.37)
|   |   |   |   |   finance = inconv: very_recom (3.96)
|   |   |   |   housing = less_conv: very_recom (12.17)
|   |   |   |   housing = critical: very_recom (25.73)
|   |   |   children = 2
|   |   |   |   housing = convenient: very_recom (0.95)
|   |   |   |   housing = less_conv: very_recom (14.45)
|   |   |   |   housing = critical: priority (3.8)
|   |   |   children = 3: priority (3.35/1.28)
|   |   |   children = more: priority (9.93/2.45)
|   |   social = slightly_prob
|   |   |   children = 1
|   |   |   |   housing = convenient
|   |   |   |   |   finance = convenient: recommend (11.41/1.37)
|   |   |   |   |   finance = inconv: very_recom (3.96)
|   |   |   |   housing = less_conv: very_recom (12.17)
|   |   |   |   housing = critical: very_recom (12.52)
|   |   |   children = 2
|   |   |   |   housing = convenient: very_recom (67.91)
|   |   |   |   housing = less_conv: very_recom (12.22)
|   |   |   |   housing = critical: priority (3.8)
|   |   |   children = 3: priority (12.15/1.28)
|   |   |   children = more: priority (5.8/1.28)
|   |   social = problematic: priority (22.49)
|   form = completed
|   |   housing = convenient
|   |   |   social = nonprob
|   |   |   |   finance = convenient: very_recom (3.5)
|   |   |   |   finance = inconv: priority (3.77/1.36)
|   |   |   social = slightly_prob: very_recom (23.21/0.05)
|   |   |   social = problematic: priority (15.44)
|   |   housing = less_conv
|   |   |   children = 1: very_recom (53.86/1.75)
|   |   |   children = 2: very_recom (56.52/1.75)
|   |   |   children = 3: priority (3.46)
|   |   |   children = more: priority (3.46)
|   |   housing = critical: priority (67.69)
|   form = incomplete
|   |   social = nonprob
|   |   |   children = 1: very_recom (70.04/1.12)
|   |   |   children = 2
|   |   |   |   finance = convenient: very_recom (5.22/1.26)
|   |   |   |   finance = inconv: priority (11.6)
|   |   |   children = 3: priority (0.03/0.0)
|   |   |   children = more: very_recom (0.07/0.02)
|   |   social = slightly_prob
|   |   |   housing = convenient
|   |   |   |   finance = convenient: very_recom (4.19)
|   |   |   |   finance = inconv: priority (12.9/1.3)
|   |   |   housing = less_conv
|   |   |   |   children = 1: very_recom (9.99)
|   |   |   |   children = 2: priority (98.63)
|   |   |   |   children = 3: priority (0.0)
|   |   |   |   children = more: priority (0.0)
|   |   |   housing = critical: priority (65.42)
|   |   social = problematic: priority (10.45)
|   form = foster
|   |   housing = convenient
|   |   |   finance = convenient: very_recom (27.25/1.11)
|   |   |   finance = inconv: priority (12.24)
|   |   housing = less_conv: priority (202.45)
|   |   housing = critical: priority (2.26)
health = priority: priority (8.4)
health = not_recom: not_recom (14.76)

Number of Leaves  : 	47

Size of the tree : 	70


Weight: 3.99

J48 pruned tree
------------------

housing = convenient
|   health = recommended
|   |   social = nonprob
|   |   |   finance = convenient: very_recom (156.4/5.12)
|   |   |   finance = inconv
|   |   |   |   form = complete: very_recom (4.33/1.83)
|   |   |   |   form = completed: very_recom (38.83/1.22)
|   |   |   |   form = incomplete
|   |   |   |   |   children = 1: very_recom (21.89)
|   |   |   |   |   children = 2: priority (5.9)
|   |   |   |   |   children = 3: priority (0.0)
|   |   |   |   |   children = more: priority (0.0)
|   |   |   |   form = foster: priority (3.12)
|   |   social = slightly_prob
|   |   |   finance = convenient: very_recom (123.48/5.12)
|   |   |   finance = inconv
|   |   |   |   children = 1: very_recom (51.3/2.73)
|   |   |   |   children = 2
|   |   |   |   |   form = complete: very_recom (34.58)
|   |   |   |   |   form = completed: very_recom (0.54)
|   |   |   |   |   form = incomplete: priority (5.9)
|   |   |   |   |   form = foster: priority (0.39)
|   |   |   |   children = 3: priority (5.26)
|   |   |   |   children = more: priority (3.0)
|   |   social = problematic: priority (49.55)
|   health = priority: priority (4.16)
|   health = not_recom: not_recom (6.9)
housing = less_conv
|   form = complete
|   |   children = 1: very_recom (12.52/0.12)
|   |   children = 2
|   |   |   social = nonprob: very_recom (7.39/0.03)
