
Options: -P 100 -S 1 -I 200 -W weka.classifiers.trees.J48 -- -C 0.25 -M 2 

AdaBoostM1: Base classifiers and their weights: 

J48 pruned tree
------------------

health = recommended
|   has_nurs = proper
|   |   social = nonprob
|   |   |   housing = convenient
|   |   |   |   finance = convenient: very_recom (16.0/1.0)
|   |   |   |   finance = inconv: priority (16.0/5.0)
|   |   |   housing = less_conv
|   |   |   |   children = 1: very_recom (8.0/2.0)
|   |   |   |   children = 2
|   |   |   |   |   form = complete: very_recom (2.0)
|   |   |   |   |   form = completed: very_recom (2.0)
|   |   |   |   |   form = incomplete: priority (2.0)
|   |   |   |   |   form = foster: priority (2.0)
|   |   |   |   children = 3: priority (8.0)
|   |   |   |   children = more: priority (8.0)
|   |   |   housing = critical: priority (32.0/2.0)
|   |   social = slightly_prob
|   |   |   housing = convenient
|   |   |   |   finance = convenient: very_recom (16.0/1.0)
|   |   |   |   finance = inconv: priority (16.0/5.0)
|   |   |   housing = less_conv
|   |   |   |   children = 1: very_recom (8.0/2.0)
|   |   |   |   children = 2
|   |   |   |   |   form = complete: very_recom (2.0)
|   |   |   |   |   form = completed: very_recom (2.0)
|   |   |   |   |   form = incomplete: priority (2.0)
|   |   |   |   |   form = foster: priority (2.0)
|   |   |   |   children = 3: priority (8.0)
|   |   |   |   children = more: priority (8.0)
|   |   |   housing = critical: priority (32.0/2.0)
|   |   social = problematic: priority (96.0)
|   has_nurs = less_proper
|   |   social = nonprob
|   |   |   housing = convenient
|   |   |   |   finance = convenient: very_recom (16.0)
|   |   |   |   finance = inconv: priority (16.0/5.0)
|   |   |   housing = less_conv
|   |   |   |   children = 1: very_recom (8.0/2.0)
|   |   |   |   children = 2
|   |   |   |   |   form = complete: very_recom (2.0)
|   |   |   |   |   form = completed: very_recom (2.0)
|   |   |   |   |   form = incomplete: priority (2.0)
|   |   |   |   |   form = foster: priority (2.0)
|   |   |   |   children = 3: priority (8.0)
|   |   |   |   children = more: priority (8.0)
|   |   |   housing = critical: priority (32.0/2.0)
|   |   social = slightly_prob
|   |   |   housing = convenient
|   |   |   |   finance = convenient: very_recom (16.0)
|   |   |   |   finance = inconv: priority (16.0/5.0)
|   |   |   housing = less_conv
|   |   |   |   children = 1: very_recom (8.0/2.0)
|   |   |   |   children = 2
|   |   |   |   |   form = complete: very_recom (2.0)
|   |   |   |   |   form = completed: very_recom (2.0)
|   |   |   |   |   form = incomplete: priority (2.0)
|   |   |   |   |   form = foster: priority (2.0)
|   |   |   |   children = 3: priority (8.0)
|   |   |   |   children = more: priority (8.0)
|   |   |   housing = critical: priority (32.0/2.0)
|   |   social = problematic: priority (96.0)
|   has_nurs = improper
|   |   social = nonprob
|   |   |   housing = convenient
|   |   |   |   finance = convenient: very_recom (16.0)
|   |   |   |   finance = inconv: priority (16.0/5.0)
|   |   |   housing = less_conv
|   |   |   |   children = 1: very_recom (8.0/2.0)
|   |   |   |   children = 2
|   |   |   |   |   form = complete: very_recom (2.0)
|   |   |   |   |   form = completed: very_recom (2.0)
|   |   |   |   |   form = incomplete: priority (2.0)
|   |   |   |   |   form = foster: priority (2.0)
|   |   |   |   children = 3: priority (8.0)
|   |   |   |   children = more: priority (8.0)
|   |   |   housing = critical: priority (32.0/2.0)
|   |   social = slightly_prob
|   |   |   housing = convenient
|   |   |   |   finance = convenient: very_recom (16.0)
|   |   |   |   finance = inconv: priority (16.0/5.0)
|   |   |   housing = less_conv
|   |   |   |   children = 1: very_recom (8.0/2.0)
|   |   |   |   children = 2
|   |   |   |   |   form = complete: very_recom (2.0)
|   |   |   |   |   form = completed: very_recom (2.0)
|   |   |   |   |   form = incomplete: priority (2.0)
|   |   |   |   |   form = foster: priority (2.0)
|   |   |   |   children = 3: priority (8.0)
|   |   |   |   children = more: priority (8.0)
|   |   |   housing = critical: priority (32.0/2.0)
|   |   social = problematic: priority (96.0)
|   has_nurs = critical
|   |   social = nonprob: priority (96.0)
|   |   social = slightly_prob: priority (96.0)
|   |   social = problematic
|   |   |   housing = convenient
|   |   |   |   finance = convenient: priority (16.0)
|   |   |   |   finance = inconv: spec_prior (16.0/5.0)
|   |   |   housing = less_conv
|   |   |   |   children = 1: priority (8.0/2.0)
|   |   |   |   children = 2
|   |   |   |   |   form = complete: priority (2.0)
|   |   |   |   |   form = completed: priority (2.0)
|   |   |   |   |   form = incomplete: spec_prior (2.0)
|   |   |   |   |   form = foster: spec_prior (2.0)
|   |   |   |   children = 3: spec_prior (8.0)
|   |   |   |   children = more: spec_prior (8.0)
|   |   |   housing = critical: spec_prior (32.0/2.0)
|   has_nurs = very_crit
|   |   social = nonprob
|   |   |   housing = convenient
|   |   |   |   finance = convenient: priority (13.0)
|   |   |   |   finance = inconv
|   |   |   |   |   children = 1: priority (4.0/1.0)
|   |   |   |   |   children = 2: priority (3.0/1.0)
|   |   |   |   |   children = 3: spec_prior (3.0)
|   |   |   |   |   children = more: spec_prior (3.0)
|   |   |   housing = less_conv
|   |   |   |   children = 1: priority (8.0/2.0)
|   |   |   |   children = 2
|   |   |   |   |   form = complete: priority (2.0)
|   |   |   |   |   form = completed: priority (2.0)
|   |   |   |   |   form = incomplete: spec_prior (2.0)
|   |   |   |   |   form = foster: priority (0.0)
|   |   |   |   children = 3: spec_prior (6.0)
|   |   |   |   children = more: spec_prior (6.0)
|   |   |   housing = critical: spec_prior (25.0/2.0)
|   |   social = slightly_prob
|   |   |   housing = convenient
|   |   |   |   finance = convenient: priority (13.0)
|   |   |   |   finance = inconv
|   |   |   |   |   children = 1: priority (4.0/1.0)
|   |   |   |   |   children = 2: priority (3.0/1.0)
|   |   |   |   |   children = 3: spec_prior (3.0)
|   |   |   |   |   children = more: spec_prior (3.0)
|   |   |   housing = less_conv
|   |   |   |   children = 1: priority (8.0/2.0)
|   |   |   |   children = 2
|   |   |   |   |   form = complete: priority (2.0)
|   |   |   |   |   form = completed: priority (2.0)
|   |   |   |   |   form = incomplete: spec_prior (2.0)
|   |   |   |   |   form = foster: priority (0.0)
|   |   |   |   children = 3: spec_prior (6.0)
|   |   |   |   children = more: spec_prior (6.0)
|   |   |   housing = critical: spec_prior (25.0/2.0)
|   |   social = problematic: spec_prior (77.0/1.0)
health = priority
|   has_nurs = proper: priority (288.0)
|   has_nurs = less_proper: priority (288.0)
|   has_nurs = improper: priority (288.0)
|   has_nurs = critical
|   |   housing = convenient
|   |   |   finance = convenient: priority (48.0)
|   |   |   finance = inconv
|   |   |   |   children = 1
|   |   |   |   |   form = complete: priority (3.0)
|   |   |   |   |   form = completed: priority (3.0)
|   |   |   |   |   form = incomplete: priority (3.0)
|   |   |   |   |   form = foster: spec_prior (3.0)
|   |   |   |   children = 2
|   |   |   |   |   form = complete: priority (3.0)
|   |   |   |   |   form = completed: priority (3.0)
|   |   |   |   |   form = incomplete: spec_prior (3.0)
|   |   |   |   |   form = foster: spec_prior (3.0)
|   |   |   |   children = 3: spec_prior (12.0)
|   |   |   |   children = more: spec_prior (12.0)
|   |   housing = less_conv
|   |   |   children = 1
|   |   |   |   form = complete: priority (6.0)
|   |   |   |   form = completed: priority (6.0)
|   |   |   |   form = incomplete: priority (6.0)
|   |   |   |   form = foster: spec_prior (6.0)
|   |   |   children = 2
|   |   |   |   form = complete: priority (6.0)
|   |   |   |   form = completed: priority (6.0)
|   |   |   |   form = incomplete: spec_prior (6.0)
|   |   |   |   form = foster: spec_prior (6.0)
|   |   |   children = 3: spec_prior (24.0)
|   |   |   children = more: spec_prior (24.0)
|   |   housing = critical: spec_prior (96.0/6.0)
|   has_nurs = very_crit: spec_prior (230.0/3.0)
health = not_recom: not_recom (1382.0)

Number of Leaves  : 	129

Size of the tree : 	183


Weight: 3.84

J48 pruned tree
------------------

health = recommended
|   has_nurs = proper
|   |   housing = convenient
|   |   |   finance = convenient
|   |   |   |   form = complete: recommend (52.77/5.11)
|   |   |   |   form = completed
|   |   |   |   |   social = nonprob: very_recom (2.04)
|   |   |   |   |   social = slightly_prob: very_recom (2.04)
|   |   |   |   |   social = problematic: priority (2.04)
|   |   |   |   form = incomplete
|   |   |   |   |   social = nonprob: very_recom (2.04)
|   |   |   |   |   social = slightly_prob: very_recom (2.04)
|   |   |   |   |   social = problematic: priority (2.04)
|   |   |   |   form = foster
|   |   |   |   |   social = nonprob: very_recom (2.04)
|   |   |   |   |   social = slightly_prob: very_recom (2.04)
|   |   |   |   |   social = problematic: priority (2.04)
|   |   |   finance = inconv
|   |   |   |   children = 1: very_recom (146.06/3.06)
|   |   |   |   children = 2
|   |   |   |   |   form = complete: very_recom (48.18/0.51)
|   |   |   |   |   form = completed: very_recom (48.18/0.51)
|   |   |   |   |   form = incomplete: priority (1.53)
|   |   |   |   |   form = foster: priority (1.53)
|   |   |   |   children = 3: priority (6.13)
|   |   |   |   children = more: priority (6.13)
|   |   housing = less_conv: priority (142.32/10.21)
|   |   housing = critical
|   |   |   form = complete
|   |   |   |   children = 1: very_recom (96.35/1.02)
|   |   |   |   children = 2: priority (3.06)
|   |   |   |   children = 3: priority (3.06)
|   |   |   |   children = more: priority (3.06)
|   |   |   form = completed: priority (12.26)
|   |   |   form = incomplete: priority (12.26)
|   |   |   form = foster: priority (12.26)
|   has_nurs = less_proper
|   |   housing = convenient
|   |   |   social = nonprob: very_recom (132.96/5.62)
|   |   |   social = slightly_prob: very_recom (132.96/5.62)
|   |   |   social = problematic: priority (16.34)
|   |   housing = less_conv: priority (142.32/10.21)
|   |   housing = critical
|   |   |   form = complete
|   |   |   |   children = 1: very_recom (96.35/1.02)
|   |   |   |   children = 2: priority (3.06)
|   |   |   |   children = 3: priority (3.06)
|   |   |   |   children = more: priority (3.06)
|   |   |   form = completed: priority (12.26)
|   |   |   form = incomplete: priority (12.26)
|   |   |   form = foster: priority (12.26)
|   has_nurs = improper
|   |   housing = convenient
|   |   |   social = nonprob: very_recom (132.96/5.62)
|   |   |   social = slightly_prob: very_recom (132.96/5.62)
|   |   |   social = problematic: priority (16.34)
|   |   housing = less_conv: priority (142.32/10.21)
|   |   housing = critical
|   |   |   form = complete
|   |   |   |   children = 1: very_recom (96.35/1.02)
|   |   |   |   children = 2: priority (3.06)
|   |   |   |   children = 3: priority (3.06)
|   |   |   |   children = more: priority (3.06)
|   |   |   form = completed: priority (12.26)
|   |   |   form = incomplete: priority (12.26)
|   |   |   form = foster: priority (12.26)
|   has_nurs = critical
|   |   housing = convenient: priority (165.64/5.62)
|   |   housing = less_conv
|   |   |   social = nonprob: priority (16.34)
|   |   |   social = slightly_prob: priority (16.34)
|   |   |   social = problematic: spec_prior (62.99/5.11)
|   |   housing = critical
|   |   |   social = nonprob: priority (16.34)
|   |   |   social = slightly_prob: priority (16.34)
|   |   |   social = problematic
|   |   |   |   form = complete: priority (50.73/3.06)
|   |   |   |   form = completed: spec_prior (4.09)
|   |   |   |   form = incomplete: spec_prior (4.09)
|   |   |   |   form = foster: spec_prior (4.09)
|   has_nurs = very_crit
|   |   form = complete
|   |   |   children = 1: priority (125.81/2.55)
|   |   |   children = 2
|   |   |   |   housing = convenient: priority (3.06/1.02)
|   |   |   |   housing = less_conv: priority (3.06/1.02)
|   |   |   |   housing = critical: spec_prior (3.06)
|   |   |   children = 3: spec_prior (9.19/1.02)
|   |   |   children = more: spec_prior (9.19/1.02)
|   |   form = completed: spec_prior (36.77/10.21)
|   |   form = incomplete: spec_prior (83.42/7.15)
|   |   form = foster: spec_prior (147.6/1.02)
health = priority
|   has_nurs = proper: priority (147.09)
|   has_nurs = less_proper: priority (147.09)
|   has_nurs = improper: priority (147.09)
|   has_nurs = critical
|   |   children = 1
|   |   |   form = complete: priority (149.13)
|   |   |   form = completed
|   |   |   |   housing = convenient: priority (3.06)
|   |   |   |   housing = less_conv: priority (3.06)
|   |   |   |   housing = critical: spec_prior (3.06)
|   |   |   form = incomplete
|   |   |   |   housing = convenient: priority (3.06)
|   |   |   |   housing = less_conv: priority (3.06)
|   |   |   |   housing = critical: spec_prior (3.06)
|   |   |   form = foster: spec_prior (9.19/1.53)
|   |   children = 2
|   |   |   housing = convenient: priority (12.26/3.06)
|   |   |   housing = less_conv
|   |   |   |   form = complete: priority (3.06)
|   |   |   |   form = completed: priority (3.06)
|   |   |   |   form = incomplete: spec_prior (3.06)
|   |   |   |   form = foster: spec_prior (3.06)
|   |   |   housing = critical: spec_prior (12.26)
|   |   children = 3
|   |   |   housing = convenient
|   |   |   |   finance = convenient: priority (6.13)
|   |   |   |   finance = inconv: spec_prior (6.13)
|   |   |   housing = less_conv: spec_prior (12.26)
|   |   |   housing = critical: spec_prior (12.26)
|   |   children = more
|   |   |   housing = convenient
|   |   |   |   finance = convenient: priority (6.13)
|   |   |   |   finance = inconv: spec_prior (6.13)
|   |   |   housing = less_conv: spec_prior (12.26)
|   |   |   housing = critical: spec_prior (12.26)
|   has_nurs = very_crit
|   |   housing = convenient
|   |   |   form = complete
|   |   |   |   finance = convenient: priority (76.1/4.6)
|   |   |   |   finance = inconv: spec_prior (6.13)
|   |   |   form = completed: spec_prior (12.26)
|   |   |   form = incomplete: spec_prior (12.26)
|   |   |   form = foster: spec_prior (3.06)
|   |   housing = less_conv: spec_prior (39.84)
|   |   housing = critical: spec_prior (37.79)
health = not_recom: not_recom (705.81)

Number of Leaves  : 	99

Size of the tree : 	140


Weight: 3.57

J48 pruned tree
------------------

health = recommended
|   has_nurs = proper
|   |   social = nonprob
|   |   |   form = complete
|   |   |   |   children = 1
|   |   |   |   |   housing = convenient
|   |   |   |   |   |   finance = convenient: recommend (12.25)
|   |   |   |   |   |   finance = inconv: very_recom (12.25)
|   |   |   |   |   housing = less_conv: very_recom (18.68)
|   |   |   |   |   housing = critical: very_recom (24.5)
|   |   |   |   children = 2: very_recom (40.8/0.53)
|   |   |   |   children = 3: very_recom (10.65/1.31)
|   |   |   |   children = more: very_recom (10.65/1.31)
|   |   |   form = completed
|   |   |   |   housing = convenient: very_recom (26.08/0.53)
|   |   |   |   housing = less_conv: very_recom (38.41/1.05)
|   |   |   |   housing = critical: priority (2.1)
|   |   |   form = incomplete
|   |   |   |   housing = convenient: very_recom (14.09/0.79)
|   |   |   |   housing = less_conv: very_recom (20.26/1.58)
|   |   |   |   housing = critical: priority (2.1)
|   |   |   form = foster: priority (39.36/1.05)
|   |   social = slightly_prob
|   |   |   form = complete
|   |   |   |   children = 1
|   |   |   |   |   housing = convenient
|   |   |   |   |   |   finance = convenient: recommend (12.25)
|   |   |   |   |   |   finance = inconv: very_recom (12.25)
|   |   |   |   |   housing = less_conv: very_recom (18.68)
|   |   |   |   |   housing = critical: very_recom (24.5)
|   |   |   |   children = 2: very_recom (40.8/0.53)
|   |   |   |   children = 3: very_recom (10.65/1.31)
|   |   |   |   children = more: very_recom (10.65/1.31)
|   |   |   form = completed
|   |   |   |   housing = convenient: very_recom (26.08/0.53)
|   |   |   |   housing = less_conv: very_recom (38.41/1.05)
|   |   |   |   housing = critical: priority (2.1)
|   |   |   form = incomplete
|   |   |   |   housing = convenient: very_recom (14.09/0.79)
|   |   |   |   housing = less_conv: very_recom (20.26/1.58)
|   |   |   |   housing = critical: priority (2.1)
|   |   |   form = foster: priority (39.36/1.05)
|   |   social = problematic: priority (134.13)
|   has_nurs = less_proper
|   |   children = 1
|   |   |   form = complete
|   |   |   |   social = nonprob: very_recom (55.7)
|   |   |   |   social = slightly_prob: very_recom (55.7)
|   |   |   |   social = problematic: priority (19.73)
|   |   |   form = completed: very_recom (65.01/2.63)
|   |   |   form = incomplete: very_recom (65.01/2.63)
|   |   |   form = foster: priority (70.84/0.53)
|   |   children = 2
|   |   |   form = complete: very_recom (65.01/2.63)
|   |   |   form = completed: very_recom (65.01/2.63)
|   |   |   form = incomplete: priority (22.88/0.53)
|   |   |   form = foster: priority (22.88/0.53)
|   |   children = 3: priority (91.52/2.1)
|   |   children = more: priority (91.52/2.1)
|   has_nurs = improper
|   |   children = 1
|   |   |   form = complete
|   |   |   |   social = nonprob: very_recom (55.7)
|   |   |   |   social = slightly_prob: very_recom (55.7)
|   |   |   |   social = problematic: priority (19.73)
|   |   |   form = completed: very_recom (65.01/2.63)
|   |   |   form = incomplete: very_recom (65.01/2.63)
|   |   |   form = foster: priority (70.84/0.53)
|   |   children = 2
|   |   |   form = complete: very_recom (65.01/2.63)
|   |   |   form = completed: very_recom (65.01/2.63)
|   |   |   form = incomplete: priority (22.88/0.53)
|   |   |   form = foster: priority (22.88/0.53)
|   |   children = 3: priority (91.52/2.1)
|   |   children = more: priority (91.52/2.1)
|   has_nurs = critical
|   |   social = nonprob: priority (25.2)
|   |   social = slightly_prob: priority (25.2)
|   |   social = problematic
|   |   |   children = 1
|   |   |   |   form = complete: priority (55.7)
|   |   |   |   form = completed: priority (31.72/0.53)
|   |   |   |   form = incomplete: priority (31.72/0.53)
|   |   |   |   form = foster: spec_prior (34.63/0.26)
|   |   |   children = 2
|   |   |   |   housing = convenient
|   |   |   |   |   form = complete: priority (12.51)
|   |   |   |   |   form = completed: priority (12.51)
|   |   |   |   |   form = incomplete: spec_prior (9.6/0.26)
|   |   |   |   |   form = foster: spec_prior (9.6/0.26)
|   |   |   |   housing = less_conv: priority (38.41/1.05)
|   |   |   |   housing = critical: spec_prior (20.26)
|   |   |   children = 3: spec_prior (60.77/1.05)
|   |   |   children = more: spec_prior (60.77/1.05)
|   has_nurs = very_crit
|   |   social = nonprob
|   |   |   form = complete: priority (48.43/3.15)
|   |   |   form = completed
|   |   |   |   housing = convenient: priority (56.57/0.53)
|   |   |   |   housing = less_conv: priority (38.41/1.05)
|   |   |   |   housing = critical: spec_prior (2.1)
|   |   |   form = incomplete
|   |   |   |   finance = convenient: priority (48.54/1.84)
|   |   |   |   finance = inconv
|   |   |   |   |   children = 1: priority (18.94/0.26)
|   |   |   |   |   children = 2: spec_prior (12.78)
|   |   |   |   |   children = 3: spec_prior (0.79)
|   |   |   |   |   children = more: spec_prior (0.79)
|   |   |   form = foster
|   |   |   |   housing = convenient
|   |   |   |   |   finance = convenient: priority (9.34)
|   |   |   |   |   finance = inconv: spec_prior (12.25)
|   |   |   |   housing = less_conv: spec_prior (24.5)
|   |   |   |   housing = critical: spec_prior (0.26)
|   |   social = slightly_prob
|   |   |   form = complete: priority (48.43/3.15)
|   |   |   form = completed
|   |   |   |   housing = convenient: priority (56.57/0.53)
|   |   |   |   housing = less_conv: priority (38.41/1.05)
|   |   |   |   housing = critical: spec_prior (2.1)
|   |   |   form = incomplete
|   |   |   |   finance = convenient: priority (48.54/1.84)
|   |   |   |   finance = inconv
|   |   |   |   |   children = 1: priority (18.94/0.26)
|   |   |   |   |   children = 2: spec_prior (12.78)
|   |   |   |   |   children = 3: spec_prior (0.79)
|   |   |   |   |   children = more: spec_prior (0.79)
|   |   |   form = foster
|   |   |   |   housing = convenient
|   |   |   |   |   finance = convenient: priority (9.34)
|   |   |   |   |   finance = inconv: spec_prior (12.25)
|   |   |   |   housing = less_conv: spec_prior (24.5)
|   |   |   |   housing = critical: spec_prior (0.26)
|   |   social = problematic
|   |   |   finance = convenient
|   |   |   |   housing = convenient
|   |   |   |   |   children = 1: priority (13.04/0.79)
|   |   |   |   |   children = 2: spec_prior (9.87)
|   |   |   |   |   children = 3: spec_prior (0.79)
|   |   |   |   |   children = more: spec_prior (0.79)
|   |   |   |   housing = less_conv: spec_prior (21.57)
|   |   |   |   housing = critical: spec_prior (12.49)
|   |   |   finance = inconv: spec_prior (55.36)
health = priority
|   has_nurs = proper: priority (75.61)
|   has_nurs = less_proper: priority (75.61)
|   has_nurs = improper: priority (75.61)
|   has_nurs = critical
|   |   children = 1: priority (118.07/7.09)
|   |   children = 2
|   |   |   finance = convenient
|   |   |   |   housing = convenient: priority (3.15)
|   |   |   |   housing = less_conv: priority (3.15/1.58)
|   |   |   |   housing = critical: spec_prior (3.15)
|   |   |   finance = inconv: spec_prior (63.92/3.15)
|   |   children = 3
|   |   |   housing = convenient
|   |   |   |   finance = convenient: priority (3.15)
|   |   |   |   finance = inconv: spec_prior (3.15)
|   |   |   housing = less_conv: spec_prior (6.3)
|   |   |   housing = critical: spec_prior (6.3)
|   |   children = more
|   |   |   housing = convenient
|   |   |   |   finance = convenient: priority (3.15)
|   |   |   |   finance = inconv: spec_prior (3.15)
|   |   |   housing = less_conv: spec_prior (6.3)
|   |   |   housing = critical: spec_prior (6.3)
|   has_nurs = very_crit
|   |   children = 1
|   |   |   housing = convenient
|   |   |   |   finance = convenient: priority (39.12/2.36)
|   |   |   |   finance = inconv: spec_prior (3.15)
|   |   |   housing = less_conv: spec_prior (6.3)
|   |   |   housing = critical: spec_prior (5.25)
|   |   children = 2: spec_prior (41.41)
|   |   children = 3: spec_prior (41.41)
|   |   children = more: spec_prior (41.41)
health = not_recom: not_recom (362.82)

Number of Leaves  : 	124

Size of the tree : 	179


Weight: 3.9

J48 pruned tree
------------------

health = recommended
|   has_nurs = proper
|   |   children = 1
|   |   |   social = nonprob
|   |   |   |   form = complete
|   |   |   |   |   housing = convenient
|   |   |   |   |   |   finance = convenient: recommend (6.25)
|   |   |   |   |   |   finance = inconv: very_recom (6.25)
|   |   |   |   |   housing = less_conv: very_recom (9.53)
|   |   |   |   |   housing = critical: very_recom (12.5)
|   |   |   |   form = completed: very_recom (16.18/0.27)
|   |   |   |   form = incomplete: very_recom (16.18/0.27)
|   |   |   |   form = foster
|   |   |   |   |   housing = convenient
|   |   |   |   |   |   finance = convenient: very_recom (6.6)
|   |   |   |   |   |   finance = inconv: priority (4.76)
|   |   |   |   |   housing = less_conv: priority (12.5)
|   |   |   |   |   housing = critical: priority (0.27)
|   |   |   social = slightly_prob
|   |   |   |   form = complete
|   |   |   |   |   housing = convenient
|   |   |   |   |   |   finance = convenient: recommend (6.25)
|   |   |   |   |   |   finance = inconv: very_recom (6.25)
|   |   |   |   |   housing = less_conv: very_recom (9.53)
|   |   |   |   |   housing = critical: very_recom (12.5)
|   |   |   |   form = completed: very_recom (16.18/0.27)
|   |   |   |   form = incomplete: very_recom (16.18/0.27)
|   |   |   |   form = foster
|   |   |   |   |   housing = convenient
|   |   |   |   |   |   finance = convenient: very_recom (6.6)
|   |   |   |   |   |   finance = inconv: priority (4.76)
|   |   |   |   |   housing = less_conv: priority (12.5)
|   |   |   |   |   housing = critical: priority (0.27)
|   |   |   social = problematic: priority (35.63)
|   |   children = 2
|   |   |   form = complete
|   |   |   |   housing = convenient
|   |   |   |   |   social = nonprob: very_recom (11.01)
|   |   |   |   |   social = slightly_prob: very_recom (11.01)
|   |   |   |   |   social = problematic: priority (9.53)
|   |   |   |   housing = less_conv: very_recom (19.33/0.27)
|   |   |   |   housing = critical: priority (26.68)
|   |   |   form = completed
|   |   |   |   social = nonprob: very_recom (16.18/0.27)
|   |   |   |   social = slightly_prob: very_recom (16.18/0.27)
|   |   |   |   social = problematic: priority (5.43)
|   |   |   form = incomplete: priority (41.23/0.27)
|   |   |   form = foster: very_recom (15.35/2.14)
|   |   children = 3
|   |   |   finance = convenient
|   |   |   |   housing = convenient
|   |   |   |   |   social = nonprob: very_recom (11.64)
|   |   |   |   |   social = slightly_prob: very_recom (11.64)
|   |   |   |   |   social = problematic: priority (5.17)
|   |   |   |   housing = less_conv: priority (40.42)
|   |   |   |   housing = critical: priority (14.55)
|   |   |   finance = inconv: priority (95.4)
|   |   children = more
|   |   |   finance = convenient
|   |   |   |   housing = convenient
|   |   |   |   |   social = nonprob: very_recom (11.64)
|   |   |   |   |   social = slightly_prob: very_recom (11.64)
|   |   |   |   |   social = problematic: priority (5.17)
|   |   |   |   housing = less_conv: priority (40.42)
|   |   |   |   housing = critical: priority (14.55)
|   |   |   finance = inconv: priority (95.4)
|   has_nurs = less_proper
|   |   social = nonprob
|   |   |   housing = convenient
|   |   |   |   finance = convenient: very_recom (73.31)
|   |   |   |   finance = inconv
|   |   |   |   |   children = 1
|   |   |   |   |   |   form = complete: very_recom (6.25)
|   |   |   |   |   |   form = completed: very_recom (6.25)
|   |   |   |   |   |   form = incomplete: very_recom (6.25)
|   |   |   |   |   |   form = foster: priority (4.76)
|   |   |   |   |   children = 2
|   |   |   |   |   |   form = complete: very_recom (6.25)
|   |   |   |   |   |   form = completed: very_recom (6.25)
|   |   |   |   |   |   form = incomplete: priority (4.76)
|   |   |   |   |   |   form = foster: priority (4.76)
|   |   |   |   |   children = 3: priority (19.06)
|   |   |   |   |   children = more: priority (19.06)
|   |   |   housing = less_conv
|   |   |   |   form = complete: very_recom (19.59/0.54)
|   |   |   |   form = completed: very_recom (19.59/0.54)
|   |   |   |   form = incomplete: very_recom (10.33/0.8)
|   |   |   |   form = foster: priority (13.3)
|   |   |   housing = critical
|   |   |   |   form = complete
|   |   |   |   |   children = 1: very_recom (12.5)
|   |   |   |   |   children = 2: priority (13.21)
|   |   |   |   |   children = 3: priority (0.27)
|   |   |   |   |   children = more: priority (0.27)
|   |   |   |   form = completed: priority (26.95)
|   |   |   |   form = incomplete: priority (14.01)
|   |   |   |   form = foster: priority (1.07)
|   |   social = slightly_prob
|   |   |   housing = convenient
|   |   |   |   finance = convenient: very_recom (73.31)
|   |   |   |   finance = inconv
|   |   |   |   |   children = 1
|   |   |   |   |   |   form = complete: very_recom (6.25)
|   |   |   |   |   |   form = completed: very_recom (6.25)
|   |   |   |   |   |   form = incomplete: very_recom (6.25)
|   |   |   |   |   |   form = foster: priority (4.76)
|   |   |   |   |   children = 2
|   |   |   |   |   |   form = complete: very_recom (6.25)
|   |   |   |   |   |   form = completed: very_recom (6.25)
|   |   |   |   |   |   form = incomplete: priority (4.76)
|   |   |   |   |   |   form = foster: priority (4.76)
|   |   |   |   |   children = 3: priority (19.06)
|   |   |   |   |   children = more: priority (19.06)
|   |   |   housing = less_conv
|   |   |   |   form = complete: very_recom (19.59/0.54)
|   |   |   |   form = completed: very_recom (19.59/0.54)
|   |   |   |   form = incomplete: very_recom (10.33/0.8)
|   |   |   |   form = foster: priority (13.3)
|   |   |   housing = critical
|   |   |   |   form = complete
|   |   |   |   |   children = 1: very_recom (12.5)
|   |   |   |   |   children = 2: priority (13.21)
|   |   |   |   |   children = 3: priority (0.27)
|   |   |   |   |   children = more: priority (0.27)
|   |   |   |   form = completed: priority (26.95)
|   |   |   |   form = incomplete: priority (14.01)
|   |   |   |   form = foster: priority (1.07)
|   |   social = problematic: priority (177.39)
|   has_nurs = improper
|   |   social = nonprob
|   |   |   housing = convenient
|   |   |   |   finance = convenient: very_recom (73.31)
|   |   |   |   finance = inconv
|   |   |   |   |   children = 1
|   |   |   |   |   |   form = complete: very_recom (6.25)
|   |   |   |   |   |   form = completed: very_recom (6.25)
|   |   |   |   |   |   form = incomplete: very_recom (6.25)
|   |   |   |   |   |   form = foster: priority (4.76)
|   |   |   |   |   children = 2
|   |   |   |   |   |   form = complete: very_recom (6.25)
|   |   |   |   |   |   form = completed: very_recom (6.25)
|   |   |   |   |   |   form = incomplete: priority (4.76)
|   |   |   |   |   |   form = foster: priority (4.76)
|   |   |   |   |   children = 3: priority (19.06)
|   |   |   |   |   children = more: priority (19.06)
|   |   |   housing = less_conv
|   |   |   |   form = complete: very_recom (19.59/0.54)
|   |   |   |   form = completed: very_recom (19.59/0.54)
|   |   |   |   form = incomplete: very_recom (10.33/0.8)
|   |   |   |   form = foster: priority (13.3)
|   |   |   housing = critical
|   |   |   |   form = complete
|   |   |   |   |   children = 1: very_recom (12.5)
|   |   |   |   |   children = 2: priority (13.21)
|   |   |   |   |   children = 3: priority (0.27)
|   |   |   |   |   children = more: priority (0.27)
|   |   |   |   form = completed: priority (26.95)
|   |   |   |   form = incomplete: priority (14.01)
|   |   |   |   form = foster: priority (1.07)
|   |   social = slightly_prob
|   |   |   housing = convenient
|   |   |   |   finance = convenient: very_recom (73.31)
|   |   |   |   finance = inconv
|   |   |   |   |   children = 1
|   |   |   |   |   |   form = complete: very_recom (6.25)
|   |   |   |   |   |   form = completed: very_recom (6.25)
|   |   |   |   |   |   form = incomplete: very_recom (6.25)
|   |   |   |   |   |   form = foster: priority (4.76)
|   |   |   |   |   children = 2
|   |   |   |   |   |   form = complete: very_recom (6.25)
|   |   |   |   |   |   form = completed: very_recom (6.25)
|   |   |   |   |   |   form = incomplete: priority (4.76)
|   |   |   |   |   |   form = foster: priority (4.76)
|   |   |   |   |   children = 3: priority (19.06)
|   |   |   |   |   children = more: priority (19.06)
|   |   |   housing = less_conv
|   |   |   |   form = complete: very_recom (19.59/0.54)
|   |   |   |   form = completed: very_recom (19.59/0.54)
|   |   |   |   form = incomplete: very_recom (10.33/0.8)
|   |   |   |   form = foster: priority (13.3)
|   |   |   housing = critical
|   |   |   |   form = complete
|   |   |   |   |   children = 1: very_recom (12.5)
|   |   |   |   |   children = 2: priority (13.21)
|   |   |   |   |   children = 3: priority (0.27)
|   |   |   |   |   children = more: priority (0.27)
|   |   |   |   form = completed: priority (26.95)
|   |   |   |   form = incomplete: priority (14.01)
|   |   |   |   form = foster: priority (1.07)
|   |   social = problematic: priority (177.39)
|   has_nurs = critical
|   |   social = nonprob: priority (12.86)
|   |   social = slightly_prob: priority (12.86)
|   |   social = problematic
|   |   |   housing = convenient
|   |   |   |   finance = convenient: priority (73.31)
|   |   |   |   finance = inconv
|   |   |   |   |   children = 1
|   |   |   |   |   |   form = complete: priority (6.25)
|   |   |   |   |   |   form = completed: priority (6.25)
|   |   |   |   |   |   form = incomplete: priority (6.25)
|   |   |   |   |   |   form = foster: spec_prior (4.76)
|   |   |   |   |   children = 2
|   |   |   |   |   |   form = complete: priority (6.25)
|   |   |   |   |   |   form = completed: priority (6.25)
|   |   |   |   |   |   form = incomplete: spec_prior (4.76)
|   |   |   |   |   |   form = foster: spec_prior (4.76)
|   |   |   |   |   children = 3: spec_prior (19.06)
|   |   |   |   |   children = more: spec_prior (19.06)
|   |   |   housing = less_conv
|   |   |   |   form = complete: priority (19.59/0.54)
|   |   |   |   form = completed: priority (19.59/0.54)
|   |   |   |   form = incomplete
|   |   |   |   |   children = 1: priority (9.53)
|   |   |   |   |   children = 2: spec_prior (13.21)
|   |   |   |   |   children = 3: spec_prior (0.27)
|   |   |   |   |   children = more: spec_prior (0.27)
|   |   |   |   form = foster: spec_prior (26.24)
|   |   |   housing = critical
|   |   |   |   form = complete
|   |   |   |   |   children = 1: priority (12.5)
|   |   |   |   |   children = 2: spec_prior (9.53)
|   |   |   |   |   children = 3: spec_prior (9.53)
|   |   |   |   |   children = more: spec_prior (9.53)
|   |   |   |   form = completed: spec_prior (14.01)
|   |   |   |   form = incomplete: spec_prior (14.01)
|   |   |   |   form = foster: spec_prior (1.07)
|   has_nurs = very_crit
|   |   housing = convenient
|   |   |   finance = convenient
|   |   |   |   social = nonprob: priority (52.68)
|   |   |   |   social = slightly_prob: priority (52.68)
|   |   |   |   social = problematic
|   |   |   |   |   form = complete
|   |   |   |   |   |   children = 1: priority (6.25)
|   |   |   |   |   |   children = 2: spec_prior (4.76)
|   |   |   |   |   |   children = 3: spec_prior (0.13)
|   |   |   |   |   |   children = more: spec_prior (0.13)
|   |   |   |   |   form = completed: spec_prior (7.01)
|   |   |   |   |   form = incomplete: spec_prior (7.01)
|   |   |   |   |   form = foster: spec_prior (6.6)
|   |   |   finance = inconv
|   |   |   |   children = 1
|   |   |   |   |   form = complete: spec_prior (5.03/0.27)
|   |   |   |   |   form = completed: priority (9.66/0.13)
|   |   |   |   |   form = incomplete: priority (9.66/0.13)
|   |   |   |   |   form = foster: spec_prior (12.63)
|   |   |   |   children = 2
|   |   |   |   |   form = complete: spec_prior (5.03/0.27)
|   |   |   |   |   form = completed: priority (9.66/0.13)
|   |   |   |   |   form = incomplete: spec_prior (12.63)
|   |   |   |   |   form = foster: spec_prior (0.0)
|   |   |   |   children = 3: spec_prior (27.08)
|   |   |   |   children = more: spec_prior (27.08)
|   |   housing = less_conv
|   |   |   children = 1
|   |   |   |   form = complete: spec_prior (10.07/0.54)
|   |   |   |   form = completed: priority (19.33/0.27)
|   |   |   |   form = incomplete: priority (19.33/0.27)
|   |   |   |   form = foster: spec_prior (25.27)
|   |   |   children = 2
|   |   |   |   form = complete: spec_prior (10.07/0.54)
|   |   |   |   form = completed: priority (19.33/0.27)
|   |   |   |   form = incomplete: spec_prior (13.74)
|   |   |   |   form = foster: spec_prior (0.0)
|   |   |   children = 3: spec_prior (67.11)
|   |   |   children = more: spec_prior (67.11)
|   |   housing = critical
|   |   |   children = 1
|   |   |   |   form = complete
|   |   |   |   |   social = nonprob: priority (12.5)
|   |   |   |   |   social = slightly_prob: priority (12.5)
|   |   |   |   |   social = problematic: spec_prior (9.53)
|   |   |   |   form = completed: spec_prior (0.8)
|   |   |   |   form = incomplete: spec_prior (26.68)
|   |   |   |   form = foster: spec_prior (0.4)
|   |   |   children = 2: spec_prior (41.23)
|   |   |   children = 3: spec_prior (41.23)
|   |   |   children = more: spec_prior (41.23)
health = priority
|   has_nurs = proper: priority (38.57)
|   has_nurs = less_proper: priority (38.57)
|   has_nurs = improper: priority (38.57)
|   has_nurs = critical
|   |   form = complete
|   |   |   children = 1: priority (39.11)
|   |   |   children = 2: priority (41.23/0.8)
|   |   |   children = 3: spec_prior (2.41/0.4)
|   |   |   children = more: spec_prior (2.41/0.4)
|   |   form = completed
|   |   |   children = 1: spec_prior (41.23/1.61)
|   |   |   children = 2: priority (41.23/0.8)
|   |   |   children = 3: spec_prior (2.41/0.4)
|   |   |   children = more: spec_prior (2.41/0.4)
|   |   form = incomplete: spec_prior (81.76/2.81)
|   |   form = foster
|   |   |   housing = convenient
|   |   |   |   finance = convenient: priority (15.5)
|   |   |   |   finance = inconv: spec_prior (34.91)
|   |   |   housing = less_conv: spec_prior (61.44)
|   |   |   housing = critical: spec_prior (42.03)
|   has_nurs = very_crit
|   |   form = complete
|   |   |   children = 1: priority (20.76/2.01)
|   |   |   children = 2: spec_prior (16.3)
|   |   |   children = 3: spec_prior (16.3)
|   |   |   children = more: spec_prior (16.3)
|   |   form = completed: spec_prior (29.05)
|   |   form = incomplete: spec_prior (29.05)
|   |   form = foster: spec_prior (21.28)
health = not_recom: not_recom (185.09)

Number of Leaves  : 	222

Size of the tree : 	312


Weight: 5.09

J48 pruned tree
------------------

health = recommended
|   has_nurs = proper
|   |   housing = convenient
|   |   |   finance = convenient
|   |   |   |   social = nonprob: very_recom (35.07/3.14)
|   |   |   |   social = slightly_prob: very_recom (35.07/3.14)
|   |   |   |   social = problematic: priority (21.3)
|   |   |   finance = inconv
|   |   |   |   children = 1
|   |   |   |   |   social = nonprob: very_recom (11.83/2.4)
|   |   |   |   |   social = slightly_prob: very_recom (11.83/2.4)
|   |   |   |   |   social = problematic: priority (9.59)
|   |   |   |   children = 2
|   |   |   |   |   form = complete
|   |   |   |   |   |   social = nonprob: very_recom (3.14)
|   |   |   |   |   |   social = slightly_prob: very_recom (3.14)
|   |   |   |   |   |   social = problematic: priority (2.4)
|   |   |   |   |   form = completed
|   |   |   |   |   |   social = nonprob: very_recom (3.14)
|   |   |   |   |   |   social = slightly_prob: very_recom (3.14)
|   |   |   |   |   |   social = problematic: priority (2.4)
|   |   |   |   |   form = incomplete: priority (6.71)
|   |   |   |   |   form = foster: priority (32.91)
|   |   |   |   children = 3: priority (20.34)
|   |   |   |   children = more: priority (20.34)
|   |   housing = less_conv
|   |   |   children = 1
|   |   |   |   form = complete: very_recom (9.72/0.13)
|   |   |   |   form = completed: very_recom (9.72/0.13)
|   |   |   |   form = incomplete: very_recom (9.72/0.13)
|   |   |   |   form = foster: priority (12.71)
|   |   |   children = 2
|   |   |   |   form = complete
|   |   |   |   |   social = nonprob: very_recom (4.79)
|   |   |   |   |   social = slightly_prob: very_recom (4.79)
|   |   |   |   |   social = problematic: priority (21.94)
|   |   |   |   form = completed: very_recom (9.72/0.13)
|   |   |   |   form = incomplete: priority (13.42)
|   |   |   |   form = foster: priority (65.83)
|   |   |   children = 3: priority (40.67)
|   |   |   children = more: priority (40.67)
|   |   housing = critical
|   |   |   form = complete
|   |   |   |   children = 1
|   |   |   |   |   social = nonprob: very_recom (6.29)
|   |   |   |   |   social = slightly_prob: very_recom (6.29)
|   |   |   |   |   social = problematic: priority (4.79)
|   |   |   |   children = 2: priority (13.42)
|   |   |   |   children = 3: priority (13.42)
|   |   |   |   children = more: priority (13.42)
|   |   |   form = completed: priority (88.85)
|   |   |   form = incomplete: priority (45.23)
|   |   |   form = foster: priority (67.04)
|   has_nurs = less_proper
|   |   housing = convenient
|   |   |   finance = convenient
|   |   |   |   social = nonprob: very_recom (36.88)
|   |   |   |   social = slightly_prob: very_recom (36.88)
|   |   |   |   social = problematic: priority (14.1)
|   |   |   finance = inconv
|   |   |   |   children = 1
|   |   |   |   |   social = nonprob: very_recom (11.83/2.4)
|   |   |   |   |   social = slightly_prob: very_recom (11.83/2.4)
|   |   |   |   |   social = problematic: priority (6.78)
|   |   |   |   children = 2
|   |   |   |   |   form = complete
|   |   |   |   |   |   social = nonprob: very_recom (3.14)
|   |   |   |   |   |   social = slightly_prob: very_recom (3.14)
|   |   |   |   |   |   social = problematic: priority (3.32)
|   |   |   |   |   form = completed
|   |   |   |   |   |   social = nonprob: very_recom (3.14)
|   |   |   |   |   |   social = slightly_prob: very_recom (3.14)
|   |   |   |   |   |   social = problematic: priority (3.32)
|   |   |   |   |   form = incomplete: priority (4.86)
|   |   |   |   |   form = foster: priority (4.86)
|   |   |   |   children = 3: priority (19.45)
|   |   |   |   children = more: priority (19.45)
|   |   housing = less_conv
|   |   |   children = 1
|   |   |   |   social = nonprob
|   |   |   |   |   form = complete: very_recom (4.79)
|   |   |   |   |   form = completed: very_recom (4.79)
|   |   |   |   |   form = incomplete: very_recom (4.79)
|   |   |   |   |   form = foster: priority (6.29)
|   |   |   |   social = slightly_prob
|   |   |   |   |   form = complete: very_recom (4.79)
|   |   |   |   |   form = completed: very_recom (4.79)
|   |   |   |   |   form = incomplete: very_recom (4.79)
|   |   |   |   |   form = foster: priority (6.29)
|   |   |   |   social = problematic: priority (13.56)
|   |   |   children = 2
|   |   |   |   form = complete
|   |   |   |   |   social = nonprob: very_recom (4.79)
|   |   |   |   |   social = slightly_prob: very_recom (4.79)
|   |   |   |   |   social = problematic: priority (6.64)
|   |   |   |   form = completed
|   |   |   |   |   social = nonprob: very_recom (4.79)
|   |   |   |   |   social = slightly_prob: very_recom (4.79)
|   |   |   |   |   social = problematic: priority (6.64)
|   |   |   |   form = incomplete: priority (44.02)
|   |   |   |   form = foster: priority (0.4)
|   |   |   children = 3: priority (132.46)
|   |   |   children = more: priority (132.46)
|   |   housing = critical
|   |   |   form = complete
|   |   |   |   children = 1
|   |   |   |   |   social = nonprob: very_recom (6.29)
|   |   |   |   |   social = slightly_prob: very_recom (6.29)
|   |   |   |   |   social = problematic: priority (4.79)
|   |   |   |   children = 2: priority (19.93)
|   |   |   |   children = 3: priority (0.4)
|   |   |   |   children = more: priority (0.4)
|   |   |   form = completed: priority (40.67)
|   |   |   form = incomplete: priority (21.14)
|   |   |   form = foster: priority (1.62)
|   has_nurs = improper
|   |   housing = convenient
|   |   |   finance = convenient
|   |   |   |   social = nonprob: very_recom (36.88)
|   |   |   |   social = slightly_prob: very_recom (36.88)
|   |   |   |   social = problematic: priority (14.1)
|   |   |   finance = inconv
|   |   |   |   children = 1
|   |   |   |   |   social = nonprob: very_recom (11.83/2.4)
|   |   |   |   |   social = slightly_prob: very_recom (11.83/2.4)
|   |   |   |   |   social = problematic: priority (6.78)
|   |   |   |   children = 2
|   |   |   |   |   form = complete
|   |   |   |   |   |   social = nonprob: very_recom (3.14)
|   |   |   |   |   |   social = slightly_prob: very_recom (3.14)
|   |   |   |   |   |   social = problematic: priority (3.32)
|   |   |   |   |   form = completed
|   |   |   |   |   |   social = nonprob: very_recom (3.14)
|   |   |   |   |   |   social = slightly_prob: very_recom (3.14)
|   |   |   |   |   |   social = problematic: priority (3.32)
|   |   |   |   |   form = incomplete: priority (4.86)
|   |   |   |   |   form = foster: priority (4.86)
|   |   |   |   children = 3: priority (19.45)
|   |   |   |   children = more: priority (19.45)
|   |   housing = less_conv
|   |   |   children = 1
|   |   |   |   social = nonprob
|   |   |   |   |   form = complete: very_recom (4.79)
|   |   |   |   |   form = completed: very_recom (4.79)
|   |   |   |   |   form = incomplete: very_recom (4.79)
|   |   |   |   |   form = foster: priority (6.29)
|   |   |   |   social = slightly_prob
|   |   |   |   |   form = complete: very_recom (4.79)
|   |   |   |   |   form = completed: very_recom (4.79)
|   |   |   |   |   form = incomplete: very_recom (4.79)
|   |   |   |   |   form = foster: priority (6.29)
|   |   |   |   social = problematic: priority (13.56)
|   |   |   children = 2
|   |   |   |   form = complete
|   |   |   |   |   social = nonprob: very_recom (4.79)
|   |   |   |   |   social = slightly_prob: very_recom (4.79)
|   |   |   |   |   social = problematic: priority (6.64)
|   |   |   |   form = completed
|   |   |   |   |   social = nonprob: very_recom (4.79)
|   |   |   |   |   social = slightly_prob: very_recom (4.79)
|   |   |   |   |   social = problematic: priority (6.64)
|   |   |   |   form = incomplete: priority (44.02)
|   |   |   |   form = foster: priority (0.4)
|   |   |   children = 3: priority (132.46)
|   |   |   children = more: priority (132.46)
|   |   housing = critical
|   |   |   form = complete
|   |   |   |   children = 1
|   |   |   |   |   social = nonprob: very_recom (6.29)
|   |   |   |   |   social = slightly_prob: very_recom (6.29)
|   |   |   |   |   social = problematic: priority (4.79)
|   |   |   |   children = 2: priority (19.93)
|   |   |   |   children = 3: priority (0.4)
|   |   |   |   children = more: priority (0.4)
|   |   |   form = completed: priority (40.67)
|   |   |   form = incomplete: priority (21.14)
|   |   |   form = foster: priority (1.62)
|   has_nurs = critical
|   |   social = nonprob: priority (6.47)
|   |   social = slightly_prob: priority (6.47)
|   |   social = problematic
|   |   |   housing = convenient
|   |   |   |   finance = convenient: priority (36.88)
|   |   |   |   finance = inconv
|   |   |   |   |   children = 1: priority (11.83/2.4)
|   |   |   |   |   children = 2
|   |   |   |   |   |   form = complete: priority (3.14)
|   |   |   |   |   |   form = completed: priority (3.14)
|   |   |   |   |   |   form = incomplete: spec_prior (2.4)
|   |   |   |   |   |   form = foster: spec_prior (2.4)
|   |   |   |   |   children = 3: spec_prior (9.59)
|   |   |   |   |   children = more: spec_prior (9.59)
|   |   |   housing = less_conv
|   |   |   |   children = 1
|   |   |   |   |   form = complete: priority (4.79)
|   |   |   |   |   form = completed: priority (4.79)
|   |   |   |   |   form = incomplete: priority (4.79)
|   |   |   |   |   form = foster: spec_prior (6.29)
|   |   |   |   children = 2
|   |   |   |   |   form = complete: priority (4.79)
|   |   |   |   |   form = completed: priority (4.79)
|   |   |   |   |   form = incomplete: spec_prior (6.64)
|   |   |   |   |   form = foster: spec_prior (6.64)
|   |   |   |   children = 3: spec_prior (44.15)
|   |   |   |   children = more: spec_prior (44.15)
|   |   |   housing = critical
|   |   |   |   form = complete
|   |   |   |   |   children = 1: priority (6.29)
|   |   |   |   |   children = 2: spec_prior (4.79)
|   |   |   |   |   children = 3: spec_prior (4.79)
|   |   |   |   |   children = more: spec_prior (4.79)
|   |   |   |   form = completed: spec_prior (7.05)
|   |   |   |   form = incomplete: spec_prior (7.05)
|   |   |   |   form = foster: spec_prior (0.54)
|   has_nurs = very_crit
|   |   social = nonprob
|   |   |   children = 1
|   |   |   |   form = complete: priority (39.27)
|   |   |   |   form = completed: priority (9.72/0.13)
|   |   |   |   form = incomplete
|   |   |   |   |   housing = convenient: priority (4.79)
|   |   |   |   |   housing = less_conv: priority (4.79)
|   |   |   |   |   housing = critical: spec_prior (6.64)
|   |   |   |   form = foster
|   |   |   |   |   housing = convenient
|   |   |   |   |   |   finance = convenient: priority (2.4)
|   |   |   |   |   |   finance = inconv: spec_prior (3.14)
|   |   |   |   |   housing = less_conv: spec_prior (6.29)
|   |   |   |   |   housing = critical: spec_prior (0.07)
|   |   |   children = 2
|   |   |   |   housing = convenient
|   |   |   |   |   form = complete: priority (11.04)
|   |   |   |   |   form = completed: priority (4.79)
|   |   |   |   |   form = incomplete
|   |   |   |   |   |   finance = convenient: priority (2.4)
|   |   |   |   |   |   finance = inconv: spec_prior (3.14)
|   |   |   |   |   form = foster: priority (0.0)
|   |   |   |   housing = less_conv
|   |   |   |   |   form = complete: priority (21.94)
|   |   |   |   |   form = completed: priority (4.79)
|   |   |   |   |   form = incomplete: spec_prior (3.39)
|   |   |   |   |   form = foster: priority (0.0)
|   |   |   |   housing = critical: spec_prior (10.17)
|   |   |   children = 3
|   |   |   |   housing = convenient
|   |   |   |   |   finance = convenient: priority (7.19)
|   |   |   |   |   finance = inconv: spec_prior (6.71)
|   |   |   |   housing = less_conv: spec_prior (16.68)
|   |   |   |   housing = critical: spec_prior (10.17)
|   |   |   children = more
|   |   |   |   housing = convenient
|   |   |   |   |   finance = convenient: priority (7.19)
|   |   |   |   |   finance = inconv: spec_prior (6.71)
|   |   |   |   housing = less_conv: spec_prior (16.68)
|   |   |   |   housing = critical: spec_prior (10.17)
|   |   social = slightly_prob
|   |   |   children = 1
|   |   |   |   form = complete: priority (39.27)
|   |   |   |   form = completed: priority (9.72/0.13)
|   |   |   |   form = incomplete
|   |   |   |   |   housing = convenient: priority (4.79)
|   |   |   |   |   housing = less_conv: priority (4.79)
|   |   |   |   |   housing = critical: spec_prior (6.64)
|   |   |   |   form = foster
|   |   |   |   |   housing = convenient
|   |   |   |   |   |   finance = convenient: priority (2.4)
|   |   |   |   |   |   finance = inconv: spec_prior (3.14)
|   |   |   |   |   housing = less_conv: spec_prior (6.29)
|   |   |   |   |   housing = critical: spec_prior (0.07)
|   |   |   children = 2
|   |   |   |   housing = convenient
|   |   |   |   |   form = complete: priority (11.04)
|   |   |   |   |   form = completed: priority (4.79)
|   |   |   |   |   form = incomplete
|   |   |   |   |   |   finance = convenient: priority (2.4)
|   |   |   |   |   |   finance = inconv: spec_prior (3.14)
|   |   |   |   |   form = foster: priority (0.0)
|   |   |   |   housing = less_conv
|   |   |   |   |   form = complete: priority (21.94)
|   |   |   |   |   form = completed: priority (4.79)
|   |   |   |   |   form = incomplete: spec_prior (3.39)
|   |   |   |   |   form = foster: priority (0.0)
|   |   |   |   housing = critical: spec_prior (10.17)
|   |   |   children = 3
|   |   |   |   housing = convenient
|   |   |   |   |   finance = convenient: priority (7.19)
|   |   |   |   |   finance = inconv: spec_prior (6.71)
|   |   |   |   housing = less_conv: spec_prior (16.68)
|   |   |   |   housing = critical: spec_prior (10.17)
|   |   |   children = more
|   |   |   |   housing = convenient
|   |   |   |   |   finance = convenient: priority (7.19)
|   |   |   |   |   finance = inconv: spec_prior (6.71)
|   |   |   |   housing = less_conv: spec_prior (16.68)
|   |   |   |   housing = critical: spec_prior (10.17)
|   |   social = problematic: spec_prior (137.13/3.14)
health = priority
|   has_nurs = proper: priority (19.4)
|   has_nurs = less_proper: priority (19.4)
|   has_nurs = improper: priority (19.4)
|   has_nurs = critical
|   |   housing = convenient
|   |   |   finance = convenient: priority (304.62)
|   |   |   finance = inconv
|   |   |   |   form = complete: priority (10.57/0.4)
|   |   |   |   form = completed: priority (43.28/0.4)
|   |   |   |   form = incomplete
|   |   |   |   |   children = 1: priority (32.91)
|   |   |   |   |   children = 2: spec_prior (7.19)
|   |   |   |   |   children = 3: spec_prior (0.2)
|   |   |   |   |   children = more: spec_prior (0.2)
|   |   |   |   form = foster: spec_prior (17.56)
|   |   housing = less_conv
|   |   |   form = complete: priority (11.38/0.81)
|   |   |   form = completed: priority (76.8/0.81)
|   |   |   form = incomplete
|   |   |   |   children = 1: priority (65.83)
|   |   |   |   children = 2: spec_prior (10.17)
|   |   |   |   children = 3: spec_prior (0.4)
|   |   |   |   children = more: spec_prior (0.4)
|   |   |   form = foster: spec_prior (30.91)
|   |   housing = critical
|   |   |   children = 1
|   |   |   |   form = complete: priority (18.87)
|   |   |   |   form = completed: spec_prior (19.93)
|   |   |   |   form = incomplete: spec_prior (19.93)
|   |   |   |   form = foster: spec_prior (19.93)
|   |   |   children = 2: spec_prior (132.46)
|   |   |   children = 3: spec_prior (1.62)
|   |   |   children = more: spec_prior (1.62)
|   has_nurs = very_crit: spec_prior (238.54/9.43)
health = not_recom: not_recom (93.11)

Number of Leaves  : 	234

Size of the tree : 	333


Weight: 4.66

J48 pruned tree
------------------

has_nurs = proper
|   finance = convenient
|   |   housing = convenient
|   |   |   children = 1
|   |   |   |   form = complete: recommend (336.79/1.41)
|   |   |   |   form = completed: priority (0.31/0.17)
|   |   |   |   form = incomplete: priority (0.31/0.17)
|   |   |   |   form = foster: very_recom (3.59/0.24)
|   |   |   children = 2
|   |   |   |   social = nonprob: very_recom (8.73/0.27)
|   |   |   |   social = slightly_prob: very_recom (8.73/0.27)
|   |   |   |   social = problematic: priority (7.09/0.14)
|   |   |   children = 3: very_recom (8.04/2.13)
|   |   |   children = more: very_recom (8.04/2.13)
|   |   housing = less_conv: priority (79.01/13.73)
|   |   housing = critical: priority (68.57/4.81)
|   finance = inconv
|   |   health = recommended: priority (460.38/31.14)
|   |   health = priority: priority (4.9)
|   |   health = not_recom: not_recom (4.9)
has_nurs = less_proper
|   health = recommended
|   |   finance = convenient
|   |   |   housing = convenient
|   |   |   |   social = nonprob: very_recom (18.61)
|   |   |   |   social = slightly_prob: very_recom (18.61)
|   |   |   |   social = problematic: priority (7.12)
|   |   |   housing = less_conv: priority (100.11/12.1)
|   |   |   housing = critical: priority (25.63/3.17)
|   |   finance = inconv
|   |   |   form = complete
|   |   |   |   children = 1: very_recom (10.05/1.28)
|   |   |   |   children = 2
|   |   |   |   |   housing = convenient: very_recom (4.85/1.68)
|   |   |   |   |   housing = less_conv: very_recom (4.1/1.68)
|   |   |   |   |   housing = critical: priority (5.03)
|   |   |   |   children = 3: priority (13.66)
|   |   |   |   children = more: priority (13.66)
|   |   |   form = completed: priority (55.28/11.19)
|   |   |   form = incomplete: priority (54.97/5.59)
|   |   |   form = foster: priority (267.0)
|   health = priority: priority (9.79)
|   health = not_recom: not_recom (9.79)
has_nurs = improper
|   health = recommended
|   |   finance = convenient
|   |   |   housing = convenient
|   |   |   |   social = nonprob: very_recom (18.61)
|   |   |   |   social = slightly_prob: very_recom (18.61)
|   |   |   |   social = problematic: priority (7.12)
|   |   |   housing = less_conv: priority (100.11/12.1)
|   |   |   housing = critical: priority (25.63/3.17)
|   |   finance = inconv
|   |   |   form = complete
|   |   |   |   children = 1: very_recom (10.05/1.28)
|   |   |   |   children = 2
|   |   |   |   |   housing = convenient: very_recom (4.85/1.68)
|   |   |   |   |   housing = less_conv: very_recom (4.1/1.68)
|   |   |   |   |   housing = critical: priority (5.03)
|   |   |   |   children = 3: priority (13.66)
|   |   |   |   children = more: priority (13.66)
|   |   |   form = completed: priority (55.28/11.19)
|   |   |   form = incomplete: priority (54.97/5.59)
|   |   |   form = foster: priority (267.0)
|   health = priority: priority (9.79)
|   health = not_recom: not_recom (9.79)
has_nurs = critical
|   housing = convenient
|   |   finance = convenient: priority (175.09/1.63)
|   |   finance = inconv
|   |   |   children = 1
|   |   |   |   form = complete: priority (1.86/0.1)
|   |   |   |   form = completed: priority (18.37/0.1)
|   |   |   |   form = incomplete: priority (18.37/0.1)
|   |   |   |   form = foster: spec_prior (133.04/0.17)
|   |   |   children = 2
|   |   |   |   form = complete: priority (6.79/0.1)
|   |   |   |   form = completed: priority (6.79/0.1)
|   |   |   |   form = incomplete: spec_prior (5.01/0.17)
|   |   |   |   form = foster: spec_prior (5.01/0.17)
|   |   |   children = 3: spec_prior (27.28/0.68)
|   |   |   children = more: spec_prior (27.28/0.68)
|   housing = less_conv
|   |   children = 1
|   |   |   form = complete: priority (2.96/0.2)
|   |   |   form = completed: priority (35.98/0.2)
|   |   |   form = incomplete: priority (35.98/0.2)
|   |   |   form = foster: spec_prior (13.57/0.34)
|   |   children = 2
|   |   |   finance = convenient: spec_prior (16.72/3.3)
|   |   |   finance = inconv: priority (16.72/3.97)
|   |   children = 3: spec_prior (67.17/1.36)
|   |   children = more: spec_prior (67.17/1.36)
|   housing = critical
|   |   children = 1
|   |   |   form = complete: priority (13.04/0.2)
|   |   |   form = completed: spec_prior (13.75/0.34)
|   |   |   form = incomplete: spec_prior (13.75/0.34)
|   |   |   form = foster: spec_prior (10.47/0.34)
|   |   children = 2: spec_prior (70.84/1.36)
|   |   children = 3: spec_prior (4.8/1.36)
|   |   children = more: spec_prior (4.8/1.36)
has_nurs = very_crit
|   housing = convenient
|   |   finance = convenient
|   |   |   form = complete
|   |   |   |   children = 1: priority (670.93/0.1)
|   |   |   |   children = 2: spec_prior (5.01/0.17)
|   |   |   |   children = 3
|   |   |   |   |   health = recommended: priority (2.45/0.03)
|   |   |   |   |   health = priority: spec_prior (3.63)
|   |   |   |   |   health = not_recom: not_recom (0.1)
|   |   |   |   children = more
|   |   |   |   |   health = recommended: priority (2.45/0.03)
|   |   |   |   |   health = priority: spec_prior (3.63)
|   |   |   |   |   health = not_recom: not_recom (0.1)
|   |   |   form = completed
|   |   |   |   health = recommended: priority (11.46/1.78)
|   |   |   |   health = priority: spec_prior (5.34)
|   |   |   |   health = not_recom: not_recom (0.41)
|   |   |   form = incomplete
|   |   |   |   health = recommended: priority (11.46/1.78)
|   |   |   |   health = priority: spec_prior (5.34)
|   |   |   |   health = not_recom: not_recom (0.41)
|   |   |   form = foster: spec_prior (9.23/2.52)
|   |   finance = inconv
|   |   |   health = recommended
|   |   |   |   social = nonprob
|   |   |   |   |   children = 1: priority (9.54/1.59)
|   |   |   |   |   children = 2: priority (8.33/1.59)
|   |   |   |   |   children = 3: spec_prior (3.39)
|   |   |   |   |   children = more: spec_prior (3.39)
|   |   |   |   social = slightly_prob
|   |   |   |   |   children = 1: priority (9.54/1.59)
|   |   |   |   |   children = 2: priority (8.33/1.59)
|   |   |   |   |   children = 3: spec_prior (3.39)
|   |   |   |   |   children = more: spec_prior (3.39)
|   |   |   |   social = problematic: spec_prior (19.3)
|   |   |   health = priority: spec_prior (17.84)
|   |   |   health = not_recom: not_recom (1.33)
|   housing = less_conv
|   |   health = recommended
|   |   |   social = nonprob
|   |   |   |   children = 1
|   |   |   |   |   form = complete: priority (11.07)
|   |   |   |   |   form = completed: priority (2.42)
|   |   |   |   |   form = incomplete: priority (2.42)
|   |   |   |   |   form = foster: spec_prior (3.17)
|   |   |   |   children = 2: priority (15.21/1.71)
|   |   |   |   children = 3: spec_prior (8.42)
|   |   |   |   children = more: spec_prior (8.42)
|   |   |   social = slightly_prob
|   |   |   |   children = 1
|   |   |   |   |   form = complete: priority (11.07)
|   |   |   |   |   form = completed: priority (2.42)
|   |   |   |   |   form = incomplete: priority (2.42)
|   |   |   |   |   form = foster: spec_prior (3.17)
|   |   |   |   children = 2: priority (15.21/1.71)
|   |   |   |   children = 3: spec_prior (8.42)
|   |   |   |   children = more: spec_prior (8.42)
|   |   |   social = problematic: spec_prior (38.61)
|   |   health = priority: spec_prior (35.67)
|   |   health = not_recom: not_recom (2.65)
|   housing = critical
|   |   health = recommended: spec_prior (61.49/6.35)
|   |   health = priority: spec_prior (35.54)
|   |   health = not_recom: not_recom (2.52)

Number of Leaves  : 	118

Size of the tree : 	168


Weight: 3.14

J48 pruned tree
------------------

health = recommended
|   has_nurs = proper
|   |   form = complete
|   |   |   children = 1
|   |   |   |   housing = convenient
|   |   |   |   |   finance = convenient
|   |   |   |   |   |   social = nonprob: recommend (87.49)
|   |   |   |   |   |   social = slightly_prob: recommend (87.49)
|   |   |   |   |   |   social = problematic: priority (14.52)
|   |   |   |   |   finance = inconv: very_recom (38.72/0.63)
|   |   |   |   housing = less_conv
|   |   |   |   |   social = nonprob: very_recom (29.04)
|   |   |   |   |   social = slightly_prob: very_recom (29.04)
|   |   |   |   |   social = problematic: priority (3.75)
|   |   |   |   housing = critical: very_recom (77.45/1.26)
|   |   |   children = 2
|   |   |   |   social = nonprob: very_recom (50.47/1.75)
|   |   |   |   social = slightly_prob: very_recom (50.47/1.75)
|   |   |   |   social = problematic: priority (7.08)
|   |   |   children = 3: priority (24.62/1.26)
|   |   |   children = more: priority (24.62/1.26)
|   |   form = completed
|   |   |   housing = convenient
|   |   |   |   children = 1: very_recom (39.56/0.65)
|   |   |   |   children = 2: very_recom (38.78/0.65)
|   |   |   |   children = 3: priority (2.21/0.04)
|   |   |   |   children = more: priority (2.21/0.04)
|   |   |   housing = less_conv
|   |   |   |   social = nonprob
|   |   |   |   |   children = 1: very_recom (29.04)
|   |   |   |   |   children = 2: very_recom (29.04)
|   |   |   |   |   children = 3: priority (1.75)
|   |   |   |   |   children = more: priority (1.75)
|   |   |   |   social = slightly_prob
|   |   |   |   |   children = 1: very_recom (29.04)
|   |   |   |   |   children = 2: very_recom (29.04)
|   |   |   |   |   children = 3: priority (1.75)
|   |   |   |   |   children = more: priority (1.75)
|   |   |   |   social = problematic: priority (7.57)
|   |   |   housing = critical: priority (23.4)
|   |   form = incomplete
|   |   |   children = 1
|   |   |   |   housing = convenient: very_recom (39.56/0.65)
|   |   |   |   housing = less_conv
|   |   |   |   |   social = nonprob: very_recom (29.04)
|   |   |   |   |   social = slightly_prob: very_recom (29.04)
|   |   |   |   |   social = problematic: priority (3.75)
|   |   |   |   housing = critical: priority (11.59)
|   |   |   children = 2
|   |   |   |   finance = convenient: very_recom (7.62/1.84)
|   |   |   |   finance = inconv: priority (3.59)
|   |   |   children = 3: priority (5.85/0.04)
|   |   |   children = more: priority (5.85/0.04)
|   |   form = foster
|   |   |   finance = convenient
|   |   |   |   housing = convenient
|   |   |   |   |   social = nonprob: very_recom (3.5)
|   |   |   |   |   social = slightly_prob: very_recom (3.5)
|   |   |   |   |   social = problematic: priority (4.11)
|   |   |   |   housing = less_conv: priority (10.45)
|   |   |   |   housing = critical: priority (8.83)
|   |   |   finance = inconv: priority (162.08)
|   has_nurs = less_proper
|   |   form = complete
|   |   |   finance = convenient
|   |   |   |   children = 1: very_recom (67.83/0.67)
|   |   |   |   children = 2
|   |   |   |   |   housing = convenient: priority (0.91/0.04)
|   |   |   |   |   housing = less_conv: very_recom (29.91/0.87)
|   |   |   |   |   housing = critical: priority (2.62)
|   |   |   |   children = 3: priority (7.62/1.75)
|   |   |   |   children = more: priority (7.62/1.75)
|   |   |   finance = inconv: priority (79.96/7.49)
|   |   form = completed
|   |   |   children = 1
|   |   |   |   housing = convenient: very_recom (39.88/1.75)
|   |   |   |   housing = less_conv: very_recom (59.83/1.75)
|   |   |   |   housing = critical: priority (5.25)
|   |   |   children = 2
|   |   |   |   housing = convenient: very_recom (39.88/1.75)
|   |   |   |   housing = less_conv: very_recom (59.83/1.75)
|   |   |   |   housing = critical: priority (5.25)
|   |   |   children = 3: priority (14.75/1.75)
|   |   |   children = more: priority (14.75/1.75)
|   |   form = incomplete
|   |   |   children = 1
|   |   |   |   housing = convenient: very_recom (39.88/1.75)
|   |   |   |   housing = less_conv: very_recom (59.83/1.75)
|   |   |   |   housing = critical: priority (5.25)
|   |   |   children = 2: priority (14.75/1.75)
|   |   |   children = 3: priority (14.75/1.75)
|   |   |   children = more: priority (14.75/1.75)
|   |   form = foster
|   |   |   finance = convenient: very_recom (9.12/2.12)
|   |   |   finance = inconv: priority (139.3)
|   has_nurs = improper
|   |   form = complete
|   |   |   finance = convenient
|   |   |   |   children = 1: very_recom (67.83/0.67)
|   |   |   |   children = 2
|   |   |   |   |   housing = convenient: priority (0.91/0.04)
|   |   |   |   |   housing = less_conv: very_recom (29.91/0.87)
|   |   |   |   |   housing = critical: priority (2.62)
|   |   |   |   children = 3: priority (7.62/1.75)
|   |   |   |   children = more: priority (7.62/1.75)
|   |   |   finance = inconv: priority (79.96/7.49)
|   |   form = completed
|   |   |   children = 1
|   |   |   |   housing = convenient: very_recom (39.88/1.75)
|   |   |   |   housing = less_conv: very_recom (59.83/1.75)
|   |   |   |   housing = critical: priority (5.25)
|   |   |   children = 2
|   |   |   |   housing = convenient: very_recom (39.88/1.75)
|   |   |   |   housing = less_conv: very_recom (59.83/1.75)
|   |   |   |   housing = critical: priority (5.25)
|   |   |   children = 3: priority (14.75/1.75)
|   |   |   children = more: priority (14.75/1.75)
|   |   form = incomplete
|   |   |   children = 1
|   |   |   |   housing = convenient: very_recom (39.88/1.75)
|   |   |   |   housing = less_conv: very_recom (59.83/1.75)
|   |   |   |   housing = critical: priority (5.25)
|   |   |   children = 2: priority (14.75/1.75)
|   |   |   children = 3: priority (14.75/1.75)
|   |   |   children = more: priority (14.75/1.75)
|   |   form = foster
|   |   |   finance = convenient: very_recom (9.12/2.12)
|   |   |   finance = inconv: priority (139.3)
|   has_nurs = critical
|   |   social = nonprob: priority (26.3)
|   |   social = slightly_prob: priority (26.3)
|   |   social = problematic
|   |   |   finance = convenient
|   |   |   |   children = 1: priority (6.25/2.6)
|   |   |   |   children = 2: priority (33.26/2.43)
|   |   |   |   children = 3
|   |   |   |   |   housing = convenient: priority (3.5)
|   |   |   |   |   housing = less_conv: spec_prior (5.81)
|   |   |   |   |   housing = critical: spec_prior (0.68)
|   |   |   |   children = more
|   |   |   |   |   housing = convenient: priority (3.5)
|   |   |   |   |   housing = less_conv: spec_prior (5.81)
|   |   |   |   |   housing = critical: spec_prior (0.68)
|   |   |   finance = inconv: spec_prior (137.66/8.12)
|   has_nurs = very_crit
|   |   form = complete
|   |   |   children = 1: priority (184.2/3.16)
|   |   |   children = 2
|   |   |   |   housing = convenient: priority (7.86/1.26)
|   |   |   |   housing = less_conv: priority (12.82/1.26)
|   |   |   |   housing = critical: spec_prior (3.53)
|   |   |   children = 3: spec_prior (10.51/1.26)
|   |   |   children = more: spec_prior (10.51/1.26)
|   |   form = completed: spec_prior (69.76/12.62)
|   |   form = incomplete: spec_prior (130.8/8.84)
|   |   form = foster
|   |   |   finance = convenient: priority (31.64/2.6)
|   |   |   finance = inconv: spec_prior (39.78)
health = priority
|   housing = convenient
|   |   finance = convenient: priority (373.95/13.87)
|   |   finance = inconv
|   |   |   has_nurs = proper: priority (0.85)
|   |   |   has_nurs = less_proper: priority (0.85)
|   |   |   has_nurs = improper: priority (0.85)
|   |   |   has_nurs = critical
|   |   |   |   children = 1
|   |   |   |   |   form = complete: priority (0.05)
|   |   |   |   |   form = completed: priority (8.67)
|   |   |   |   |   form = incomplete: priority (8.67)
|   |   |   |   |   form = foster: spec_prior (2.62)
|   |   |   |   children = 2
|   |   |   |   |   form = complete: priority (2.62)
|   |   |   |   |   form = completed: priority (2.62)
|   |   |   |   |   form = incomplete: spec_prior (1.89)
|   |   |   |   |   form = foster: spec_prior (1.89)
|   |   |   |   children = 3: spec_prior (11.36)
|   |   |   |   children = more: spec_prior (11.36)
|   |   |   has_nurs = very_crit: spec_prior (9.31)
|   housing = less_conv
|   |   has_nurs = proper: priority (1.7)
|   |   has_nurs = less_proper: priority (1.7)
|   |   has_nurs = improper: priority (1.7)
|   |   has_nurs = critical
|   |   |   children = 1
|   |   |   |   form = complete: priority (0.11)
|   |   |   |   form = completed: priority (17.33)
|   |   |   |   form = incomplete: priority (17.33)
|   |   |   |   form = foster: spec_prior (5.25)
|   |   |   children = 2
|   |   |   |   form = complete: priority (3.85)
|   |   |   |   form = completed: priority (3.85)
|   |   |   |   form = incomplete: spec_prior (3.85)
|   |   |   |   form = foster: spec_prior (3.85)
|   |   |   children = 3: spec_prior (22.71)
|   |   |   children = more: spec_prior (22.71)
|   |   has_nurs = very_crit: spec_prior (18.61)
|   housing = critical
|   |   has_nurs = proper: priority (1.7)
|   |   has_nurs = less_proper: priority (1.7)
|   |   has_nurs = improper: priority (1.7)
|   |   has_nurs = critical
|   |   |   children = 1
|   |   |   |   form = complete: priority (4.97)
|   |   |   |   form = completed: spec_prior (5.25)
|   |   |   |   form = incomplete: spec_prior (5.25)
|   |   |   |   form = foster: spec_prior (5.25)
|   |   |   children = 2: spec_prior (34.88)
|   |   |   children = 3: spec_prior (0.43)
|   |   |   children = more: spec_prior (0.43)
|   |   has_nurs = very_crit: spec_prior (18.54)
health = not_recom: not_recom (196.68)

Number of Leaves  : 	150

Size of the tree : 	213


Weight: 3.36

J48 pruned tree
------------------

health = recommended
|   has_nurs = proper
|   |   form = complete
|   |   |   housing = convenient
|   |   |   |   social = nonprob
|   |   |   |   |   children = 1
|   |   |   |   |   |   finance = convenient: recommend (45.26)
|   |   |   |   |   |   finance = inconv: very_recom (9.85)
|   |   |   |   |   children = 2: very_recom (10.18)
|   |   |   |   |   children = 3: very_recom (9.87/0.45)
|   |   |   |   |   children = more: very_recom (9.87/0.45)
|   |   |   |   social = slightly_prob
|   |   |   |   |   children = 1
|   |   |   |   |   |   finance = convenient: recommend (45.26)
|   |   |   |   |   |   finance = inconv: very_recom (9.85)
|   |   |   |   |   children = 2: very_recom (10.18)
|   |   |   |   |   children = 3: very_recom (9.87/0.45)
|   |   |   |   |   children = more: very_recom (9.87/0.45)
|   |   |   |   social = problematic: priority (32.62)
|   |   |   housing = less_conv
|   |   |   |   social = nonprob: very_recom (31.86/1.81)
|   |   |   |   social = slightly_prob: very_recom (31.86/1.81)
|   |   |   |   social = problematic: priority (4.97)
|   |   |   housing = critical
|   |   |   |   children = 1
|   |   |   |   |   social = nonprob: very_recom (19.71)
|   |   |   |   |   social = slightly_prob: very_recom (19.71)
|   |   |   |   |   social = problematic: priority (18.83)
|   |   |   |   children = 2: priority (52.22)
|   |   |   |   children = 3: priority (1.83)
|   |   |   |   children = more: priority (1.83)
|   |   form = completed
|   |   |   social = nonprob
|   |   |   |   housing = convenient: very_recom (21.36/0.91)
|   |   |   |   housing = less_conv: very_recom (31.86/1.81)
|   |   |   |   housing = critical: priority (6.02)
|   |   |   social = slightly_prob
|   |   |   |   housing = convenient: very_recom (21.36/0.91)
|   |   |   |   housing = less_conv: very_recom (31.86/1.81)
|   |   |   |   housing = critical: priority (6.02)
|   |   |   social = problematic: priority (23.79)
|   |   form = incomplete
|   |   |   children = 1
|   |   |   |   social = nonprob
|   |   |   |   |   housing = convenient: very_recom (10.06)
|   |   |   |   |   housing = less_conv: very_recom (15.02)
|   |   |   |   |   housing = critical: priority (2.99)
|   |   |   |   social = slightly_prob
|   |   |   |   |   housing = convenient: very_recom (10.06)
|   |   |   |   |   housing = less_conv: very_recom (15.02)
|   |   |   |   |   housing = critical: priority (2.99)
|   |   |   |   social = problematic: priority (11.64)
|   |   |   children = 2
|   |   |   |   housing = convenient: very_recom (4.17/1.18)
|   |   |   |   housing = less_conv: priority (27.28)
|   |   |   |   housing = critical: priority (0.82)
|   |   |   children = 3: priority (3.54/0.53)
|   |   |   children = more: priority (3.54/0.53)
|   |   form = foster: priority (99.57/3.62)
|   has_nurs = less_proper
|   |   social = nonprob
|   |   |   form = complete
|   |   |   |   children = 1: very_recom (51.49)
|   |   |   |   children = 2: very_recom (30.45/0.91)
|   |   |   |   children = 3
|   |   |   |   |   housing = convenient: very_recom (13.38/0.33)
|   |   |   |   |   housing = less_conv: priority (2.99)
|   |   |   |   |   housing = critical: priority (0.02)
|   |   |   |   children = more
|   |   |   |   |   housing = convenient: very_recom (13.38/0.33)
|   |   |   |   |   housing = less_conv: priority (2.99)
|   |   |   |   |   housing = critical: priority (0.02)
|   |   |   form = completed
|   |   |   |   housing = convenient: very_recom (46.48/0.65)
|   |   |   |   housing = less_conv
|   |   |   |   |   children = 1: very_recom (15.02)
|   |   |   |   |   children = 2: very_recom (15.02)
|   |   |   |   |   children = 3: priority (2.99)
|   |   |   |   |   children = more: priority (2.99)
|   |   |   |   housing = critical: priority (1.85)
|   |   |   form = incomplete
|   |   |   |   housing = convenient: very_recom (49.99/0.98)
|   |   |   |   housing = less_conv
|   |   |   |   |   children = 1: very_recom (15.02)
|   |   |   |   |   children = 2: priority (2.99)
|   |   |   |   |   children = 3: priority (2.99)
|   |   |   |   |   children = more: priority (2.99)
|   |   |   |   housing = critical: priority (0.96)
|   |   |   form = foster: priority (51.99/1.81)
|   |   social = slightly_prob
|   |   |   form = complete
|   |   |   |   children = 1: very_recom (51.49)
|   |   |   |   children = 2: very_recom (30.45/0.91)
|   |   |   |   children = 3
|   |   |   |   |   housing = convenient: very_recom (13.38/0.33)
|   |   |   |   |   housing = less_conv: priority (2.99)
|   |   |   |   |   housing = critical: priority (0.02)
|   |   |   |   children = more
|   |   |   |   |   housing = convenient: very_recom (13.38/0.33)
|   |   |   |   |   housing = less_conv: priority (2.99)
|   |   |   |   |   housing = critical: priority (0.02)
|   |   |   form = completed
|   |   |   |   housing = convenient: very_recom (46.48/0.65)
|   |   |   |   housing = less_conv
|   |   |   |   |   children = 1: very_recom (15.02)
|   |   |   |   |   children = 2: very_recom (15.02)
|   |   |   |   |   children = 3: priority (2.99)
|   |   |   |   |   children = more: priority (2.99)
|   |   |   |   housing = critical: priority (1.85)
|   |   |   form = incomplete
|   |   |   |   housing = convenient: very_recom (49.99/0.98)
|   |   |   |   housing = less_conv
|   |   |   |   |   children = 1: very_recom (15.02)
|   |   |   |   |   children = 2: priority (2.99)
|   |   |   |   |   children = 3: priority (2.99)
|   |   |   |   |   children = more: priority (2.99)
|   |   |   |   housing = critical: priority (0.96)
|   |   |   form = foster: priority (51.99/1.81)
|   |   social = problematic: priority (216.09)
|   has_nurs = improper
|   |   social = nonprob
|   |   |   form = complete
|   |   |   |   children = 1: very_recom (51.49)
|   |   |   |   children = 2: very_recom (30.45/0.91)
|   |   |   |   children = 3
|   |   |   |   |   housing = convenient: very_recom (13.38/0.33)
|   |   |   |   |   housing = less_conv: priority (2.99)
|   |   |   |   |   housing = critical: priority (0.02)
|   |   |   |   children = more
|   |   |   |   |   housing = convenient: very_recom (13.38/0.33)
|   |   |   |   |   housing = less_conv: priority (2.99)
|   |   |   |   |   housing = critical: priority (0.02)
|   |   |   form = completed
|   |   |   |   housing = convenient: very_recom (46.48/0.65)
|   |   |   |   housing = less_conv
|   |   |   |   |   children = 1: very_recom (15.02)
|   |   |   |   |   children = 2: very_recom (15.02)
|   |   |   |   |   children = 3: priority (2.99)
|   |   |   |   |   children = more: priority (2.99)
|   |   |   |   housing = critical: priority (1.85)
|   |   |   form = incomplete
|   |   |   |   housing = convenient: very_recom (49.99/0.98)
|   |   |   |   housing = less_conv
|   |   |   |   |   children = 1: very_recom (15.02)
|   |   |   |   |   children = 2: priority (2.99)
|   |   |   |   |   children = 3: priority (2.99)
|   |   |   |   |   children = more: priority (2.99)
|   |   |   |   housing = critical: priority (0.96)
|   |   |   form = foster: priority (51.99/1.81)
|   |   social = slightly_prob
|   |   |   form = complete
|   |   |   |   children = 1: very_recom (51.49)
|   |   |   |   children = 2: very_recom (30.45/0.91)
|   |   |   |   children = 3
|   |   |   |   |   housing = convenient: very_recom (13.38/0.33)
|   |   |   |   |   housing = less_conv: priority (2.99)
|   |   |   |   |   housing = critical: priority (0.02)
|   |   |   |   children = more
|   |   |   |   |   housing = convenient: very_recom (13.38/0.33)
|   |   |   |   |   housing = less_conv: priority (2.99)
|   |   |   |   |   housing = critical: priority (0.02)
|   |   |   form = completed
|   |   |   |   housing = convenient: very_recom (46.48/0.65)
|   |   |   |   housing = less_conv
|   |   |   |   |   children = 1: very_recom (15.02)
|   |   |   |   |   children = 2: very_recom (15.02)
|   |   |   |   |   children = 3: priority (2.99)
|   |   |   |   |   children = more: priority (2.99)
|   |   |   |   housing = critical: priority (1.85)
|   |   |   form = incomplete
|   |   |   |   housing = convenient: very_recom (49.99/0.98)
|   |   |   |   housing = less_conv
|   |   |   |   |   children = 1: very_recom (15.02)
|   |   |   |   |   children = 2: priority (2.99)
|   |   |   |   |   children = 3: priority (2.99)
|   |   |   |   |   children = more: priority (2.99)
|   |   |   |   housing = critical: priority (0.96)
|   |   |   form = foster: priority (51.99/1.81)
|   |   social = problematic: priority (216.09)
|   has_nurs = critical
|   |   form = complete
|   |   |   finance = convenient
|   |   |   |   housing = convenient: priority (1.0)
|   |   |   |   housing = less_conv: priority (12.11/2.99)
|   |   |   |   housing = critical: spec_prior (11.78/1.71)
|   |   |   finance = inconv: priority (63.55/4.62)
|   |   form = completed
|   |   |   finance = convenient
|   |   |   |   children = 1: spec_prior (13.84/0.79)
|   |   |   |   children = 2: priority (8.65/0.26)
|   |   |   |   children = 3: spec_prior (2.82/1.32)
|   |   |   |   children = more: spec_prior (2.82/1.32)
|   |   |   finance = inconv: priority (51.11/4.12)
|   |   form = incomplete
|   |   |   children = 1
|   |   |   |   housing = convenient: priority (12.4)
|   |   |   |   housing = less_conv: priority (9.78)
|   |   |   |   housing = critical: spec_prior (14.35/0.84)
|   |   |   children = 2: spec_prior (26.24/2.18)
|   |   |   children = 3: priority (2.95/0.36)
|   |   |   children = more: priority (2.95/0.36)
|   |   form = foster
|   |   |   social = nonprob: priority (4.06)
|   |   |   social = slightly_prob: priority (4.06)
|   |   |   social = problematic: spec_prior (74.16/1.81)
|   has_nurs = very_crit
|   |   social = nonprob
|   |   |   form = complete: priority (53.16/5.43)
|   |   |   form = completed: priority (98.87/4.71)
|   |   |   form = incomplete
|   |   |   |   children = 1: priority (38.57/0.91)
|   |   |   |   children = 2
|   |   |   |   |   housing = convenient
|   |   |   |   |   |   finance = convenient: priority (9.42)
|   |   |   |   |   |   finance = inconv: spec_prior (9.85)
|   |   |   |   |   housing = less_conv: spec_prior (10.62)
|   |   |   |   |   housing = critical: spec_prior (0.46)
|   |   |   |   children = 3: priority (10.35/0.93)
|   |   |   |   children = more: priority (10.35/0.93)
|   |   |   form = foster
|   |   |   |   housing = convenient
|   |   |   |   |   finance = convenient: priority (7.51)
|   |   |   |   |   finance = inconv: spec_prior (9.85)
|   |   |   |   housing = less_conv: spec_prior (12.78)
|   |   |   |   housing = critical: spec_prior (0.26)
|   |   social = slightly_prob
|   |   |   form = complete: priority (53.16/5.43)
|   |   |   form = completed: priority (98.87/4.71)
|   |   |   form = incomplete
|   |   |   |   children = 1: priority (38.57/0.91)
|   |   |   |   children = 2
|   |   |   |   |   housing = convenient
|   |   |   |   |   |   finance = convenient: priority (9.42)
|   |   |   |   |   |   finance = inconv: spec_prior (9.85)
|   |   |   |   |   housing = less_conv: spec_prior (10.62)
|   |   |   |   |   housing = critical: spec_prior (0.46)
|   |   |   |   children = 3: priority (10.35/0.93)
|   |   |   |   children = more: priority (10.35/0.93)
|   |   |   form = foster
|   |   |   |   housing = convenient
|   |   |   |   |   finance = convenient: priority (7.51)
|   |   |   |   |   finance = inconv: spec_prior (9.85)
|   |   |   |   housing = less_conv: spec_prior (12.78)
|   |   |   |   housing = critical: spec_prior (0.26)
|   |   social = problematic
|   |   |   finance = convenient
|   |   |   |   housing = convenient
|   |   |   |   |   form = complete
|   |   |   |   |   |   children = 1: priority (45.26)
|   |   |   |   |   |   children = 2: spec_prior (9.42)
|   |   |   |   |   |   children = 3: spec_prior (0.21)
|   |   |   |   |   |   children = more: spec_prior (0.21)
|   |   |   |   |   form = completed: spec_prior (11.04)
|   |   |   |   |   form = incomplete: spec_prior (11.04)
|   |   |   |   |   form = foster: spec_prior (13.05)
|   |   |   |   housing = less_conv: spec_prior (23.64)
|   |   |   |   housing = critical: spec_prior (9.78)
|   |   |   finance = inconv: spec_prior (56.29)
health = priority
|   has_nurs = proper: priority (10.32)
|   has_nurs = less_proper: priority (2.64)
|   has_nurs = improper: priority (2.64)
|   has_nurs = critical
|   |   housing = convenient
|   |   |   finance = convenient: priority (41.5)
|   |   |   finance = inconv
|   |   |   |   children = 1: priority (10.35/1.36)
|   |   |   |   children = 2: priority (4.67/1.96)
|   |   |   |   children = 3: spec_prior (5.87)
|   |   |   |   children = more: spec_prior (5.87)
|   |   housing = less_conv
|   |   |   children = 1
|   |   |   |   form = complete: priority (0.06)
|   |   |   |   form = completed: priority (8.97)
|   |   |   |   form = incomplete: priority (8.97)
|   |   |   |   form = foster: spec_prior (2.72)
|   |   |   children = 2
|   |   |   |   finance = convenient: spec_prior (3.98/1.27)
|   |   |   |   finance = inconv: priority (3.98/1.27)
|   |   |   children = 3: spec_prior (11.75)
|   |   |   children = more: spec_prior (11.75)
|   |   housing = critical: spec_prior (29.2/2.57)
|   has_nurs = very_crit
|   |   form = complete
|   |   |   children = 1
|   |   |   |   finance = convenient
|   |   |   |   |   housing = convenient: priority (135.79)
|   |   |   |   |   housing = less_conv: spec_prior (4.48)
|   |   |   |   |   housing = critical: spec_prior (4.48)
|   |   |   |   finance = inconv: spec_prior (13.45)
|   |   |   children = 2: spec_prior (28.38)
|   |   |   children = 3: spec_prior (28.38)
|   |   |   children = more: spec_prior (28.38)
|   |   form = completed: spec_prior (42.08)
|   |   form = incomplete: spec_prior (42.08)
|   |   form = foster: spec_prior (39.25)
health = not_recom: not_recom (101.75)

Number of Leaves  : 	208

Size of the tree : 	298


Weight: 3.77

J48 pruned tree
------------------

has_nurs = proper
|   health = recommended
|   |   finance = convenient
|   |   |   housing = convenient
|   |   |   |   form = complete
|   |   |   |   |   children = 1
|   |   |   |   |   |   social = nonprob: recommend (23.15)
|   |   |   |   |   |   social = slightly_prob: recommend (23.15)
|   |   |   |   |   |   social = problematic: priority (3.84)
|   |   |   |   |   children = 2: very_recom (0.5/0.17)
|   |   |   |   |   children = 3
|   |   |   |   |   |   social = nonprob: very_recom (4.82)
|   |   |   |   |   |   social = slightly_prob: very_recom (4.82)
|   |   |   |   |   |   social = problematic: priority (3.84)
|   |   |   |   |   children = more
|   |   |   |   |   |   social = nonprob: very_recom (4.82)
|   |   |   |   |   |   social = slightly_prob: very_recom (4.82)
|   |   |   |   |   |   social = problematic: priority (3.84)
|   |   |   |   form = completed: very_recom (1.25/0.49)
|   |   |   |   form = incomplete
|   |   |   |   |   social = nonprob: very_recom (12.59)
|   |   |   |   |   social = slightly_prob: very_recom (12.59)
|   |   |   |   |   social = problematic: priority (6.21)
|   |   |   |   form = foster: very_recom (81.24/1.09)
|   |   |   housing = less_conv
|   |   |   |   children = 1: very_recom (24.99/1.93)
|   |   |   |   children = 2
|   |   |   |   |   form = complete: very_recom (8.45/0.76)
|   |   |   |   |   form = completed: very_recom (8.18/0.5)
|   |   |   |   |   form = incomplete: priority (13.49)
|   |   |   |   |   form = foster: priority (2.29)
|   |   |   |   children = 3: priority (40.57)
|   |   |   |   children = more: priority (40.57)
|   |   |   housing = critical
|   |   |   |   children = 1
|   |   |   |   |   social = nonprob: very_recom (6.57/1.53)
|   |   |   |   |   social = slightly_prob: very_recom (6.57/1.53)
|   |   |   |   |   social = problematic: priority (4.83)
|   |   |   |   children = 2: priority (17.59)
|   |   |   |   children = 3: priority (0.51)
|   |   |   |   children = more: priority (0.51)
|   |   finance = inconv
|   |   |   children = 1
|   |   |   |   form = complete
|   |   |   |   |   social = nonprob: very_recom (13.92)
|   |   |   |   |   social = slightly_prob: very_recom (13.92)
|   |   |   |   |   social = problematic: priority (10.13)
|   |   |   |   form = completed
|   |   |   |   |   social = nonprob: very_recom (9.65/0.76)
|   |   |   |   |   social = slightly_prob: very_recom (9.65/0.76)
|   |   |   |   |   social = problematic: priority (5.32)
|   |   |   |   form = incomplete
|   |   |   |   |   social = nonprob: very_recom (9.65/0.76)
|   |   |   |   |   social = slightly_prob: very_recom (9.65/0.76)
|   |   |   |   |   social = problematic: priority (5.32)
|   |   |   |   form = foster: priority (35.93)
|   |   |   children = 2
|   |   |   |   form = complete
|   |   |   |   |   housing = convenient: very_recom (10.25/0.17)
|   |   |   |   |   housing = less_conv: very_recom (8.45/0.76)
|   |   |   |   |   housing = critical: priority (13.36)
|   |   |   |   form = completed
|   |   |   |   |   social = nonprob: very_recom (9.65/0.76)
|   |   |   |   |   social = slightly_prob: very_recom (9.65/0.76)
|   |   |   |   |   social = problematic: priority (5.32)
|   |   |   |   form = incomplete: priority (20.72)
|   |   |   |   form = foster: priority (6.88)
|   |   |   children = 3: priority (81.64)
|   |   |   children = more: priority (81.64)
|   health = priority: priority (5.28)
|   health = not_recom: not_recom (16.23)
has_nurs = less_proper
|   social = nonprob
|   |   finance = convenient
|   |   |   housing = convenient: very_recom (87.11/0.15)
|   |   |   housing = less_conv
|   |   |   |   form = complete: very_recom (9.25/1.57)
|   |   |   |   form = completed: very_recom (9.25/1.57)
|   |   |   |   form = incomplete: very_recom (6.17/2.33)
|   |   |   |   form = foster: priority (6.76/0.02)
|   |   |   housing = critical
|   |   |   |   children = 1: very_recom (5.68/0.64)
|   |   |   |   children = 2: priority (10.43/0.02)
|   |   |   |   children = 3: priority (0.19/0.02)
|   |   |   |   children = more: priority (0.19/0.02)
|   |   finance = inconv
|   |   |   children = 1
|   |   |   |   form = complete: very_recom (17.48/0.03)
|   |   |   |   form = completed: very_recom (9.14/0.26)
|   |   |   |   form = incomplete: very_recom (9.14/0.26)
|   |   |   |   form = foster: priority (17.9/0.01)
|   |   |   children = 2
|   |   |   |   housing = convenient
|   |   |   |   |   form = complete: very_recom (6.33/0.01)
|   |   |   |   |   form = completed: very_recom (5.05/0.01)
|   |   |   |   |   form = incomplete: priority (7.24/0.0)
|   |   |   |   |   form = foster: priority (0.18/0.0)
|   |   |   |   housing = less_conv: very_recom (9.47/0.81)
|   |   |   |   housing = critical: priority (10.3/0.02)
|   |   |   children = 3: priority (24.28/0.06)
|   |   |   children = more: priority (24.28/0.06)
|   social = slightly_prob
|   |   finance = convenient
|   |   |   housing = convenient: very_recom (87.11/0.15)
|   |   |   housing = less_conv
|   |   |   |   form = complete: very_recom (9.25/1.57)
|   |   |   |   form = completed: very_recom (9.25/1.57)
|   |   |   |   form = incomplete: very_recom (6.17/2.33)
|   |   |   |   form = foster: priority (6.76/0.02)
|   |   |   housing = critical
|   |   |   |   children = 1: very_recom (5.68/0.64)
|   |   |   |   children = 2: priority (10.43/0.02)
|   |   |   |   children = 3: priority (0.19/0.02)
|   |   |   |   children = more: priority (0.19/0.02)
|   |   finance = inconv
|   |   |   children = 1
|   |   |   |   form = complete: very_recom (17.48/0.03)
|   |   |   |   form = completed: very_recom (9.14/0.26)
|   |   |   |   form = incomplete: very_recom (9.14/0.26)
|   |   |   |   form = foster: priority (17.9/0.01)
|   |   |   children = 2
|   |   |   |   housing = convenient
|   |   |   |   |   form = complete: very_recom (6.33/0.01)
|   |   |   |   |   form = completed: very_recom (5.05/0.01)
|   |   |   |   |   form = incomplete: priority (7.24/0.0)
|   |   |   |   |   form = foster: priority (0.18/0.0)
|   |   |   |   housing = less_conv: very_recom (9.47/0.81)
|   |   |   |   housing = critical: priority (10.3/0.02)
|   |   |   children = 3: priority (24.28/0.06)
|   |   |   children = more: priority (24.28/0.06)
|   social = problematic: priority (111.44/0.45)
has_nurs = improper
|   social = nonprob
|   |   finance = convenient
|   |   |   housing = convenient: very_recom (87.11/0.15)
|   |   |   housing = less_conv
|   |   |   |   form = complete: very_recom (9.25/1.57)
|   |   |   |   form = completed: very_recom (9.25/1.57)
|   |   |   |   form = incomplete: very_recom (6.17/2.33)
|   |   |   |   form = foster: priority (6.76/0.02)
|   |   |   housing = critical
|   |   |   |   children = 1: very_recom (5.68/0.64)
|   |   |   |   children = 2: priority (10.43/0.02)
|   |   |   |   children = 3: priority (0.19/0.02)
|   |   |   |   children = more: priority (0.19/0.02)
|   |   finance = inconv
|   |   |   children = 1
|   |   |   |   form = complete: very_recom (17.48/0.03)
|   |   |   |   form = completed: very_recom (9.14/0.26)
|   |   |   |   form = incomplete: very_recom (9.14/0.26)
|   |   |   |   form = foster: priority (17.9/0.01)
|   |   |   children = 2
|   |   |   |   housing = convenient
|   |   |   |   |   form = complete: very_recom (6.33/0.01)
|   |   |   |   |   form = completed: very_recom (5.05/0.01)
|   |   |   |   |   form = incomplete: priority (7.24/0.0)
|   |   |   |   |   form = foster: priority (0.18/0.0)
|   |   |   |   housing = less_conv: very_recom (9.47/0.81)
|   |   |   |   housing = critical: priority (10.3/0.02)
|   |   |   children = 3: priority (24.28/0.06)
|   |   |   children = more: priority (24.28/0.06)
|   social = slightly_prob
|   |   finance = convenient
|   |   |   housing = convenient: very_recom (87.11/0.15)
|   |   |   housing = less_conv
|   |   |   |   form = complete: very_recom (9.25/1.57)
|   |   |   |   form = completed: very_recom (9.25/1.57)
|   |   |   |   form = incomplete: very_recom (6.17/2.33)
|   |   |   |   form = foster: priority (6.76/0.02)
|   |   |   housing = critical
|   |   |   |   children = 1: very_recom (5.68/0.64)
|   |   |   |   children = 2: priority (10.43/0.02)
|   |   |   |   children = 3: priority (0.19/0.02)
|   |   |   |   children = more: priority (0.19/0.02)
|   |   finance = inconv
|   |   |   children = 1
|   |   |   |   form = complete: very_recom (17.48/0.03)
|   |   |   |   form = completed: very_recom (9.14/0.26)
|   |   |   |   form = incomplete: very_recom (9.14/0.26)
|   |   |   |   form = foster: priority (17.9/0.01)
|   |   |   children = 2
|   |   |   |   housing = convenient
|   |   |   |   |   form = complete: very_recom (6.33/0.01)
|   |   |   |   |   form = completed: very_recom (5.05/0.01)
|   |   |   |   |   form = incomplete: priority (7.24/0.0)
|   |   |   |   |   form = foster: priority (0.18/0.0)
|   |   |   |   housing = less_conv: very_recom (9.47/0.81)
|   |   |   |   housing = critical: priority (10.3/0.02)
|   |   |   children = 3: priority (24.28/0.06)
|   |   |   children = more: priority (24.28/0.06)
|   social = problematic: priority (111.44/0.45)
has_nurs = critical
|   health = recommended
|   |   social = nonprob: priority (72.27)
|   |   social = slightly_prob: priority (72.27)
|   |   social = problematic
|   |   |   housing = convenient
|   |   |   |   finance = convenient: priority (71.28)
|   |   |   |   finance = inconv
|   |   |   |   |   children = 1
|   |   |   |   |   |   form = complete: priority (6.32)
|   |   |   |   |   |   form = completed: priority (6.32)
|   |   |   |   |   |   form = incomplete: priority (6.32)
|   |   |   |   |   |   form = foster: spec_prior (17.65)
|   |   |   |   |   children = 2: priority (12.97/0.33)
|   |   |   |   |   children = 3: spec_prior (21.85)
|   |   |   |   |   children = more: spec_prior (21.85)
|   |   |   housing = less_conv
|   |   |   |   children = 1
|   |   |   |   |   form = complete: priority (4.98)
|   |   |   |   |   form = completed: priority (12.05)
|   |   |   |   |   form = incomplete: priority (4.98)
|   |   |   |   |   form = foster: spec_prior (6.54)
|   |   |   |   children = 2
|   |   |   |   |   form = complete: priority (8.66)
|   |   |   |   |   form = completed: priority (8.66)
|   |   |   |   |   form = incomplete: spec_prior (12.0)
|   |   |   |   |   form = foster: spec_prior (12.0)
|   |   |   |   children = 3: spec_prior (100.44)
|   |   |   |   children = more: spec_prior (100.44)
|   |   |   housing = critical
|   |   |   |   form = complete
|   |   |   |   |   children = 1: priority (15.8)
|   |   |   |   |   children = 2: spec_prior (12.05)
|   |   |   |   |   children = 3: spec_prior (7.4)
|   |   |   |   |   children = more: spec_prior (7.4)
|   |   |   |   form = completed: spec_prior (23.17)
|   |   |   |   form = incomplete: spec_prior (7.86)
|   |   |   |   form = foster: spec_prior (0.3)
|   health = priority
|   |   finance = convenient
|   |   |   housing = convenient: priority (21.23)
|   |   |   housing = less_conv
|   |   |   |   children = 1: priority (5.3/0.69)
|   |   |   |   children = 2: priority (29.43/1.39)
|   |   |   |   children = 3: spec_prior (3.01)
|   |   |   |   children = more: spec_prior (3.01)
|   |   |   housing = critical
|   |   |   |   children = 1: priority (30.53/2.08)
|   |   |   |   children = 2: spec_prior (4.62)
|   |   |   |   children = 3: spec_prior (0.06)
|   |   |   |   children = more: spec_prior (0.06)
|   |   finance = inconv
|   |   |   form = complete
|   |   |   |   children = 1: priority (28.48)
|   |   |   |   children = 2: spec_prior (3.68/1.39)
|   |   |   |   children = 3: spec_prior (2.99)
|   |   |   |   children = more: spec_prior (2.99)
|   |   |   form = completed
|   |   |   |   children = 1: priority (5.28/0.69)
|   |   |   |   children = 2: spec_prior (3.68/1.39)
|   |   |   |   children = 3: spec_prior (2.99)
|   |   |   |   children = more: spec_prior (2.99)
|   |   |   form = incomplete
|   |   |   |   children = 1: priority (5.28/0.69)
|   |   |   |   children = 2: spec_prior (35.72)
|   |   |   |   children = 3: spec_prior (0.04)
|   |   |   |   children = more: spec_prior (0.04)
|   |   |   form = foster: spec_prior (67.25)
|   health = not_recom: not_recom (31.11)
has_nurs = very_crit
|   housing = convenient
|   |   finance = convenient
|   |   |   health = recommended
|   |   |   |   social = nonprob: priority (52.12)
|   |   |   |   social = slightly_prob: priority (52.12)
|   |   |   |   social = problematic
|   |   |   |   |   form = complete
|   |   |   |   |   |   children = 1: priority (23.15)
|   |   |   |   |   |   children = 2: spec_prior (4.82)
|   |   |   |   |   |   children = 3: spec_prior (0.11)
|   |   |   |   |   |   children = more: spec_prior (0.11)
|   |   |   |   |   form = completed: spec_prior (5.65)
|   |   |   |   |   form = incomplete: spec_prior (5.65)
|   |   |   |   |   form = foster: spec_prior (6.68)
|   |   |   health = priority
|   |   |   |   form = complete
|   |   |   |   |   children = 1: priority (69.46)
|   |   |   |   |   children = 2: spec_prior (14.45)
|   |   |   |   |   children = 3: spec_prior (14.45)
|   |   |   |   |   children = more: spec_prior (14.45)
|   |   |   |   form = completed: spec_prior (21.24)
|   |   |   |   form = incomplete: spec_prior (21.24)
|   |   |   |   form = foster: spec_prior (20.03)
|   |   |   health = not_recom: not_recom (1.11)
|   |   finance = inconv
|   |   |   children = 1
|   |   |   |   form = complete: spec_prior (8.65/1.54)
|   |   |   |   form = completed: priority (10.43/0.79)
|   |   |   |   form = incomplete: priority (10.43/0.79)
|   |   |   |   form = foster: spec_prior (10.11/0.01)
|   |   |   children = 2
|   |   |   |   form = complete: spec_prior (6.37/1.54)
|   |   |   |   form = completed: priority (10.43/0.79)
|   |   |   |   form = incomplete: spec_prior (10.11/0.01)
|   |   |   |   form = foster: spec_prior (0.0)
|   |   |   children = 3: spec_prior (40.58/0.04)
|   |   |   children = more: spec_prior (40.58/0.04)
|   housing = less_conv
|   |   children = 1
|   |   |   form = complete: spec_prior (17.31/3.09)
|   |   |   form = completed: priority (20.85/1.59)
|   |   |   form = incomplete: priority (20.85/1.59)
|   |   |   form = foster: spec_prior (13.27/0.03)
|   |   children = 2
|   |   |   form = complete: spec_prior (12.75/3.09)
|   |   |   form = completed: priority (20.85/1.59)
|   |   |   form = incomplete: spec_prior (10.93/0.03)
|   |   |   form = foster: priority (0.0)
|   |   children = 3: spec_prior (100.79/0.08)
|   |   children = more: spec_prior (100.79/0.08)
|   housing = critical
|   |   form = complete
|   |   |   children = 1
|   |   |   |   social = nonprob: priority (11.62/1.54)
|   |   |   |   social = slightly_prob: priority (11.62/1.54)
