
Options: -P 100 -S 1 -I 200 -W weka.classifiers.trees.J48 -- -C 0.25 -M 2 

AdaBoostM1: Base classifiers and their weights: 

J48 pruned tree
------------------

blue-band-flux_2 <= 13702.554
|   blue-band-flux_20 <= 9199.367
|   |   Right-Ascension <= 22.878: 41 (3.0/1.0)
|   |   Right-Ascension > 22.878
|   |   |   Declination <= 27.811: 2 (2.0)
|   |   |   Declination > 27.811: 31 (2.0/1.0)
|   blue-band-flux_20 > 9199.367
|   |   red-band-flux_49 <= 1037.9974
|   |   |   blue-band-flux_14 <= 12679.736
|   |   |   |   red-band-flux_8 <= 3759.622: 27 (3.0)
|   |   |   |   red-band-flux_8 > 3759.622: 25 (3.0/1.0)
|   |   |   blue-band-flux_14 > 12679.736: 29 (5.0)
|   |   red-band-flux_49 > 1037.9974: 28 (5.0/1.0)
blue-band-flux_2 > 13702.554
|   blue-band-flux_1 <= 16371.157
|   |   blue-band-flux_12 <= 10139.746
|   |   |   Declination <= 54.595: 15 (2.0)
|   |   |   Declination > 54.595: 43 (3.0/1.0)
|   |   blue-band-flux_12 > 10139.746: 22 (5.0)
|   blue-band-flux_1 > 16371.157
|   |   blue-band-flux_1 <= 20703.979
|   |   |   Red_base_1 <= 338: 16 (3.0)
|   |   |   Red_base_1 > 338: 39 (2.0/1.0)
|   |   blue-band-flux_1 > 20703.979: 18 (4.0/1.0)

Number of Leaves  : 	13

Size of the tree : 	25


Weight: 1.61

J48 pruned tree
------------------

blue-band-flux_24 <= 7724.0703
|   LRS-name = 12043-6225: 17 (0.0)
|   LRS-name = 12063-6259: 17 (0.0)
|   LRS-name = 12073-6233: 17 (0.0)
|   LRS-name = 12148-6741: 17 (0.0)
|   LRS-name = 12216-6218: 17 (0.0)
|   LRS-name = 12226+0102: 17 (0.0)
|   LRS-name = 12230-5943: 17 (0.0)
|   LRS-name = 12233-5920: 17 (0.0)
|   LRS-name = 12247-5842: 17 (0.0)
|   LRS-name = 12274-7647: 17 (0.0)
|   LRS-name = 12277+0441: 17 (0.0)
|   LRS-name = 12283-5650: 17 (0.0)
|   LRS-name = 12298-5754: 17 (0.0)
|   LRS-name = 12319-6728: 17 (0.0)
|   LRS-name = 12377-6102: 17 (0.0)
|   LRS-name = 12379-4959: 17 (0.0)
|   LRS-name = 12380+5607: 17 (0.0)
|   LRS-name = 12384-4536: 17 (0.0)
|   LRS-name = 12394-4338: 17 (0.0)
|   LRS-name = 12421-6217: 17 (0.0)
|   LRS-name = 12427+4542: 17 (0.0)
|   LRS-name = 12447+0425: 17 (0.0)
|   LRS-name = 12454-6659: 17 (0.0)
|   LRS-name = 12462-6418: 17 (0.0)
|   LRS-name = 12506-6004: 17 (0.0)
|   LRS-name = 12530+0340: 17 (0.0)
|   LRS-name = 12540-6845: 17 (0.0)
|   LRS-name = 12559-6041: 17 (0.0)
|   LRS-name = 12563-6100: 17 (0.0)
|   LRS-name = 13001+0527: 17 (0.0)
|   LRS-name = 13022-7650: 17 (0.0)
|   LRS-name = 13064-6103: 17 (0.0)
|   LRS-name = 13136-4426: 17 (0.0)
|   LRS-name = 13141-6119: 17 (0.0)
|   LRS-name = 13170-5404: 17 (0.0)
|   LRS-name = 13172+4547: 17 (0.0)
|   LRS-name = 13203-5536: 17 (0.0)
|   LRS-name = 13208-6027: 17 (0.0)
|   LRS-name = 13283-5839: 17 (0.0)
|   LRS-name = 13328-6244: 17 (0.0)
|   LRS-name = 13343-5807: 17 (0.0)
|   LRS-name = 13350-7221: 17 (0.0)
|   LRS-name = 13368-4941: 17 (0.0)
|   LRS-name = 13371-6249: 17 (0.0)
|   LRS-name = 13379-5426: 17 (0.0)
|   LRS-name = 13442-6109: 17 (0.0)
|   LRS-name = 13462-2807: 17 (0.0)
|   LRS-name = 13465-3412: 17 (0.0)
|   LRS-name = 13477-6532: 17 (0.0)
|   LRS-name = 13482-6716: 17 (0.0)
|   LRS-name = 13509-6348: 17 (0.0)
|   LRS-name = 13517-6515: 17 (0.0)
|   LRS-name = 13527-6117: 17 (0.0)
|   LRS-name = 13557-6442: 17 (0.0)
|   LRS-name = 13572-6347: 17 (0.0)
|   LRS-name = 13581-5930: 17 (0.0)
|   LRS-name = 14003-7633: 17 (0.0)
|   LRS-name = 14020-3515: 17 (0.0)
|   LRS-name = 14030-4629: 17 (0.0)
|   LRS-name = 14068-6158: 17 (0.0)
|   LRS-name = 14086-2839: 17 (0.0)
|   LRS-name = 14086-6907: 17 (0.0)
|   LRS-name = 14119-6453: 17 (0.0)
|   LRS-name = 14122-6133: 17 (0.0)
|   LRS-name = 14129-5940: 17 (0.0)
|   LRS-name = 14133+1925: 17 (0.0)
|   LRS-name = 14159-6038: 17 (0.0)
|   LRS-name = 14182-6144: 17 (0.0)
|   LRS-name = 14216-6152: 17 (0.0)
|   LRS-name = 14247+0454: 17 (0.0)
|   LRS-name = 14251-6256: 17 (0.0)
|   LRS-name = 14277+3904: 17 (0.0)
|   LRS-name = 14280-2952: 17 (0.0)
|   LRS-name = 14286-5905: 17 (0.0)
|   LRS-name = 14301-5734: 17 (0.0)
|   LRS-name = 14337-6215: 17 (0.0)
|   LRS-name = 14359-6037: 17 (0.0)
|   LRS-name = 14371+3245: 17 (0.0)
|   LRS-name = 14390+3147: 17 (0.0)
|   LRS-name = 14437+1520: 17 (0.0)
|   LRS-name = 14453-4920: 17 (0.0)
|   LRS-name = 14455-3625: 17 (0.0)
|   LRS-name = 14465-6000: 17 (0.0)
|   LRS-name = 14484-6152: 17 (0.0)
|   LRS-name = 14508+7421: 17 (0.0)
|   LRS-name = 14531-5337: 17 (0.0)
|   LRS-name = 14550-1214: 17 (0.0)
|   LRS-name = 14562-5406: 17 (0.0)
|   LRS-name = 14567+6607: 17 (0.0)
|   LRS-name = 14567-5846: 17 (0.0)
|   LRS-name = 14582-5926: 17 (0.0)
|   LRS-name = 14591-4438: 17 (0.0)
|   LRS-name = 15011-2505: 17 (0.0)
|   LRS-name = 15023-6916: 17 (0.0)
|   LRS-name = 15082-4808: 17 (0.0)
|   LRS-name = 15084-5702: 17 (0.0)
|   LRS-name = 15099-5509: 17 (0.0)
|   LRS-name = 15107-5726: 17 (0.0)
|   LRS-name = 15148-4940: 17 (0.0)
|   LRS-name = 15186-3604: 17 (0.0)
|   LRS-name = 15186-5730: 17 (0.0)
|   LRS-name = 15193+1429: 17 (0.0)
|   LRS-name = 15193+3132: 17 (0.0)
|   LRS-name = 15214-2244: 17 (0.0)
|   LRS-name = 15219-7545: 17 (0.0)
|   LRS-name = 15223-0203: 17 (0.0)
|   LRS-name = 15225-5605: 17 (0.0)
|   LRS-name = 15226-3603: 17 (0.0)
|   LRS-name = 15255+1944: 17 (0.0)
|   LRS-name = 15269-4400: 17 (0.0)
|   LRS-name = 15287-5811: 17 (0.0)
|   LRS-name = 15290-5546: 17 (0.0)
|   LRS-name = 15311-5538: 17 (0.0)
|   LRS-name = 15314+7847: 17 (0.0)
|   LRS-name = 15323-4920: 17 (0.0)
|   LRS-name = 15332-6430: 17 (0.0)
|   LRS-name = 15341+1515: 17 (0.0)
|   LRS-name = 15356-6722: 17 (0.0)
|   LRS-name = 15361+2441: 17 (0.0)
|   LRS-name = 15373-5308: 17 (0.0)
|   LRS-name = 15402-5449: 17 (0.0)
|   LRS-name = 15408-5413: 17 (0.0)
|   LRS-name = 15410-0133: 17 (0.0)
|   LRS-name = 15468-5018: 17 (0.0)
|   LRS-name = 15483+1517: 17 (0.0)
|   LRS-name = 15483-5514: 17 (0.0)
|   LRS-name = 15492+4837: 17 (0.0)
|   LRS-name = 15509-5207: 17 (0.0)
|   LRS-name = 15530-5201: 17 (0.0)
|   LRS-name = 15566+3609: 17 (0.0)
|   LRS-name = 15568-4513: 17 (0.0)
|   LRS-name = 15569-6135: 17 (0.0)
|   LRS-name = 15576-5400: 17 (0.0)
|   LRS-name = 16011+4722: 17 (0.0)
|   LRS-name = 16011-5424: 17 (0.0)
|   LRS-name = 16029-3041: 17 (0.0)
|   LRS-name = 16030-5156: 17 (0.0)
|   LRS-name = 16031-4856: 17 (0.0)
|   LRS-name = 16064-4200: 17 (0.0)
|   LRS-name = 16066-4427: 17 (0.0)
|   LRS-name = 16077-5830: 17 (0.0)
|   LRS-name = 16079-4812: 17 (0.0)
|   LRS-name = 16081+2511: 17 (0.0)
|   LRS-name = 16105-4205: 17 (0.0)
|   LRS-name = 16117-0334: 17 (0.0)
|   LRS-name = 16127-7834: 17 (0.0)
|   LRS-name = 16133-5151: 17 (0.0)
|   LRS-name = 16156-5613: 17 (0.0)
|   LRS-name = 16171-4759: 17 (0.0)
|   LRS-name = 16175-6120: 17 (0.0)
|   LRS-name = 16192-4900: 17 (0.0)
|   LRS-name = 16208-2215: 17 (0.0)
|   LRS-name = 16218-4701: 17 (0.0)
|   LRS-name = 16219-5048: 17 (0.0)
|   LRS-name = 16222-4738: 17 (0.0)
|   LRS-name = 16229-4947: 17 (0.0)
|   LRS-name = 16235+1900: 17 (0.0)
|   LRS-name = 16260+3454: 17 (0.0)
|   LRS-name = 16263-5533: 17 (0.0)
|   LRS-name = 16269+4159: 17 (0.0)
|   LRS-name = 16270-5213: 17 (0.0)
|   LRS-name = 16279-4709: 17 (0.0)
|   LRS-name = 16280-4154: 17 (0.0)
|   LRS-name = 16296-4417: 17 (0.0)
|   LRS-name = 16306+7223: 17 (0.0)
|   LRS-name = 16316-5026: 17 (0.0)
|   LRS-name = 16327-4848: 17 (0.0)
|   LRS-name = 16328-4656: 17 (0.0)
|   LRS-name = 16334-3107: 17 (0.0)
|   LRS-name = 16337-4525: 17 (0.0)
|   LRS-name = 16340-4634: 17 (0.0)
|   LRS-name = 16387-2700: 17 (0.0)
|   LRS-name = 16396-4429: 17 (0.0)
|   LRS-name = 16407-5639: 17 (0.0)
|   LRS-name = 16418+5459: 17 (0.0)
|   LRS-name = 16433-6856: 17 (0.0)
|   LRS-name = 16438-1133: 17 (0.0)
|   LRS-name = 16446-4243: 17 (0.0)
|   LRS-name = 16451-4312: 17 (0.0)
|   LRS-name = 16460-4022: 17 (0.0)
|   LRS-name = 16473+5753: 17 (0.0)
|   LRS-name = 16478-4322: 17 (0.0)
|   LRS-name = 16490-4618: 17 (0.0)
|   LRS-name = 16494-1252: 17 (0.0)
|   LRS-name = 16498-4143: 17 (0.0)
|   LRS-name = 16534-3030: 17 (0.0)
|   LRS-name = 16541-4901: 17 (0.0)
|   LRS-name = 16545-4214: 17 (0.0)
|   LRS-name = 16546-4057: 17 (0.0)
|   LRS-name = 16559-2557: 17 (0.0)
|   LRS-name = 16571-7548: 17 (0.0)
|   LRS-name = 16581-4058: 17 (0.0)
|   LRS-name = 16586-4142: 17 (0.0)
|   LRS-name = 16589-3315: 17 (0.0)
|   LRS-name = 16598-4117: 17 (0.0)
|   LRS-name = 17001-3651: 17 (0.0)
|   LRS-name = 17010-4323: 17 (0.0)
|   LRS-name = 17025-4719: 17 (0.0)
|   LRS-name = 17047-5650: 17 (0.0)
|   LRS-name = 17048-1601: 17 (0.0)
|   LRS-name = 17049-2440: 17 (0.0)
|   LRS-name = 17050-4123: 17 (0.0)
|   LRS-name = 17066-4028: 17 (0.0)
|   LRS-name = 17079-3243: 17 (0.0)
|   LRS-name = 17080-3215: 17 (0.0)
|   LRS-name = 17081+6422: 17 (0.0)
|   LRS-name = 17102-1031: 17 (0.0)
|   LRS-name = 17103-0559: 17 (0.0)
|   LRS-name = 17103-3551: 17 (0.0)
|   LRS-name = 17103-3702: 17 (0.0)
|   LRS-name = 17104-3146: 17 (0.0)
|   LRS-name = 17105-3746: 17 (0.0)
|   LRS-name = 17109-3942: 17 (0.0)
|   LRS-name = 17115-3322: 17 (0.0)
|   LRS-name = 17119+0859: 17 (0.0)
|   LRS-name = 17122-2707: 17 (0.0)
|   LRS-name = 17123+1107: 17 (0.0)
|   LRS-name = 17125-4814: 17 (0.0)
|   LRS-name = 17139+0446: 17 (0.0)
|   LRS-name = 17139-3746: 17 (0.0)
|   LRS-name = 17162-1934: 17 (0.0)
|   LRS-name = 17174-4641: 17 (0.0)
|   LRS-name = 17187-3750: 17 (0.0)
|   LRS-name = 17190+2658: 17 (0.0)
|   LRS-name = 17199-3512: 17 (0.0)
|   LRS-name = 17201-4613: 17 (0.0)
|   LRS-name = 17213-2219: 17 (0.0)
|   LRS-name = 17217-3916: 17 (0.0)
|   LRS-name = 17237-3102: 17 (0.0)
|   LRS-name = 17239-2812: 17 (0.0)
|   LRS-name = 17265-0725: 17 (0.0)
|   LRS-name = 17297+1747: 17 (0.0)
|   LRS-name = 17309-1724: 17 (0.0)
|   LRS-name = 17315-3414: 17 (0.0)
|   LRS-name = 17317-3331: 17 (0.0)
|   LRS-name = 17318-2342: 17 (0.0)
|   LRS-name = 17319-6234: 17 (0.0)
|   LRS-name = 17328-3327: 17 (0.0)
|   LRS-name = 17334+1537: 17 (0.0)
|   LRS-name = 17341-3453: 17 (0.0)
|   LRS-name = 17343+1052: 17 (0.0)
|   LRS-name = 17361+5746: 17 (0.0)
|   LRS-name = 17375-3652: 17 (0.0)
|   LRS-name = 17381-3442: 17 (0.0)
|   LRS-name = 17382-1704: 17 (0.0)
|   LRS-name = 17387-4343: 17 (0.0)
|   LRS-name = 17389-2045: 17 (0.0)
|   LRS-name = 17389-5742: 17 (0.0)
|   LRS-name = 17398-4344: 17 (0.0)
|   LRS-name = 17433-2523: 17 (0.0)
|   LRS-name = 17434-3414: 17 (0.0)
|   LRS-name = 17443-2519: 17 (0.0)
|   LRS-name = 17446-7809: 17 (0.0)
|   LRS-name = 17462-8647: 17 (0.0)
|   LRS-name = 17479-2927: 17 (0.0)
|   LRS-name = 17484-0800: 17 (0.0)
|   LRS-name = 17488-2800: 17 (0.0)
|   LRS-name = 17504-0234: 17 (0.0)
|   LRS-name = 17505-3143: 17 (0.0)
|   LRS-name = 17508-3419: 17 (0.0)
|   LRS-name = 17513-2313: 17 (0.0)
|   LRS-name = 17534-3030: 17 (0.0)
|   LRS-name = 17540-1919: 17 (0.0)
|   LRS-name = 17541+1110: 17 (0.0)
|   LRS-name = 17554+5129: 17 (0.0)
|   LRS-name = 17556+5813: 17 (0.0)
|   LRS-name = 17570-3713: 17 (0.0)
|   LRS-name = 17579+2335: 17 (0.0)
|   LRS-name = 17581-1744: 17 (0.0)
|   LRS-name = 18018-2802: 17 (0.0)
|   LRS-name = 18027-2314: 17 (0.0)
|   LRS-name = 18039-0813: 17 (0.0)
|   LRS-name = 18040-0941: 17 (0.0)
|   LRS-name = 18041-3317: 17 (0.0)
|   LRS-name = 18057-2616: 17 (0.0)
|   LRS-name = 18076+3445: 17 (0.0)
|   LRS-name = 18076-1034: 17 (0.0)
|   LRS-name = 18083-2630: 17 (0.0)
|   LRS-name = 18092-0437: 17 (0.0)
|   LRS-name = 18095+2704: 17 (0.0)
|   LRS-name = 18135-1456: 17 (0.0)
|   LRS-name = 18135-1740: 17 (0.0)
|   LRS-name = 18136-1859: 17 (0.0)
|   LRS-name = 18142-3646: 17 (0.0)
|   LRS-name = 18156-0653: 17 (0.0)
|   LRS-name = 18157+1757: 17 (0.0)
|   LRS-name = 18162-0246: 17 (0.0)
|   LRS-name = 18176-1848: 17 (0.0)
|   LRS-name = 18177-2951: 17 (0.0)
|   LRS-name = 18186+3143: 17 (0.0)
|   LRS-name = 18213+0335: 17 (0.0)
|   LRS-name = 18222+3933: 17 (0.0)
|   LRS-name = 18230+0544: 17 (0.0)
|   LRS-name = 18239-0655: 17 (0.0)
|   LRS-name = 18240+2326: 17 (0.0)
|   LRS-name = 18257-1000: 17 (0.0)
|   LRS-name = 18267-0606: 17 (0.0)
|   LRS-name = 18273-0738: 17 (0.0)
|   LRS-name = 18276+8236: 17 (0.0)
|   LRS-name = 18276-4717: 17 (0.0)
|   LRS-name = 18280-5639: 17 (0.0)
|   LRS-name = 18281+2149: 17 (0.0)
|   LRS-name = 18301-0656: 17 (0.0)
|   LRS-name = 18303-0519: 17 (0.0)
|   LRS-name = 18306+3657: 17 (0.0)
|   LRS-name = 18314-1131: 17 (0.0)
|   LRS-name = 18316-0602: 17 (0.0)
|   LRS-name = 18320-0352: 17 (0.0)
|   LRS-name = 18325-1138: 17 (0.0)
|   LRS-name = 18333+0533: 17 (0.0)
|   LRS-name = 18349+1023: 17 (0.0)
|   LRS-name = 18359+0847: 17 (0.0)
|   LRS-name = 18367-0452: 17 (0.0)
|   LRS-name = 18373-0021: 17 (0.0)
|   LRS-name = 18378-3731: 17 (0.0)
|   LRS-name = 18397+1738: 17 (0.0)
|   LRS-name = 18398-0220: 17 (0.0)
|   LRS-name = 18401+2854: 17 (0.0)
|   LRS-name = 18413+1354: 17 (0.0)
|   LRS-name = 18414-0527: 17 (0.0)
|   LRS-name = 18421+1147: 17 (0.0)
|   LRS-name = 18429-1721: 17 (0.0)
|   LRS-name = 18450-0922: 17 (0.0)
|   LRS-name = 18451-0824: 17 (0.0)
|   LRS-name = 18464-0656: 17 (0.0)
|   LRS-name = 18467-4802: 17 (0.0)
|   LRS-name = 18475+0926: 17 (0.0)
|   LRS-name = 18476+0555: 17 (0.0)
|   LRS-name = 18527+3650: 17 (0.0)
|   LRS-name = 18530+0817: 17 (0.0)
|   LRS-name = 18531+0016: 17 (0.0)
|   LRS-name = 18535+0726: 17 (0.0)
|   LRS-name = 18537-1035: 17 (0.0)
|   LRS-name = 18550+0130: 17 (0.0)
|   LRS-name = 18551+0323: 17 (0.0)
|   LRS-name = 18551+1345: 17 (0.0)
|   LRS-name = 18556+0811: 17 (0.0)
|   LRS-name = 18560+0638: 17 (0.0)
|   LRS-name = 19007-2247: 17 (0.0)
|   LRS-name = 19007-3826: 17 (0.0)
|   LRS-name = 19008+0726: 17 (0.0)
|   LRS-name = 19017-0545: 17 (0.0)
|   LRS-name = 19029+0808: 17 (0.0)
|   LRS-name = 19032-4602: 17 (0.0)
|   LRS-name = 19042-4858: 17 (0.0)
|   LRS-name = 19043+1009: 17 (0.0)
|   LRS-name = 19059-2219: 17 (0.0)
|   LRS-name = 19075+0921: 17 (0.0)
|   LRS-name = 19093-3256: 17 (0.0)
|   LRS-name = 19099+6711: 17 (0.0)
|   LRS-name = 19135+0931: 17 (0.0)
|   LRS-name = 19143-5032: 17 (0.0)
|   LRS-name = 19157-1706: 17 (0.0)
|   LRS-name = 19161+2343: 17 (0.0)
|   LRS-name = 19178-2620: 17 (0.0)
|   LRS-name = 19188-1603: 17 (0.0)
|   LRS-name = 19192+0922: 17 (0.0)
|   LRS-name = 19194+1734: 17 (0.0)
|   LRS-name = 19229+1708: 17 (0.0)
|   LRS-name = 19232+5008: 17 (0.0)
|   LRS-name = 19240+3615: 17 (0.0)
|   LRS-name = 19247-1722: 17 (0.0)
|   LRS-name = 19282+2253: 17 (0.0)
|   LRS-name = 19283+1944: 17 (0.0)
|   LRS-name = 19287+4602: 17 (0.0)
|   LRS-name = 19296+4331: 17 (0.0)
|   LRS-name = 19314-1629: 17 (0.0)
|   LRS-name = 19321+2757: 17 (0.0)
|   LRS-name = 19324+3033: 17 (0.0)
|   LRS-name = 19327+3024: 17 (0.0)
|   LRS-name = 19352+2030: 17 (0.0)
|   LRS-name = 19354+5005: 17 (0.0)
|   LRS-name = 19361-1658: 17 (0.0)
|   LRS-name = 19396+1637: 17 (0.0)
|   LRS-name = 19412+0337: 17 (0.0)
|   LRS-name = 19422+3506: 17 (0.0)
|   LRS-name = 19451+1824: 17 (0.0)
|   LRS-name = 19472+2127: 17 (0.0)
|   LRS-name = 19474-0744: 17 (0.0)
|   LRS-name = 19480+2447: 17 (0.0)
|   LRS-name = 19495+0835: 17 (0.0)
|   LRS-name = 19500-1709: 17 (0.0)
|   LRS-name = 19503+2219: 17 (0.0)
|   LRS-name = 19510-5919: 17 (0.0)
|   LRS-name = 19528-2919: 17 (0.0)
|   LRS-name = 19536+3237: 17 (0.0)
|   LRS-name = 19537+2212: 17 (0.0)
|   LRS-name = 19548+3035: 17 (0.0)
|   LRS-name = 19550-0201: 17 (0.0)
|   LRS-name = 19575-5930: 17 (0.0)
|   LRS-name = 19585+5200: 17 (0.0)
|   LRS-name = 19586+3637: 17 (0.0)
|   LRS-name = 19594+4047: 17 (0.0)
|   LRS-name = 19595-2751: 17 (0.0)
|   LRS-name = 20010+3011: 17 (0.0)
|   LRS-name = 20015+3019: 17 (0.0)
|   LRS-name = 20024+3330: 17 (0.0)
|   LRS-name = 20028+3910: 17 (0.0)
|   LRS-name = 20038-2722: 17 (0.0)
|   LRS-name = 20042-4241: 17 (0.0)
|   LRS-name = 20052+0554: 17 (0.0)
|   LRS-name = 20072+3116: 17 (0.0)
|   LRS-name = 20075-6005: 17 (0.0)
|   LRS-name = 20094-1121: 17 (0.0)
|   LRS-name = 20111-4708: 17 (0.0)
|   LRS-name = 20113+4917: 17 (0.0)
|   LRS-name = 20124+6605: 17 (0.0)
|   LRS-name = 20135-7152: 17 (0.0)
|   LRS-name = 20161-1600: 17 (0.0)
|   LRS-name = 20165+3413: 17 (0.0)
|   LRS-name = 20171+3519: 17 (0.0)
|   LRS-name = 20193+3527: 17 (0.0)
|   LRS-name = 20194+3646: 17 (0.0)
|   LRS-name = 20200+3624: 17 (0.0)
|   LRS-name = 20215+6243: 17 (0.0)
|   LRS-name = 20248+7505: 17 (0.0)
|   LRS-name = 20248-2825: 17 (0.0)
|   LRS-name = 20253+3814: 17 (0.0)
|   LRS-name = 20255+4054: 17 (0.0)
|   LRS-name = 20267+2105: 17 (0.0)
|   LRS-name = 20275+4001: 17 (0.0)
|   LRS-name = 20297+3221: 17 (0.0)
|   LRS-name = 20310+4029: 17 (0.0)
|   LRS-name = 20318+3829: 17 (0.0)
|   LRS-name = 20340+5338: 17 (0.0)
|   LRS-name = 20350+3741: 17 (0.0)
|   LRS-name = 20356+1805: 17 (0.0)
|   LRS-name = 20365+1154: 17 (0.0)
|   LRS-name = 20396+4757: 17 (0.0)
|   LRS-name = 20403+3700: 17 (0.0)
|   LRS-name = 20417-0500: 17 (0.0)
|   LRS-name = 20431+1754: 17 (0.0)
|   LRS-name = 20435+3825: 17 (0.0)
|   LRS-name = 20440-0105: 17 (0.0)
|   LRS-name = 20479+0554: 17 (0.0)
|   LRS-name = 20484-7202: 17 (0.0)
|   LRS-name = 20491+4236: 17 (0.0)
|   LRS-name = 20502+4709: 17 (0.0)
|   LRS-name = 20529+3013: 17 (0.0)
|   LRS-name = 20532+5554: 17 (0.0)
|   LRS-name = 20541-6549: 17 (0.0)
|   LRS-name = 20549+5245: 17 (0.0)
|   LRS-name = 20570+2714: 17 (0.0)
|   LRS-name = 21003+4801: 17 (0.0)
|   LRS-name = 21032-0024: 17 (0.0)
|   LRS-name = 21035+5136: 17 (0.0)
|   LRS-name = 21044-1637: 17 (0.0)
|   LRS-name = 21069-3843: 17 (0.0)
|   LRS-name = 21086+5238: 17 (0.0)
|   LRS-name = 21088+6817: 17 (0.0)
|   LRS-name = 21190+5140: 17 (0.0)
|   LRS-name = 21206-4054: 17 (0.0)
|   LRS-name = 21243-6943: 17 (0.0)
|   LRS-name = 21245+6221: 17 (0.0)
|   LRS-name = 21270+7135: 17 (0.0)
|   LRS-name = 21286+1055: 17 (0.0)
|   LRS-name = 21305+2118: 17 (0.0)
|   LRS-name = 21312+5405: 17 (0.0)
|   LRS-name = 21318+5631: 17 (0.0)
|   LRS-name = 21320+3850: 17 (0.0)
|   LRS-name = 21341+4508: 17 (0.0)
|   LRS-name = 21368-3812: 17 (0.0)
|   LRS-name = 21373+4540: 17 (0.0)
|   LRS-name = 21377+5042: 17 (0.0)
|   LRS-name = 21377-0200: 17 (0.0)
|   LRS-name = 21383+4513: 17 (0.0)
|   LRS-name = 21389+5405: 17 (0.0)
|   LRS-name = 21399+3516: 17 (0.0)
|   LRS-name = 21401+7354: 17 (0.0)
|   LRS-name = 21417+0938: 17 (0.0)
|   LRS-name = 21449+4950: 17 (0.0)
|   LRS-name = 21453-4708: 17 (0.0)
|   LRS-name = 21456+6422: 17 (0.0)
|   LRS-name = 21489+5301: 17 (0.0)
|   LRS-name = 21543-1421: 17 (0.0)
|   LRS-name = 21552+6323: 17 (0.0)
|   LRS-name = 21554+6204: 17 (0.0)
|   LRS-name = 21558+5907: 17 (0.0)
|   LRS-name = 21563+5630: 17 (0.0)
|   LRS-name = 22017+2806: 17 (0.0)
|   LRS-name = 22035+3506: 17 (0.0)
|   LRS-name = 22091+5757: 17 (0.0)
|   LRS-name = 22097+5647: 17 (0.0)
|   LRS-name = 22142-8454: 17 (0.0)
|   LRS-name = 22150-6030: 17 (0.0)
|   LRS-name = 22165+4331: 17 (0.0)
|   LRS-name = 22177+5936: 17 (0.0)
|   LRS-name = 22190-0751: 17 (0.0)
|   LRS-name = 22196-4612: 17 (0.0)
|   LRS-name = 22212+5542: 17 (0.0)
|   LRS-name = 22230-4841: 22 (0.6)
|   LRS-name = 22231-4529: 17 (0.0)
|   LRS-name = 22241+6005: 41 (0.6)
|   LRS-name = 22264+5858: 17 (0.0)
|   LRS-name = 22267-4400: 18 (0.6)
|   LRS-name = 22272+5435: 72 (3.0)
|   LRS-name = 22280+1250: 15 (0.6)
|   LRS-name = 22282+5644: 17 (0.0)
|   LRS-name = 22303+5950: 41 (0.6)
|   LRS-name = 22306+5510: 21 (3.0)
|   LRS-name = 22317+5838: 17 (0.0)
|   LRS-name = 22345+5809: 17 (0.0)
|   LRS-name = 22456+5453: 17 (0.0)
|   LRS-name = 22476+4047: 16 (0.6)
|   LRS-name = 22512+6100: 17 (0.0)
|   LRS-name = 22516+0838: 17 (0.0)
|   LRS-name = 22518+6600: 17 (0.0)
|   LRS-name = 22525-2952: 22 (0.6)
|   LRS-name = 22526+8446: 17 (3.0)
|   LRS-name = 22540-5740: 22 (0.6)
|   LRS-name = 22585+6402: 17 (0.0)
|   LRS-name = 23000+5932: 17 (0.0)
|   LRS-name = 23013+2748: 18 (0.6)
|   LRS-name = 23095+5925: 16 (0.6)
|   LRS-name = 23134-7031: 16 (0.6)
|   LRS-name = 23138+6204: 17 (0.0)
|   LRS-name = 23151+5912: 39 (0.6)
|   LRS-name = 23166+1655: 2 (0.6)
|   LRS-name = 23202+5901: 22 (0.6)
|   LRS-name = 23213-4521: 17 (0.0)
|   LRS-name = 23284+5958: 17 (0.0)
|   LRS-name = 23309+2213: 18 (0.6)
|   LRS-name = 23320+4316: 42 (3.0)
|   LRS-name = 23365+5159: 17 (0.0)
|   LRS-name = 23416+6130: 17 (0.0)
|   LRS-name = 23439+5412: 15 (0.6)
|   LRS-name = 23491+6243: 17 (0.0)
|   LRS-name = 23496+6131: 17 (0.0)
|   LRS-name = 23528+4821: 22 (0.6)
|   LRS-name = 23541+7031: 31 (0.6)
|   LRS-name = 23564-5651: 2 (0.6)
blue-band-flux_24 > 7724.0703
|   ID-type = 0: 29 (0.6)
|   ID-type = 2: 43 (0.6)
|   ID-type = 3: 44 (3.6/0.6)
|   ID-type = 4
|   |   red-band-flux_15 <= 2637.8801
|   |   |   red-band-flux_49 <= 1037.9974
|   |   |   |   blue-band-flux_14 <= 12679.736: 27 (3.0/1.2)
|   |   |   |   blue-band-flux_14 > 12679.736: 29 (2.4)
|   |   |   red-band-flux_49 > 1037.9974: 28 (2.4)
|   |   red-band-flux_15 > 2637.8801: 26 (6.0/3.0)

Number of Leaves  : 	538

Size of the tree : 	544


Weight: 2.05

J48 pruned tree
------------------

blue-band-flux_20 <= 9199.367
|   ID-type = 0: 39 (0.68/0.34)
|   ID-type = 2: 72 (3.39/1.69)
|   ID-type = 3
|   |   blue-band-flux_9 <= 11567.402: 44 (2.71/1.02)
|   |   blue-band-flux_9 > 11567.402: 43 (2.63)
|   ID-type = 4
|   |   blue-band-flux_21 <= 7547.899: 17 (3.73/2.03)
|   |   blue-band-flux_21 > 7547.899
|   |   |   blue-band-flux_3 <= 13894.112: 21 (2.03/0.34)
|   |   |   blue-band-flux_3 > 13894.112: 42 (2.71/1.02)
blue-band-flux_20 > 9199.367
|   red-band-flux_14 <= 2806.1748
|   |   red-band-flux_40 <= 1149.9803: 25 (5.25)
|   |   red-band-flux_40 > 1149.9803
|   |   |   red-band-flux_30 <= 2097.289: 29 (3.05/1.35)
|   |   |   red-band-flux_30 > 2097.289: 26 (2.71/1.02)
|   red-band-flux_14 > 2806.1748: 69 (13.13)

Number of Leaves  : 	11

Size of the tree : 	19


Weight: 1.33

J48 pruned tree
------------------

red-band-flux_1 <= 8565.345
|   blue-band-flux_25 <= 6900.7915
|   |   blue-band-flux_25 <= 5916.7813
|   |   |   Declination <= 43.274: 18 (2.42)
|   |   |   Declination > 43.274: 17 (2.09/1.02)
|   |   blue-band-flux_25 > 5916.7813
|   |   |   Right-Ascension <= 22.576: 41 (2.69/1.07)
|   |   |   Right-Ascension > 22.576: 16 (4.04/1.62)
|   blue-band-flux_25 > 6900.7915
|   |   blue-band-flux_12 <= 9638.612
|   |   |   Declination <= 58.166: 15 (2.69/1.07)
|   |   |   Declination > 58.166: 43 (2.47)
|   |   blue-band-flux_12 > 9638.612: 22 (5.11/1.07)
red-band-flux_1 > 8565.345
|   Red_base_2 <= 111: 69 (8.3)
|   Red_base_2 > 111
|   |   red-band-flux_40 <= 1149.9803: 25 (4.39/1.07)
|   |   red-band-flux_40 > 1149.9803
|   |   |   red-band-flux_49 <= 1037.9974: 27 (4.57/2.14)
|   |   |   red-band-flux_49 > 1037.9974: 28 (3.23)

Number of Leaves  : 	11

Size of the tree : 	21


Weight: 1.29

J48 pruned tree
------------------

blue-band-flux_23 <= 7806.136
|   LRS-name = 12043-6225: 2 (0.0)
|   LRS-name = 12063-6259: 2 (0.0)
|   LRS-name = 12073-6233: 2 (0.0)
|   LRS-name = 12148-6741: 2 (0.0)
|   LRS-name = 12216-6218: 2 (0.0)
|   LRS-name = 12226+0102: 2 (0.0)
|   LRS-name = 12230-5943: 2 (0.0)
|   LRS-name = 12233-5920: 2 (0.0)
|   LRS-name = 12247-5842: 2 (0.0)
|   LRS-name = 12274-7647: 2 (0.0)
|   LRS-name = 12277+0441: 2 (0.0)
|   LRS-name = 12283-5650: 2 (0.0)
|   LRS-name = 12298-5754: 2 (0.0)
|   LRS-name = 12319-6728: 2 (0.0)
|   LRS-name = 12377-6102: 2 (0.0)
|   LRS-name = 12379-4959: 2 (0.0)
|   LRS-name = 12380+5607: 2 (0.0)
|   LRS-name = 12384-4536: 2 (0.0)
|   LRS-name = 12394-4338: 2 (0.0)
|   LRS-name = 12421-6217: 2 (0.0)
|   LRS-name = 12427+4542: 2 (0.0)
|   LRS-name = 12447+0425: 2 (0.0)
|   LRS-name = 12454-6659: 2 (0.0)
|   LRS-name = 12462-6418: 2 (0.0)
|   LRS-name = 12506-6004: 2 (0.0)
|   LRS-name = 12530+0340: 2 (0.0)
|   LRS-name = 12540-6845: 2 (0.0)
|   LRS-name = 12559-6041: 2 (0.0)
|   LRS-name = 12563-6100: 2 (0.0)
|   LRS-name = 13001+0527: 2 (0.0)
|   LRS-name = 13022-7650: 2 (0.0)
|   LRS-name = 13064-6103: 2 (0.0)
|   LRS-name = 13136-4426: 2 (0.0)
|   LRS-name = 13141-6119: 2 (0.0)
|   LRS-name = 13170-5404: 2 (0.0)
|   LRS-name = 13172+4547: 2 (0.0)
|   LRS-name = 13203-5536: 2 (0.0)
|   LRS-name = 13208-6027: 2 (0.0)
|   LRS-name = 13283-5839: 2 (0.0)
|   LRS-name = 13328-6244: 2 (0.0)
|   LRS-name = 13343-5807: 2 (0.0)
|   LRS-name = 13350-7221: 2 (0.0)
|   LRS-name = 13368-4941: 2 (0.0)
|   LRS-name = 13371-6249: 2 (0.0)
|   LRS-name = 13379-5426: 2 (0.0)
|   LRS-name = 13442-6109: 2 (0.0)
|   LRS-name = 13462-2807: 2 (0.0)
|   LRS-name = 13465-3412: 2 (0.0)
|   LRS-name = 13477-6532: 2 (0.0)
|   LRS-name = 13482-6716: 2 (0.0)
|   LRS-name = 13509-6348: 2 (0.0)
|   LRS-name = 13517-6515: 2 (0.0)
|   LRS-name = 13527-6117: 2 (0.0)
|   LRS-name = 13557-6442: 2 (0.0)
|   LRS-name = 13572-6347: 2 (0.0)
|   LRS-name = 13581-5930: 2 (0.0)
|   LRS-name = 14003-7633: 2 (0.0)
|   LRS-name = 14020-3515: 2 (0.0)
|   LRS-name = 14030-4629: 2 (0.0)
|   LRS-name = 14068-6158: 2 (0.0)
|   LRS-name = 14086-2839: 2 (0.0)
|   LRS-name = 14086-6907: 2 (0.0)
|   LRS-name = 14119-6453: 2 (0.0)
|   LRS-name = 14122-6133: 2 (0.0)
|   LRS-name = 14129-5940: 2 (0.0)
|   LRS-name = 14133+1925: 2 (0.0)
|   LRS-name = 14159-6038: 2 (0.0)
|   LRS-name = 14182-6144: 2 (0.0)
|   LRS-name = 14216-6152: 2 (0.0)
|   LRS-name = 14247+0454: 2 (0.0)
|   LRS-name = 14251-6256: 2 (0.0)
|   LRS-name = 14277+3904: 2 (0.0)
|   LRS-name = 14280-2952: 2 (0.0)
|   LRS-name = 14286-5905: 2 (0.0)
|   LRS-name = 14301-5734: 2 (0.0)
|   LRS-name = 14337-6215: 2 (0.0)
|   LRS-name = 14359-6037: 2 (0.0)
|   LRS-name = 14371+3245: 2 (0.0)
|   LRS-name = 14390+3147: 2 (0.0)
|   LRS-name = 14437+1520: 2 (0.0)
|   LRS-name = 14453-4920: 2 (0.0)
|   LRS-name = 14455-3625: 2 (0.0)
|   LRS-name = 14465-6000: 2 (0.0)
|   LRS-name = 14484-6152: 2 (0.0)
|   LRS-name = 14508+7421: 2 (0.0)
|   LRS-name = 14531-5337: 2 (0.0)
|   LRS-name = 14550-1214: 2 (0.0)
|   LRS-name = 14562-5406: 2 (0.0)
|   LRS-name = 14567+6607: 2 (0.0)
|   LRS-name = 14567-5846: 2 (0.0)
|   LRS-name = 14582-5926: 2 (0.0)
|   LRS-name = 14591-4438: 2 (0.0)
|   LRS-name = 15011-2505: 2 (0.0)
|   LRS-name = 15023-6916: 2 (0.0)
|   LRS-name = 15082-4808: 2 (0.0)
|   LRS-name = 15084-5702: 2 (0.0)
|   LRS-name = 15099-5509: 2 (0.0)
|   LRS-name = 15107-5726: 2 (0.0)
|   LRS-name = 15148-4940: 2 (0.0)
|   LRS-name = 15186-3604: 2 (0.0)
|   LRS-name = 15186-5730: 2 (0.0)
|   LRS-name = 15193+1429: 2 (0.0)
|   LRS-name = 15193+3132: 2 (0.0)
|   LRS-name = 15214-2244: 2 (0.0)
|   LRS-name = 15219-7545: 2 (0.0)
|   LRS-name = 15223-0203: 2 (0.0)
|   LRS-name = 15225-5605: 2 (0.0)
|   LRS-name = 15226-3603: 2 (0.0)
|   LRS-name = 15255+1944: 2 (0.0)
|   LRS-name = 15269-4400: 2 (0.0)
|   LRS-name = 15287-5811: 2 (0.0)
|   LRS-name = 15290-5546: 2 (0.0)
|   LRS-name = 15311-5538: 2 (0.0)
|   LRS-name = 15314+7847: 2 (0.0)
|   LRS-name = 15323-4920: 2 (0.0)
|   LRS-name = 15332-6430: 2 (0.0)
|   LRS-name = 15341+1515: 2 (0.0)
|   LRS-name = 15356-6722: 2 (0.0)
|   LRS-name = 15361+2441: 2 (0.0)
|   LRS-name = 15373-5308: 2 (0.0)
|   LRS-name = 15402-5449: 2 (0.0)
|   LRS-name = 15408-5413: 2 (0.0)
|   LRS-name = 15410-0133: 2 (0.0)
|   LRS-name = 15468-5018: 2 (0.0)
|   LRS-name = 15483+1517: 2 (0.0)
|   LRS-name = 15483-5514: 2 (0.0)
|   LRS-name = 15492+4837: 2 (0.0)
|   LRS-name = 15509-5207: 2 (0.0)
|   LRS-name = 15530-5201: 2 (0.0)
|   LRS-name = 15566+3609: 2 (0.0)
|   LRS-name = 15568-4513: 2 (0.0)
|   LRS-name = 15569-6135: 2 (0.0)
|   LRS-name = 15576-5400: 2 (0.0)
|   LRS-name = 16011+4722: 2 (0.0)
|   LRS-name = 16011-5424: 2 (0.0)
|   LRS-name = 16029-3041: 2 (0.0)
|   LRS-name = 16030-5156: 2 (0.0)
|   LRS-name = 16031-4856: 2 (0.0)
|   LRS-name = 16064-4200: 2 (0.0)
|   LRS-name = 16066-4427: 2 (0.0)
|   LRS-name = 16077-5830: 2 (0.0)
|   LRS-name = 16079-4812: 2 (0.0)
|   LRS-name = 16081+2511: 2 (0.0)
|   LRS-name = 16105-4205: 2 (0.0)
|   LRS-name = 16117-0334: 2 (0.0)
|   LRS-name = 16127-7834: 2 (0.0)
|   LRS-name = 16133-5151: 2 (0.0)
|   LRS-name = 16156-5613: 2 (0.0)
|   LRS-name = 16171-4759: 2 (0.0)
|   LRS-name = 16175-6120: 2 (0.0)
|   LRS-name = 16192-4900: 2 (0.0)
|   LRS-name = 16208-2215: 2 (0.0)
|   LRS-name = 16218-4701: 2 (0.0)
|   LRS-name = 16219-5048: 2 (0.0)
|   LRS-name = 16222-4738: 2 (0.0)
|   LRS-name = 16229-4947: 2 (0.0)
|   LRS-name = 16235+1900: 2 (0.0)
|   LRS-name = 16260+3454: 2 (0.0)
|   LRS-name = 16263-5533: 2 (0.0)
|   LRS-name = 16269+4159: 2 (0.0)
|   LRS-name = 16270-5213: 2 (0.0)
|   LRS-name = 16279-4709: 2 (0.0)
|   LRS-name = 16280-4154: 2 (0.0)
|   LRS-name = 16296-4417: 2 (0.0)
|   LRS-name = 16306+7223: 2 (0.0)
|   LRS-name = 16316-5026: 2 (0.0)
|   LRS-name = 16327-4848: 2 (0.0)
|   LRS-name = 16328-4656: 2 (0.0)
|   LRS-name = 16334-3107: 2 (0.0)
|   LRS-name = 16337-4525: 2 (0.0)
|   LRS-name = 16340-4634: 2 (0.0)
|   LRS-name = 16387-2700: 2 (0.0)
|   LRS-name = 16396-4429: 2 (0.0)
|   LRS-name = 16407-5639: 2 (0.0)
|   LRS-name = 16418+5459: 2 (0.0)
|   LRS-name = 16433-6856: 2 (0.0)
|   LRS-name = 16438-1133: 2 (0.0)
|   LRS-name = 16446-4243: 2 (0.0)
|   LRS-name = 16451-4312: 2 (0.0)
|   LRS-name = 16460-4022: 2 (0.0)
|   LRS-name = 16473+5753: 2 (0.0)
|   LRS-name = 16478-4322: 2 (0.0)
|   LRS-name = 16490-4618: 2 (0.0)
|   LRS-name = 16494-1252: 2 (0.0)
|   LRS-name = 16498-4143: 2 (0.0)
|   LRS-name = 16534-3030: 2 (0.0)
|   LRS-name = 16541-4901: 2 (0.0)
|   LRS-name = 16545-4214: 2 (0.0)
|   LRS-name = 16546-4057: 2 (0.0)
|   LRS-name = 16559-2557: 2 (0.0)
|   LRS-name = 16571-7548: 2 (0.0)
|   LRS-name = 16581-4058: 2 (0.0)
|   LRS-name = 16586-4142: 2 (0.0)
|   LRS-name = 16589-3315: 2 (0.0)
|   LRS-name = 16598-4117: 2 (0.0)
|   LRS-name = 17001-3651: 2 (0.0)
|   LRS-name = 17010-4323: 2 (0.0)
|   LRS-name = 17025-4719: 2 (0.0)
|   LRS-name = 17047-5650: 2 (0.0)
|   LRS-name = 17048-1601: 2 (0.0)
|   LRS-name = 17049-2440: 2 (0.0)
|   LRS-name = 17050-4123: 2 (0.0)
|   LRS-name = 17066-4028: 2 (0.0)
|   LRS-name = 17079-3243: 2 (0.0)
|   LRS-name = 17080-3215: 2 (0.0)
|   LRS-name = 17081+6422: 2 (0.0)
|   LRS-name = 17102-1031: 2 (0.0)
|   LRS-name = 17103-0559: 2 (0.0)
|   LRS-name = 17103-3551: 2 (0.0)
|   LRS-name = 17103-3702: 2 (0.0)
|   LRS-name = 17104-3146: 2 (0.0)
|   LRS-name = 17105-3746: 2 (0.0)
|   LRS-name = 17109-3942: 2 (0.0)
|   LRS-name = 17115-3322: 2 (0.0)
|   LRS-name = 17119+0859: 2 (0.0)
|   LRS-name = 17122-2707: 2 (0.0)
|   LRS-name = 17123+1107: 2 (0.0)
|   LRS-name = 17125-4814: 2 (0.0)
|   LRS-name = 17139+0446: 2 (0.0)
|   LRS-name = 17139-3746: 2 (0.0)
|   LRS-name = 17162-1934: 2 (0.0)
|   LRS-name = 17174-4641: 2 (0.0)
|   LRS-name = 17187-3750: 2 (0.0)
|   LRS-name = 17190+2658: 2 (0.0)
|   LRS-name = 17199-3512: 2 (0.0)
|   LRS-name = 17201-4613: 2 (0.0)
|   LRS-name = 17213-2219: 2 (0.0)
|   LRS-name = 17217-3916: 2 (0.0)
|   LRS-name = 17237-3102: 2 (0.0)
|   LRS-name = 17239-2812: 2 (0.0)
|   LRS-name = 17265-0725: 2 (0.0)
|   LRS-name = 17297+1747: 2 (0.0)
|   LRS-name = 17309-1724: 2 (0.0)
|   LRS-name = 17315-3414: 2 (0.0)
|   LRS-name = 17317-3331: 2 (0.0)
|   LRS-name = 17318-2342: 2 (0.0)
|   LRS-name = 17319-6234: 2 (0.0)
|   LRS-name = 17328-3327: 2 (0.0)
|   LRS-name = 17334+1537: 2 (0.0)
|   LRS-name = 17341-3453: 2 (0.0)
|   LRS-name = 17343+1052: 2 (0.0)
|   LRS-name = 17361+5746: 2 (0.0)
|   LRS-name = 17375-3652: 2 (0.0)
|   LRS-name = 17381-3442: 2 (0.0)
|   LRS-name = 17382-1704: 2 (0.0)
|   LRS-name = 17387-4343: 2 (0.0)
|   LRS-name = 17389-2045: 2 (0.0)
|   LRS-name = 17389-5742: 2 (0.0)
|   LRS-name = 17398-4344: 2 (0.0)
|   LRS-name = 17433-2523: 2 (0.0)
|   LRS-name = 17434-3414: 2 (0.0)
|   LRS-name = 17443-2519: 2 (0.0)
|   LRS-name = 17446-7809: 2 (0.0)
|   LRS-name = 17462-8647: 2 (0.0)
|   LRS-name = 17479-2927: 2 (0.0)
|   LRS-name = 17484-0800: 2 (0.0)
|   LRS-name = 17488-2800: 2 (0.0)
|   LRS-name = 17504-0234: 2 (0.0)
|   LRS-name = 17505-3143: 2 (0.0)
|   LRS-name = 17508-3419: 2 (0.0)
|   LRS-name = 17513-2313: 2 (0.0)
|   LRS-name = 17534-3030: 2 (0.0)
|   LRS-name = 17540-1919: 2 (0.0)
|   LRS-name = 17541+1110: 2 (0.0)
|   LRS-name = 17554+5129: 2 (0.0)
|   LRS-name = 17556+5813: 2 (0.0)
|   LRS-name = 17570-3713: 2 (0.0)
|   LRS-name = 17579+2335: 2 (0.0)
|   LRS-name = 17581-1744: 2 (0.0)
|   LRS-name = 18018-2802: 2 (0.0)
|   LRS-name = 18027-2314: 2 (0.0)
|   LRS-name = 18039-0813: 2 (0.0)
|   LRS-name = 18040-0941: 2 (0.0)
|   LRS-name = 18041-3317: 2 (0.0)
|   LRS-name = 18057-2616: 2 (0.0)
|   LRS-name = 18076+3445: 2 (0.0)
|   LRS-name = 18076-1034: 2 (0.0)
|   LRS-name = 18083-2630: 2 (0.0)
|   LRS-name = 18092-0437: 2 (0.0)
|   LRS-name = 18095+2704: 2 (0.0)
|   LRS-name = 18135-1456: 2 (0.0)
|   LRS-name = 18135-1740: 2 (0.0)
|   LRS-name = 18136-1859: 2 (0.0)
|   LRS-name = 18142-3646: 2 (0.0)
|   LRS-name = 18156-0653: 2 (0.0)
|   LRS-name = 18157+1757: 2 (0.0)
|   LRS-name = 18162-0246: 2 (0.0)
|   LRS-name = 18176-1848: 2 (0.0)
|   LRS-name = 18177-2951: 2 (0.0)
|   LRS-name = 18186+3143: 2 (0.0)
|   LRS-name = 18213+0335: 2 (0.0)
|   LRS-name = 18222+3933: 2 (0.0)
|   LRS-name = 18230+0544: 2 (0.0)
|   LRS-name = 18239-0655: 2 (0.0)
|   LRS-name = 18240+2326: 2 (0.0)
|   LRS-name = 18257-1000: 2 (0.0)
|   LRS-name = 18267-0606: 2 (0.0)
|   LRS-name = 18273-0738: 2 (0.0)
|   LRS-name = 18276+8236: 2 (0.0)
|   LRS-name = 18276-4717: 2 (0.0)
|   LRS-name = 18280-5639: 2 (0.0)
|   LRS-name = 18281+2149: 2 (0.0)
|   LRS-name = 18301-0656: 2 (0.0)
|   LRS-name = 18303-0519: 2 (0.0)
|   LRS-name = 18306+3657: 2 (0.0)
|   LRS-name = 18314-1131: 2 (0.0)
|   LRS-name = 18316-0602: 2 (0.0)
|   LRS-name = 18320-0352: 2 (0.0)
|   LRS-name = 18325-1138: 2 (0.0)
|   LRS-name = 18333+0533: 2 (0.0)
|   LRS-name = 18349+1023: 2 (0.0)
|   LRS-name = 18359+0847: 2 (0.0)
|   LRS-name = 18367-0452: 2 (0.0)
|   LRS-name = 18373-0021: 2 (0.0)
|   LRS-name = 18378-3731: 2 (0.0)
|   LRS-name = 18397+1738: 2 (0.0)
|   LRS-name = 18398-0220: 2 (0.0)
|   LRS-name = 18401+2854: 2 (0.0)
|   LRS-name = 18413+1354: 2 (0.0)
|   LRS-name = 18414-0527: 2 (0.0)
|   LRS-name = 18421+1147: 2 (0.0)
|   LRS-name = 18429-1721: 2 (0.0)
|   LRS-name = 18450-0922: 2 (0.0)
|   LRS-name = 18451-0824: 2 (0.0)
|   LRS-name = 18464-0656: 2 (0.0)
|   LRS-name = 18467-4802: 2 (0.0)
|   LRS-name = 18475+0926: 2 (0.0)
|   LRS-name = 18476+0555: 2 (0.0)
|   LRS-name = 18527+3650: 2 (0.0)
|   LRS-name = 18530+0817: 2 (0.0)
|   LRS-name = 18531+0016: 2 (0.0)
|   LRS-name = 18535+0726: 2 (0.0)
|   LRS-name = 18537-1035: 2 (0.0)
|   LRS-name = 18550+0130: 2 (0.0)
|   LRS-name = 18551+0323: 2 (0.0)
|   LRS-name = 18551+1345: 2 (0.0)
|   LRS-name = 18556+0811: 2 (0.0)
|   LRS-name = 18560+0638: 2 (0.0)
|   LRS-name = 19007-2247: 2 (0.0)
|   LRS-name = 19007-3826: 2 (0.0)
|   LRS-name = 19008+0726: 2 (0.0)
|   LRS-name = 19017-0545: 2 (0.0)
|   LRS-name = 19029+0808: 2 (0.0)
|   LRS-name = 19032-4602: 2 (0.0)
|   LRS-name = 19042-4858: 2 (0.0)
|   LRS-name = 19043+1009: 2 (0.0)
|   LRS-name = 19059-2219: 2 (0.0)
|   LRS-name = 19075+0921: 2 (0.0)
|   LRS-name = 19093-3256: 2 (0.0)
|   LRS-name = 19099+6711: 2 (0.0)
|   LRS-name = 19135+0931: 2 (0.0)
|   LRS-name = 19143-5032: 2 (0.0)
|   LRS-name = 19157-1706: 2 (0.0)
|   LRS-name = 19161+2343: 2 (0.0)
|   LRS-name = 19178-2620: 2 (0.0)
|   LRS-name = 19188-1603: 2 (0.0)
|   LRS-name = 19192+0922: 2 (0.0)
|   LRS-name = 19194+1734: 2 (0.0)
|   LRS-name = 19229+1708: 2 (0.0)
|   LRS-name = 19232+5008: 2 (0.0)
|   LRS-name = 19240+3615: 2 (0.0)
|   LRS-name = 19247-1722: 2 (0.0)
|   LRS-name = 19282+2253: 2 (0.0)
|   LRS-name = 19283+1944: 2 (0.0)
|   LRS-name = 19287+4602: 2 (0.0)
|   LRS-name = 19296+4331: 2 (0.0)
|   LRS-name = 19314-1629: 2 (0.0)
|   LRS-name = 19321+2757: 2 (0.0)
|   LRS-name = 19324+3033: 2 (0.0)
|   LRS-name = 19327+3024: 2 (0.0)
|   LRS-name = 19352+2030: 2 (0.0)
|   LRS-name = 19354+5005: 2 (0.0)
|   LRS-name = 19361-1658: 2 (0.0)
|   LRS-name = 19396+1637: 2 (0.0)
|   LRS-name = 19412+0337: 2 (0.0)
|   LRS-name = 19422+3506: 2 (0.0)
|   LRS-name = 19451+1824: 2 (0.0)
|   LRS-name = 19472+2127: 2 (0.0)
|   LRS-name = 19474-0744: 2 (0.0)
|   LRS-name = 19480+2447: 2 (0.0)
|   LRS-name = 19495+0835: 2 (0.0)
|   LRS-name = 19500-1709: 2 (0.0)
|   LRS-name = 19503+2219: 2 (0.0)
|   LRS-name = 19510-5919: 2 (0.0)
|   LRS-name = 19528-2919: 2 (0.0)
|   LRS-name = 19536+3237: 2 (0.0)
|   LRS-name = 19537+2212: 2 (0.0)
|   LRS-name = 19548+3035: 2 (0.0)
|   LRS-name = 19550-0201: 2 (0.0)
|   LRS-name = 19575-5930: 2 (0.0)
|   LRS-name = 19585+5200: 2 (0.0)
|   LRS-name = 19586+3637: 2 (0.0)
|   LRS-name = 19594+4047: 2 (0.0)
|   LRS-name = 19595-2751: 2 (0.0)
|   LRS-name = 20010+3011: 2 (0.0)
|   LRS-name = 20015+3019: 2 (0.0)
|   LRS-name = 20024+3330: 2 (0.0)
|   LRS-name = 20028+3910: 2 (0.0)
|   LRS-name = 20038-2722: 2 (0.0)
|   LRS-name = 20042-4241: 2 (0.0)
|   LRS-name = 20052+0554: 2 (0.0)
|   LRS-name = 20072+3116: 2 (0.0)
|   LRS-name = 20075-6005: 2 (0.0)
|   LRS-name = 20094-1121: 2 (0.0)
|   LRS-name = 20111-4708: 2 (0.0)
|   LRS-name = 20113+4917: 2 (0.0)
|   LRS-name = 20124+6605: 2 (0.0)
|   LRS-name = 20135-7152: 2 (0.0)
|   LRS-name = 20161-1600: 2 (0.0)
|   LRS-name = 20165+3413: 2 (0.0)
|   LRS-name = 20171+3519: 2 (0.0)
|   LRS-name = 20193+3527: 2 (0.0)
|   LRS-name = 20194+3646: 2 (0.0)
|   LRS-name = 20200+3624: 2 (0.0)
|   LRS-name = 20215+6243: 2 (0.0)
|   LRS-name = 20248+7505: 2 (0.0)
|   LRS-name = 20248-2825: 2 (0.0)
|   LRS-name = 20253+3814: 2 (0.0)
|   LRS-name = 20255+4054: 2 (0.0)
|   LRS-name = 20267+2105: 2 (0.0)
|   LRS-name = 20275+4001: 2 (0.0)
|   LRS-name = 20297+3221: 2 (0.0)
|   LRS-name = 20310+4029: 2 (0.0)
|   LRS-name = 20318+3829: 2 (0.0)
|   LRS-name = 20340+5338: 2 (0.0)
|   LRS-name = 20350+3741: 2 (0.0)
|   LRS-name = 20356+1805: 2 (0.0)
|   LRS-name = 20365+1154: 2 (0.0)
|   LRS-name = 20396+4757: 2 (0.0)
|   LRS-name = 20403+3700: 2 (0.0)
|   LRS-name = 20417-0500: 2 (0.0)
|   LRS-name = 20431+1754: 2 (0.0)
|   LRS-name = 20435+3825: 2 (0.0)
|   LRS-name = 20440-0105: 2 (0.0)
|   LRS-name = 20479+0554: 2 (0.0)
|   LRS-name = 20484-7202: 2 (0.0)
|   LRS-name = 20491+4236: 2 (0.0)
|   LRS-name = 20502+4709: 2 (0.0)
|   LRS-name = 20529+3013: 2 (0.0)
|   LRS-name = 20532+5554: 2 (0.0)
|   LRS-name = 20541-6549: 2 (0.0)
|   LRS-name = 20549+5245: 2 (0.0)
|   LRS-name = 20570+2714: 2 (0.0)
|   LRS-name = 21003+4801: 2 (0.0)
|   LRS-name = 21032-0024: 2 (0.0)
|   LRS-name = 21035+5136: 2 (0.0)
|   LRS-name = 21044-1637: 2 (0.0)
|   LRS-name = 21069-3843: 2 (0.0)
|   LRS-name = 21086+5238: 2 (0.0)
|   LRS-name = 21088+6817: 2 (0.0)
|   LRS-name = 21190+5140: 2 (0.0)
|   LRS-name = 21206-4054: 2 (0.0)
|   LRS-name = 21243-6943: 2 (0.0)
|   LRS-name = 21245+6221: 2 (0.0)
|   LRS-name = 21270+7135: 2 (0.0)
|   LRS-name = 21286+1055: 2 (0.0)
|   LRS-name = 21305+2118: 2 (0.0)
|   LRS-name = 21312+5405: 2 (0.0)
|   LRS-name = 21318+5631: 2 (0.0)
|   LRS-name = 21320+3850: 2 (0.0)
|   LRS-name = 21341+4508: 2 (0.0)
|   LRS-name = 21368-3812: 2 (0.0)
|   LRS-name = 21373+4540: 2 (0.0)
|   LRS-name = 21377+5042: 2 (0.0)
|   LRS-name = 21377-0200: 2 (0.0)
|   LRS-name = 21383+4513: 2 (0.0)
|   LRS-name = 21389+5405: 2 (0.0)
|   LRS-name = 21399+3516: 2 (0.0)
|   LRS-name = 21401+7354: 2 (0.0)
|   LRS-name = 21417+0938: 2 (0.0)
|   LRS-name = 21449+4950: 2 (0.0)
|   LRS-name = 21453-4708: 2 (0.0)
|   LRS-name = 21456+6422: 2 (0.0)
|   LRS-name = 21489+5301: 2 (0.0)
|   LRS-name = 21543-1421: 2 (0.0)
|   LRS-name = 21552+6323: 2 (0.0)
|   LRS-name = 21554+6204: 2 (0.0)
|   LRS-name = 21558+5907: 2 (0.0)
|   LRS-name = 21563+5630: 2 (0.0)
|   LRS-name = 22017+2806: 2 (0.0)
|   LRS-name = 22035+3506: 2 (0.0)
|   LRS-name = 22091+5757: 2 (0.0)
|   LRS-name = 22097+5647: 2 (0.0)
|   LRS-name = 22142-8454: 2 (0.0)
|   LRS-name = 22150-6030: 2 (0.0)
|   LRS-name = 22165+4331: 2 (0.0)
|   LRS-name = 22177+5936: 2 (0.0)
|   LRS-name = 22190-0751: 2 (0.0)
|   LRS-name = 22196-4612: 2 (0.0)
|   LRS-name = 22212+5542: 2 (0.0)
|   LRS-name = 22230-4841: 22 (0.52)
|   LRS-name = 22231-4529: 2 (0.0)
|   LRS-name = 22241+6005: 41 (0.52)
|   LRS-name = 22264+5858: 2 (0.0)
|   LRS-name = 22267-4400: 18 (0.52)
|   LRS-name = 22272+5435: 72 (2.48)
|   LRS-name = 22280+1250: 15 (0.52)
|   LRS-name = 22282+5644: 2 (0.0)
|   LRS-name = 22303+5950: 41 (0.52)
|   LRS-name = 22306+5510: 21 (2.48)
|   LRS-name = 22317+5838: 2 (0.0)
|   LRS-name = 22345+5809: 2 (0.0)
|   LRS-name = 22456+5453: 2 (0.0)
|   LRS-name = 22476+4047: 16 (0.52)
|   LRS-name = 22512+6100: 2 (0.0)
|   LRS-name = 22516+0838: 2 (0.0)
|   LRS-name = 22518+6600: 2 (0.0)
|   LRS-name = 22525-2952: 22 (0.52)
|   LRS-name = 22526+8446: 17 (0.68)
|   LRS-name = 22540-5740: 22 (0.52)
|   LRS-name = 22585+6402: 2 (0.0)
|   LRS-name = 23000+5932: 2 (0.0)
|   LRS-name = 23013+2748: 18 (0.52)
|   LRS-name = 23095+5925: 16 (0.52)
|   LRS-name = 23134-7031: 16 (0.52)
|   LRS-name = 23138+6204: 2 (0.0)
|   LRS-name = 23151+5912: 39 (0.5)
|   LRS-name = 23166+1655: 2 (1.87)
|   LRS-name = 23202+5901: 22 (0.52)
|   LRS-name = 23213-4521: 2 (0.0)
|   LRS-name = 23284+5958: 2 (0.0)
|   LRS-name = 23309+2213: 18 (0.52)
|   LRS-name = 23320+4316: 42 (2.48)
|   LRS-name = 23365+5159: 2 (0.0)
|   LRS-name = 23416+6130: 2 (0.0)
|   LRS-name = 23439+5412: 15 (0.52)
|   LRS-name = 23491+6243: 2 (0.0)
|   LRS-name = 23496+6131: 2 (0.0)
|   LRS-name = 23528+4821: 22 (0.52)
|   LRS-name = 23541+7031: 31 (1.87)
|   LRS-name = 23564-5651: 2 (1.87)
blue-band-flux_23 > 7806.136
|   ID-type = 0: 29 (0.5)
|   ID-type = 2: 43 (0.52)
|   ID-type = 3: 44 (3.54/1.06)
|   ID-type = 4
|   |   red-band-flux_16 <= 2639.6384
|   |   |   red-band-flux_49 <= 1037.9974
|   |   |   |   red-band-flux_8 <= 3759.622: 29 (3.53/1.55)
|   |   |   |   red-band-flux_8 > 3759.622: 25 (2.12)
|   |   |   red-band-flux_49 > 1037.9974: 28 (2.06)
|   |   red-band-flux_16 > 2639.6384: 69 (7.78/2.48)

Number of Leaves  : 	538

Size of the tree : 	544


Weight: 1.98

J48 pruned tree
------------------

blue-band-flux_21 <= 8751.81
|   blue-band-flux_6 <= 13272.224
|   |   ID-type = 0: 41 (0.58/0.28)
|   |   ID-type = 2: 72 (2.77/1.36)
|   |   ID-type = 3: 2 (2.42/1.36)
|   |   ID-type = 4
|   |   |   Blue_base_1 <= 800: 42 (2.29/0.88)
|   |   |   Blue_base_1 > 800: 21 (2.29/0.88)
|   blue-band-flux_6 > 13272.224
|   |   blue-band-flux_12 <= 9638.612: 43 (6.08/1.41)
|   |   blue-band-flux_12 > 9638.612: 16 (2.15/1.27)
blue-band-flux_21 > 8751.81
|   blue-band-flux_14 <= 10681.544: 26 (10.25)
|   blue-band-flux_14 > 10681.544
|   |   Red_base_2 <= 111: 69 (3.01)
|   |   Red_base_2 > 111: 27 (10.17/3.79)

Number of Leaves  : 	10

Size of the tree : 	17


Weight: 1.01

J48 pruned tree
------------------

blue-band-flux_20 <= 9199.367
|   LRS-name = 12043-6225: 43 (0.0)
|   LRS-name = 12063-6259: 43 (0.0)
|   LRS-name = 12073-6233: 43 (0.0)
|   LRS-name = 12148-6741: 43 (0.0)
|   LRS-name = 12216-6218: 43 (0.0)
|   LRS-name = 12226+0102: 43 (0.0)
|   LRS-name = 12230-5943: 43 (0.0)
|   LRS-name = 12233-5920: 43 (0.0)
|   LRS-name = 12247-5842: 43 (0.0)
|   LRS-name = 12274-7647: 43 (0.0)
|   LRS-name = 12277+0441: 43 (0.0)
|   LRS-name = 12283-5650: 43 (0.0)
|   LRS-name = 12298-5754: 43 (0.0)
|   LRS-name = 12319-6728: 43 (0.0)
|   LRS-name = 12377-6102: 43 (0.0)
|   LRS-name = 12379-4959: 43 (0.0)
|   LRS-name = 12380+5607: 43 (0.0)
|   LRS-name = 12384-4536: 43 (0.0)
|   LRS-name = 12394-4338: 43 (0.0)
|   LRS-name = 12421-6217: 43 (0.0)
|   LRS-name = 12427+4542: 43 (0.0)
|   LRS-name = 12447+0425: 43 (0.0)
|   LRS-name = 12454-6659: 43 (0.0)
|   LRS-name = 12462-6418: 43 (0.0)
|   LRS-name = 12506-6004: 43 (0.0)
|   LRS-name = 12530+0340: 43 (0.0)
|   LRS-name = 12540-6845: 43 (0.0)
|   LRS-name = 12559-6041: 43 (0.0)
|   LRS-name = 12563-6100: 43 (0.0)
|   LRS-name = 13001+0527: 43 (0.0)
|   LRS-name = 13022-7650: 43 (0.0)
|   LRS-name = 13064-6103: 43 (0.0)
|   LRS-name = 13136-4426: 43 (0.0)
|   LRS-name = 13141-6119: 43 (0.0)
|   LRS-name = 13170-5404: 43 (0.0)
|   LRS-name = 13172+4547: 43 (0.0)
|   LRS-name = 13203-5536: 43 (0.0)
|   LRS-name = 13208-6027: 43 (0.0)
|   LRS-name = 13283-5839: 43 (0.0)
|   LRS-name = 13328-6244: 43 (0.0)
|   LRS-name = 13343-5807: 43 (0.0)
|   LRS-name = 13350-7221: 43 (0.0)
|   LRS-name = 13368-4941: 43 (0.0)
|   LRS-name = 13371-6249: 43 (0.0)
|   LRS-name = 13379-5426: 43 (0.0)
|   LRS-name = 13442-6109: 43 (0.0)
|   LRS-name = 13462-2807: 43 (0.0)
|   LRS-name = 13465-3412: 43 (0.0)
|   LRS-name = 13477-6532: 43 (0.0)
|   LRS-name = 13482-6716: 43 (0.0)
|   LRS-name = 13509-6348: 43 (0.0)
|   LRS-name = 13517-6515: 43 (0.0)
|   LRS-name = 13527-6117: 43 (0.0)
|   LRS-name = 13557-6442: 43 (0.0)
|   LRS-name = 13572-6347: 43 (0.0)
|   LRS-name = 13581-5930: 43 (0.0)
|   LRS-name = 14003-7633: 43 (0.0)
|   LRS-name = 14020-3515: 43 (0.0)
|   LRS-name = 14030-4629: 43 (0.0)
|   LRS-name = 14068-6158: 43 (0.0)
|   LRS-name = 14086-2839: 43 (0.0)
|   LRS-name = 14086-6907: 43 (0.0)
|   LRS-name = 14119-6453: 43 (0.0)
|   LRS-name = 14122-6133: 43 (0.0)
|   LRS-name = 14129-5940: 43 (0.0)
|   LRS-name = 14133+1925: 43 (0.0)
|   LRS-name = 14159-6038: 43 (0.0)
|   LRS-name = 14182-6144: 43 (0.0)
|   LRS-name = 14216-6152: 43 (0.0)
|   LRS-name = 14247+0454: 43 (0.0)
|   LRS-name = 14251-6256: 43 (0.0)
|   LRS-name = 14277+3904: 43 (0.0)
|   LRS-name = 14280-2952: 43 (0.0)
|   LRS-name = 14286-5905: 43 (0.0)
|   LRS-name = 14301-5734: 43 (0.0)
|   LRS-name = 14337-6215: 43 (0.0)
|   LRS-name = 14359-6037: 43 (0.0)
|   LRS-name = 14371+3245: 43 (0.0)
|   LRS-name = 14390+3147: 43 (0.0)
|   LRS-name = 14437+1520: 43 (0.0)
|   LRS-name = 14453-4920: 43 (0.0)
|   LRS-name = 14455-3625: 43 (0.0)
|   LRS-name = 14465-6000: 43 (0.0)
|   LRS-name = 14484-6152: 43 (0.0)
|   LRS-name = 14508+7421: 43 (0.0)
|   LRS-name = 14531-5337: 43 (0.0)
|   LRS-name = 14550-1214: 43 (0.0)
|   LRS-name = 14562-5406: 43 (0.0)
|   LRS-name = 14567+6607: 43 (0.0)
|   LRS-name = 14567-5846: 43 (0.0)
|   LRS-name = 14582-5926: 43 (0.0)
|   LRS-name = 14591-4438: 43 (0.0)
|   LRS-name = 15011-2505: 43 (0.0)
|   LRS-name = 15023-6916: 43 (0.0)
|   LRS-name = 15082-4808: 43 (0.0)
|   LRS-name = 15084-5702: 43 (0.0)
|   LRS-name = 15099-5509: 43 (0.0)
|   LRS-name = 15107-5726: 43 (0.0)
|   LRS-name = 15148-4940: 43 (0.0)
|   LRS-name = 15186-3604: 43 (0.0)
|   LRS-name = 15186-5730: 43 (0.0)
|   LRS-name = 15193+1429: 43 (0.0)
|   LRS-name = 15193+3132: 43 (0.0)
|   LRS-name = 15214-2244: 43 (0.0)
|   LRS-name = 15219-7545: 43 (0.0)
|   LRS-name = 15223-0203: 43 (0.0)
|   LRS-name = 15225-5605: 43 (0.0)
|   LRS-name = 15226-3603: 43 (0.0)
|   LRS-name = 15255+1944: 43 (0.0)
|   LRS-name = 15269-4400: 43 (0.0)
|   LRS-name = 15287-5811: 43 (0.0)
|   LRS-name = 15290-5546: 43 (0.0)
|   LRS-name = 15311-5538: 43 (0.0)
|   LRS-name = 15314+7847: 43 (0.0)
|   LRS-name = 15323-4920: 43 (0.0)
|   LRS-name = 15332-6430: 43 (0.0)
|   LRS-name = 15341+1515: 43 (0.0)
|   LRS-name = 15356-6722: 43 (0.0)
|   LRS-name = 15361+2441: 43 (0.0)
|   LRS-name = 15373-5308: 43 (0.0)
|   LRS-name = 15402-5449: 43 (0.0)
|   LRS-name = 15408-5413: 43 (0.0)
|   LRS-name = 15410-0133: 43 (0.0)
|   LRS-name = 15468-5018: 43 (0.0)
|   LRS-name = 15483+1517: 43 (0.0)
|   LRS-name = 15483-5514: 43 (0.0)
|   LRS-name = 15492+4837: 43 (0.0)
|   LRS-name = 15509-5207: 43 (0.0)
|   LRS-name = 15530-5201: 43 (0.0)
|   LRS-name = 15566+3609: 43 (0.0)
|   LRS-name = 15568-4513: 43 (0.0)
|   LRS-name = 15569-6135: 43 (0.0)
|   LRS-name = 15576-5400: 43 (0.0)
|   LRS-name = 16011+4722: 43 (0.0)
|   LRS-name = 16011-5424: 43 (0.0)
|   LRS-name = 16029-3041: 43 (0.0)
|   LRS-name = 16030-5156: 43 (0.0)
|   LRS-name = 16031-4856: 43 (0.0)
|   LRS-name = 16064-4200: 43 (0.0)
|   LRS-name = 16066-4427: 43 (0.0)
|   LRS-name = 16077-5830: 43 (0.0)
|   LRS-name = 16079-4812: 43 (0.0)
|   LRS-name = 16081+2511: 43 (0.0)
|   LRS-name = 16105-4205: 43 (0.0)
|   LRS-name = 16117-0334: 43 (0.0)
|   LRS-name = 16127-7834: 43 (0.0)
|   LRS-name = 16133-5151: 43 (0.0)
|   LRS-name = 16156-5613: 43 (0.0)
|   LRS-name = 16171-4759: 43 (0.0)
|   LRS-name = 16175-6120: 43 (0.0)
|   LRS-name = 16192-4900: 43 (0.0)
|   LRS-name = 16208-2215: 43 (0.0)
|   LRS-name = 16218-4701: 43 (0.0)
|   LRS-name = 16219-5048: 43 (0.0)
|   LRS-name = 16222-4738: 43 (0.0)
|   LRS-name = 16229-4947: 43 (0.0)
|   LRS-name = 16235+1900: 43 (0.0)
|   LRS-name = 16260+3454: 43 (0.0)
|   LRS-name = 16263-5533: 43 (0.0)
|   LRS-name = 16269+4159: 43 (0.0)
|   LRS-name = 16270-5213: 43 (0.0)
|   LRS-name = 16279-4709: 43 (0.0)
|   LRS-name = 16280-4154: 43 (0.0)
|   LRS-name = 16296-4417: 43 (0.0)
|   LRS-name = 16306+7223: 43 (0.0)
|   LRS-name = 16316-5026: 43 (0.0)
|   LRS-name = 16327-4848: 43 (0.0)
|   LRS-name = 16328-4656: 43 (0.0)
|   LRS-name = 16334-3107: 43 (0.0)
|   LRS-name = 16337-4525: 43 (0.0)
|   LRS-name = 16340-4634: 43 (0.0)
|   LRS-name = 16387-2700: 43 (0.0)
|   LRS-name = 16396-4429: 43 (0.0)
|   LRS-name = 16407-5639: 43 (0.0)
|   LRS-name = 16418+5459: 43 (0.0)
|   LRS-name = 16433-6856: 43 (0.0)
|   LRS-name = 16438-1133: 43 (0.0)
|   LRS-name = 16446-4243: 43 (0.0)
|   LRS-name = 16451-4312: 43 (0.0)
|   LRS-name = 16460-4022: 43 (0.0)
|   LRS-name = 16473+5753: 43 (0.0)
|   LRS-name = 16478-4322: 43 (0.0)
|   LRS-name = 16490-4618: 43 (0.0)
|   LRS-name = 16494-1252: 43 (0.0)
|   LRS-name = 16498-4143: 43 (0.0)
|   LRS-name = 16534-3030: 43 (0.0)
|   LRS-name = 16541-4901: 43 (0.0)
|   LRS-name = 16545-4214: 43 (0.0)
|   LRS-name = 16546-4057: 43 (0.0)
|   LRS-name = 16559-2557: 43 (0.0)
|   LRS-name = 16571-7548: 43 (0.0)
|   LRS-name = 16581-4058: 43 (0.0)
|   LRS-name = 16586-4142: 43 (0.0)
|   LRS-name = 16589-3315: 43 (0.0)
|   LRS-name = 16598-4117: 43 (0.0)
|   LRS-name = 17001-3651: 43 (0.0)
|   LRS-name = 17010-4323: 43 (0.0)
|   LRS-name = 17025-4719: 43 (0.0)
|   LRS-name = 17047-5650: 43 (0.0)
|   LRS-name = 17048-1601: 43 (0.0)
|   LRS-name = 17049-2440: 43 (0.0)
|   LRS-name = 17050-4123: 43 (0.0)
|   LRS-name = 17066-4028: 43 (0.0)
|   LRS-name = 17079-3243: 43 (0.0)
|   LRS-name = 17080-3215: 43 (0.0)
|   LRS-name = 17081+6422: 43 (0.0)
|   LRS-name = 17102-1031: 43 (0.0)
|   LRS-name = 17103-0559: 43 (0.0)
|   LRS-name = 17103-3551: 43 (0.0)
|   LRS-name = 17103-3702: 43 (0.0)
|   LRS-name = 17104-3146: 43 (0.0)
|   LRS-name = 17105-3746: 43 (0.0)
|   LRS-name = 17109-3942: 43 (0.0)
|   LRS-name = 17115-3322: 43 (0.0)
|   LRS-name = 17119+0859: 43 (0.0)
|   LRS-name = 17122-2707: 43 (0.0)
|   LRS-name = 17123+1107: 43 (0.0)
|   LRS-name = 17125-4814: 43 (0.0)
|   LRS-name = 17139+0446: 43 (0.0)
|   LRS-name = 17139-3746: 43 (0.0)
|   LRS-name = 17162-1934: 43 (0.0)
|   LRS-name = 17174-4641: 43 (0.0)
|   LRS-name = 17187-3750: 43 (0.0)
|   LRS-name = 17190+2658: 43 (0.0)
|   LRS-name = 17199-3512: 43 (0.0)
|   LRS-name = 17201-4613: 43 (0.0)
|   LRS-name = 17213-2219: 43 (0.0)
|   LRS-name = 17217-3916: 43 (0.0)
|   LRS-name = 17237-3102: 43 (0.0)
|   LRS-name = 17239-2812: 43 (0.0)
|   LRS-name = 17265-0725: 43 (0.0)
|   LRS-name = 17297+1747: 43 (0.0)
|   LRS-name = 17309-1724: 43 (0.0)
|   LRS-name = 17315-3414: 43 (0.0)
|   LRS-name = 17317-3331: 43 (0.0)
|   LRS-name = 17318-2342: 43 (0.0)
|   LRS-name = 17319-6234: 43 (0.0)
|   LRS-name = 17328-3327: 43 (0.0)
|   LRS-name = 17334+1537: 43 (0.0)
|   LRS-name = 17341-3453: 43 (0.0)
|   LRS-name = 17343+1052: 43 (0.0)
|   LRS-name = 17361+5746: 43 (0.0)
|   LRS-name = 17375-3652: 43 (0.0)
|   LRS-name = 17381-3442: 43 (0.0)
|   LRS-name = 17382-1704: 43 (0.0)
|   LRS-name = 17387-4343: 43 (0.0)
|   LRS-name = 17389-2045: 43 (0.0)
|   LRS-name = 17389-5742: 43 (0.0)
|   LRS-name = 17398-4344: 43 (0.0)
|   LRS-name = 17433-2523: 43 (0.0)
|   LRS-name = 17434-3414: 43 (0.0)
|   LRS-name = 17443-2519: 43 (0.0)
|   LRS-name = 17446-7809: 43 (0.0)
|   LRS-name = 17462-8647: 43 (0.0)
|   LRS-name = 17479-2927: 43 (0.0)
|   LRS-name = 17484-0800: 43 (0.0)
|   LRS-name = 17488-2800: 43 (0.0)
|   LRS-name = 17504-0234: 43 (0.0)
|   LRS-name = 17505-3143: 43 (0.0)
|   LRS-name = 17508-3419: 43 (0.0)
|   LRS-name = 17513-2313: 43 (0.0)
|   LRS-name = 17534-3030: 43 (0.0)
|   LRS-name = 17540-1919: 43 (0.0)
|   LRS-name = 17541+1110: 43 (0.0)
|   LRS-name = 17554+5129: 43 (0.0)
|   LRS-name = 17556+5813: 43 (0.0)
|   LRS-name = 17570-3713: 43 (0.0)
|   LRS-name = 17579+2335: 43 (0.0)
|   LRS-name = 17581-1744: 43 (0.0)
|   LRS-name = 18018-2802: 43 (0.0)
|   LRS-name = 18027-2314: 43 (0.0)
|   LRS-name = 18039-0813: 43 (0.0)
|   LRS-name = 18040-0941: 43 (0.0)
|   LRS-name = 18041-3317: 43 (0.0)
|   LRS-name = 18057-2616: 43 (0.0)
|   LRS-name = 18076+3445: 43 (0.0)
|   LRS-name = 18076-1034: 43 (0.0)
|   LRS-name = 18083-2630: 43 (0.0)
|   LRS-name = 18092-0437: 43 (0.0)
|   LRS-name = 18095+2704: 43 (0.0)
|   LRS-name = 18135-1456: 43 (0.0)
|   LRS-name = 18135-1740: 43 (0.0)
|   LRS-name = 18136-1859: 43 (0.0)
|   LRS-name = 18142-3646: 43 (0.0)
|   LRS-name = 18156-0653: 43 (0.0)
|   LRS-name = 18157+1757: 43 (0.0)
|   LRS-name = 18162-0246: 43 (0.0)
|   LRS-name = 18176-1848: 43 (0.0)
|   LRS-name = 18177-2951: 43 (0.0)
|   LRS-name = 18186+3143: 43 (0.0)
|   LRS-name = 18213+0335: 43 (0.0)
|   LRS-name = 18222+3933: 43 (0.0)
|   LRS-name = 18230+0544: 43 (0.0)
|   LRS-name = 18239-0655: 43 (0.0)
|   LRS-name = 18240+2326: 43 (0.0)
|   LRS-name = 18257-1000: 43 (0.0)
|   LRS-name = 18267-0606: 43 (0.0)
|   LRS-name = 18273-0738: 43 (0.0)
|   LRS-name = 18276+8236: 43 (0.0)
|   LRS-name = 18276-4717: 43 (0.0)
|   LRS-name = 18280-5639: 43 (0.0)
|   LRS-name = 18281+2149: 43 (0.0)
|   LRS-name = 18301-0656: 43 (0.0)
|   LRS-name = 18303-0519: 43 (0.0)
|   LRS-name = 18306+3657: 43 (0.0)
|   LRS-name = 18314-1131: 43 (0.0)
|   LRS-name = 18316-0602: 43 (0.0)
|   LRS-name = 18320-0352: 43 (0.0)
|   LRS-name = 18325-1138: 43 (0.0)
|   LRS-name = 18333+0533: 43 (0.0)
|   LRS-name = 18349+1023: 43 (0.0)
|   LRS-name = 18359+0847: 43 (0.0)
|   LRS-name = 18367-0452: 43 (0.0)
|   LRS-name = 18373-0021: 43 (0.0)
|   LRS-name = 18378-3731: 43 (0.0)
|   LRS-name = 18397+1738: 43 (0.0)
|   LRS-name = 18398-0220: 43 (0.0)
|   LRS-name = 18401+2854: 43 (0.0)
|   LRS-name = 18413+1354: 43 (0.0)
|   LRS-name = 18414-0527: 43 (0.0)
|   LRS-name = 18421+1147: 43 (0.0)
|   LRS-name = 18429-1721: 43 (0.0)
|   LRS-name = 18450-0922: 43 (0.0)
|   LRS-name = 18451-0824: 43 (0.0)
|   LRS-name = 18464-0656: 43 (0.0)
|   LRS-name = 18467-4802: 43 (0.0)
|   LRS-name = 18475+0926: 43 (0.0)
|   LRS-name = 18476+0555: 43 (0.0)
|   LRS-name = 18527+3650: 43 (0.0)
|   LRS-name = 18530+0817: 43 (0.0)
|   LRS-name = 18531+0016: 43 (0.0)
|   LRS-name = 18535+0726: 43 (0.0)
|   LRS-name = 18537-1035: 43 (0.0)
|   LRS-name = 18550+0130: 43 (0.0)
|   LRS-name = 18551+0323: 43 (0.0)
|   LRS-name = 18551+1345: 43 (0.0)
|   LRS-name = 18556+0811: 43 (0.0)
|   LRS-name = 18560+0638: 43 (0.0)
|   LRS-name = 19007-2247: 43 (0.0)
|   LRS-name = 19007-3826: 43 (0.0)
|   LRS-name = 19008+0726: 43 (0.0)
|   LRS-name = 19017-0545: 43 (0.0)
|   LRS-name = 19029+0808: 43 (0.0)
|   LRS-name = 19032-4602: 43 (0.0)
|   LRS-name = 19042-4858: 43 (0.0)
|   LRS-name = 19043+1009: 43 (0.0)
|   LRS-name = 19059-2219: 43 (0.0)
|   LRS-name = 19075+0921: 43 (0.0)
|   LRS-name = 19093-3256: 43 (0.0)
|   LRS-name = 19099+6711: 43 (0.0)
|   LRS-name = 19135+0931: 43 (0.0)
|   LRS-name = 19143-5032: 43 (0.0)
|   LRS-name = 19157-1706: 43 (0.0)
|   LRS-name = 19161+2343: 43 (0.0)
|   LRS-name = 19178-2620: 43 (0.0)
|   LRS-name = 19188-1603: 43 (0.0)
|   LRS-name = 19192+0922: 43 (0.0)
|   LRS-name = 19194+1734: 43 (0.0)
|   LRS-name = 19229+1708: 43 (0.0)
|   LRS-name = 19232+5008: 43 (0.0)
|   LRS-name = 19240+3615: 43 (0.0)
|   LRS-name = 19247-1722: 43 (0.0)
|   LRS-name = 19282+2253: 43 (0.0)
|   LRS-name = 19283+1944: 43 (0.0)
|   LRS-name = 19287+4602: 43 (0.0)
|   LRS-name = 19296+4331: 43 (0.0)
|   LRS-name = 19314-1629: 43 (0.0)
|   LRS-name = 19321+2757: 43 (0.0)
|   LRS-name = 19324+3033: 43 (0.0)
|   LRS-name = 19327+3024: 43 (0.0)
|   LRS-name = 19352+2030: 43 (0.0)
|   LRS-name = 19354+5005: 43 (0.0)
|   LRS-name = 19361-1658: 43 (0.0)
|   LRS-name = 19396+1637: 43 (0.0)
|   LRS-name = 19412+0337: 43 (0.0)
|   LRS-name = 19422+3506: 43 (0.0)
|   LRS-name = 19451+1824: 43 (0.0)
|   LRS-name = 19472+2127: 43 (0.0)
|   LRS-name = 19474-0744: 43 (0.0)
|   LRS-name = 19480+2447: 43 (0.0)
|   LRS-name = 19495+0835: 43 (0.0)
|   LRS-name = 19500-1709: 43 (0.0)
|   LRS-name = 19503+2219: 43 (0.0)
|   LRS-name = 19510-5919: 43 (0.0)
|   LRS-name = 19528-2919: 43 (0.0)
|   LRS-name = 19536+3237: 43 (0.0)
|   LRS-name = 19537+2212: 43 (0.0)
|   LRS-name = 19548+3035: 43 (0.0)
|   LRS-name = 19550-0201: 43 (0.0)
|   LRS-name = 19575-5930: 43 (0.0)
|   LRS-name = 19585+5200: 43 (0.0)
|   LRS-name = 19586+3637: 43 (0.0)
|   LRS-name = 19594+4047: 43 (0.0)
|   LRS-name = 19595-2751: 43 (0.0)
|   LRS-name = 20010+3011: 43 (0.0)
|   LRS-name = 20015+3019: 43 (0.0)
|   LRS-name = 20024+3330: 43 (0.0)
|   LRS-name = 20028+3910: 43 (0.0)
|   LRS-name = 20038-2722: 43 (0.0)
|   LRS-name = 20042-4241: 43 (0.0)
|   LRS-name = 20052+0554: 43 (0.0)
|   LRS-name = 20072+3116: 43 (0.0)
|   LRS-name = 20075-6005: 43 (0.0)
|   LRS-name = 20094-1121: 43 (0.0)
|   LRS-name = 20111-4708: 43 (0.0)
|   LRS-name = 20113+4917: 43 (0.0)
|   LRS-name = 20124+6605: 43 (0.0)
|   LRS-name = 20135-7152: 43 (0.0)
|   LRS-name = 20161-1600: 43 (0.0)
|   LRS-name = 20165+3413: 43 (0.0)
|   LRS-name = 20171+3519: 43 (0.0)
|   LRS-name = 20193+3527: 43 (0.0)
|   LRS-name = 20194+3646: 43 (0.0)
|   LRS-name = 20200+3624: 43 (0.0)
|   LRS-name = 20215+6243: 43 (0.0)
|   LRS-name = 20248+7505: 43 (0.0)
|   LRS-name = 20248-2825: 43 (0.0)
|   LRS-name = 20253+3814: 43 (0.0)
|   LRS-name = 20255+4054: 43 (0.0)
|   LRS-name = 20267+2105: 43 (0.0)
|   LRS-name = 20275+4001: 43 (0.0)
|   LRS-name = 20297+3221: 43 (0.0)
|   LRS-name = 20310+4029: 43 (0.0)
|   LRS-name = 20318+3829: 43 (0.0)
|   LRS-name = 20340+5338: 43 (0.0)
|   LRS-name = 20350+3741: 43 (0.0)
|   LRS-name = 20356+1805: 43 (0.0)
|   LRS-name = 20365+1154: 43 (0.0)
|   LRS-name = 20396+4757: 43 (0.0)
|   LRS-name = 20403+3700: 43 (0.0)
|   LRS-name = 20417-0500: 43 (0.0)
|   LRS-name = 20431+1754: 43 (0.0)
|   LRS-name = 20435+3825: 43 (0.0)
|   LRS-name = 20440-0105: 43 (0.0)
|   LRS-name = 20479+0554: 43 (0.0)
|   LRS-name = 20484-7202: 43 (0.0)
|   LRS-name = 20491+4236: 43 (0.0)
|   LRS-name = 20502+4709: 43 (0.0)
|   LRS-name = 20529+3013: 43 (0.0)
|   LRS-name = 20532+5554: 43 (0.0)
|   LRS-name = 20541-6549: 43 (0.0)
|   LRS-name = 20549+5245: 43 (0.0)
|   LRS-name = 20570+2714: 43 (0.0)
|   LRS-name = 21003+4801: 43 (0.0)
|   LRS-name = 21032-0024: 43 (0.0)
|   LRS-name = 21035+5136: 43 (0.0)
|   LRS-name = 21044-1637: 43 (0.0)
|   LRS-name = 21069-3843: 43 (0.0)
|   LRS-name = 21086+5238: 43 (0.0)
|   LRS-name = 21088+6817: 43 (0.0)
|   LRS-name = 21190+5140: 43 (0.0)
|   LRS-name = 21206-4054: 43 (0.0)
|   LRS-name = 21243-6943: 43 (0.0)
|   LRS-name = 21245+6221: 43 (0.0)
|   LRS-name = 21270+7135: 43 (0.0)
|   LRS-name = 21286+1055: 43 (0.0)
|   LRS-name = 21305+2118: 43 (0.0)
|   LRS-name = 21312+5405: 43 (0.0)
|   LRS-name = 21318+5631: 43 (0.0)
|   LRS-name = 21320+3850: 43 (0.0)
|   LRS-name = 21341+4508: 43 (0.0)
|   LRS-name = 21368-3812: 43 (0.0)
|   LRS-name = 21373+4540: 43 (0.0)
|   LRS-name = 21377+5042: 43 (0.0)
|   LRS-name = 21377-0200: 43 (0.0)
|   LRS-name = 21383+4513: 43 (0.0)
|   LRS-name = 21389+5405: 43 (0.0)
|   LRS-name = 21399+3516: 43 (0.0)
|   LRS-name = 21401+7354: 43 (0.0)
|   LRS-name = 21417+0938: 43 (0.0)
|   LRS-name = 21449+4950: 43 (0.0)
|   LRS-name = 21453-4708: 43 (0.0)
|   LRS-name = 21456+6422: 43 (0.0)
|   LRS-name = 21489+5301: 43 (0.0)
|   LRS-name = 21543-1421: 43 (0.0)
|   LRS-name = 21552+6323: 43 (0.0)
|   LRS-name = 21554+6204: 43 (0.0)
|   LRS-name = 21558+5907: 43 (0.0)
|   LRS-name = 21563+5630: 43 (0.0)
|   LRS-name = 22017+2806: 43 (0.0)
|   LRS-name = 22035+3506: 43 (0.0)
|   LRS-name = 22091+5757: 43 (0.0)
|   LRS-name = 22097+5647: 43 (0.0)
|   LRS-name = 22142-8454: 43 (0.0)
|   LRS-name = 22150-6030: 43 (0.0)
|   LRS-name = 22165+4331: 43 (0.0)
|   LRS-name = 22177+5936: 43 (0.0)
|   LRS-name = 22190-0751: 43 (0.0)
|   LRS-name = 22196-4612: 43 (0.0)
|   LRS-name = 22212+5542: 43 (0.0)
|   LRS-name = 22230-4841: 22 (0.55)
|   LRS-name = 22231-4529: 43 (0.0)
|   LRS-name = 22241+6005: 41 (0.55)
|   LRS-name = 22264+5858: 43 (0.0)
|   LRS-name = 22267-4400: 18 (0.55)
|   LRS-name = 22272+5435: 72 (0.96)
|   LRS-name = 22280+1250: 15 (0.55)
|   LRS-name = 22282+5644: 43 (0.0)
|   LRS-name = 22303+5950: 41 (0.2)
|   LRS-name = 22306+5510: 21 (0.96)
|   LRS-name = 22317+5838: 43 (0.0)
|   LRS-name = 22345+5809: 43 (0.0)
|   LRS-name = 22456+5453: 43 (0.0)
|   LRS-name = 22476+4047: 16 (0.2)
|   LRS-name = 22512+6100: 43 (0.0)
|   LRS-name = 22516+0838: 43 (0.0)
|   LRS-name = 22518+6600: 44 (2.64)
|   LRS-name = 22525-2952: 22 (0.55)
|   LRS-name = 22526+8446: 17 (0.73)
|   LRS-name = 22540-5740: 22 (0.55)
|   LRS-name = 22585+6402: 43 (2.98)
|   LRS-name = 23000+5932: 43 (0.0)
|   LRS-name = 23013+2748: 18 (0.55)
|   LRS-name = 23095+5925: 16 (0.2)
|   LRS-name = 23134-7031: 16 (0.2)
|   LRS-name = 23138+6204: 43 (0.0)
|   LRS-name = 23151+5912: 39 (0.53)
|   LRS-name = 23166+1655: 2 (0.73)
|   LRS-name = 23202+5901: 22 (0.55)
|   LRS-name = 23213-4521: 43 (0.0)
|   LRS-name = 23284+5958: 43 (0.0)
|   LRS-name = 23309+2213: 18 (0.55)
|   LRS-name = 23320+4316: 42 (0.96)
|   LRS-name = 23365+5159: 43 (0.0)
|   LRS-name = 23416+6130: 43 (0.0)
|   LRS-name = 23439+5412: 15 (0.55)
|   LRS-name = 23491+6243: 43 (0.2)
|   LRS-name = 23496+6131: 43 (0.0)
|   LRS-name = 23528+4821: 22 (0.55)
|   LRS-name = 23541+7031: 31 (1.99)
|   LRS-name = 23564-5651: 2 (1.99)
blue-band-flux_20 > 9199.367
|   red-band-flux_15 <= 2637.8801
|   |   red-band-flux_49 <= 1037.9974
|   |   |   blue-band-flux_14 <= 12679.736
|   |   |   |   red-band-flux_8 <= 3759.622: 27 (4.35)
|   |   |   |   red-band-flux_8 > 3759.622: 25 (2.25)
|   |   |   blue-band-flux_14 > 12679.736: 29 (2.64)
|   |   red-band-flux_49 > 1037.9974: 28 (2.19)
|   red-band-flux_15 > 2637.8801: 26 (9.05/2.06)

Number of Leaves  : 	536

Size of the tree : 	542


Weight: 2.97

J48 pruned tree
------------------

red-band-flux_22 <= 3474.5298
|   ID-type = 0: 29 (0.38/0.11)
|   ID-type = 2: 2 (1.83/0.79)
|   ID-type = 3
|   |   Declination <= 64.043: 43 (2.24/0.67)
|   |   Declination > 64.043: 44 (2.44/1.05)
|   ID-type = 4
|   |   blue-band-flux_14 <= 10811.441
|   |   |   Red_base_1 <= 421: 22 (2.16/1.29)
|   |   |   Red_base_1 > 421: 26 (5.43/1.75)
|   |   blue-band-flux_14 > 10811.441: 27 (5.74/3.45)
red-band-flux_22 > 3474.5298: 69 (21.78/0.78)

Number of Leaves  : 	8

Size of the tree : 	13


Weight: 1.18

J48 pruned tree
------------------

blue-band-flux_21 <= 8751.81
|   ID-type = 0: 39 (0.81/0.22)
|   ID-type = 2: 72 (3.43/2.36)
|   ID-type = 3
|   |   blue-band-flux_1 <= 11814.46: 31 (3.03/0.81)
|   |   blue-band-flux_1 > 11814.46: 43 (2.55/1.52)
|   ID-type = 4
|   |   blue-band-flux_14 <= 9470.235: 15 (3.56/2.33)
|   |   blue-band-flux_14 > 9470.235: 18 (3.48/2.25)
blue-band-flux_21 > 8751.81
|   Red_base_2 <= 111: 69 (13.73)
|   Red_base_2 > 111
|   |   red-band-flux_49 <= 1037.9974
|   |   |   blue-band-flux_16 <= 12058.94
|   |   |   |   red-band-flux_31 <= 1822.4816: 25 (3.02/0.5)
|   |   |   |   red-band-flux_31 > 1822.4816: 26 (3.4/1.0)
|   |   |   blue-band-flux_16 > 12058.94: 29 (2.54)
|   |   red-band-flux_49 > 1037.9974: 28 (2.45)

Number of Leaves  : 	11

Size of the tree : 	19


Weight: 1.04

J48 pruned tree
------------------

blue-band-flux_21 <= 8751.81
|   LRS-name = 12043-6225: 22 (0.0)
|   LRS-name = 12063-6259: 22 (0.0)
|   LRS-name = 12073-6233: 22 (0.0)
|   LRS-name = 12148-6741: 22 (0.0)
|   LRS-name = 12216-6218: 22 (0.0)
|   LRS-name = 12226+0102: 22 (0.0)
|   LRS-name = 12230-5943: 22 (0.0)
|   LRS-name = 12233-5920: 22 (0.0)
|   LRS-name = 12247-5842: 22 (0.0)
|   LRS-name = 12274-7647: 22 (0.0)
|   LRS-name = 12277+0441: 22 (0.0)
|   LRS-name = 12283-5650: 22 (0.0)
|   LRS-name = 12298-5754: 22 (0.0)
|   LRS-name = 12319-6728: 22 (0.0)
|   LRS-name = 12377-6102: 22 (0.0)
|   LRS-name = 12379-4959: 22 (0.0)
|   LRS-name = 12380+5607: 22 (0.0)
|   LRS-name = 12384-4536: 22 (0.0)
|   LRS-name = 12394-4338: 22 (0.0)
|   LRS-name = 12421-6217: 22 (0.0)
|   LRS-name = 12427+4542: 22 (0.0)
|   LRS-name = 12447+0425: 22 (0.0)
|   LRS-name = 12454-6659: 22 (0.0)
|   LRS-name = 12462-6418: 22 (0.0)
|   LRS-name = 12506-6004: 22 (0.0)
|   LRS-name = 12530+0340: 22 (0.0)
|   LRS-name = 12540-6845: 22 (0.0)
|   LRS-name = 12559-6041: 22 (0.0)
|   LRS-name = 12563-6100: 22 (0.0)
|   LRS-name = 13001+0527: 22 (0.0)
|   LRS-name = 13022-7650: 22 (0.0)
|   LRS-name = 13064-6103: 22 (0.0)
|   LRS-name = 13136-4426: 22 (0.0)
|   LRS-name = 13141-6119: 22 (0.0)
|   LRS-name = 13170-5404: 22 (0.0)
|   LRS-name = 13172+4547: 22 (0.0)
|   LRS-name = 13203-5536: 22 (0.0)
|   LRS-name = 13208-6027: 22 (0.0)
|   LRS-name = 13283-5839: 22 (0.0)
|   LRS-name = 13328-6244: 22 (0.0)
|   LRS-name = 13343-5807: 22 (0.0)
|   LRS-name = 13350-7221: 22 (0.0)
|   LRS-name = 13368-4941: 22 (0.0)
|   LRS-name = 13371-6249: 22 (0.0)
|   LRS-name = 13379-5426: 22 (0.0)
|   LRS-name = 13442-6109: 22 (0.0)
|   LRS-name = 13462-2807: 22 (0.0)
|   LRS-name = 13465-3412: 22 (0.0)
|   LRS-name = 13477-6532: 22 (0.0)
|   LRS-name = 13482-6716: 22 (0.0)
|   LRS-name = 13509-6348: 22 (0.0)
|   LRS-name = 13517-6515: 22 (0.0)
|   LRS-name = 13527-6117: 22 (0.0)
|   LRS-name = 13557-6442: 22 (0.0)
|   LRS-name = 13572-6347: 22 (0.0)
|   LRS-name = 13581-5930: 22 (0.0)
|   LRS-name = 14003-7633: 22 (0.0)
|   LRS-name = 14020-3515: 22 (0.0)
|   LRS-name = 14030-4629: 22 (0.0)
|   LRS-name = 14068-6158: 22 (0.0)
|   LRS-name = 14086-2839: 22 (0.0)
|   LRS-name = 14086-6907: 22 (0.0)
|   LRS-name = 14119-6453: 22 (0.0)
|   LRS-name = 14122-6133: 22 (0.0)
|   LRS-name = 14129-5940: 22 (0.0)
|   LRS-name = 14133+1925: 22 (0.0)
|   LRS-name = 14159-6038: 22 (0.0)
|   LRS-name = 14182-6144: 22 (0.0)
|   LRS-name = 14216-6152: 22 (0.0)
|   LRS-name = 14247+0454: 22 (0.0)
|   LRS-name = 14251-6256: 22 (0.0)
|   LRS-name = 14277+3904: 22 (0.0)
|   LRS-name = 14280-2952: 22 (0.0)
|   LRS-name = 14286-5905: 22 (0.0)
|   LRS-name = 14301-5734: 22 (0.0)
|   LRS-name = 14337-6215: 22 (0.0)
|   LRS-name = 14359-6037: 22 (0.0)
|   LRS-name = 14371+3245: 22 (0.0)
|   LRS-name = 14390+3147: 22 (0.0)
|   LRS-name = 14437+1520: 22 (0.0)
|   LRS-name = 14453-4920: 22 (0.0)
|   LRS-name = 14455-3625: 22 (0.0)
|   LRS-name = 14465-6000: 22 (0.0)
|   LRS-name = 14484-6152: 22 (0.0)
|   LRS-name = 14508+7421: 22 (0.0)
|   LRS-name = 14531-5337: 22 (0.0)
|   LRS-name = 14550-1214: 22 (0.0)
|   LRS-name = 14562-5406: 22 (0.0)
|   LRS-name = 14567+6607: 22 (0.0)
|   LRS-name = 14567-5846: 22 (0.0)
|   LRS-name = 14582-5926: 22 (0.0)
|   LRS-name = 14591-4438: 22 (0.0)
|   LRS-name = 15011-2505: 22 (0.0)
|   LRS-name = 15023-6916: 22 (0.0)
|   LRS-name = 15082-4808: 22 (0.0)
|   LRS-name = 15084-5702: 22 (0.0)
|   LRS-name = 15099-5509: 22 (0.0)
|   LRS-name = 15107-5726: 22 (0.0)
|   LRS-name = 15148-4940: 22 (0.0)
|   LRS-name = 15186-3604: 22 (0.0)
|   LRS-name = 15186-5730: 22 (0.0)
|   LRS-name = 15193+1429: 22 (0.0)
|   LRS-name = 15193+3132: 22 (0.0)
|   LRS-name = 15214-2244: 22 (0.0)
|   LRS-name = 15219-7545: 22 (0.0)
|   LRS-name = 15223-0203: 22 (0.0)
|   LRS-name = 15225-5605: 22 (0.0)
|   LRS-name = 15226-3603: 22 (0.0)
|   LRS-name = 15255+1944: 22 (0.0)
|   LRS-name = 15269-4400: 22 (0.0)
|   LRS-name = 15287-5811: 22 (0.0)
|   LRS-name = 15290-5546: 22 (0.0)
|   LRS-name = 15311-5538: 22 (0.0)
|   LRS-name = 15314+7847: 22 (0.0)
|   LRS-name = 15323-4920: 22 (0.0)
|   LRS-name = 15332-6430: 22 (0.0)
|   LRS-name = 15341+1515: 22 (0.0)
|   LRS-name = 15356-6722: 22 (0.0)
|   LRS-name = 15361+2441: 22 (0.0)
|   LRS-name = 15373-5308: 22 (0.0)
|   LRS-name = 15402-5449: 22 (0.0)
|   LRS-name = 15408-5413: 22 (0.0)
|   LRS-name = 15410-0133: 22 (0.0)
|   LRS-name = 15468-5018: 22 (0.0)
|   LRS-name = 15483+1517: 22 (0.0)
|   LRS-name = 15483-5514: 22 (0.0)
|   LRS-name = 15492+4837: 22 (0.0)
|   LRS-name = 15509-5207: 22 (0.0)
|   LRS-name = 15530-5201: 22 (0.0)
|   LRS-name = 15566+3609: 22 (0.0)
|   LRS-name = 15568-4513: 22 (0.0)
|   LRS-name = 15569-6135: 22 (0.0)
|   LRS-name = 15576-5400: 22 (0.0)
|   LRS-name = 16011+4722: 22 (0.0)
|   LRS-name = 16011-5424: 22 (0.0)
|   LRS-name = 16029-3041: 22 (0.0)
|   LRS-name = 16030-5156: 22 (0.0)
|   LRS-name = 16031-4856: 22 (0.0)
|   LRS-name = 16064-4200: 22 (0.0)
|   LRS-name = 16066-4427: 22 (0.0)
|   LRS-name = 16077-5830: 22 (0.0)
|   LRS-name = 16079-4812: 22 (0.0)
|   LRS-name = 16081+2511: 22 (0.0)
|   LRS-name = 16105-4205: 22 (0.0)
|   LRS-name = 16117-0334: 22 (0.0)
|   LRS-name = 16127-7834: 22 (0.0)
|   LRS-name = 16133-5151: 22 (0.0)
|   LRS-name = 16156-5613: 22 (0.0)
|   LRS-name = 16171-4759: 22 (0.0)
|   LRS-name = 16175-6120: 22 (0.0)
|   LRS-name = 16192-4900: 22 (0.0)
|   LRS-name = 16208-2215: 22 (0.0)
|   LRS-name = 16218-4701: 22 (0.0)
|   LRS-name = 16219-5048: 22 (0.0)
|   LRS-name = 16222-4738: 22 (0.0)
|   LRS-name = 16229-4947: 22 (0.0)
|   LRS-name = 16235+1900: 22 (0.0)
|   LRS-name = 16260+3454: 22 (0.0)
|   LRS-name = 16263-5533: 22 (0.0)
|   LRS-name = 16269+4159: 22 (0.0)
|   LRS-name = 16270-5213: 22 (0.0)
|   LRS-name = 16279-4709: 22 (0.0)
|   LRS-name = 16280-4154: 22 (0.0)
|   LRS-name = 16296-4417: 22 (0.0)
|   LRS-name = 16306+7223: 22 (0.0)
|   LRS-name = 16316-5026: 22 (0.0)
|   LRS-name = 16327-4848: 22 (0.0)
|   LRS-name = 16328-4656: 22 (0.0)
|   LRS-name = 16334-3107: 22 (0.0)
|   LRS-name = 16337-4525: 22 (0.0)
|   LRS-name = 16340-4634: 22 (0.0)
|   LRS-name = 16387-2700: 22 (0.0)
|   LRS-name = 16396-4429: 22 (0.0)
|   LRS-name = 16407-5639: 22 (0.0)
|   LRS-name = 16418+5459: 22 (0.0)
|   LRS-name = 16433-6856: 22 (0.0)
|   LRS-name = 16438-1133: 22 (0.0)
|   LRS-name = 16446-4243: 22 (0.0)
|   LRS-name = 16451-4312: 22 (0.0)
|   LRS-name = 16460-4022: 22 (0.0)
|   LRS-name = 16473+5753: 22 (0.0)
|   LRS-name = 16478-4322: 22 (0.0)
|   LRS-name = 16490-4618: 22 (0.0)
|   LRS-name = 16494-1252: 22 (0.0)
|   LRS-name = 16498-4143: 22 (0.0)
|   LRS-name = 16534-3030: 22 (0.0)
|   LRS-name = 16541-4901: 22 (0.0)
|   LRS-name = 16545-4214: 22 (0.0)
|   LRS-name = 16546-4057: 22 (0.0)
|   LRS-name = 16559-2557: 22 (0.0)
|   LRS-name = 16571-7548: 22 (0.0)
|   LRS-name = 16581-4058: 22 (0.0)
|   LRS-name = 16586-4142: 22 (0.0)
|   LRS-name = 16589-3315: 22 (0.0)
|   LRS-name = 16598-4117: 22 (0.0)
|   LRS-name = 17001-3651: 22 (0.0)
|   LRS-name = 17010-4323: 22 (0.0)
|   LRS-name = 17025-4719: 22 (0.0)
|   LRS-name = 17047-5650: 22 (0.0)
|   LRS-name = 17048-1601: 22 (0.0)
|   LRS-name = 17049-2440: 22 (0.0)
|   LRS-name = 17050-4123: 22 (0.0)
|   LRS-name = 17066-4028: 22 (0.0)
|   LRS-name = 17079-3243: 22 (0.0)
|   LRS-name = 17080-3215: 22 (0.0)
|   LRS-name = 17081+6422: 22 (0.0)
|   LRS-name = 17102-1031: 22 (0.0)
|   LRS-name = 17103-0559: 22 (0.0)
|   LRS-name = 17103-3551: 22 (0.0)
|   LRS-name = 17103-3702: 22 (0.0)
|   LRS-name = 17104-3146: 22 (0.0)
|   LRS-name = 17105-3746: 22 (0.0)
|   LRS-name = 17109-3942: 22 (0.0)
|   LRS-name = 17115-3322: 22 (0.0)
|   LRS-name = 17119+0859: 22 (0.0)
|   LRS-name = 17122-2707: 22 (0.0)
|   LRS-name = 17123+1107: 22 (0.0)
|   LRS-name = 17125-4814: 22 (0.0)
|   LRS-name = 17139+0446: 22 (0.0)
|   LRS-name = 17139-3746: 22 (0.0)
|   LRS-name = 17162-1934: 22 (0.0)
|   LRS-name = 17174-4641: 22 (0.0)
|   LRS-name = 17187-3750: 22 (0.0)
|   LRS-name = 17190+2658: 22 (0.0)
|   LRS-name = 17199-3512: 22 (0.0)
|   LRS-name = 17201-4613: 22 (0.0)
|   LRS-name = 17213-2219: 22 (0.0)
|   LRS-name = 17217-3916: 22 (0.0)
|   LRS-name = 17237-3102: 22 (0.0)
|   LRS-name = 17239-2812: 22 (0.0)
|   LRS-name = 17265-0725: 22 (0.0)
|   LRS-name = 17297+1747: 22 (0.0)
|   LRS-name = 17309-1724: 22 (0.0)
|   LRS-name = 17315-3414: 22 (0.0)
|   LRS-name = 17317-3331: 22 (0.0)
|   LRS-name = 17318-2342: 22 (0.0)
|   LRS-name = 17319-6234: 22 (0.0)
|   LRS-name = 17328-3327: 22 (0.0)
|   LRS-name = 17334+1537: 22 (0.0)
|   LRS-name = 17341-3453: 22 (0.0)
|   LRS-name = 17343+1052: 22 (0.0)
|   LRS-name = 17361+5746: 22 (0.0)
|   LRS-name = 17375-3652: 22 (0.0)
|   LRS-name = 17381-3442: 22 (0.0)
|   LRS-name = 17382-1704: 22 (0.0)
|   LRS-name = 17387-4343: 22 (0.0)
|   LRS-name = 17389-2045: 22 (0.0)
|   LRS-name = 17389-5742: 22 (0.0)
|   LRS-name = 17398-4344: 22 (0.0)
|   LRS-name = 17433-2523: 22 (0.0)
|   LRS-name = 17434-3414: 22 (0.0)
|   LRS-name = 17443-2519: 22 (0.0)
|   LRS-name = 17446-7809: 22 (0.0)
|   LRS-name = 17462-8647: 22 (0.0)
|   LRS-name = 17479-2927: 22 (0.0)
|   LRS-name = 17484-0800: 22 (0.0)
|   LRS-name = 17488-2800: 22 (0.0)
|   LRS-name = 17504-0234: 22 (0.0)
|   LRS-name = 17505-3143: 22 (0.0)
|   LRS-name = 17508-3419: 22 (0.0)
|   LRS-name = 17513-2313: 22 (0.0)
|   LRS-name = 17534-3030: 22 (0.0)
|   LRS-name = 17540-1919: 22 (0.0)
|   LRS-name = 17541+1110: 22 (0.0)
|   LRS-name = 17554+5129: 22 (0.0)
|   LRS-name = 17556+5813: 22 (0.0)
|   LRS-name = 17570-3713: 22 (0.0)
|   LRS-name = 17579+2335: 22 (0.0)
|   LRS-name = 17581-1744: 22 (0.0)
|   LRS-name = 18018-2802: 22 (0.0)
|   LRS-name = 18027-2314: 22 (0.0)
|   LRS-name = 18039-0813: 22 (0.0)
|   LRS-name = 18040-0941: 22 (0.0)
|   LRS-name = 18041-3317: 22 (0.0)
|   LRS-name = 18057-2616: 22 (0.0)
|   LRS-name = 18076+3445: 22 (0.0)
|   LRS-name = 18076-1034: 22 (0.0)
|   LRS-name = 18083-2630: 22 (0.0)
|   LRS-name = 18092-0437: 22 (0.0)
|   LRS-name = 18095+2704: 22 (0.0)
|   LRS-name = 18135-1456: 22 (0.0)
|   LRS-name = 18135-1740: 22 (0.0)
|   LRS-name = 18136-1859: 22 (0.0)
|   LRS-name = 18142-3646: 22 (0.0)
|   LRS-name = 18156-0653: 22 (0.0)
|   LRS-name = 18157+1757: 22 (0.0)
|   LRS-name = 18162-0246: 22 (0.0)
|   LRS-name = 18176-1848: 22 (0.0)
|   LRS-name = 18177-2951: 22 (0.0)
|   LRS-name = 18186+3143: 22 (0.0)
|   LRS-name = 18213+0335: 22 (0.0)
|   LRS-name = 18222+3933: 22 (0.0)
|   LRS-name = 18230+0544: 22 (0.0)
|   LRS-name = 18239-0655: 22 (0.0)
|   LRS-name = 18240+2326: 22 (0.0)
|   LRS-name = 18257-1000: 22 (0.0)
|   LRS-name = 18267-0606: 22 (0.0)
|   LRS-name = 18273-0738: 22 (0.0)
|   LRS-name = 18276+8236: 22 (0.0)
|   LRS-name = 18276-4717: 22 (0.0)
|   LRS-name = 18280-5639: 22 (0.0)
|   LRS-name = 18281+2149: 22 (0.0)
|   LRS-name = 18301-0656: 22 (0.0)
|   LRS-name = 18303-0519: 22 (0.0)
|   LRS-name = 18306+3657: 22 (0.0)
|   LRS-name = 18314-1131: 22 (0.0)
|   LRS-name = 18316-0602: 22 (0.0)
|   LRS-name = 18320-0352: 22 (0.0)
|   LRS-name = 18325-1138: 22 (0.0)
|   LRS-name = 18333+0533: 22 (0.0)
|   LRS-name = 18349+1023: 22 (0.0)
|   LRS-name = 18359+0847: 22 (0.0)
|   LRS-name = 18367-0452: 22 (0.0)
|   LRS-name = 18373-0021: 22 (0.0)
|   LRS-name = 18378-3731: 22 (0.0)
|   LRS-name = 18397+1738: 22 (0.0)
|   LRS-name = 18398-0220: 22 (0.0)
|   LRS-name = 18401+2854: 22 (0.0)
|   LRS-name = 18413+1354: 22 (0.0)
|   LRS-name = 18414-0527: 22 (0.0)
|   LRS-name = 18421+1147: 22 (0.0)
|   LRS-name = 18429-1721: 22 (0.0)
|   LRS-name = 18450-0922: 22 (0.0)
|   LRS-name = 18451-0824: 22 (0.0)
|   LRS-name = 18464-0656: 22 (0.0)
|   LRS-name = 18467-4802: 22 (0.0)
|   LRS-name = 18475+0926: 22 (0.0)
|   LRS-name = 18476+0555: 22 (0.0)
|   LRS-name = 18527+3650: 22 (0.0)
|   LRS-name = 18530+0817: 22 (0.0)
|   LRS-name = 18531+0016: 22 (0.0)
|   LRS-name = 18535+0726: 22 (0.0)
|   LRS-name = 18537-1035: 22 (0.0)
|   LRS-name = 18550+0130: 22 (0.0)
|   LRS-name = 18551+0323: 22 (0.0)
|   LRS-name = 18551+1345: 22 (0.0)
|   LRS-name = 18556+0811: 22 (0.0)
|   LRS-name = 18560+0638: 22 (0.0)
|   LRS-name = 19007-2247: 22 (0.0)
|   LRS-name = 19007-3826: 22 (0.0)
|   LRS-name = 19008+0726: 22 (0.0)
|   LRS-name = 19017-0545: 22 (0.0)
|   LRS-name = 19029+0808: 22 (0.0)
|   LRS-name = 19032-4602: 22 (0.0)
|   LRS-name = 19042-4858: 22 (0.0)
|   LRS-name = 19043+1009: 22 (0.0)
|   LRS-name = 19059-2219: 22 (0.0)
|   LRS-name = 19075+0921: 22 (0.0)
|   LRS-name = 19093-3256: 22 (0.0)
|   LRS-name = 19099+6711: 22 (0.0)
|   LRS-name = 19135+0931: 22 (0.0)
|   LRS-name = 19143-5032: 22 (0.0)
|   LRS-name = 19157-1706: 22 (0.0)
|   LRS-name = 19161+2343: 22 (0.0)
|   LRS-name = 19178-2620: 22 (0.0)
|   LRS-name = 19188-1603: 22 (0.0)
|   LRS-name = 19192+0922: 22 (0.0)
|   LRS-name = 19194+1734: 22 (0.0)
|   LRS-name = 19229+1708: 22 (0.0)
|   LRS-name = 19232+5008: 22 (0.0)
|   LRS-name = 19240+3615: 22 (0.0)
|   LRS-name = 19247-1722: 22 (0.0)
|   LRS-name = 19282+2253: 22 (0.0)
|   LRS-name = 19283+1944: 22 (0.0)
|   LRS-name = 19287+4602: 22 (0.0)
|   LRS-name = 19296+4331: 22 (0.0)
|   LRS-name = 19314-1629: 22 (0.0)
|   LRS-name = 19321+2757: 22 (0.0)
|   LRS-name = 19324+3033: 22 (0.0)
|   LRS-name = 19327+3024: 22 (0.0)
|   LRS-name = 19352+2030: 22 (0.0)
|   LRS-name = 19354+5005: 22 (0.0)
|   LRS-name = 19361-1658: 22 (0.0)
|   LRS-name = 19396+1637: 22 (0.0)
|   LRS-name = 19412+0337: 22 (0.0)
|   LRS-name = 19422+3506: 22 (0.0)
|   LRS-name = 19451+1824: 22 (0.0)
|   LRS-name = 19472+2127: 22 (0.0)
|   LRS-name = 19474-0744: 22 (0.0)
|   LRS-name = 19480+2447: 22 (0.0)
|   LRS-name = 19495+0835: 22 (0.0)
|   LRS-name = 19500-1709: 22 (0.0)
|   LRS-name = 19503+2219: 22 (0.0)
|   LRS-name = 19510-5919: 22 (0.0)
|   LRS-name = 19528-2919: 22 (0.0)
|   LRS-name = 19536+3237: 22 (0.0)
|   LRS-name = 19537+2212: 22 (0.0)
|   LRS-name = 19548+3035: 22 (0.0)
|   LRS-name = 19550-0201: 22 (0.0)
|   LRS-name = 19575-5930: 22 (0.0)
|   LRS-name = 19585+5200: 22 (0.0)
|   LRS-name = 19586+3637: 22 (0.0)
|   LRS-name = 19594+4047: 22 (0.0)
|   LRS-name = 19595-2751: 22 (0.0)
|   LRS-name = 20010+3011: 22 (0.0)
|   LRS-name = 20015+3019: 22 (0.0)
|   LRS-name = 20024+3330: 22 (0.0)
|   LRS-name = 20028+3910: 22 (0.0)
|   LRS-name = 20038-2722: 22 (0.0)
|   LRS-name = 20042-4241: 22 (0.0)
|   LRS-name = 20052+0554: 22 (0.0)
|   LRS-name = 20072+3116: 22 (0.0)
|   LRS-name = 20075-6005: 22 (0.0)
|   LRS-name = 20094-1121: 22 (0.0)
|   LRS-name = 20111-4708: 22 (0.0)
|   LRS-name = 20113+4917: 22 (0.0)
|   LRS-name = 20124+6605: 22 (0.0)
|   LRS-name = 20135-7152: 22 (0.0)
|   LRS-name = 20161-1600: 22 (0.0)
|   LRS-name = 20165+3413: 22 (0.0)
|   LRS-name = 20171+3519: 22 (0.0)
|   LRS-name = 20193+3527: 22 (0.0)
|   LRS-name = 20194+3646: 22 (0.0)
|   LRS-name = 20200+3624: 22 (0.0)
|   LRS-name = 20215+6243: 22 (0.0)
|   LRS-name = 20248+7505: 22 (0.0)
|   LRS-name = 20248-2825: 22 (0.0)
|   LRS-name = 20253+3814: 22 (0.0)
|   LRS-name = 20255+4054: 22 (0.0)
|   LRS-name = 20267+2105: 22 (0.0)
|   LRS-name = 20275+4001: 22 (0.0)
|   LRS-name = 20297+3221: 22 (0.0)
|   LRS-name = 20310+4029: 22 (0.0)
|   LRS-name = 20318+3829: 22 (0.0)
|   LRS-name = 20340+5338: 22 (0.0)
|   LRS-name = 20350+3741: 22 (0.0)
|   LRS-name = 20356+1805: 22 (0.0)
|   LRS-name = 20365+1154: 22 (0.0)
|   LRS-name = 20396+4757: 22 (0.0)
|   LRS-name = 20403+3700: 22 (0.0)
|   LRS-name = 20417-0500: 22 (0.0)
|   LRS-name = 20431+1754: 22 (0.0)
|   LRS-name = 20435+3825: 22 (0.0)
|   LRS-name = 20440-0105: 22 (0.0)
|   LRS-name = 20479+0554: 22 (0.0)
|   LRS-name = 20484-7202: 22 (0.0)
|   LRS-name = 20491+4236: 22 (0.0)
|   LRS-name = 20502+4709: 22 (0.0)
|   LRS-name = 20529+3013: 22 (0.0)
|   LRS-name = 20532+5554: 22 (0.0)
|   LRS-name = 20541-6549: 22 (0.0)
|   LRS-name = 20549+5245: 22 (0.0)
|   LRS-name = 20570+2714: 22 (0.0)
|   LRS-name = 21003+4801: 22 (0.0)
|   LRS-name = 21032-0024: 22 (0.0)
|   LRS-name = 21035+5136: 22 (0.0)
|   LRS-name = 21044-1637: 22 (0.0)
|   LRS-name = 21069-3843: 22 (0.0)
|   LRS-name = 21086+5238: 22 (0.0)
|   LRS-name = 21088+6817: 22 (0.0)
|   LRS-name = 21190+5140: 22 (0.0)
|   LRS-name = 21206-4054: 22 (0.0)
|   LRS-name = 21243-6943: 22 (0.0)
|   LRS-name = 21245+6221: 22 (0.0)
|   LRS-name = 21270+7135: 22 (0.0)
|   LRS-name = 21286+1055: 22 (0.0)
|   LRS-name = 21305+2118: 22 (0.0)
|   LRS-name = 21312+5405: 22 (0.0)
|   LRS-name = 21318+5631: 22 (0.0)
|   LRS-name = 21320+3850: 22 (0.0)
|   LRS-name = 21341+4508: 22 (0.0)
|   LRS-name = 21368-3812: 22 (0.0)
|   LRS-name = 21373+4540: 22 (0.0)
|   LRS-name = 21377+5042: 22 (0.0)
|   LRS-name = 21377-0200: 22 (0.0)
|   LRS-name = 21383+4513: 22 (0.0)
|   LRS-name = 21389+5405: 22 (0.0)
|   LRS-name = 21399+3516: 22 (0.0)
|   LRS-name = 21401+7354: 22 (0.0)
|   LRS-name = 21417+0938: 22 (0.0)
|   LRS-name = 21449+4950: 22 (0.0)
|   LRS-name = 21453-4708: 22 (0.0)
|   LRS-name = 21456+6422: 22 (0.0)
|   LRS-name = 21489+5301: 22 (0.0)
|   LRS-name = 21543-1421: 22 (0.0)
|   LRS-name = 21552+6323: 22 (0.0)
|   LRS-name = 21554+6204: 22 (0.0)
|   LRS-name = 21558+5907: 22 (0.0)
|   LRS-name = 21563+5630: 22 (0.0)
|   LRS-name = 22017+2806: 22 (0.0)
|   LRS-name = 22035+3506: 22 (0.0)
|   LRS-name = 22091+5757: 22 (0.0)
|   LRS-name = 22097+5647: 22 (0.0)
|   LRS-name = 22142-8454: 22 (0.0)
|   LRS-name = 22150-6030: 22 (0.0)
|   LRS-name = 22165+4331: 22 (0.0)
|   LRS-name = 22177+5936: 22 (0.0)
|   LRS-name = 22190-0751: 22 (0.0)
|   LRS-name = 22196-4612: 22 (0.0)
|   LRS-name = 22212+5542: 22 (0.0)
|   LRS-name = 22230-4841: 22 (1.17)
|   LRS-name = 22231-4529: 22 (0.0)
|   LRS-name = 22241+6005: 41 (1.17)
|   LRS-name = 22264+5858: 22 (0.0)
|   LRS-name = 22267-4400: 18 (1.17)
|   LRS-name = 22272+5435: 72 (0.73)
|   LRS-name = 22280+1250: 15 (0.41)
|   LRS-name = 22282+5644: 22 (0.0)
|   LRS-name = 22303+5950: 41 (0.43)
|   LRS-name = 22306+5510: 21 (2.05)
|   LRS-name = 22317+5838: 22 (0.0)
|   LRS-name = 22345+5809: 22 (0.0)
|   LRS-name = 22456+5453: 22 (0.0)
|   LRS-name = 22476+4047: 16 (0.43)
|   LRS-name = 22512+6100: 22 (0.0)
|   LRS-name = 22516+0838: 22 (0.0)
|   LRS-name = 22518+6600: 44 (1.74)
|   LRS-name = 22525-2952: 22 (0.36)
|   LRS-name = 22526+8446: 17 (1.55)
|   LRS-name = 22540-5740: 22 (0.36)
|   LRS-name = 22585+6402: 43 (0.69)
|   LRS-name = 23000+5932: 22 (0.0)
|   LRS-name = 23013+2748: 18 (0.41)
|   LRS-name = 23095+5925: 16 (0.43)
|   LRS-name = 23134-7031: 16 (0.43)
|   LRS-name = 23138+6204: 22 (0.0)
|   LRS-name = 23151+5912: 39 (0.4)
|   LRS-name = 23166+1655: 2 (1.55)
|   LRS-name = 23202+5901: 22 (1.17)
|   LRS-name = 23213-4521: 22 (0.0)
|   LRS-name = 23284+5958: 22 (0.0)
|   LRS-name = 23309+2213: 18 (0.41)
|   LRS-name = 23320+4316: 42 (2.05)
|   LRS-name = 23365+5159: 22 (0.0)
|   LRS-name = 23416+6130: 22 (0.0)
|   LRS-name = 23439+5412: 15 (0.41)
|   LRS-name = 23491+6243: 43 (0.43)
|   LRS-name = 23496+6131: 22 (0.0)
|   LRS-name = 23528+4821: 22 (0.36)
|   LRS-name = 23541+7031: 31 (1.51)
|   LRS-name = 23564-5651: 2 (1.31)
blue-band-flux_21 > 8751.81
|   Red_base_2 <= 111: 69 (9.3)
|   Red_base_2 > 111
|   |   red-band-flux_8 <= 3788.663
|   |   |   blue-band-flux_16 <= 12058.94: 27 (3.27/0.41)
|   |   |   blue-band-flux_16 > 12058.94: 29 (2.55/0.83)
|   |   red-band-flux_8 > 3788.663: 25 (3.75/2.04)

Number of Leaves  : 	535

Size of the tree : 	540


Weight: 2.47

J48 pruned tree
------------------

blue-band-flux_7 <= 6169.4077
|   LRS-name = 12043-6225: 26 (0.0)
|   LRS-name = 12063-6259: 26 (0.0)
|   LRS-name = 12073-6233: 26 (0.0)
|   LRS-name = 12148-6741: 26 (0.0)
|   LRS-name = 12216-6218: 26 (0.0)
|   LRS-name = 12226+0102: 26 (0.0)
|   LRS-name = 12230-5943: 26 (0.0)
|   LRS-name = 12233-5920: 26 (0.0)
|   LRS-name = 12247-5842: 26 (0.0)
|   LRS-name = 12274-7647: 26 (0.0)
|   LRS-name = 12277+0441: 26 (0.0)
|   LRS-name = 12283-5650: 26 (0.0)
|   LRS-name = 12298-5754: 26 (0.0)
|   LRS-name = 12319-6728: 26 (0.0)
|   LRS-name = 12377-6102: 26 (0.0)
|   LRS-name = 12379-4959: 26 (0.0)
|   LRS-name = 12380+5607: 26 (0.0)
|   LRS-name = 12384-4536: 26 (0.0)
|   LRS-name = 12394-4338: 26 (0.0)
|   LRS-name = 12421-6217: 26 (0.0)
|   LRS-name = 12427+4542: 26 (0.0)
|   LRS-name = 12447+0425: 26 (0.0)
|   LRS-name = 12454-6659: 26 (0.0)
|   LRS-name = 12462-6418: 26 (0.0)
|   LRS-name = 12506-6004: 26 (0.0)
|   LRS-name = 12530+0340: 26 (0.0)
|   LRS-name = 12540-6845: 26 (0.0)
|   LRS-name = 12559-6041: 26 (0.0)
|   LRS-name = 12563-6100: 26 (0.0)
|   LRS-name = 13001+0527: 26 (0.0)
|   LRS-name = 13022-7650: 26 (0.0)
|   LRS-name = 13064-6103: 26 (0.0)
|   LRS-name = 13136-4426: 26 (0.0)
|   LRS-name = 13141-6119: 26 (0.0)
|   LRS-name = 13170-5404: 26 (0.0)
|   LRS-name = 13172+4547: 26 (0.0)
|   LRS-name = 13203-5536: 26 (0.0)
|   LRS-name = 13208-6027: 26 (0.0)
|   LRS-name = 13283-5839: 26 (0.0)
|   LRS-name = 13328-6244: 26 (0.0)
|   LRS-name = 13343-5807: 26 (0.0)
|   LRS-name = 13350-7221: 26 (0.0)
|   LRS-name = 13368-4941: 26 (0.0)
|   LRS-name = 13371-6249: 26 (0.0)
|   LRS-name = 13379-5426: 26 (0.0)
|   LRS-name = 13442-6109: 26 (0.0)
|   LRS-name = 13462-2807: 26 (0.0)
|   LRS-name = 13465-3412: 26 (0.0)
|   LRS-name = 13477-6532: 26 (0.0)
|   LRS-name = 13482-6716: 26 (0.0)
|   LRS-name = 13509-6348: 26 (0.0)
|   LRS-name = 13517-6515: 26 (0.0)
|   LRS-name = 13527-6117: 26 (0.0)
|   LRS-name = 13557-6442: 26 (0.0)
|   LRS-name = 13572-6347: 26 (0.0)
|   LRS-name = 13581-5930: 26 (0.0)
|   LRS-name = 14003-7633: 26 (0.0)
|   LRS-name = 14020-3515: 26 (0.0)
|   LRS-name = 14030-4629: 26 (0.0)
|   LRS-name = 14068-6158: 26 (0.0)
|   LRS-name = 14086-2839: 26 (0.0)
|   LRS-name = 14086-6907: 26 (0.0)
|   LRS-name = 14119-6453: 26 (0.0)
|   LRS-name = 14122-6133: 26 (0.0)
|   LRS-name = 14129-5940: 26 (0.0)
|   LRS-name = 14133+1925: 26 (0.0)
|   LRS-name = 14159-6038: 26 (0.0)
|   LRS-name = 14182-6144: 26 (0.0)
|   LRS-name = 14216-6152: 26 (0.0)
|   LRS-name = 14247+0454: 26 (0.0)
|   LRS-name = 14251-6256: 26 (0.0)
|   LRS-name = 14277+3904: 26 (0.0)
|   LRS-name = 14280-2952: 26 (0.0)
|   LRS-name = 14286-5905: 26 (0.0)
|   LRS-name = 14301-5734: 26 (0.0)
|   LRS-name = 14337-6215: 26 (0.0)
|   LRS-name = 14359-6037: 26 (0.0)
|   LRS-name = 14371+3245: 26 (0.0)
|   LRS-name = 14390+3147: 26 (0.0)
|   LRS-name = 14437+1520: 26 (0.0)
|   LRS-name = 14453-4920: 26 (0.0)
|   LRS-name = 14455-3625: 26 (0.0)
|   LRS-name = 14465-6000: 26 (0.0)
|   LRS-name = 14484-6152: 26 (0.0)
|   LRS-name = 14508+7421: 26 (0.0)
|   LRS-name = 14531-5337: 26 (0.0)
|   LRS-name = 14550-1214: 26 (0.0)
|   LRS-name = 14562-5406: 26 (0.0)
|   LRS-name = 14567+6607: 26 (0.0)
|   LRS-name = 14567-5846: 26 (0.0)
|   LRS-name = 14582-5926: 26 (0.0)
|   LRS-name = 14591-4438: 26 (0.0)
|   LRS-name = 15011-2505: 26 (0.0)
|   LRS-name = 15023-6916: 26 (0.0)
|   LRS-name = 15082-4808: 26 (0.0)
|   LRS-name = 15084-5702: 26 (0.0)
|   LRS-name = 15099-5509: 26 (0.0)
|   LRS-name = 15107-5726: 26 (0.0)
|   LRS-name = 15148-4940: 26 (0.0)
|   LRS-name = 15186-3604: 26 (0.0)
|   LRS-name = 15186-5730: 26 (0.0)
|   LRS-name = 15193+1429: 26 (0.0)
|   LRS-name = 15193+3132: 26 (0.0)
|   LRS-name = 15214-2244: 26 (0.0)
|   LRS-name = 15219-7545: 26 (0.0)
|   LRS-name = 15223-0203: 26 (0.0)
|   LRS-name = 15225-5605: 26 (0.0)
|   LRS-name = 15226-3603: 26 (0.0)
|   LRS-name = 15255+1944: 26 (0.0)
|   LRS-name = 15269-4400: 26 (0.0)
|   LRS-name = 15287-5811: 26 (0.0)
|   LRS-name = 15290-5546: 26 (0.0)
|   LRS-name = 15311-5538: 26 (0.0)
|   LRS-name = 15314+7847: 26 (0.0)
|   LRS-name = 15323-4920: 26 (0.0)
|   LRS-name = 15332-6430: 26 (0.0)
|   LRS-name = 15341+1515: 26 (0.0)
|   LRS-name = 15356-6722: 26 (0.0)
|   LRS-name = 15361+2441: 26 (0.0)
|   LRS-name = 15373-5308: 26 (0.0)
|   LRS-name = 15402-5449: 26 (0.0)
|   LRS-name = 15408-5413: 26 (0.0)
|   LRS-name = 15410-0133: 26 (0.0)
|   LRS-name = 15468-5018: 26 (0.0)
|   LRS-name = 15483+1517: 26 (0.0)
|   LRS-name = 15483-5514: 26 (0.0)
|   LRS-name = 15492+4837: 26 (0.0)
|   LRS-name = 15509-5207: 26 (0.0)
|   LRS-name = 15530-5201: 26 (0.0)
|   LRS-name = 15566+3609: 26 (0.0)
|   LRS-name = 15568-4513: 26 (0.0)
|   LRS-name = 15569-6135: 26 (0.0)
|   LRS-name = 15576-5400: 26 (0.0)
|   LRS-name = 16011+4722: 26 (0.0)
|   LRS-name = 16011-5424: 26 (0.0)
|   LRS-name = 16029-3041: 26 (0.0)
|   LRS-name = 16030-5156: 26 (0.0)
|   LRS-name = 16031-4856: 26 (0.0)
|   LRS-name = 16064-4200: 26 (0.0)
|   LRS-name = 16066-4427: 26 (0.0)
|   LRS-name = 16077-5830: 26 (0.0)
|   LRS-name = 16079-4812: 26 (0.0)
|   LRS-name = 16081+2511: 26 (0.0)
|   LRS-name = 16105-4205: 26 (0.0)
|   LRS-name = 16117-0334: 26 (0.0)
|   LRS-name = 16127-7834: 26 (0.0)
|   LRS-name = 16133-5151: 26 (0.0)
|   LRS-name = 16156-5613: 26 (0.0)
|   LRS-name = 16171-4759: 26 (0.0)
|   LRS-name = 16175-6120: 26 (0.0)
|   LRS-name = 16192-4900: 26 (0.0)
|   LRS-name = 16208-2215: 26 (0.0)
|   LRS-name = 16218-4701: 26 (0.0)
|   LRS-name = 16219-5048: 26 (0.0)
|   LRS-name = 16222-4738: 26 (0.0)
|   LRS-name = 16229-4947: 26 (0.0)
|   LRS-name = 16235+1900: 26 (0.0)
|   LRS-name = 16260+3454: 26 (0.0)
|   LRS-name = 16263-5533: 26 (0.0)
|   LRS-name = 16269+4159: 26 (0.0)
|   LRS-name = 16270-5213: 26 (0.0)
|   LRS-name = 16279-4709: 26 (0.0)
|   LRS-name = 16280-4154: 26 (0.0)
|   LRS-name = 16296-4417: 26 (0.0)
|   LRS-name = 16306+7223: 26 (0.0)
|   LRS-name = 16316-5026: 26 (0.0)
|   LRS-name = 16327-4848: 26 (0.0)
|   LRS-name = 16328-4656: 26 (0.0)
|   LRS-name = 16334-3107: 26 (0.0)
|   LRS-name = 16337-4525: 26 (0.0)
|   LRS-name = 16340-4634: 26 (0.0)
|   LRS-name = 16387-2700: 26 (0.0)
|   LRS-name = 16396-4429: 26 (0.0)
|   LRS-name = 16407-5639: 26 (0.0)
|   LRS-name = 16418+5459: 26 (0.0)
|   LRS-name = 16433-6856: 26 (0.0)
|   LRS-name = 16438-1133: 26 (0.0)
|   LRS-name = 16446-4243: 26 (0.0)
|   LRS-name = 16451-4312: 26 (0.0)
|   LRS-name = 16460-4022: 26 (0.0)
|   LRS-name = 16473+5753: 26 (0.0)
|   LRS-name = 16478-4322: 26 (0.0)
|   LRS-name = 16490-4618: 26 (0.0)
|   LRS-name = 16494-1252: 26 (0.0)
|   LRS-name = 16498-4143: 26 (0.0)
|   LRS-name = 16534-3030: 26 (0.0)
|   LRS-name = 16541-4901: 26 (0.0)
|   LRS-name = 16545-4214: 26 (0.0)
|   LRS-name = 16546-4057: 26 (0.0)
|   LRS-name = 16559-2557: 26 (0.0)
|   LRS-name = 16571-7548: 26 (0.0)
|   LRS-name = 16581-4058: 26 (0.0)
|   LRS-name = 16586-4142: 26 (0.0)
|   LRS-name = 16589-3315: 26 (0.0)
|   LRS-name = 16598-4117: 26 (0.0)
|   LRS-name = 17001-3651: 26 (0.0)
|   LRS-name = 17010-4323: 26 (0.0)
|   LRS-name = 17025-4719: 26 (0.0)
|   LRS-name = 17047-5650: 26 (0.0)
|   LRS-name = 17048-1601: 26 (0.0)
|   LRS-name = 17049-2440: 26 (0.0)
|   LRS-name = 17050-4123: 26 (0.0)
|   LRS-name = 17066-4028: 26 (0.0)
|   LRS-name = 17079-3243: 26 (0.0)
|   LRS-name = 17080-3215: 26 (0.0)
|   LRS-name = 17081+6422: 26 (0.0)
|   LRS-name = 17102-1031: 26 (0.0)
|   LRS-name = 17103-0559: 26 (0.0)
|   LRS-name = 17103-3551: 26 (0.0)
|   LRS-name = 17103-3702: 26 (0.0)
|   LRS-name = 17104-3146: 26 (0.0)
|   LRS-name = 17105-3746: 26 (0.0)
|   LRS-name = 17109-3942: 26 (0.0)
|   LRS-name = 17115-3322: 26 (0.0)
|   LRS-name = 17119+0859: 26 (0.0)
|   LRS-name = 17122-2707: 26 (0.0)
|   LRS-name = 17123+1107: 26 (0.0)
|   LRS-name = 17125-4814: 26 (0.0)
|   LRS-name = 17139+0446: 26 (0.0)
|   LRS-name = 17139-3746: 26 (0.0)
|   LRS-name = 17162-1934: 26 (0.0)
|   LRS-name = 17174-4641: 26 (0.0)
|   LRS-name = 17187-3750: 26 (0.0)
|   LRS-name = 17190+2658: 26 (0.0)
|   LRS-name = 17199-3512: 26 (0.0)
|   LRS-name = 17201-4613: 26 (0.0)
|   LRS-name = 17213-2219: 26 (0.0)
|   LRS-name = 17217-3916: 26 (0.0)
|   LRS-name = 17237-3102: 26 (0.0)
|   LRS-name = 17239-2812: 26 (0.0)
|   LRS-name = 17265-0725: 26 (0.0)
|   LRS-name = 17297+1747: 26 (0.0)
|   LRS-name = 17309-1724: 26 (0.0)
|   LRS-name = 17315-3414: 26 (0.0)
|   LRS-name = 17317-3331: 26 (0.0)
|   LRS-name = 17318-2342: 26 (0.0)
|   LRS-name = 17319-6234: 26 (0.0)
|   LRS-name = 17328-3327: 26 (0.0)
|   LRS-name = 17334+1537: 26 (0.0)
|   LRS-name = 17341-3453: 26 (0.0)
|   LRS-name = 17343+1052: 26 (0.0)
|   LRS-name = 17361+5746: 26 (0.0)
|   LRS-name = 17375-3652: 26 (0.0)
|   LRS-name = 17381-3442: 26 (0.0)
|   LRS-name = 17382-1704: 26 (0.0)
|   LRS-name = 17387-4343: 26 (0.0)
|   LRS-name = 17389-2045: 26 (0.0)
|   LRS-name = 17389-5742: 26 (0.0)
|   LRS-name = 17398-4344: 26 (0.0)
|   LRS-name = 17433-2523: 26 (0.0)
|   LRS-name = 17434-3414: 26 (0.0)
|   LRS-name = 17443-2519: 26 (0.0)
|   LRS-name = 17446-7809: 26 (0.0)
|   LRS-name = 17462-8647: 26 (0.0)
|   LRS-name = 17479-2927: 26 (0.0)
|   LRS-name = 17484-0800: 26 (0.0)
|   LRS-name = 17488-2800: 26 (0.0)
|   LRS-name = 17504-0234: 26 (0.0)
|   LRS-name = 17505-3143: 26 (0.0)
|   LRS-name = 17508-3419: 26 (0.0)
|   LRS-name = 17513-2313: 26 (0.0)
|   LRS-name = 17534-3030: 26 (0.0)
|   LRS-name = 17540-1919: 26 (0.0)
|   LRS-name = 17541+1110: 26 (0.0)
|   LRS-name = 17554+5129: 26 (0.0)
|   LRS-name = 17556+5813: 26 (0.0)
|   LRS-name = 17570-3713: 26 (0.0)
|   LRS-name = 17579+2335: 26 (0.0)
|   LRS-name = 17581-1744: 26 (0.0)
|   LRS-name = 18018-2802: 26 (0.0)
|   LRS-name = 18027-2314: 26 (0.0)
|   LRS-name = 18039-0813: 26 (0.0)
|   LRS-name = 18040-0941: 26 (0.0)
|   LRS-name = 18041-3317: 26 (0.0)
|   LRS-name = 18057-2616: 26 (0.0)
|   LRS-name = 18076+3445: 26 (0.0)
|   LRS-name = 18076-1034: 26 (0.0)
|   LRS-name = 18083-2630: 26 (0.0)
|   LRS-name = 18092-0437: 26 (0.0)
|   LRS-name = 18095+2704: 26 (0.0)
|   LRS-name = 18135-1456: 26 (0.0)
|   LRS-name = 18135-1740: 26 (0.0)
|   LRS-name = 18136-1859: 26 (0.0)
|   LRS-name = 18142-3646: 26 (0.0)
|   LRS-name = 18156-0653: 26 (0.0)
|   LRS-name = 18157+1757: 26 (0.0)
|   LRS-name = 18162-0246: 26 (0.0)
|   LRS-name = 18176-1848: 26 (0.0)
|   LRS-name = 18177-2951: 26 (0.0)
|   LRS-name = 18186+3143: 26 (0.0)
|   LRS-name = 18213+0335: 26 (0.0)
|   LRS-name = 18222+3933: 26 (0.0)
|   LRS-name = 18230+0544: 26 (0.0)
|   LRS-name = 18239-0655: 26 (0.0)
|   LRS-name = 18240+2326: 26 (0.0)
|   LRS-name = 18257-1000: 26 (0.0)
|   LRS-name = 18267-0606: 26 (0.0)
|   LRS-name = 18273-0738: 26 (0.0)
|   LRS-name = 18276+8236: 26 (0.0)
|   LRS-name = 18276-4717: 26 (0.0)
|   LRS-name = 18280-5639: 26 (0.0)
|   LRS-name = 18281+2149: 26 (0.0)
|   LRS-name = 18301-0656: 26 (0.0)
|   LRS-name = 18303-0519: 26 (0.0)
|   LRS-name = 18306+3657: 26 (0.0)
|   LRS-name = 18314-1131: 26 (0.0)
|   LRS-name = 18316-0602: 26 (0.0)
|   LRS-name = 18320-0352: 26 (0.0)
|   LRS-name = 18325-1138: 26 (0.0)
|   LRS-name = 18333+0533: 26 (0.0)
|   LRS-name = 18349+1023: 26 (0.0)
|   LRS-name = 18359+0847: 26 (0.0)
|   LRS-name = 18367-0452: 26 (0.0)
|   LRS-name = 18373-0021: 26 (0.0)
|   LRS-name = 18378-3731: 26 (0.0)
|   LRS-name = 18397+1738: 26 (0.0)
|   LRS-name = 18398-0220: 26 (0.0)
|   LRS-name = 18401+2854: 26 (0.0)
|   LRS-name = 18413+1354: 26 (0.0)
|   LRS-name = 18414-0527: 26 (0.0)
|   LRS-name = 18421+1147: 26 (0.0)
|   LRS-name = 18429-1721: 26 (0.0)
|   LRS-name = 18450-0922: 26 (0.0)
|   LRS-name = 18451-0824: 26 (0.0)
|   LRS-name = 18464-0656: 26 (0.0)
|   LRS-name = 18467-4802: 26 (0.0)
|   LRS-name = 18475+0926: 26 (0.0)
|   LRS-name = 18476+0555: 26 (0.0)
|   LRS-name = 18527+3650: 26 (0.0)
|   LRS-name = 18530+0817: 26 (0.0)
|   LRS-name = 18531+0016: 26 (0.0)
|   LRS-name = 18535+0726: 26 (0.0)
|   LRS-name = 18537-1035: 26 (0.0)
|   LRS-name = 18550+0130: 26 (0.0)
|   LRS-name = 18551+0323: 26 (0.0)
|   LRS-name = 18551+1345: 26 (0.0)
|   LRS-name = 18556+0811: 26 (0.0)
|   LRS-name = 18560+0638: 26 (0.0)
|   LRS-name = 19007-2247: 26 (0.0)
|   LRS-name = 19007-3826: 26 (0.0)
|   LRS-name = 19008+0726: 26 (0.0)
|   LRS-name = 19017-0545: 26 (0.0)
|   LRS-name = 19029+0808: 26 (0.0)
|   LRS-name = 19032-4602: 26 (0.0)
|   LRS-name = 19042-4858: 26 (0.0)
|   LRS-name = 19043+1009: 26 (0.0)
|   LRS-name = 19059-2219: 26 (0.0)
|   LRS-name = 19075+0921: 26 (0.0)
|   LRS-name = 19093-3256: 26 (0.0)
|   LRS-name = 19099+6711: 26 (0.0)
|   LRS-name = 19135+0931: 26 (0.0)
|   LRS-name = 19143-5032: 26 (0.0)
|   LRS-name = 19157-1706: 26 (0.0)
|   LRS-name = 19161+2343: 26 (0.0)
|   LRS-name = 19178-2620: 26 (0.0)
|   LRS-name = 19188-1603: 26 (0.0)
|   LRS-name = 19192+0922: 26 (0.0)
|   LRS-name = 19194+1734: 26 (0.0)
|   LRS-name = 19229+1708: 26 (0.0)
|   LRS-name = 19232+5008: 26 (0.0)
|   LRS-name = 19240+3615: 26 (0.0)
|   LRS-name = 19247-1722: 26 (0.0)
|   LRS-name = 19282+2253: 26 (0.0)
|   LRS-name = 19283+1944: 26 (0.0)
|   LRS-name = 19287+4602: 26 (0.0)
|   LRS-name = 19296+4331: 26 (0.0)
|   LRS-name = 19314-1629: 26 (0.0)
|   LRS-name = 19321+2757: 26 (0.0)
|   LRS-name = 19324+3033: 26 (0.0)
|   LRS-name = 19327+3024: 26 (0.0)
|   LRS-name = 19352+2030: 26 (0.0)
|   LRS-name = 19354+5005: 26 (0.0)
|   LRS-name = 19361-1658: 26 (0.0)
|   LRS-name = 19396+1637: 26 (0.0)
|   LRS-name = 19412+0337: 26 (0.0)
|   LRS-name = 19422+3506: 26 (0.0)
|   LRS-name = 19451+1824: 26 (0.0)
|   LRS-name = 19472+2127: 26 (0.0)
|   LRS-name = 19474-0744: 26 (0.0)
|   LRS-name = 19480+2447: 26 (0.0)
|   LRS-name = 19495+0835: 26 (0.0)
|   LRS-name = 19500-1709: 26 (0.0)
|   LRS-name = 19503+2219: 26 (0.0)
|   LRS-name = 19510-5919: 26 (0.0)
|   LRS-name = 19528-2919: 26 (0.0)
|   LRS-name = 19536+3237: 26 (0.0)
|   LRS-name = 19537+2212: 26 (0.0)
|   LRS-name = 19548+3035: 26 (0.0)
|   LRS-name = 19550-0201: 26 (0.0)
|   LRS-name = 19575-5930: 26 (0.0)
|   LRS-name = 19585+5200: 26 (0.0)
|   LRS-name = 19586+3637: 26 (0.0)
|   LRS-name = 19594+4047: 26 (0.0)
|   LRS-name = 19595-2751: 26 (0.0)
|   LRS-name = 20010+3011: 26 (0.0)
|   LRS-name = 20015+3019: 26 (0.0)
|   LRS-name = 20024+3330: 26 (0.0)
|   LRS-name = 20028+3910: 26 (0.0)
|   LRS-name = 20038-2722: 26 (0.0)
|   LRS-name = 20042-4241: 26 (0.0)
|   LRS-name = 20052+0554: 26 (0.0)
|   LRS-name = 20072+3116: 26 (0.0)
|   LRS-name = 20075-6005: 26 (0.0)
|   LRS-name = 20094-1121: 26 (0.0)
|   LRS-name = 20111-4708: 26 (0.0)
|   LRS-name = 20113+4917: 26 (0.0)
|   LRS-name = 20124+6605: 26 (0.0)
|   LRS-name = 20135-7152: 26 (0.0)
|   LRS-name = 20161-1600: 26 (0.0)
|   LRS-name = 20165+3413: 26 (0.0)
|   LRS-name = 20171+3519: 26 (0.0)
|   LRS-name = 20193+3527: 26 (0.0)
|   LRS-name = 20194+3646: 26 (0.0)
|   LRS-name = 20200+3624: 26 (0.0)
|   LRS-name = 20215+6243: 26 (0.0)
|   LRS-name = 20248+7505: 26 (0.0)
|   LRS-name = 20248-2825: 26 (0.0)
|   LRS-name = 20253+3814: 26 (0.0)
|   LRS-name = 20255+4054: 26 (0.0)
|   LRS-name = 20267+2105: 26 (0.0)
|   LRS-name = 20275+4001: 26 (0.0)
|   LRS-name = 20297+3221: 26 (0.0)
|   LRS-name = 20310+4029: 26 (0.0)
|   LRS-name = 20318+3829: 26 (0.0)
|   LRS-name = 20340+5338: 26 (0.0)
|   LRS-name = 20350+3741: 26 (0.0)
|   LRS-name = 20356+1805: 26 (0.0)
|   LRS-name = 20365+1154: 26 (0.0)
|   LRS-name = 20396+4757: 26 (0.0)
|   LRS-name = 20403+3700: 26 (0.0)
|   LRS-name = 20417-0500: 26 (0.0)
|   LRS-name = 20431+1754: 26 (0.0)
|   LRS-name = 20435+3825: 26 (0.0)
|   LRS-name = 20440-0105: 26 (0.0)
|   LRS-name = 20479+0554: 26 (0.0)
|   LRS-name = 20484-7202: 26 (0.0)
|   LRS-name = 20491+4236: 26 (0.0)
|   LRS-name = 20502+4709: 26 (0.0)
|   LRS-name = 20529+3013: 26 (0.0)
|   LRS-name = 20532+5554: 26 (0.0)
|   LRS-name = 20541-6549: 26 (0.0)
|   LRS-name = 20549+5245: 26 (0.0)
|   LRS-name = 20570+2714: 26 (0.0)
|   LRS-name = 21003+4801: 26 (0.0)
|   LRS-name = 21032-0024: 26 (0.0)
|   LRS-name = 21035+5136: 26 (0.0)
|   LRS-name = 21044-1637: 26 (0.0)
|   LRS-name = 21069-3843: 26 (0.0)
|   LRS-name = 21086+5238: 26 (0.0)
|   LRS-name = 21088+6817: 26 (0.0)
|   LRS-name = 21190+5140: 26 (0.0)
|   LRS-name = 21206-4054: 26 (0.0)
|   LRS-name = 21243-6943: 26 (0.0)
|   LRS-name = 21245+6221: 26 (0.0)
|   LRS-name = 21270+7135: 26 (0.0)
|   LRS-name = 21286+1055: 26 (0.0)
|   LRS-name = 21305+2118: 26 (0.0)
|   LRS-name = 21312+5405: 26 (0.0)
|   LRS-name = 21318+5631: 26 (0.0)
|   LRS-name = 21320+3850: 26 (0.0)
|   LRS-name = 21341+4508: 26 (0.0)
|   LRS-name = 21368-3812: 26 (0.0)
|   LRS-name = 21373+4540: 26 (0.0)
|   LRS-name = 21377+5042: 26 (0.0)
|   LRS-name = 21377-0200: 26 (0.0)
