
Options: -P 100 -S 1 -I 200 -W weka.classifiers.trees.J48 -- -C 0.25 -M 2 

AdaBoostM1: Base classifiers and their weights: 

J48 pruned tree
------------------

blue-band-flux_29 <= 5465.184
|   blue-band-flux_1 <= 20826.629
|   |   blue-band-flux_1 <= 16567.867
|   |   |   blue-band-flux_2 <= 13642.788: 2 (3.0/2.0)
|   |   |   blue-band-flux_2 > 13642.788: 38 (3.0)
|   |   blue-band-flux_1 > 16567.867: 16 (5.0/1.0)
|   blue-band-flux_1 > 20826.629
|   |   blue-band-flux_2 <= 22923.15: 17 (4.0)
|   |   blue-band-flux_2 > 22923.15: 18 (7.0)
blue-band-flux_29 > 5465.184
|   blue-band-flux_18 <= 8741.739
|   |   blue-band-flux_22 <= 7975.3477
|   |   |   blue-band-flux_15 <= 6501.832
|   |   |   |   Blue_base_1 <= 1323: 31 (2.0)
|   |   |   |   Blue_base_1 > 1323: 32 (3.0/2.0)
|   |   |   blue-band-flux_15 > 6501.832
|   |   |   |   blue-band-flux_41 <= 4069.265: 42 (11.0/2.0)
|   |   |   |   blue-band-flux_41 > 4069.265
|   |   |   |   |   blue-band-flux_30 <= 6203.406
|   |   |   |   |   |   blue-band-flux_4 <= 13608.792
|   |   |   |   |   |   |   blue-band-flux_13 <= 9467.947: 14 (5.0/2.0)
|   |   |   |   |   |   |   blue-band-flux_13 > 9467.947: 21 (4.0)
|   |   |   |   |   |   blue-band-flux_4 > 13608.792: 15 (8.0)
|   |   |   |   |   blue-band-flux_30 > 6203.406
|   |   |   |   |   |   Right-Ascension <= 22.059: 42 (2.0)
|   |   |   |   |   |   Right-Ascension > 22.059: 41 (2.0)
|   |   blue-band-flux_22 > 7975.3477
|   |   |   Right-Ascension <= 22.901: 44 (8.0/1.0)
|   |   |   Right-Ascension > 22.901: 43 (2.0)
|   blue-band-flux_18 > 8741.739
|   |   blue-band-flux_14 <= 10817.023
|   |   |   red-band-flux_18 <= 2020.8752: 22 (6.0)
|   |   |   red-band-flux_18 > 2020.8752
|   |   |   |   blue-band-flux_1 <= 9743.672: 26 (4.0/1.0)
|   |   |   |   blue-band-flux_1 > 9743.672: 23 (9.0/1.0)
|   |   blue-band-flux_14 > 10817.023
|   |   |   blue-band-flux_3 <= 8283.137
|   |   |   |   red-band-flux_16 <= 2622.922
|   |   |   |   |   blue-band-flux_34 <= 4744.677: 29 (17.0/1.0)
|   |   |   |   |   blue-band-flux_34 > 4744.677: 28 (5.0)
|   |   |   |   red-band-flux_16 > 2622.922: 27 (3.0/1.0)
|   |   |   blue-band-flux_3 > 8283.137
|   |   |   |   blue-band-flux_10 <= 10596.486
|   |   |   |   |   blue-band-flux_6 <= 8829.791: 26 (3.0)
|   |   |   |   |   blue-band-flux_6 > 8829.791
|   |   |   |   |   |   blue-band-flux_23 <= 8317.953: 24 (2.0)
|   |   |   |   |   |   blue-band-flux_23 > 8317.953: 25 (4.0)
|   |   |   |   blue-band-flux_10 > 10596.486: 27 (5.0)

Number of Leaves  : 	25

Size of the tree : 	49


Weight: 2.09

J48 pruned tree
------------------

red-band-flux_33 <= 2734.1426
|   blue-band-flux_15 <= 9783.066
|   |   blue-band-flux_26 <= 7080.9634
|   |   |   red-band-flux_22 <= 3191.3613
|   |   |   |   blue-band-flux_29 <= 5465.184
|   |   |   |   |   blue-band-flux_2 <= 22923.15
|   |   |   |   |   |   blue-band-flux_1 <= 20826.629: 16 (2.25)
|   |   |   |   |   |   blue-band-flux_1 > 20826.629: 17 (2.25)
|   |   |   |   |   blue-band-flux_2 > 22923.15: 18 (3.93)
|   |   |   |   blue-band-flux_29 > 5465.184
|   |   |   |   |   blue-band-flux_4 <= 12770.109: 21 (11.32/0.56)
|   |   |   |   |   blue-band-flux_4 > 12770.109
|   |   |   |   |   |   blue-band-flux_40 <= 4321.0728: 42 (4.5/1.12)
|   |   |   |   |   |   blue-band-flux_40 > 4321.0728
|   |   |   |   |   |   |   blue-band-flux_2 <= 14749.73: 14 (2.81/1.69)
|   |   |   |   |   |   |   blue-band-flux_2 > 14749.73: 15 (4.5)
|   |   |   red-band-flux_22 > 3191.3613
|   |   |   |   ID-type = 0: 24 (9.63/0.56)
|   |   |   |   ID-type = 2: 24 (0.0)
|   |   |   |   ID-type = 3: 2 (4.54)
|   |   |   |   ID-type = 4: 24 (0.0)
|   |   blue-band-flux_26 > 7080.9634
|   |   |   blue-band-flux_1 <= 14833.328
|   |   |   |   red-band-flux_1 <= 7695.431: 43 (9.63)
|   |   |   |   red-band-flux_1 > 7695.431: 42 (3.37/1.12)
|   |   |   blue-band-flux_1 > 14833.328
|   |   |   |   Declination <= 17.907: 45 (4.54)
|   |   |   |   Declination > 17.907: 44 (3.93)
|   blue-band-flux_15 > 9783.066
|   |   blue-band-flux_19 <= 9263.417
|   |   |   red-band-flux_23 <= 1926.0211: 22 (3.93/0.56)
|   |   |   red-band-flux_23 > 1926.0211: 23 (4.5)
|   |   blue-band-flux_19 > 9263.417
|   |   |   blue-band-flux_3 <= 8283.137
|   |   |   |   red-band-flux_10 <= 3019.984: 29 (9.55/0.56)
|   |   |   |   red-band-flux_10 > 3019.984: 28 (8.47/1.69)
|   |   |   blue-band-flux_3 > 8283.137
|   |   |   |   blue-band-flux_42 <= 3435.0625: 27 (3.37/0.56)
|   |   |   |   blue-band-flux_42 > 3435.0625
|   |   |   |   |   red-band-flux_35 <= 1502.959: 25 (2.81/1.12)
|   |   |   |   |   red-band-flux_35 > 1502.959: 26 (2.25)
red-band-flux_33 > 2734.1426
|   ID-type = 0: 39 (5.1/0.56)
|   ID-type = 2: 72 (4.54)
|   ID-type = 3
|   |   Blue_base_1 <= 1224: 33 (5.66/1.12)
|   |   Blue_base_1 > 1224: 82 (4.54)
|   ID-type = 4: 69 (5.1/0.56)

Number of Leaves  : 	27

Size of the tree : 	49


Weight: 2.28

J48 pruned tree
------------------

red-band-flux_33 <= 2734.1426
|   blue-band-flux_25 <= 7657.127
|   |   blue-band-flux_27 <= 5965.8374
|   |   |   blue-band-flux_3 <= 12480.348: 2 (5.52)
|   |   |   blue-band-flux_3 > 12480.348
|   |   |   |   ID-type = 0: 31 (0.0)
|   |   |   |   ID-type = 2: 18 (1.55/0.62)
|   |   |   |   ID-type = 3: 31 (3.02)
|   |   |   |   ID-type = 4: 17 (2.79/1.55)
|   |   blue-band-flux_27 > 5965.8374
|   |   |   blue-band-flux_16 <= 8853.787
|   |   |   |   blue-band-flux_26 <= 6793.2656
|   |   |   |   |   blue-band-flux_30 <= 6081.1
|   |   |   |   |   |   blue-band-flux_3 <= 13894.112: 14 (3.64)
|   |   |   |   |   |   blue-band-flux_3 > 13894.112: 15 (2.79/0.62)
|   |   |   |   |   blue-band-flux_30 > 6081.1
|   |   |   |   |   |   LRS-name = 12043-6225: 41 (0.0)
|   |   |   |   |   |   LRS-name = 12063-6259: 41 (0.0)
|   |   |   |   |   |   LRS-name = 12073-6233: 41 (0.0)
|   |   |   |   |   |   LRS-name = 12148-6741: 41 (0.0)
|   |   |   |   |   |   LRS-name = 12216-6218: 41 (0.0)
|   |   |   |   |   |   LRS-name = 12226+0102: 41 (0.0)
|   |   |   |   |   |   LRS-name = 12230-5943: 41 (0.0)
|   |   |   |   |   |   LRS-name = 12233-5920: 41 (0.0)
|   |   |   |   |   |   LRS-name = 12247-5842: 41 (0.0)
|   |   |   |   |   |   LRS-name = 12274-7647: 41 (0.0)
|   |   |   |   |   |   LRS-name = 12277+0441: 41 (0.0)
|   |   |   |   |   |   LRS-name = 12283-5650: 41 (0.0)
|   |   |   |   |   |   LRS-name = 12298-5754: 41 (0.0)
|   |   |   |   |   |   LRS-name = 12319-6728: 41 (0.0)
|   |   |   |   |   |   LRS-name = 12377-6102: 41 (0.0)
|   |   |   |   |   |   LRS-name = 12379-4959: 41 (0.0)
|   |   |   |   |   |   LRS-name = 12380+5607: 41 (0.0)
|   |   |   |   |   |   LRS-name = 12384-4536: 41 (0.0)
|   |   |   |   |   |   LRS-name = 12394-4338: 41 (0.0)
|   |   |   |   |   |   LRS-name = 12421-6217: 41 (0.0)
|   |   |   |   |   |   LRS-name = 12427+4542: 41 (0.0)
|   |   |   |   |   |   LRS-name = 12447+0425: 41 (0.0)
|   |   |   |   |   |   LRS-name = 12454-6659: 41 (0.0)
|   |   |   |   |   |   LRS-name = 12462-6418: 41 (0.0)
|   |   |   |   |   |   LRS-name = 12506-6004: 41 (0.0)
|   |   |   |   |   |   LRS-name = 12530+0340: 41 (0.0)
|   |   |   |   |   |   LRS-name = 12540-6845: 41 (0.0)
|   |   |   |   |   |   LRS-name = 12559-6041: 41 (0.0)
|   |   |   |   |   |   LRS-name = 12563-6100: 41 (0.0)
|   |   |   |   |   |   LRS-name = 13001+0527: 41 (0.0)
|   |   |   |   |   |   LRS-name = 13022-7650: 41 (0.0)
|   |   |   |   |   |   LRS-name = 13064-6103: 41 (0.0)
|   |   |   |   |   |   LRS-name = 13136-4426: 41 (0.0)
|   |   |   |   |   |   LRS-name = 13141-6119: 41 (0.0)
|   |   |   |   |   |   LRS-name = 13170-5404: 41 (0.0)
|   |   |   |   |   |   LRS-name = 13172+4547: 41 (0.0)
|   |   |   |   |   |   LRS-name = 13203-5536: 41 (0.0)
|   |   |   |   |   |   LRS-name = 13208-6027: 41 (0.0)
|   |   |   |   |   |   LRS-name = 13283-5839: 41 (0.0)
|   |   |   |   |   |   LRS-name = 13328-6244: 41 (0.0)
|   |   |   |   |   |   LRS-name = 13343-5807: 41 (0.0)
|   |   |   |   |   |   LRS-name = 13350-7221: 41 (0.0)
|   |   |   |   |   |   LRS-name = 13368-4941: 41 (0.0)
|   |   |   |   |   |   LRS-name = 13371-6249: 41 (0.0)
|   |   |   |   |   |   LRS-name = 13379-5426: 41 (0.0)
|   |   |   |   |   |   LRS-name = 13442-6109: 41 (0.0)
|   |   |   |   |   |   LRS-name = 13462-2807: 41 (0.0)
|   |   |   |   |   |   LRS-name = 13465-3412: 41 (0.0)
|   |   |   |   |   |   LRS-name = 13477-6532: 41 (0.0)
|   |   |   |   |   |   LRS-name = 13482-6716: 41 (0.0)
|   |   |   |   |   |   LRS-name = 13509-6348: 41 (0.0)
|   |   |   |   |   |   LRS-name = 13517-6515: 41 (0.0)
|   |   |   |   |   |   LRS-name = 13527-6117: 41 (0.0)
|   |   |   |   |   |   LRS-name = 13557-6442: 41 (0.0)
|   |   |   |   |   |   LRS-name = 13572-6347: 41 (0.0)
|   |   |   |   |   |   LRS-name = 13581-5930: 41 (0.0)
|   |   |   |   |   |   LRS-name = 14003-7633: 41 (0.0)
|   |   |   |   |   |   LRS-name = 14020-3515: 41 (0.0)
|   |   |   |   |   |   LRS-name = 14030-4629: 41 (0.0)
|   |   |   |   |   |   LRS-name = 14068-6158: 41 (0.0)
|   |   |   |   |   |   LRS-name = 14086-2839: 41 (0.0)
|   |   |   |   |   |   LRS-name = 14086-6907: 41 (0.0)
|   |   |   |   |   |   LRS-name = 14119-6453: 41 (0.0)
|   |   |   |   |   |   LRS-name = 14122-6133: 41 (0.0)
|   |   |   |   |   |   LRS-name = 14129-5940: 41 (0.0)
|   |   |   |   |   |   LRS-name = 14133+1925: 41 (0.0)
|   |   |   |   |   |   LRS-name = 14159-6038: 41 (0.0)
|   |   |   |   |   |   LRS-name = 14182-6144: 41 (0.0)
|   |   |   |   |   |   LRS-name = 14216-6152: 41 (0.0)
|   |   |   |   |   |   LRS-name = 14247+0454: 41 (0.0)
|   |   |   |   |   |   LRS-name = 14251-6256: 41 (0.0)
|   |   |   |   |   |   LRS-name = 14277+3904: 41 (0.0)
|   |   |   |   |   |   LRS-name = 14280-2952: 41 (0.0)
|   |   |   |   |   |   LRS-name = 14286-5905: 41 (0.0)
|   |   |   |   |   |   LRS-name = 14301-5734: 41 (0.0)
|   |   |   |   |   |   LRS-name = 14337-6215: 41 (0.0)
|   |   |   |   |   |   LRS-name = 14359-6037: 41 (0.0)
|   |   |   |   |   |   LRS-name = 14371+3245: 41 (0.0)
|   |   |   |   |   |   LRS-name = 14390+3147: 41 (0.0)
|   |   |   |   |   |   LRS-name = 14437+1520: 41 (0.0)
|   |   |   |   |   |   LRS-name = 14453-4920: 41 (0.0)
|   |   |   |   |   |   LRS-name = 14455-3625: 41 (0.0)
|   |   |   |   |   |   LRS-name = 14465-6000: 41 (0.0)
|   |   |   |   |   |   LRS-name = 14484-6152: 41 (0.0)
|   |   |   |   |   |   LRS-name = 14508+7421: 41 (0.0)
|   |   |   |   |   |   LRS-name = 14531-5337: 41 (0.0)
|   |   |   |   |   |   LRS-name = 14550-1214: 41 (0.0)
|   |   |   |   |   |   LRS-name = 14562-5406: 41 (0.0)
|   |   |   |   |   |   LRS-name = 14567+6607: 41 (0.0)
|   |   |   |   |   |   LRS-name = 14567-5846: 41 (0.0)
|   |   |   |   |   |   LRS-name = 14582-5926: 41 (0.0)
|   |   |   |   |   |   LRS-name = 14591-4438: 41 (0.0)
|   |   |   |   |   |   LRS-name = 15011-2505: 41 (0.0)
|   |   |   |   |   |   LRS-name = 15023-6916: 41 (0.0)
|   |   |   |   |   |   LRS-name = 15082-4808: 41 (0.0)
|   |   |   |   |   |   LRS-name = 15084-5702: 41 (0.0)
|   |   |   |   |   |   LRS-name = 15099-5509: 41 (0.0)
|   |   |   |   |   |   LRS-name = 15107-5726: 41 (0.0)
|   |   |   |   |   |   LRS-name = 15148-4940: 41 (0.0)
|   |   |   |   |   |   LRS-name = 15186-3604: 41 (0.0)
|   |   |   |   |   |   LRS-name = 15186-5730: 41 (0.0)
|   |   |   |   |   |   LRS-name = 15193+1429: 41 (0.0)
|   |   |   |   |   |   LRS-name = 15193+3132: 41 (0.0)
|   |   |   |   |   |   LRS-name = 15214-2244: 41 (0.0)
|   |   |   |   |   |   LRS-name = 15219-7545: 41 (0.0)
|   |   |   |   |   |   LRS-name = 15223-0203: 41 (0.0)
|   |   |   |   |   |   LRS-name = 15225-5605: 41 (0.0)
|   |   |   |   |   |   LRS-name = 15226-3603: 41 (0.0)
|   |   |   |   |   |   LRS-name = 15255+1944: 41 (0.0)
|   |   |   |   |   |   LRS-name = 15269-4400: 41 (0.0)
|   |   |   |   |   |   LRS-name = 15287-5811: 41 (0.0)
|   |   |   |   |   |   LRS-name = 15290-5546: 41 (0.0)
|   |   |   |   |   |   LRS-name = 15311-5538: 41 (0.0)
|   |   |   |   |   |   LRS-name = 15314+7847: 41 (0.0)
|   |   |   |   |   |   LRS-name = 15323-4920: 41 (0.0)
|   |   |   |   |   |   LRS-name = 15332-6430: 41 (0.0)
|   |   |   |   |   |   LRS-name = 15341+1515: 41 (0.0)
|   |   |   |   |   |   LRS-name = 15356-6722: 41 (0.0)
|   |   |   |   |   |   LRS-name = 15361+2441: 41 (0.0)
|   |   |   |   |   |   LRS-name = 15373-5308: 41 (0.0)
|   |   |   |   |   |   LRS-name = 15402-5449: 41 (0.0)
|   |   |   |   |   |   LRS-name = 15408-5413: 41 (0.0)
|   |   |   |   |   |   LRS-name = 15410-0133: 41 (0.0)
|   |   |   |   |   |   LRS-name = 15468-5018: 41 (0.0)
|   |   |   |   |   |   LRS-name = 15483+1517: 41 (0.0)
|   |   |   |   |   |   LRS-name = 15483-5514: 41 (0.0)
|   |   |   |   |   |   LRS-name = 15492+4837: 41 (0.0)
|   |   |   |   |   |   LRS-name = 15509-5207: 41 (0.0)
|   |   |   |   |   |   LRS-name = 15530-5201: 41 (0.0)
|   |   |   |   |   |   LRS-name = 15566+3609: 41 (0.0)
|   |   |   |   |   |   LRS-name = 15568-4513: 41 (0.0)
|   |   |   |   |   |   LRS-name = 15569-6135: 41 (0.0)
|   |   |   |   |   |   LRS-name = 15576-5400: 41 (0.0)
|   |   |   |   |   |   LRS-name = 16011+4722: 41 (0.0)
|   |   |   |   |   |   LRS-name = 16011-5424: 41 (0.0)
|   |   |   |   |   |   LRS-name = 16029-3041: 41 (0.0)
|   |   |   |   |   |   LRS-name = 16030-5156: 41 (0.0)
|   |   |   |   |   |   LRS-name = 16031-4856: 41 (0.0)
|   |   |   |   |   |   LRS-name = 16064-4200: 41 (0.0)
|   |   |   |   |   |   LRS-name = 16066-4427: 41 (0.0)
|   |   |   |   |   |   LRS-name = 16077-5830: 41 (0.0)
|   |   |   |   |   |   LRS-name = 16079-4812: 41 (0.0)
|   |   |   |   |   |   LRS-name = 16081+2511: 41 (0.0)
|   |   |   |   |   |   LRS-name = 16105-4205: 41 (0.0)
|   |   |   |   |   |   LRS-name = 16117-0334: 41 (0.0)
|   |   |   |   |   |   LRS-name = 16127-7834: 41 (0.0)
|   |   |   |   |   |   LRS-name = 16133-5151: 41 (0.0)
|   |   |   |   |   |   LRS-name = 16156-5613: 41 (0.0)
|   |   |   |   |   |   LRS-name = 16171-4759: 41 (0.0)
|   |   |   |   |   |   LRS-name = 16175-6120: 41 (0.0)
|   |   |   |   |   |   LRS-name = 16192-4900: 41 (0.0)
|   |   |   |   |   |   LRS-name = 16208-2215: 41 (0.0)
|   |   |   |   |   |   LRS-name = 16218-4701: 41 (0.0)
|   |   |   |   |   |   LRS-name = 16219-5048: 41 (0.0)
|   |   |   |   |   |   LRS-name = 16222-4738: 41 (0.0)
|   |   |   |   |   |   LRS-name = 16229-4947: 41 (0.0)
|   |   |   |   |   |   LRS-name = 16235+1900: 41 (0.0)
|   |   |   |   |   |   LRS-name = 16260+3454: 41 (0.0)
|   |   |   |   |   |   LRS-name = 16263-5533: 41 (0.0)
|   |   |   |   |   |   LRS-name = 16269+4159: 41 (0.0)
|   |   |   |   |   |   LRS-name = 16270-5213: 41 (0.0)
|   |   |   |   |   |   LRS-name = 16279-4709: 41 (0.0)
|   |   |   |   |   |   LRS-name = 16280-4154: 41 (0.0)
|   |   |   |   |   |   LRS-name = 16296-4417: 41 (0.0)
|   |   |   |   |   |   LRS-name = 16306+7223: 41 (0.0)
|   |   |   |   |   |   LRS-name = 16316-5026: 41 (0.0)
|   |   |   |   |   |   LRS-name = 16327-4848: 41 (0.0)
|   |   |   |   |   |   LRS-name = 16328-4656: 41 (0.0)
|   |   |   |   |   |   LRS-name = 16334-3107: 41 (0.0)
|   |   |   |   |   |   LRS-name = 16337-4525: 41 (0.0)
|   |   |   |   |   |   LRS-name = 16340-4634: 41 (0.0)
|   |   |   |   |   |   LRS-name = 16387-2700: 41 (0.0)
|   |   |   |   |   |   LRS-name = 16396-4429: 41 (0.0)
|   |   |   |   |   |   LRS-name = 16407-5639: 41 (0.0)
|   |   |   |   |   |   LRS-name = 16418+5459: 41 (0.0)
|   |   |   |   |   |   LRS-name = 16433-6856: 41 (0.0)
|   |   |   |   |   |   LRS-name = 16438-1133: 41 (0.0)
|   |   |   |   |   |   LRS-name = 16446-4243: 41 (0.0)
|   |   |   |   |   |   LRS-name = 16451-4312: 41 (0.0)
|   |   |   |   |   |   LRS-name = 16460-4022: 41 (0.0)
|   |   |   |   |   |   LRS-name = 16473+5753: 41 (0.0)
|   |   |   |   |   |   LRS-name = 16478-4322: 41 (0.0)
|   |   |   |   |   |   LRS-name = 16490-4618: 41 (0.0)
|   |   |   |   |   |   LRS-name = 16494-1252: 41 (0.0)
|   |   |   |   |   |   LRS-name = 16498-4143: 41 (0.0)
|   |   |   |   |   |   LRS-name = 16534-3030: 41 (0.0)
|   |   |   |   |   |   LRS-name = 16541-4901: 41 (0.0)
|   |   |   |   |   |   LRS-name = 16545-4214: 41 (0.0)
|   |   |   |   |   |   LRS-name = 16546-4057: 41 (0.0)
|   |   |   |   |   |   LRS-name = 16559-2557: 41 (0.0)
|   |   |   |   |   |   LRS-name = 16571-7548: 41 (0.0)
|   |   |   |   |   |   LRS-name = 16581-4058: 41 (0.0)
|   |   |   |   |   |   LRS-name = 16586-4142: 41 (0.0)
|   |   |   |   |   |   LRS-name = 16589-3315: 41 (0.0)
|   |   |   |   |   |   LRS-name = 16598-4117: 41 (0.0)
|   |   |   |   |   |   LRS-name = 17001-3651: 41 (0.0)
|   |   |   |   |   |   LRS-name = 17010-4323: 41 (0.0)
|   |   |   |   |   |   LRS-name = 17025-4719: 41 (0.0)
|   |   |   |   |   |   LRS-name = 17047-5650: 41 (0.0)
|   |   |   |   |   |   LRS-name = 17048-1601: 41 (0.0)
|   |   |   |   |   |   LRS-name = 17049-2440: 41 (0.0)
|   |   |   |   |   |   LRS-name = 17050-4123: 41 (0.0)
|   |   |   |   |   |   LRS-name = 17066-4028: 41 (0.0)
|   |   |   |   |   |   LRS-name = 17079-3243: 41 (0.0)
|   |   |   |   |   |   LRS-name = 17080-3215: 41 (0.0)
|   |   |   |   |   |   LRS-name = 17081+6422: 41 (0.0)
|   |   |   |   |   |   LRS-name = 17102-1031: 41 (0.0)
|   |   |   |   |   |   LRS-name = 17103-0559: 41 (0.0)
|   |   |   |   |   |   LRS-name = 17103-3551: 41 (0.0)
|   |   |   |   |   |   LRS-name = 17103-3702: 41 (0.0)
|   |   |   |   |   |   LRS-name = 17104-3146: 41 (0.0)
|   |   |   |   |   |   LRS-name = 17105-3746: 41 (0.0)
|   |   |   |   |   |   LRS-name = 17109-3942: 41 (0.0)
|   |   |   |   |   |   LRS-name = 17115-3322: 41 (0.0)
|   |   |   |   |   |   LRS-name = 17119+0859: 41 (0.0)
|   |   |   |   |   |   LRS-name = 17122-2707: 41 (0.0)
|   |   |   |   |   |   LRS-name = 17123+1107: 41 (0.0)
|   |   |   |   |   |   LRS-name = 17125-4814: 41 (0.0)
|   |   |   |   |   |   LRS-name = 17139+0446: 41 (0.0)
|   |   |   |   |   |   LRS-name = 17139-3746: 41 (0.0)
|   |   |   |   |   |   LRS-name = 17162-1934: 41 (0.0)
|   |   |   |   |   |   LRS-name = 17174-4641: 41 (0.0)
|   |   |   |   |   |   LRS-name = 17187-3750: 41 (0.0)
|   |   |   |   |   |   LRS-name = 17190+2658: 41 (0.0)
|   |   |   |   |   |   LRS-name = 17199-3512: 41 (0.0)
|   |   |   |   |   |   LRS-name = 17201-4613: 41 (0.0)
|   |   |   |   |   |   LRS-name = 17213-2219: 41 (0.0)
|   |   |   |   |   |   LRS-name = 17217-3916: 41 (0.0)
|   |   |   |   |   |   LRS-name = 17237-3102: 41 (0.0)
|   |   |   |   |   |   LRS-name = 17239-2812: 41 (0.0)
|   |   |   |   |   |   LRS-name = 17265-0725: 41 (0.0)
|   |   |   |   |   |   LRS-name = 17297+1747: 41 (0.0)
|   |   |   |   |   |   LRS-name = 17309-1724: 41 (0.0)
|   |   |   |   |   |   LRS-name = 17315-3414: 41 (0.0)
|   |   |   |   |   |   LRS-name = 17317-3331: 41 (0.0)
|   |   |   |   |   |   LRS-name = 17318-2342: 41 (0.0)
|   |   |   |   |   |   LRS-name = 17319-6234: 41 (0.0)
|   |   |   |   |   |   LRS-name = 17328-3327: 41 (0.0)
|   |   |   |   |   |   LRS-name = 17334+1537: 41 (0.0)
|   |   |   |   |   |   LRS-name = 17341-3453: 41 (0.0)
|   |   |   |   |   |   LRS-name = 17343+1052: 41 (0.0)
|   |   |   |   |   |   LRS-name = 17361+5746: 41 (0.0)
|   |   |   |   |   |   LRS-name = 17375-3652: 41 (0.0)
|   |   |   |   |   |   LRS-name = 17381-3442: 41 (0.0)
|   |   |   |   |   |   LRS-name = 17382-1704: 41 (0.0)
|   |   |   |   |   |   LRS-name = 17387-4343: 41 (0.0)
|   |   |   |   |   |   LRS-name = 17389-2045: 41 (0.0)
|   |   |   |   |   |   LRS-name = 17389-5742: 41 (0.0)
|   |   |   |   |   |   LRS-name = 17398-4344: 41 (0.0)
|   |   |   |   |   |   LRS-name = 17433-2523: 41 (0.0)
|   |   |   |   |   |   LRS-name = 17434-3414: 41 (0.0)
|   |   |   |   |   |   LRS-name = 17443-2519: 41 (0.0)
|   |   |   |   |   |   LRS-name = 17446-7809: 41 (0.0)
|   |   |   |   |   |   LRS-name = 17462-8647: 41 (0.0)
|   |   |   |   |   |   LRS-name = 17479-2927: 41 (0.0)
|   |   |   |   |   |   LRS-name = 17484-0800: 41 (0.0)
|   |   |   |   |   |   LRS-name = 17488-2800: 41 (0.0)
|   |   |   |   |   |   LRS-name = 17504-0234: 41 (0.0)
|   |   |   |   |   |   LRS-name = 17505-3143: 41 (0.0)
|   |   |   |   |   |   LRS-name = 17508-3419: 41 (0.0)
|   |   |   |   |   |   LRS-name = 17513-2313: 41 (0.0)
|   |   |   |   |   |   LRS-name = 17534-3030: 41 (0.0)
|   |   |   |   |   |   LRS-name = 17540-1919: 41 (0.0)
|   |   |   |   |   |   LRS-name = 17541+1110: 41 (0.0)
|   |   |   |   |   |   LRS-name = 17554+5129: 41 (0.0)
|   |   |   |   |   |   LRS-name = 17556+5813: 41 (0.0)
|   |   |   |   |   |   LRS-name = 17570-3713: 41 (0.0)
|   |   |   |   |   |   LRS-name = 17579+2335: 41 (0.0)
|   |   |   |   |   |   LRS-name = 17581-1744: 41 (0.0)
|   |   |   |   |   |   LRS-name = 18018-2802: 41 (0.0)
|   |   |   |   |   |   LRS-name = 18027-2314: 41 (0.0)
|   |   |   |   |   |   LRS-name = 18039-0813: 41 (0.0)
|   |   |   |   |   |   LRS-name = 18040-0941: 41 (0.0)
|   |   |   |   |   |   LRS-name = 18041-3317: 41 (0.0)
|   |   |   |   |   |   LRS-name = 18057-2616: 41 (0.0)
|   |   |   |   |   |   LRS-name = 18076+3445: 41 (0.0)
|   |   |   |   |   |   LRS-name = 18076-1034: 41 (0.0)
|   |   |   |   |   |   LRS-name = 18083-2630: 41 (0.0)
|   |   |   |   |   |   LRS-name = 18092-0437: 41 (0.0)
|   |   |   |   |   |   LRS-name = 18095+2704: 41 (0.0)
|   |   |   |   |   |   LRS-name = 18135-1456: 41 (0.0)
|   |   |   |   |   |   LRS-name = 18135-1740: 41 (0.0)
|   |   |   |   |   |   LRS-name = 18136-1859: 41 (0.0)
|   |   |   |   |   |   LRS-name = 18142-3646: 41 (0.0)
|   |   |   |   |   |   LRS-name = 18156-0653: 41 (0.0)
|   |   |   |   |   |   LRS-name = 18157+1757: 41 (0.0)
|   |   |   |   |   |   LRS-name = 18162-0246: 41 (0.0)
|   |   |   |   |   |   LRS-name = 18176-1848: 41 (0.0)
|   |   |   |   |   |   LRS-name = 18177-2951: 41 (0.0)
|   |   |   |   |   |   LRS-name = 18186+3143: 41 (0.0)
|   |   |   |   |   |   LRS-name = 18213+0335: 41 (0.0)
|   |   |   |   |   |   LRS-name = 18222+3933: 41 (0.0)
|   |   |   |   |   |   LRS-name = 18230+0544: 41 (0.0)
|   |   |   |   |   |   LRS-name = 18239-0655: 41 (0.0)
|   |   |   |   |   |   LRS-name = 18240+2326: 41 (0.0)
|   |   |   |   |   |   LRS-name = 18257-1000: 41 (0.0)
|   |   |   |   |   |   LRS-name = 18267-0606: 41 (0.0)
|   |   |   |   |   |   LRS-name = 18273-0738: 41 (0.0)
|   |   |   |   |   |   LRS-name = 18276+8236: 41 (0.0)
|   |   |   |   |   |   LRS-name = 18276-4717: 41 (0.0)
|   |   |   |   |   |   LRS-name = 18280-5639: 41 (0.0)
|   |   |   |   |   |   LRS-name = 18281+2149: 41 (0.0)
|   |   |   |   |   |   LRS-name = 18301-0656: 41 (0.0)
|   |   |   |   |   |   LRS-name = 18303-0519: 41 (0.0)
|   |   |   |   |   |   LRS-name = 18306+3657: 41 (0.0)
|   |   |   |   |   |   LRS-name = 18314-1131: 41 (0.0)
|   |   |   |   |   |   LRS-name = 18316-0602: 41 (0.0)
|   |   |   |   |   |   LRS-name = 18320-0352: 41 (0.0)
|   |   |   |   |   |   LRS-name = 18325-1138: 41 (0.0)
|   |   |   |   |   |   LRS-name = 18333+0533: 41 (0.0)
|   |   |   |   |   |   LRS-name = 18349+1023: 41 (0.0)
|   |   |   |   |   |   LRS-name = 18359+0847: 41 (0.0)
|   |   |   |   |   |   LRS-name = 18367-0452: 41 (0.0)
|   |   |   |   |   |   LRS-name = 18373-0021: 41 (0.0)
|   |   |   |   |   |   LRS-name = 18378-3731: 41 (0.0)
|   |   |   |   |   |   LRS-name = 18397+1738: 41 (0.0)
|   |   |   |   |   |   LRS-name = 18398-0220: 41 (0.0)
|   |   |   |   |   |   LRS-name = 18401+2854: 41 (0.0)
|   |   |   |   |   |   LRS-name = 18413+1354: 41 (0.0)
|   |   |   |   |   |   LRS-name = 18414-0527: 41 (0.0)
|   |   |   |   |   |   LRS-name = 18421+1147: 41 (0.0)
|   |   |   |   |   |   LRS-name = 18429-1721: 41 (0.0)
|   |   |   |   |   |   LRS-name = 18450-0922: 41 (0.0)
|   |   |   |   |   |   LRS-name = 18451-0824: 41 (0.0)
|   |   |   |   |   |   LRS-name = 18464-0656: 41 (0.0)
|   |   |   |   |   |   LRS-name = 18467-4802: 41 (0.0)
|   |   |   |   |   |   LRS-name = 18475+0926: 41 (0.0)
|   |   |   |   |   |   LRS-name = 18476+0555: 41 (0.0)
|   |   |   |   |   |   LRS-name = 18527+3650: 41 (0.0)
|   |   |   |   |   |   LRS-name = 18530+0817: 41 (0.0)
|   |   |   |   |   |   LRS-name = 18531+0016: 41 (0.0)
|   |   |   |   |   |   LRS-name = 18535+0726: 41 (0.0)
|   |   |   |   |   |   LRS-name = 18537-1035: 41 (0.0)
|   |   |   |   |   |   LRS-name = 18550+0130: 41 (0.0)
|   |   |   |   |   |   LRS-name = 18551+0323: 41 (0.0)
|   |   |   |   |   |   LRS-name = 18551+1345: 41 (0.0)
|   |   |   |   |   |   LRS-name = 18556+0811: 41 (0.0)
|   |   |   |   |   |   LRS-name = 18560+0638: 41 (0.0)
|   |   |   |   |   |   LRS-name = 19007-2247: 41 (0.0)
|   |   |   |   |   |   LRS-name = 19007-3826: 41 (0.0)
|   |   |   |   |   |   LRS-name = 19008+0726: 41 (0.0)
|   |   |   |   |   |   LRS-name = 19017-0545: 41 (0.0)
|   |   |   |   |   |   LRS-name = 19029+0808: 41 (0.0)
|   |   |   |   |   |   LRS-name = 19032-4602: 41 (0.0)
|   |   |   |   |   |   LRS-name = 19042-4858: 41 (0.0)
|   |   |   |   |   |   LRS-name = 19043+1009: 41 (0.0)
|   |   |   |   |   |   LRS-name = 19059-2219: 41 (0.0)
|   |   |   |   |   |   LRS-name = 19075+0921: 41 (0.0)
|   |   |   |   |   |   LRS-name = 19093-3256: 41 (0.0)
|   |   |   |   |   |   LRS-name = 19099+6711: 41 (0.0)
|   |   |   |   |   |   LRS-name = 19135+0931: 41 (0.0)
|   |   |   |   |   |   LRS-name = 19143-5032: 41 (0.0)
|   |   |   |   |   |   LRS-name = 19157-1706: 41 (0.0)
|   |   |   |   |   |   LRS-name = 19161+2343: 41 (0.0)
|   |   |   |   |   |   LRS-name = 19178-2620: 41 (0.0)
|   |   |   |   |   |   LRS-name = 19188-1603: 41 (0.0)
|   |   |   |   |   |   LRS-name = 19192+0922: 41 (0.0)
|   |   |   |   |   |   LRS-name = 19194+1734: 41 (0.0)
|   |   |   |   |   |   LRS-name = 19229+1708: 41 (0.0)
|   |   |   |   |   |   LRS-name = 19232+5008: 41 (0.0)
|   |   |   |   |   |   LRS-name = 19240+3615: 41 (0.0)
|   |   |   |   |   |   LRS-name = 19247-1722: 41 (0.0)
|   |   |   |   |   |   LRS-name = 19282+2253: 41 (0.0)
|   |   |   |   |   |   LRS-name = 19283+1944: 41 (0.0)
|   |   |   |   |   |   LRS-name = 19287+4602: 41 (0.0)
|   |   |   |   |   |   LRS-name = 19296+4331: 41 (0.0)
|   |   |   |   |   |   LRS-name = 19314-1629: 41 (0.0)
|   |   |   |   |   |   LRS-name = 19321+2757: 41 (0.0)
|   |   |   |   |   |   LRS-name = 19324+3033: 41 (0.0)
|   |   |   |   |   |   LRS-name = 19327+3024: 41 (0.0)
|   |   |   |   |   |   LRS-name = 19352+2030: 41 (0.0)
|   |   |   |   |   |   LRS-name = 19354+5005: 41 (0.0)
|   |   |   |   |   |   LRS-name = 19361-1658: 41 (0.0)
|   |   |   |   |   |   LRS-name = 19396+1637: 41 (0.0)
|   |   |   |   |   |   LRS-name = 19412+0337: 41 (0.0)
|   |   |   |   |   |   LRS-name = 19422+3506: 41 (0.0)
|   |   |   |   |   |   LRS-name = 19451+1824: 41 (0.0)
|   |   |   |   |   |   LRS-name = 19472+2127: 41 (0.0)
|   |   |   |   |   |   LRS-name = 19474-0744: 41 (0.0)
|   |   |   |   |   |   LRS-name = 19480+2447: 41 (0.0)
|   |   |   |   |   |   LRS-name = 19495+0835: 41 (0.0)
|   |   |   |   |   |   LRS-name = 19500-1709: 41 (0.0)
|   |   |   |   |   |   LRS-name = 19503+2219: 41 (0.0)
|   |   |   |   |   |   LRS-name = 19510-5919: 41 (0.0)
|   |   |   |   |   |   LRS-name = 19528-2919: 41 (0.0)
|   |   |   |   |   |   LRS-name = 19536+3237: 41 (0.0)
|   |   |   |   |   |   LRS-name = 19537+2212: 41 (0.0)
|   |   |   |   |   |   LRS-name = 19548+3035: 41 (0.0)
|   |   |   |   |   |   LRS-name = 19550-0201: 41 (0.0)
|   |   |   |   |   |   LRS-name = 19575-5930: 41 (0.0)
|   |   |   |   |   |   LRS-name = 19585+5200: 41 (0.0)
|   |   |   |   |   |   LRS-name = 19586+3637: 41 (0.0)
|   |   |   |   |   |   LRS-name = 19594+4047: 41 (0.0)
|   |   |   |   |   |   LRS-name = 19595-2751: 41 (0.0)
|   |   |   |   |   |   LRS-name = 20010+3011: 41 (0.0)
|   |   |   |   |   |   LRS-name = 20015+3019: 41 (0.0)
|   |   |   |   |   |   LRS-name = 20024+3330: 41 (0.0)
|   |   |   |   |   |   LRS-name = 20028+3910: 41 (0.0)
|   |   |   |   |   |   LRS-name = 20038-2722: 41 (0.0)
|   |   |   |   |   |   LRS-name = 20042-4241: 41 (0.0)
|   |   |   |   |   |   LRS-name = 20052+0554: 41 (0.0)
|   |   |   |   |   |   LRS-name = 20072+3116: 41 (0.0)
|   |   |   |   |   |   LRS-name = 20075-6005: 41 (0.0)
|   |   |   |   |   |   LRS-name = 20094-1121: 41 (0.0)
|   |   |   |   |   |   LRS-name = 20111-4708: 41 (0.0)
|   |   |   |   |   |   LRS-name = 20113+4917: 41 (0.0)
|   |   |   |   |   |   LRS-name = 20124+6605: 41 (0.0)
|   |   |   |   |   |   LRS-name = 20135-7152: 41 (0.0)
|   |   |   |   |   |   LRS-name = 20161-1600: 41 (0.0)
|   |   |   |   |   |   LRS-name = 20165+3413: 41 (0.0)
|   |   |   |   |   |   LRS-name = 20171+3519: 41 (0.0)
|   |   |   |   |   |   LRS-name = 20193+3527: 41 (0.0)
|   |   |   |   |   |   LRS-name = 20194+3646: 41 (0.0)
|   |   |   |   |   |   LRS-name = 20200+3624: 41 (0.0)
|   |   |   |   |   |   LRS-name = 20215+6243: 41 (0.0)
|   |   |   |   |   |   LRS-name = 20248+7505: 41 (0.0)
|   |   |   |   |   |   LRS-name = 20248-2825: 41 (0.0)
|   |   |   |   |   |   LRS-name = 20253+3814: 41 (0.0)
|   |   |   |   |   |   LRS-name = 20255+4054: 41 (0.0)
|   |   |   |   |   |   LRS-name = 20267+2105: 41 (0.0)
|   |   |   |   |   |   LRS-name = 20275+4001: 41 (0.0)
|   |   |   |   |   |   LRS-name = 20297+3221: 41 (0.0)
|   |   |   |   |   |   LRS-name = 20310+4029: 41 (0.0)
|   |   |   |   |   |   LRS-name = 20318+3829: 41 (0.0)
|   |   |   |   |   |   LRS-name = 20340+5338: 41 (0.0)
|   |   |   |   |   |   LRS-name = 20350+3741: 41 (0.0)
|   |   |   |   |   |   LRS-name = 20356+1805: 41 (0.0)
|   |   |   |   |   |   LRS-name = 20365+1154: 41 (0.0)
|   |   |   |   |   |   LRS-name = 20396+4757: 41 (0.0)
|   |   |   |   |   |   LRS-name = 20403+3700: 41 (0.0)
|   |   |   |   |   |   LRS-name = 20417-0500: 41 (0.0)
|   |   |   |   |   |   LRS-name = 20431+1754: 41 (0.0)
|   |   |   |   |   |   LRS-name = 20435+3825: 41 (0.0)
|   |   |   |   |   |   LRS-name = 20440-0105: 41 (0.0)
|   |   |   |   |   |   LRS-name = 20479+0554: 41 (0.0)
|   |   |   |   |   |   LRS-name = 20484-7202: 41 (0.0)
|   |   |   |   |   |   LRS-name = 20491+4236: 41 (0.0)
|   |   |   |   |   |   LRS-name = 20502+4709: 41 (0.0)
|   |   |   |   |   |   LRS-name = 20529+3013: 41 (0.0)
|   |   |   |   |   |   LRS-name = 20532+5554: 41 (0.0)
|   |   |   |   |   |   LRS-name = 20541-6549: 41 (0.0)
|   |   |   |   |   |   LRS-name = 20549+5245: 41 (0.0)
|   |   |   |   |   |   LRS-name = 20570+2714: 41 (0.0)
|   |   |   |   |   |   LRS-name = 21003+4801: 41 (0.0)
|   |   |   |   |   |   LRS-name = 21032-0024: 41 (0.0)
|   |   |   |   |   |   LRS-name = 21035+5136: 41 (0.0)
|   |   |   |   |   |   LRS-name = 21044-1637: 41 (0.0)
|   |   |   |   |   |   LRS-name = 21069-3843: 41 (0.0)
|   |   |   |   |   |   LRS-name = 21086+5238: 41 (0.0)
|   |   |   |   |   |   LRS-name = 21088+6817: 41 (0.0)
|   |   |   |   |   |   LRS-name = 21190+5140: 41 (0.0)
|   |   |   |   |   |   LRS-name = 21206-4054: 41 (0.0)
|   |   |   |   |   |   LRS-name = 21243-6943: 41 (0.0)
|   |   |   |   |   |   LRS-name = 21245+6221: 41 (0.0)
|   |   |   |   |   |   LRS-name = 21270+7135: 41 (0.0)
|   |   |   |   |   |   LRS-name = 21286+1055: 41 (0.0)
|   |   |   |   |   |   LRS-name = 21305+2118: 41 (0.0)
|   |   |   |   |   |   LRS-name = 21312+5405: 41 (0.0)
|   |   |   |   |   |   LRS-name = 21318+5631: 21 (2.5)
|   |   |   |   |   |   LRS-name = 21320+3850: 41 (0.0)
|   |   |   |   |   |   LRS-name = 21341+4508: 41 (0.0)
|   |   |   |   |   |   LRS-name = 21368-3812: 41 (0.0)
|   |   |   |   |   |   LRS-name = 21373+4540: 41 (0.0)
|   |   |   |   |   |   LRS-name = 21377+5042: 41 (0.0)
|   |   |   |   |   |   LRS-name = 21377-0200: 41 (0.0)
|   |   |   |   |   |   LRS-name = 21383+4513: 41 (0.0)
|   |   |   |   |   |   LRS-name = 21389+5405: 41 (0.0)
|   |   |   |   |   |   LRS-name = 21399+3516: 41 (0.0)
|   |   |   |   |   |   LRS-name = 21401+7354: 41 (0.0)
|   |   |   |   |   |   LRS-name = 21417+0938: 41 (0.0)
|   |   |   |   |   |   LRS-name = 21449+4950: 41 (0.0)
|   |   |   |   |   |   LRS-name = 21453-4708: 41 (0.0)
|   |   |   |   |   |   LRS-name = 21456+6422: 41 (0.0)
|   |   |   |   |   |   LRS-name = 21489+5301: 41 (0.0)
|   |   |   |   |   |   LRS-name = 21543-1421: 41 (0.0)
|   |   |   |   |   |   LRS-name = 21552+6323: 41 (0.0)
|   |   |   |   |   |   LRS-name = 21554+6204: 41 (0.0)
|   |   |   |   |   |   LRS-name = 21558+5907: 41 (0.0)
|   |   |   |   |   |   LRS-name = 21563+5630: 41 (0.0)
|   |   |   |   |   |   LRS-name = 22017+2806: 41 (0.0)
|   |   |   |   |   |   LRS-name = 22035+3506: 41 (0.0)
|   |   |   |   |   |   LRS-name = 22091+5757: 41 (0.0)
|   |   |   |   |   |   LRS-name = 22097+5647: 41 (0.0)
|   |   |   |   |   |   LRS-name = 22142-8454: 41 (0.0)
|   |   |   |   |   |   LRS-name = 22150-6030: 41 (0.0)
|   |   |   |   |   |   LRS-name = 22165+4331: 41 (0.0)
|   |   |   |   |   |   LRS-name = 22177+5936: 41 (0.0)
|   |   |   |   |   |   LRS-name = 22190-0751: 41 (0.0)
|   |   |   |   |   |   LRS-name = 22196-4612: 41 (0.0)
|   |   |   |   |   |   LRS-name = 22212+5542: 41 (0.0)
|   |   |   |   |   |   LRS-name = 22230-4841: 41 (0.0)
|   |   |   |   |   |   LRS-name = 22231-4529: 41 (0.0)
|   |   |   |   |   |   LRS-name = 22241+6005: 41 (3.02)
|   |   |   |   |   |   LRS-name = 22264+5858: 41 (0.0)
|   |   |   |   |   |   LRS-name = 22267-4400: 41 (0.0)
|   |   |   |   |   |   LRS-name = 22272+5435: 41 (0.0)
|   |   |   |   |   |   LRS-name = 22280+1250: 41 (0.0)
|   |   |   |   |   |   LRS-name = 22282+5644: 41 (0.0)
|   |   |   |   |   |   LRS-name = 22303+5950: 41 (3.02)
|   |   |   |   |   |   LRS-name = 22306+5510: 41 (0.0)
|   |   |   |   |   |   LRS-name = 22317+5838: 41 (0.0)
|   |   |   |   |   |   LRS-name = 22345+5809: 41 (0.0)
|   |   |   |   |   |   LRS-name = 22456+5453: 41 (0.0)
|   |   |   |   |   |   LRS-name = 22476+4047: 41 (0.0)
|   |   |   |   |   |   LRS-name = 22512+6100: 41 (0.0)
|   |   |   |   |   |   LRS-name = 22516+0838: 41 (0.0)
|   |   |   |   |   |   LRS-name = 22518+6600: 41 (0.0)
|   |   |   |   |   |   LRS-name = 22525-2952: 41 (0.0)
|   |   |   |   |   |   LRS-name = 22526+8446: 41 (0.0)
|   |   |   |   |   |   LRS-name = 22540-5740: 41 (0.0)
|   |   |   |   |   |   LRS-name = 22585+6402: 41 (0.0)
|   |   |   |   |   |   LRS-name = 23000+5932: 41 (0.0)
|   |   |   |   |   |   LRS-name = 23013+2748: 41 (0.0)
|   |   |   |   |   |   LRS-name = 23095+5925: 41 (0.0)
|   |   |   |   |   |   LRS-name = 23134-7031: 41 (0.0)
|   |   |   |   |   |   LRS-name = 23138+6204: 41 (0.0)
|   |   |   |   |   |   LRS-name = 23151+5912: 41 (0.0)
|   |   |   |   |   |   LRS-name = 23166+1655: 41 (0.0)
|   |   |   |   |   |   LRS-name = 23202+5901: 41 (0.0)
|   |   |   |   |   |   LRS-name = 23213-4521: 41 (0.0)
|   |   |   |   |   |   LRS-name = 23284+5958: 41 (0.0)
|   |   |   |   |   |   LRS-name = 23309+2213: 41 (0.0)
|   |   |   |   |   |   LRS-name = 23320+4316: 41 (0.0)
|   |   |   |   |   |   LRS-name = 23365+5159: 41 (0.0)
|   |   |   |   |   |   LRS-name = 23416+6130: 41 (0.0)
|   |   |   |   |   |   LRS-name = 23439+5412: 41 (0.0)
|   |   |   |   |   |   LRS-name = 23491+6243: 41 (0.0)
|   |   |   |   |   |   LRS-name = 23496+6131: 41 (0.0)
|   |   |   |   |   |   LRS-name = 23528+4821: 41 (0.0)
|   |   |   |   |   |   LRS-name = 23541+7031: 41 (0.0)
|   |   |   |   |   |   LRS-name = 23564-5651: 41 (0.0)
|   |   |   |   blue-band-flux_26 > 6793.2656
|   |   |   |   |   red-band-flux_3 <= 6638.017: 31 (3.02)
|   |   |   |   |   red-band-flux_3 > 6638.017
|   |   |   |   |   |   blue-band-flux_28 <= 6734.6694: 42 (4.57)
|   |   |   |   |   |   blue-band-flux_28 > 6734.6694: 43 (9.26/0.93)
|   |   |   blue-band-flux_16 > 8853.787
|   |   |   |   blue-band-flux_1 <= 13409.163: 24 (14.15/3.1)
|   |   |   |   blue-band-flux_1 > 13409.163
|   |   |   |   |   red-band-flux_13 <= 2669.498: 22 (3.41/1.55)
|   |   |   |   |   red-band-flux_13 > 2669.498: 21 (6.45)
|   blue-band-flux_25 > 7657.127
|   |   red-band-flux_25 <= 1749.5654
|   |   |   blue-band-flux_18 <= 8846.165
|   |   |   |   Declination <= 17.907: 45 (2.5)
|   |   |   |   Declination > 17.907: 44 (2.17)
|   |   |   blue-band-flux_18 > 8846.165: 25 (3.33)
|   |   red-band-flux_25 > 1749.5654
|   |   |   blue-band-flux_15 <= 11266.352: 26 (6.98)
|   |   |   blue-band-flux_15 > 11266.352
|   |   |   |   red-band-flux_16 <= 2622.922
|   |   |   |   |   blue-band-flux_42 <= 3526.222: 29 (6.2/1.55)
|   |   |   |   |   blue-band-flux_42 > 3526.222: 28 (6.45)
|   |   |   |   red-band-flux_16 > 2622.922: 27 (6.05)
red-band-flux_33 > 2734.1426
|   blue-band-flux_2 <= 13850.836
|   |   LRS-name = 12043-6225: 32 (0.0)
|   |   LRS-name = 12063-6259: 32 (0.0)
|   |   LRS-name = 12073-6233: 32 (0.0)
|   |   LRS-name = 12148-6741: 32 (0.0)
|   |   LRS-name = 12216-6218: 32 (0.0)
|   |   LRS-name = 12226+0102: 32 (0.0)
|   |   LRS-name = 12230-5943: 32 (0.0)
|   |   LRS-name = 12233-5920: 32 (0.0)
|   |   LRS-name = 12247-5842: 32 (0.0)
|   |   LRS-name = 12274-7647: 32 (0.0)
|   |   LRS-name = 12277+0441: 32 (0.0)
|   |   LRS-name = 12283-5650: 32 (0.0)
|   |   LRS-name = 12298-5754: 32 (0.0)
|   |   LRS-name = 12319-6728: 32 (0.0)
|   |   LRS-name = 12377-6102: 32 (0.0)
|   |   LRS-name = 12379-4959: 32 (0.0)
|   |   LRS-name = 12380+5607: 32 (0.0)
|   |   LRS-name = 12384-4536: 32 (0.0)
|   |   LRS-name = 12394-4338: 32 (0.0)
|   |   LRS-name = 12421-6217: 32 (0.0)
|   |   LRS-name = 12427+4542: 32 (0.0)
|   |   LRS-name = 12447+0425: 32 (0.0)
|   |   LRS-name = 12454-6659: 32 (0.0)
|   |   LRS-name = 12462-6418: 32 (0.0)
|   |   LRS-name = 12506-6004: 32 (0.0)
|   |   LRS-name = 12530+0340: 32 (0.0)
|   |   LRS-name = 12540-6845: 32 (0.0)
|   |   LRS-name = 12559-6041: 32 (0.0)
|   |   LRS-name = 12563-6100: 32 (0.0)
|   |   LRS-name = 13001+0527: 32 (0.0)
|   |   LRS-name = 13022-7650: 32 (0.0)
|   |   LRS-name = 13064-6103: 32 (0.0)
|   |   LRS-name = 13136-4426: 32 (0.0)
|   |   LRS-name = 13141-6119: 32 (0.0)
|   |   LRS-name = 13170-5404: 32 (0.0)
|   |   LRS-name = 13172+4547: 32 (0.0)
|   |   LRS-name = 13203-5536: 32 (0.0)
|   |   LRS-name = 13208-6027: 32 (0.0)
|   |   LRS-name = 13283-5839: 32 (0.0)
|   |   LRS-name = 13328-6244: 32 (0.0)
|   |   LRS-name = 13343-5807: 32 (0.0)
|   |   LRS-name = 13350-7221: 32 (0.0)
|   |   LRS-name = 13368-4941: 32 (0.0)
|   |   LRS-name = 13371-6249: 32 (0.0)
|   |   LRS-name = 13379-5426: 32 (0.0)
|   |   LRS-name = 13442-6109: 32 (0.0)
|   |   LRS-name = 13462-2807: 32 (0.0)
|   |   LRS-name = 13465-3412: 32 (0.0)
|   |   LRS-name = 13477-6532: 32 (0.0)
|   |   LRS-name = 13482-6716: 32 (0.0)
|   |   LRS-name = 13509-6348: 32 (0.0)
|   |   LRS-name = 13517-6515: 32 (0.0)
|   |   LRS-name = 13527-6117: 32 (0.0)
|   |   LRS-name = 13557-6442: 32 (0.0)
|   |   LRS-name = 13572-6347: 32 (0.0)
|   |   LRS-name = 13581-5930: 32 (0.0)
|   |   LRS-name = 14003-7633: 32 (0.0)
|   |   LRS-name = 14020-3515: 32 (0.0)
|   |   LRS-name = 14030-4629: 32 (0.0)
|   |   LRS-name = 14068-6158: 32 (0.0)
|   |   LRS-name = 14086-2839: 32 (0.0)
|   |   LRS-name = 14086-6907: 32 (0.0)
|   |   LRS-name = 14119-6453: 32 (0.0)
|   |   LRS-name = 14122-6133: 32 (0.0)
|   |   LRS-name = 14129-5940: 32 (0.0)
|   |   LRS-name = 14133+1925: 32 (0.0)
|   |   LRS-name = 14159-6038: 32 (0.0)
|   |   LRS-name = 14182-6144: 32 (0.0)
|   |   LRS-name = 14216-6152: 32 (0.0)
|   |   LRS-name = 14247+0454: 32 (0.0)
|   |   LRS-name = 14251-6256: 32 (0.0)
|   |   LRS-name = 14277+3904: 32 (0.0)
|   |   LRS-name = 14280-2952: 32 (0.0)
|   |   LRS-name = 14286-5905: 32 (0.0)
|   |   LRS-name = 14301-5734: 32 (0.0)
|   |   LRS-name = 14337-6215: 32 (0.0)
|   |   LRS-name = 14359-6037: 32 (0.0)
|   |   LRS-name = 14371+3245: 32 (0.0)
|   |   LRS-name = 14390+3147: 32 (0.0)
|   |   LRS-name = 14437+1520: 32 (0.0)
|   |   LRS-name = 14453-4920: 32 (0.0)
|   |   LRS-name = 14455-3625: 32 (0.0)
|   |   LRS-name = 14465-6000: 32 (0.0)
|   |   LRS-name = 14484-6152: 32 (0.0)
|   |   LRS-name = 14508+7421: 32 (0.0)
|   |   LRS-name = 14531-5337: 32 (0.0)
|   |   LRS-name = 14550-1214: 32 (0.0)
|   |   LRS-name = 14562-5406: 32 (0.0)
|   |   LRS-name = 14567+6607: 32 (0.0)
|   |   LRS-name = 14567-5846: 32 (0.0)
|   |   LRS-name = 14582-5926: 32 (0.0)
|   |   LRS-name = 14591-4438: 32 (0.0)
|   |   LRS-name = 15011-2505: 32 (0.0)
|   |   LRS-name = 15023-6916: 32 (0.0)
|   |   LRS-name = 15082-4808: 32 (0.0)
|   |   LRS-name = 15084-5702: 32 (0.0)
|   |   LRS-name = 15099-5509: 32 (0.0)
|   |   LRS-name = 15107-5726: 32 (0.0)
|   |   LRS-name = 15148-4940: 32 (0.0)
|   |   LRS-name = 15186-3604: 32 (0.0)
|   |   LRS-name = 15186-5730: 32 (0.0)
|   |   LRS-name = 15193+1429: 32 (0.0)
|   |   LRS-name = 15193+3132: 32 (0.0)
|   |   LRS-name = 15214-2244: 32 (0.0)
|   |   LRS-name = 15219-7545: 32 (0.0)
|   |   LRS-name = 15223-0203: 32 (0.0)
|   |   LRS-name = 15225-5605: 32 (0.0)
|   |   LRS-name = 15226-3603: 32 (0.0)
|   |   LRS-name = 15255+1944: 32 (0.0)
|   |   LRS-name = 15269-4400: 32 (0.0)
|   |   LRS-name = 15287-5811: 32 (0.0)
|   |   LRS-name = 15290-5546: 32 (0.0)
|   |   LRS-name = 15311-5538: 32 (0.0)
|   |   LRS-name = 15314+7847: 32 (0.0)
|   |   LRS-name = 15323-4920: 32 (0.0)
|   |   LRS-name = 15332-6430: 32 (0.0)
|   |   LRS-name = 15341+1515: 32 (0.0)
|   |   LRS-name = 15356-6722: 32 (0.0)
|   |   LRS-name = 15361+2441: 32 (0.0)
|   |   LRS-name = 15373-5308: 32 (0.0)
|   |   LRS-name = 15402-5449: 32 (0.0)
|   |   LRS-name = 15408-5413: 32 (0.0)
|   |   LRS-name = 15410-0133: 32 (0.0)
|   |   LRS-name = 15468-5018: 32 (0.0)
|   |   LRS-name = 15483+1517: 32 (0.0)
|   |   LRS-name = 15483-5514: 32 (0.0)
|   |   LRS-name = 15492+4837: 32 (0.0)
|   |   LRS-name = 15509-5207: 32 (0.0)
|   |   LRS-name = 15530-5201: 32 (0.0)
|   |   LRS-name = 15566+3609: 32 (0.0)
|   |   LRS-name = 15568-4513: 32 (0.0)
|   |   LRS-name = 15569-6135: 32 (0.0)
|   |   LRS-name = 15576-5400: 32 (0.0)
|   |   LRS-name = 16011+4722: 32 (0.0)
|   |   LRS-name = 16011-5424: 32 (0.0)
|   |   LRS-name = 16029-3041: 32 (0.0)
|   |   LRS-name = 16030-5156: 32 (0.0)
|   |   LRS-name = 16031-4856: 32 (0.0)
|   |   LRS-name = 16064-4200: 32 (0.0)
|   |   LRS-name = 16066-4427: 32 (0.0)
|   |   LRS-name = 16077-5830: 32 (0.0)
|   |   LRS-name = 16079-4812: 32 (0.0)
|   |   LRS-name = 16081+2511: 32 (0.0)
|   |   LRS-name = 16105-4205: 32 (0.0)
|   |   LRS-name = 16117-0334: 32 (0.0)
|   |   LRS-name = 16127-7834: 32 (0.0)
|   |   LRS-name = 16133-5151: 32 (0.0)
|   |   LRS-name = 16156-5613: 32 (0.0)
|   |   LRS-name = 16171-4759: 32 (0.0)
|   |   LRS-name = 16175-6120: 32 (0.0)
|   |   LRS-name = 16192-4900: 32 (0.0)
|   |   LRS-name = 16208-2215: 32 (0.0)
|   |   LRS-name = 16218-4701: 32 (0.0)
|   |   LRS-name = 16219-5048: 32 (0.0)
|   |   LRS-name = 16222-4738: 32 (0.0)
|   |   LRS-name = 16229-4947: 32 (0.0)
|   |   LRS-name = 16235+1900: 32 (0.0)
|   |   LRS-name = 16260+3454: 32 (0.0)
|   |   LRS-name = 16263-5533: 32 (0.0)
|   |   LRS-name = 16269+4159: 32 (0.0)
|   |   LRS-name = 16270-5213: 32 (0.0)
|   |   LRS-name = 16279-4709: 32 (0.0)
|   |   LRS-name = 16280-4154: 32 (0.0)
|   |   LRS-name = 16296-4417: 32 (0.0)
|   |   LRS-name = 16306+7223: 32 (0.0)
|   |   LRS-name = 16316-5026: 32 (0.0)
|   |   LRS-name = 16327-4848: 32 (0.0)
|   |   LRS-name = 16328-4656: 32 (0.0)
|   |   LRS-name = 16334-3107: 32 (0.0)
|   |   LRS-name = 16337-4525: 32 (0.0)
|   |   LRS-name = 16340-4634: 32 (0.0)
|   |   LRS-name = 16387-2700: 32 (0.0)
|   |   LRS-name = 16396-4429: 32 (0.0)
|   |   LRS-name = 16407-5639: 32 (0.0)
|   |   LRS-name = 16418+5459: 32 (0.0)
|   |   LRS-name = 16433-6856: 32 (0.0)
|   |   LRS-name = 16438-1133: 32 (0.0)
|   |   LRS-name = 16446-4243: 32 (0.0)
|   |   LRS-name = 16451-4312: 32 (0.0)
|   |   LRS-name = 16460-4022: 32 (0.0)
|   |   LRS-name = 16473+5753: 32 (0.0)
|   |   LRS-name = 16478-4322: 32 (0.0)
|   |   LRS-name = 16490-4618: 32 (0.0)
|   |   LRS-name = 16494-1252: 32 (0.0)
|   |   LRS-name = 16498-4143: 32 (0.0)
|   |   LRS-name = 16534-3030: 32 (0.0)
|   |   LRS-name = 16541-4901: 32 (0.0)
|   |   LRS-name = 16545-4214: 32 (0.0)
|   |   LRS-name = 16546-4057: 32 (0.0)
|   |   LRS-name = 16559-2557: 32 (0.0)
|   |   LRS-name = 16571-7548: 32 (0.0)
|   |   LRS-name = 16581-4058: 32 (0.0)
|   |   LRS-name = 16586-4142: 32 (0.0)
|   |   LRS-name = 16589-3315: 32 (0.0)
|   |   LRS-name = 16598-4117: 32 (0.0)
|   |   LRS-name = 17001-3651: 32 (0.0)
|   |   LRS-name = 17010-4323: 32 (0.0)
|   |   LRS-name = 17025-4719: 32 (0.0)
|   |   LRS-name = 17047-5650: 32 (0.0)
|   |   LRS-name = 17048-1601: 32 (0.0)
|   |   LRS-name = 17049-2440: 32 (0.0)
|   |   LRS-name = 17050-4123: 32 (0.0)
|   |   LRS-name = 17066-4028: 32 (0.0)
|   |   LRS-name = 17079-3243: 32 (0.0)
|   |   LRS-name = 17080-3215: 32 (0.0)
|   |   LRS-name = 17081+6422: 32 (0.0)
|   |   LRS-name = 17102-1031: 32 (0.0)
|   |   LRS-name = 17103-0559: 32 (0.0)
|   |   LRS-name = 17103-3551: 32 (0.0)
|   |   LRS-name = 17103-3702: 32 (0.0)
|   |   LRS-name = 17104-3146: 32 (0.0)
|   |   LRS-name = 17105-3746: 32 (0.0)
|   |   LRS-name = 17109-3942: 32 (0.0)
|   |   LRS-name = 17115-3322: 32 (0.0)
|   |   LRS-name = 17119+0859: 32 (0.0)
|   |   LRS-name = 17122-2707: 32 (0.0)
|   |   LRS-name = 17123+1107: 32 (0.0)
|   |   LRS-name = 17125-4814: 32 (0.0)
|   |   LRS-name = 17139+0446: 32 (0.0)
|   |   LRS-name = 17139-3746: 32 (0.0)
|   |   LRS-name = 17162-1934: 32 (0.0)
|   |   LRS-name = 17174-4641: 32 (0.0)
|   |   LRS-name = 17187-3750: 32 (0.0)
|   |   LRS-name = 17190+2658: 32 (0.0)
|   |   LRS-name = 17199-3512: 32 (0.0)
|   |   LRS-name = 17201-4613: 32 (0.0)
|   |   LRS-name = 17213-2219: 32 (0.0)
|   |   LRS-name = 17217-3916: 32 (0.0)
|   |   LRS-name = 17237-3102: 32 (0.0)
|   |   LRS-name = 17239-2812: 32 (0.0)
|   |   LRS-name = 17265-0725: 32 (0.0)
|   |   LRS-name = 17297+1747: 32 (0.0)
|   |   LRS-name = 17309-1724: 32 (0.0)
|   |   LRS-name = 17315-3414: 32 (0.0)
|   |   LRS-name = 17317-3331: 32 (0.0)
|   |   LRS-name = 17318-2342: 32 (0.0)
|   |   LRS-name = 17319-6234: 32 (0.0)
|   |   LRS-name = 17328-3327: 32 (0.0)
|   |   LRS-name = 17334+1537: 32 (0.0)
|   |   LRS-name = 17341-3453: 32 (0.0)
|   |   LRS-name = 17343+1052: 32 (0.0)
|   |   LRS-name = 17361+5746: 32 (0.0)
|   |   LRS-name = 17375-3652: 32 (0.0)
|   |   LRS-name = 17381-3442: 32 (0.0)
|   |   LRS-name = 17382-1704: 32 (0.0)
|   |   LRS-name = 17387-4343: 32 (0.0)
|   |   LRS-name = 17389-2045: 32 (0.0)
|   |   LRS-name = 17389-5742: 32 (0.0)
|   |   LRS-name = 17398-4344: 32 (0.0)
|   |   LRS-name = 17433-2523: 32 (0.0)
|   |   LRS-name = 17434-3414: 32 (0.0)
|   |   LRS-name = 17443-2519: 32 (0.0)
|   |   LRS-name = 17446-7809: 32 (0.0)
|   |   LRS-name = 17462-8647: 32 (0.0)
|   |   LRS-name = 17479-2927: 32 (0.0)
|   |   LRS-name = 17484-0800: 32 (0.0)
|   |   LRS-name = 17488-2800: 32 (0.0)
|   |   LRS-name = 17504-0234: 32 (0.0)
|   |   LRS-name = 17505-3143: 32 (0.0)
|   |   LRS-name = 17508-3419: 32 (0.0)
|   |   LRS-name = 17513-2313: 32 (0.0)
|   |   LRS-name = 17534-3030: 32 (0.0)
|   |   LRS-name = 17540-1919: 32 (0.0)
|   |   LRS-name = 17541+1110: 32 (0.0)
|   |   LRS-name = 17554+5129: 32 (0.0)
|   |   LRS-name = 17556+5813: 32 (0.0)
|   |   LRS-name = 17570-3713: 32 (0.0)
|   |   LRS-name = 17579+2335: 32 (0.0)
|   |   LRS-name = 17581-1744: 32 (0.0)
|   |   LRS-name = 18018-2802: 32 (0.0)
|   |   LRS-name = 18027-2314: 32 (0.0)
|   |   LRS-name = 18039-0813: 32 (0.0)
|   |   LRS-name = 18040-0941: 32 (0.0)
|   |   LRS-name = 18041-3317: 32 (0.0)
|   |   LRS-name = 18057-2616: 32 (0.0)
|   |   LRS-name = 18076+3445: 32 (0.0)
|   |   LRS-name = 18076-1034: 32 (0.0)
|   |   LRS-name = 18083-2630: 32 (0.0)
|   |   LRS-name = 18092-0437: 32 (0.0)
|   |   LRS-name = 18095+2704: 32 (0.0)
|   |   LRS-name = 18135-1456: 32 (0.0)
|   |   LRS-name = 18135-1740: 32 (0.0)
|   |   LRS-name = 18136-1859: 32 (0.0)
|   |   LRS-name = 18142-3646: 32 (0.0)
|   |   LRS-name = 18156-0653: 32 (0.0)
|   |   LRS-name = 18157+1757: 32 (0.0)
|   |   LRS-name = 18162-0246: 32 (0.0)
|   |   LRS-name = 18176-1848: 32 (0.0)
|   |   LRS-name = 18177-2951: 32 (0.0)
|   |   LRS-name = 18186+3143: 32 (0.0)
|   |   LRS-name = 18213+0335: 32 (0.0)
|   |   LRS-name = 18222+3933: 32 (0.0)
|   |   LRS-name = 18230+0544: 32 (0.0)
|   |   LRS-name = 18239-0655: 32 (0.0)
|   |   LRS-name = 18240+2326: 32 (0.0)
|   |   LRS-name = 18257-1000: 32 (0.0)
|   |   LRS-name = 18267-0606: 32 (0.0)
|   |   LRS-name = 18273-0738: 32 (0.0)
|   |   LRS-name = 18276+8236: 32 (0.0)
|   |   LRS-name = 18276-4717: 32 (0.0)
|   |   LRS-name = 18280-5639: 32 (0.0)
|   |   LRS-name = 18281+2149: 32 (0.0)
|   |   LRS-name = 18301-0656: 32 (0.0)
|   |   LRS-name = 18303-0519: 32 (0.0)
|   |   LRS-name = 18306+3657: 32 (0.0)
|   |   LRS-name = 18314-1131: 32 (0.0)
|   |   LRS-name = 18316-0602: 32 (0.0)
|   |   LRS-name = 18320-0352: 32 (0.0)
|   |   LRS-name = 18325-1138: 32 (0.0)
|   |   LRS-name = 18333+0533: 32 (0.0)
|   |   LRS-name = 18349+1023: 32 (0.0)
|   |   LRS-name = 18359+0847: 32 (0.0)
|   |   LRS-name = 18367-0452: 32 (0.0)
|   |   LRS-name = 18373-0021: 32 (0.0)
|   |   LRS-name = 18378-3731: 32 (0.0)
|   |   LRS-name = 18397+1738: 32 (0.0)
|   |   LRS-name = 18398-0220: 32 (0.0)
|   |   LRS-name = 18401+2854: 32 (0.0)
|   |   LRS-name = 18413+1354: 32 (0.0)
|   |   LRS-name = 18414-0527: 32 (0.0)
|   |   LRS-name = 18421+1147: 32 (0.0)
|   |   LRS-name = 18429-1721: 32 (0.0)
|   |   LRS-name = 18450-0922: 32 (0.0)
|   |   LRS-name = 18451-0824: 32 (0.0)
|   |   LRS-name = 18464-0656: 32 (0.0)
|   |   LRS-name = 18467-4802: 32 (0.0)
|   |   LRS-name = 18475+0926: 32 (0.0)
|   |   LRS-name = 18476+0555: 32 (0.0)
|   |   LRS-name = 18527+3650: 32 (0.0)
|   |   LRS-name = 18530+0817: 32 (0.0)
|   |   LRS-name = 18531+0016: 32 (0.0)
|   |   LRS-name = 18535+0726: 32 (0.0)
|   |   LRS-name = 18537-1035: 32 (0.0)
|   |   LRS-name = 18550+0130: 32 (0.0)
|   |   LRS-name = 18551+0323: 32 (0.0)
|   |   LRS-name = 18551+1345: 32 (0.0)
|   |   LRS-name = 18556+0811: 32 (0.0)
|   |   LRS-name = 18560+0638: 32 (0.0)
|   |   LRS-name = 19007-2247: 32 (0.0)
|   |   LRS-name = 19007-3826: 32 (0.0)
|   |   LRS-name = 19008+0726: 32 (0.0)
|   |   LRS-name = 19017-0545: 32 (0.0)
|   |   LRS-name = 19029+0808: 32 (0.0)
|   |   LRS-name = 19032-4602: 32 (0.0)
|   |   LRS-name = 19042-4858: 32 (0.0)
|   |   LRS-name = 19043+1009: 32 (0.0)
|   |   LRS-name = 19059-2219: 32 (0.0)
|   |   LRS-name = 19075+0921: 32 (0.0)
|   |   LRS-name = 19093-3256: 32 (0.0)
|   |   LRS-name = 19099+6711: 32 (0.0)
|   |   LRS-name = 19135+0931: 32 (0.0)
|   |   LRS-name = 19143-5032: 32 (0.0)
|   |   LRS-name = 19157-1706: 32 (0.0)
|   |   LRS-name = 19161+2343: 32 (0.0)
|   |   LRS-name = 19178-2620: 32 (0.0)
|   |   LRS-name = 19188-1603: 32 (0.0)
|   |   LRS-name = 19192+0922: 32 (0.0)
|   |   LRS-name = 19194+1734: 32 (0.0)
|   |   LRS-name = 19229+1708: 32 (0.0)
|   |   LRS-name = 19232+5008: 32 (0.0)
|   |   LRS-name = 19240+3615: 32 (0.0)
|   |   LRS-name = 19247-1722: 32 (0.0)
|   |   LRS-name = 19282+2253: 32 (0.0)
|   |   LRS-name = 19283+1944: 32 (0.0)
|   |   LRS-name = 19287+4602: 32 (0.0)
|   |   LRS-name = 19296+4331: 32 (0.0)
|   |   LRS-name = 19314-1629: 32 (0.0)
|   |   LRS-name = 19321+2757: 32 (0.0)
|   |   LRS-name = 19324+3033: 32 (0.0)
|   |   LRS-name = 19327+3024: 32 (0.0)
|   |   LRS-name = 19352+2030: 32 (0.0)
|   |   LRS-name = 19354+5005: 32 (0.0)
|   |   LRS-name = 19361-1658: 32 (0.0)
|   |   LRS-name = 19396+1637: 32 (0.0)
|   |   LRS-name = 19412+0337: 32 (0.0)
|   |   LRS-name = 19422+3506: 32 (0.0)
|   |   LRS-name = 19451+1824: 32 (0.0)
|   |   LRS-name = 19472+2127: 32 (0.0)
|   |   LRS-name = 19474-0744: 32 (0.0)
|   |   LRS-name = 19480+2447: 32 (0.0)
|   |   LRS-name = 19495+0835: 32 (0.0)
|   |   LRS-name = 19500-1709: 32 (0.0)
|   |   LRS-name = 19503+2219: 32 (0.0)
|   |   LRS-name = 19510-5919: 32 (0.0)
|   |   LRS-name = 19528-2919: 32 (0.0)
|   |   LRS-name = 19536+3237: 32 (0.0)
|   |   LRS-name = 19537+2212: 32 (0.0)
|   |   LRS-name = 19548+3035: 32 (0.0)
|   |   LRS-name = 19550-0201: 32 (0.0)
|   |   LRS-name = 19575-5930: 32 (0.0)
|   |   LRS-name = 19585+5200: 32 (0.0)
|   |   LRS-name = 19586+3637: 32 (0.0)
|   |   LRS-name = 19594+4047: 32 (0.0)
|   |   LRS-name = 19595-2751: 32 (0.0)
|   |   LRS-name = 20010+3011: 32 (0.0)
|   |   LRS-name = 20015+3019: 32 (0.0)
|   |   LRS-name = 20024+3330: 32 (0.0)
|   |   LRS-name = 20028+3910: 32 (0.0)
|   |   LRS-name = 20038-2722: 32 (0.0)
|   |   LRS-name = 20042-4241: 32 (0.0)
|   |   LRS-name = 20052+0554: 32 (0.0)
|   |   LRS-name = 20072+3116: 32 (0.0)
|   |   LRS-name = 20075-6005: 32 (0.0)
|   |   LRS-name = 20094-1121: 32 (0.0)
|   |   LRS-name = 20111-4708: 32 (0.0)
|   |   LRS-name = 20113+4917: 32 (0.0)
|   |   LRS-name = 20124+6605: 32 (0.0)
|   |   LRS-name = 20135-7152: 32 (0.0)
|   |   LRS-name = 20161-1600: 32 (0.0)
|   |   LRS-name = 20165+3413: 32 (0.0)
|   |   LRS-name = 20171+3519: 32 (0.0)
|   |   LRS-name = 20193+3527: 32 (0.0)
|   |   LRS-name = 20194+3646: 32 (0.0)
|   |   LRS-name = 20200+3624: 32 (0.0)
|   |   LRS-name = 20215+6243: 32 (0.0)
|   |   LRS-name = 20248+7505: 32 (0.0)
|   |   LRS-name = 20248-2825: 32 (0.0)
|   |   LRS-name = 20253+3814: 32 (0.0)
|   |   LRS-name = 20255+4054: 32 (0.0)
|   |   LRS-name = 20267+2105: 32 (0.0)
|   |   LRS-name = 20275+4001: 32 (0.0)
|   |   LRS-name = 20297+3221: 32 (0.0)
|   |   LRS-name = 20310+4029: 32 (0.0)
|   |   LRS-name = 20318+3829: 32 (3.02)
|   |   LRS-name = 20340+5338: 32 (0.0)
|   |   LRS-name = 20350+3741: 32 (0.0)
|   |   LRS-name = 20356+1805: 32 (0.0)
|   |   LRS-name = 20365+1154: 32 (0.0)
|   |   LRS-name = 20396+4757: 32 (0.0)
|   |   LRS-name = 20403+3700: 32 (0.0)
|   |   LRS-name = 20417-0500: 32 (0.0)
|   |   LRS-name = 20431+1754: 32 (0.0)
|   |   LRS-name = 20435+3825: 32 (0.0)
|   |   LRS-name = 20440-0105: 32 (0.0)
|   |   LRS-name = 20479+0554: 32 (0.0)
|   |   LRS-name = 20484-7202: 32 (0.0)
|   |   LRS-name = 20491+4236: 32 (0.0)
|   |   LRS-name = 20502+4709: 32 (0.0)
|   |   LRS-name = 20529+3013: 32 (0.0)
|   |   LRS-name = 20532+5554: 32 (0.0)
|   |   LRS-name = 20541-6549: 32 (0.0)
|   |   LRS-name = 20549+5245: 32 (0.0)
|   |   LRS-name = 20570+2714: 32 (0.0)
|   |   LRS-name = 21003+4801: 32 (0.0)
|   |   LRS-name = 21032-0024: 32 (0.0)
|   |   LRS-name = 21035+5136: 32 (0.0)
|   |   LRS-name = 21044-1637: 32 (0.0)
|   |   LRS-name = 21069-3843: 32 (0.0)
|   |   LRS-name = 21086+5238: 32 (0.0)
|   |   LRS-name = 21088+6817: 32 (0.0)
|   |   LRS-name = 21190+5140: 82 (2.5)
|   |   LRS-name = 21206-4054: 32 (0.0)
|   |   LRS-name = 21243-6943: 32 (0.0)
|   |   LRS-name = 21245+6221: 32 (0.0)
|   |   LRS-name = 21270+7135: 32 (0.0)
|   |   LRS-name = 21286+1055: 32 (0.0)
|   |   LRS-name = 21305+2118: 32 (0.0)
|   |   LRS-name = 21312+5405: 32 (0.0)
|   |   LRS-name = 21318+5631: 32 (0.0)
|   |   LRS-name = 21320+3850: 32 (0.0)
|   |   LRS-name = 21341+4508: 32 (0.0)
|   |   LRS-name = 21368-3812: 32 (0.0)
|   |   LRS-name = 21373+4540: 32 (0.0)
|   |   LRS-name = 21377+5042: 32 (0.0)
|   |   LRS-name = 21377-0200: 32 (0.0)
|   |   LRS-name = 21383+4513: 32 (0.0)
|   |   LRS-name = 21389+5405: 32 (0.0)
|   |   LRS-name = 21399+3516: 32 (0.0)
|   |   LRS-name = 21401+7354: 32 (0.0)
|   |   LRS-name = 21417+0938: 32 (0.0)
|   |   LRS-name = 21449+4950: 32 (0.0)
|   |   LRS-name = 21453-4708: 32 (0.0)
|   |   LRS-name = 21456+6422: 32 (0.0)
|   |   LRS-name = 21489+5301: 32 (0.0)
|   |   LRS-name = 21543-1421: 32 (0.0)
|   |   LRS-name = 21552+6323: 32 (0.0)
|   |   LRS-name = 21554+6204: 32 (0.0)
|   |   LRS-name = 21558+5907: 33 (2.5)
|   |   LRS-name = 21563+5630: 32 (0.0)
|   |   LRS-name = 22017+2806: 32 (0.0)
|   |   LRS-name = 22035+3506: 32 (0.0)
|   |   LRS-name = 22091+5757: 32 (0.0)
|   |   LRS-name = 22097+5647: 32 (0.0)
|   |   LRS-name = 22142-8454: 32 (0.0)
|   |   LRS-name = 22150-6030: 32 (0.0)
|   |   LRS-name = 22165+4331: 32 (0.0)
|   |   LRS-name = 22177+5936: 32 (0.0)
|   |   LRS-name = 22190-0751: 32 (0.0)
|   |   LRS-name = 22196-4612: 32 (0.0)
|   |   LRS-name = 22212+5542: 32 (0.0)
|   |   LRS-name = 22230-4841: 32 (0.0)
|   |   LRS-name = 22231-4529: 32 (0.0)
|   |   LRS-name = 22241+6005: 32 (0.0)
|   |   LRS-name = 22264+5858: 32 (0.0)
|   |   LRS-name = 22267-4400: 32 (0.0)
|   |   LRS-name = 22272+5435: 72 (2.5)
|   |   LRS-name = 22280+1250: 32 (0.0)
|   |   LRS-name = 22282+5644: 32 (0.0)
|   |   LRS-name = 22303+5950: 32 (0.0)
|   |   LRS-name = 22306+5510: 32 (0.0)
|   |   LRS-name = 22317+5838: 32 (0.0)
|   |   LRS-name = 22345+5809: 32 (0.0)
|   |   LRS-name = 22456+5453: 32 (0.0)
|   |   LRS-name = 22476+4047: 32 (0.0)
|   |   LRS-name = 22512+6100: 32 (0.0)
|   |   LRS-name = 22516+0838: 32 (0.0)
|   |   LRS-name = 22518+6600: 32 (0.0)
|   |   LRS-name = 22525-2952: 32 (0.0)
|   |   LRS-name = 22526+8446: 32 (0.0)
|   |   LRS-name = 22540-5740: 32 (0.0)
|   |   LRS-name = 22585+6402: 32 (0.0)
|   |   LRS-name = 23000+5932: 32 (0.0)
|   |   LRS-name = 23013+2748: 32 (0.0)
|   |   LRS-name = 23095+5925: 32 (0.0)
|   |   LRS-name = 23134-7031: 32 (0.0)
|   |   LRS-name = 23138+6204: 32 (0.0)
|   |   LRS-name = 23151+5912: 32 (0.0)
|   |   LRS-name = 23166+1655: 32 (0.0)
|   |   LRS-name = 23202+5901: 32 (0.0)
|   |   LRS-name = 23213-4521: 32 (0.0)
|   |   LRS-name = 23284+5958: 32 (0.0)
|   |   LRS-name = 23309+2213: 32 (0.0)
|   |   LRS-name = 23320+4316: 32 (0.0)
|   |   LRS-name = 23365+5159: 32 (0.0)
|   |   LRS-name = 23416+6130: 69 (2.5)
|   |   LRS-name = 23439+5412: 32 (0.0)
|   |   LRS-name = 23491+6243: 32 (0.0)
|   |   LRS-name = 23496+6131: 32 (0.0)
|   |   LRS-name = 23528+4821: 32 (0.0)
|   |   LRS-name = 23541+7031: 32 (0.0)
|   |   LRS-name = 23564-5651: 32 (0.0)
|   blue-band-flux_2 > 13850.836
|   |   Right-Ascension <= 22.761: 38 (9.07)
|   |   Right-Ascension > 22.761: 39 (2.5)

Number of Leaves  : 	1084

Size of the tree : 	1107


Weight: 2.47

J48 pruned tree
------------------

blue-band-flux_29 <= 5465.184
|   blue-band-flux_37 <= 4083.996
|   |   ID-type = 0: 18 (0.0)
|   |   ID-type = 2: 2 (2.14/0.5)
|   |   ID-type = 3: 82 (1.36)
|   |   ID-type = 4: 18 (8.61/0.67)
|   blue-band-flux_37 > 4083.996
|   |   blue-band-flux_2 <= 17810.996
|   |   |   blue-band-flux_24 <= 3306.8206: 38 (4.92)
|   |   |   blue-band-flux_24 > 3306.8206: 33 (2.71/1.36)
|   |   blue-band-flux_2 > 17810.996: 16 (7.94)
blue-band-flux_29 > 5465.184
|   blue-band-flux_18 <= 8741.739
|   |   blue-band-flux_43 <= 4669.5
|   |   |   red-band-flux_2 <= 6946.5483
|   |   |   |   blue-band-flux_30 <= 6089.597: 15 (3.16/0.17)
|   |   |   |   blue-band-flux_30 > 6089.597: 41 (4.64/1.36)
|   |   |   red-band-flux_2 > 6946.5483
|   |   |   |   blue-band-flux_25 <= 7403.913: 42 (16.41/4.0)
|   |   |   |   blue-band-flux_25 > 7403.913
|   |   |   |   |   red-band-flux_21 <= 1615.1226: 45 (2.36/1.01)
|   |   |   |   |   red-band-flux_21 > 1615.1226: 43 (3.16/0.17)
|   |   blue-band-flux_43 > 4669.5
|   |   |   ID-type = 0: 31 (1.64)
|   |   |   ID-type = 2: 72 (1.36)
|   |   |   ID-type = 3: 31 (4.35/2.71)
|   |   |   ID-type = 4: 14 (3.28/1.64)
|   blue-band-flux_18 > 8741.739
|   |   blue-band-flux_14 <= 10817.023
|   |   |   blue-band-flux_2 <= 9677.14: 26 (4.8/1.36)
|   |   |   blue-band-flux_2 > 9677.14
|   |   |   |   blue-band-flux_8 <= 10361.996: 23 (16.04/0.17)
|   |   |   |   blue-band-flux_8 > 10361.996: 21 (2.2/0.84)
|   |   blue-band-flux_14 > 10817.023
|   |   |   red-band-flux_47 <= 769.98895: 24 (3.28)
|   |   |   red-band-flux_47 > 769.98895
|   |   |   |   blue-band-flux_1 <= 7580.9927
|   |   |   |   |   red-band-flux_23 <= 2572.8818: 29 (4.0)
|   |   |   |   |   red-band-flux_23 > 2572.8818: 69 (2.03/0.67)
|   |   |   |   blue-band-flux_1 > 7580.9927
|   |   |   |   |   blue-band-flux_12 <= 11366.358
|   |   |   |   |   |   red-band-flux_35 <= 1480.3833: 25 (5.78)
|   |   |   |   |   |   red-band-flux_35 > 1480.3833: 26 (3.96/1.64)
|   |   |   |   |   blue-band-flux_12 > 11366.358
|   |   |   |   |   |   blue-band-flux_6 <= 8253.752: 28 (5.15)
|   |   |   |   |   |   blue-band-flux_6 > 8253.752: 27 (11.73/0.17)

Number of Leaves  : 	26

Size of the tree : 	47


Weight: 1.77

J48 pruned tree
------------------

blue-band-flux_29 <= 5465.184
|   red-band-flux_5 <= 4925.0806
|   |   blue-band-flux_2 <= 22923.15: 17 (4.07/1.75)
|   |   blue-band-flux_2 > 22923.15: 18 (6.38)
|   red-band-flux_5 > 4925.0806
|   |   blue-band-flux_24 <= 3863.505
|   |   |   Right-Ascension <= 22.761: 38 (2.88)
|   |   |   Right-Ascension > 22.761: 39 (4.67)
|   |   blue-band-flux_24 > 3863.505: 16 (5.44/0.79)
blue-band-flux_29 > 5465.184
|   blue-band-flux_15 <= 9783.066
|   |   blue-band-flux_8 <= 8589.778
|   |   |   LRS-name = 12043-6225: 32 (0.0)
|   |   |   LRS-name = 12063-6259: 32 (0.0)
|   |   |   LRS-name = 12073-6233: 32 (0.0)
|   |   |   LRS-name = 12148-6741: 32 (0.0)
|   |   |   LRS-name = 12216-6218: 32 (0.0)
|   |   |   LRS-name = 12226+0102: 32 (0.0)
|   |   |   LRS-name = 12230-5943: 32 (0.0)
|   |   |   LRS-name = 12233-5920: 32 (0.0)
|   |   |   LRS-name = 12247-5842: 32 (0.0)
|   |   |   LRS-name = 12274-7647: 32 (0.0)
|   |   |   LRS-name = 12277+0441: 32 (0.0)
|   |   |   LRS-name = 12283-5650: 32 (0.0)
|   |   |   LRS-name = 12298-5754: 32 (0.0)
|   |   |   LRS-name = 12319-6728: 32 (0.0)
|   |   |   LRS-name = 12377-6102: 32 (0.0)
|   |   |   LRS-name = 12379-4959: 32 (0.0)
|   |   |   LRS-name = 12380+5607: 32 (0.0)
|   |   |   LRS-name = 12384-4536: 32 (0.0)
|   |   |   LRS-name = 12394-4338: 32 (0.0)
|   |   |   LRS-name = 12421-6217: 32 (0.0)
|   |   |   LRS-name = 12427+4542: 32 (0.0)
|   |   |   LRS-name = 12447+0425: 32 (0.0)
|   |   |   LRS-name = 12454-6659: 32 (0.0)
|   |   |   LRS-name = 12462-6418: 32 (0.0)
|   |   |   LRS-name = 12506-6004: 32 (0.0)
|   |   |   LRS-name = 12530+0340: 32 (0.0)
|   |   |   LRS-name = 12540-6845: 32 (0.0)
|   |   |   LRS-name = 12559-6041: 32 (0.0)
|   |   |   LRS-name = 12563-6100: 32 (0.0)
|   |   |   LRS-name = 13001+0527: 32 (0.0)
|   |   |   LRS-name = 13022-7650: 32 (0.0)
|   |   |   LRS-name = 13064-6103: 32 (0.0)
|   |   |   LRS-name = 13136-4426: 32 (0.0)
|   |   |   LRS-name = 13141-6119: 32 (0.0)
|   |   |   LRS-name = 13170-5404: 32 (0.0)
|   |   |   LRS-name = 13172+4547: 32 (0.0)
|   |   |   LRS-name = 13203-5536: 32 (0.0)
|   |   |   LRS-name = 13208-6027: 32 (0.0)
|   |   |   LRS-name = 13283-5839: 32 (0.0)
|   |   |   LRS-name = 13328-6244: 32 (0.0)
|   |   |   LRS-name = 13343-5807: 32 (0.0)
|   |   |   LRS-name = 13350-7221: 32 (0.0)
|   |   |   LRS-name = 13368-4941: 32 (0.0)
|   |   |   LRS-name = 13371-6249: 32 (0.0)
|   |   |   LRS-name = 13379-5426: 32 (0.0)
|   |   |   LRS-name = 13442-6109: 32 (0.0)
|   |   |   LRS-name = 13462-2807: 32 (0.0)
|   |   |   LRS-name = 13465-3412: 32 (0.0)
|   |   |   LRS-name = 13477-6532: 32 (0.0)
|   |   |   LRS-name = 13482-6716: 32 (0.0)
|   |   |   LRS-name = 13509-6348: 32 (0.0)
|   |   |   LRS-name = 13517-6515: 32 (0.0)
|   |   |   LRS-name = 13527-6117: 32 (0.0)
|   |   |   LRS-name = 13557-6442: 32 (0.0)
|   |   |   LRS-name = 13572-6347: 32 (0.0)
|   |   |   LRS-name = 13581-5930: 32 (0.0)
|   |   |   LRS-name = 14003-7633: 32 (0.0)
|   |   |   LRS-name = 14020-3515: 32 (0.0)
|   |   |   LRS-name = 14030-4629: 32 (0.0)
|   |   |   LRS-name = 14068-6158: 32 (0.0)
|   |   |   LRS-name = 14086-2839: 32 (0.0)
|   |   |   LRS-name = 14086-6907: 32 (0.0)
|   |   |   LRS-name = 14119-6453: 32 (0.0)
|   |   |   LRS-name = 14122-6133: 32 (0.0)
|   |   |   LRS-name = 14129-5940: 32 (0.0)
|   |   |   LRS-name = 14133+1925: 32 (0.0)
|   |   |   LRS-name = 14159-6038: 32 (0.0)
|   |   |   LRS-name = 14182-6144: 32 (0.0)
|   |   |   LRS-name = 14216-6152: 32 (0.0)
|   |   |   LRS-name = 14247+0454: 32 (0.0)
|   |   |   LRS-name = 14251-6256: 32 (0.0)
|   |   |   LRS-name = 14277+3904: 32 (0.0)
|   |   |   LRS-name = 14280-2952: 32 (0.0)
|   |   |   LRS-name = 14286-5905: 32 (0.0)
|   |   |   LRS-name = 14301-5734: 32 (0.0)
|   |   |   LRS-name = 14337-6215: 32 (0.0)
|   |   |   LRS-name = 14359-6037: 32 (0.0)
|   |   |   LRS-name = 14371+3245: 32 (0.0)
|   |   |   LRS-name = 14390+3147: 32 (0.0)
|   |   |   LRS-name = 14437+1520: 32 (0.0)
|   |   |   LRS-name = 14453-4920: 32 (0.0)
|   |   |   LRS-name = 14455-3625: 32 (0.0)
|   |   |   LRS-name = 14465-6000: 32 (0.0)
|   |   |   LRS-name = 14484-6152: 32 (0.0)
|   |   |   LRS-name = 14508+7421: 32 (0.0)
|   |   |   LRS-name = 14531-5337: 32 (0.0)
|   |   |   LRS-name = 14550-1214: 32 (0.0)
|   |   |   LRS-name = 14562-5406: 32 (0.0)
|   |   |   LRS-name = 14567+6607: 32 (0.0)
|   |   |   LRS-name = 14567-5846: 32 (0.0)
|   |   |   LRS-name = 14582-5926: 32 (0.0)
|   |   |   LRS-name = 14591-4438: 32 (0.0)
|   |   |   LRS-name = 15011-2505: 32 (0.0)
|   |   |   LRS-name = 15023-6916: 32 (0.0)
|   |   |   LRS-name = 15082-4808: 32 (0.0)
|   |   |   LRS-name = 15084-5702: 32 (0.0)
|   |   |   LRS-name = 15099-5509: 32 (0.0)
|   |   |   LRS-name = 15107-5726: 32 (0.0)
|   |   |   LRS-name = 15148-4940: 32 (0.0)
|   |   |   LRS-name = 15186-3604: 32 (0.0)
|   |   |   LRS-name = 15186-5730: 32 (0.0)
|   |   |   LRS-name = 15193+1429: 32 (0.0)
|   |   |   LRS-name = 15193+3132: 32 (0.0)
|   |   |   LRS-name = 15214-2244: 32 (0.0)
|   |   |   LRS-name = 15219-7545: 32 (0.0)
|   |   |   LRS-name = 15223-0203: 32 (0.0)
|   |   |   LRS-name = 15225-5605: 32 (0.0)
|   |   |   LRS-name = 15226-3603: 32 (0.0)
|   |   |   LRS-name = 15255+1944: 32 (0.0)
|   |   |   LRS-name = 15269-4400: 32 (0.0)
|   |   |   LRS-name = 15287-5811: 32 (0.0)
|   |   |   LRS-name = 15290-5546: 32 (0.0)
|   |   |   LRS-name = 15311-5538: 32 (0.0)
|   |   |   LRS-name = 15314+7847: 32 (0.0)
|   |   |   LRS-name = 15323-4920: 32 (0.0)
|   |   |   LRS-name = 15332-6430: 32 (0.0)
|   |   |   LRS-name = 15341+1515: 32 (0.0)
|   |   |   LRS-name = 15356-6722: 32 (0.0)
|   |   |   LRS-name = 15361+2441: 32 (0.0)
|   |   |   LRS-name = 15373-5308: 32 (0.0)
|   |   |   LRS-name = 15402-5449: 32 (0.0)
|   |   |   LRS-name = 15408-5413: 32 (0.0)
|   |   |   LRS-name = 15410-0133: 32 (0.0)
|   |   |   LRS-name = 15468-5018: 32 (0.0)
|   |   |   LRS-name = 15483+1517: 32 (0.0)
|   |   |   LRS-name = 15483-5514: 32 (0.0)
|   |   |   LRS-name = 15492+4837: 32 (0.0)
|   |   |   LRS-name = 15509-5207: 32 (0.0)
|   |   |   LRS-name = 15530-5201: 32 (0.0)
|   |   |   LRS-name = 15566+3609: 32 (0.0)
|   |   |   LRS-name = 15568-4513: 32 (0.0)
|   |   |   LRS-name = 15569-6135: 32 (0.0)
|   |   |   LRS-name = 15576-5400: 32 (0.0)
|   |   |   LRS-name = 16011+4722: 32 (0.0)
|   |   |   LRS-name = 16011-5424: 32 (0.0)
|   |   |   LRS-name = 16029-3041: 32 (0.0)
|   |   |   LRS-name = 16030-5156: 32 (0.0)
|   |   |   LRS-name = 16031-4856: 32 (0.0)
|   |   |   LRS-name = 16064-4200: 32 (0.0)
|   |   |   LRS-name = 16066-4427: 32 (0.0)
|   |   |   LRS-name = 16077-5830: 32 (0.0)
|   |   |   LRS-name = 16079-4812: 32 (0.0)
|   |   |   LRS-name = 16081+2511: 32 (0.0)
|   |   |   LRS-name = 16105-4205: 32 (0.0)
|   |   |   LRS-name = 16117-0334: 32 (0.0)
|   |   |   LRS-name = 16127-7834: 32 (0.0)
|   |   |   LRS-name = 16133-5151: 32 (0.0)
|   |   |   LRS-name = 16156-5613: 32 (0.0)
|   |   |   LRS-name = 16171-4759: 32 (0.0)
|   |   |   LRS-name = 16175-6120: 32 (0.0)
|   |   |   LRS-name = 16192-4900: 32 (0.0)
|   |   |   LRS-name = 16208-2215: 32 (0.0)
|   |   |   LRS-name = 16218-4701: 32 (0.0)
|   |   |   LRS-name = 16219-5048: 32 (0.0)
|   |   |   LRS-name = 16222-4738: 32 (0.0)
|   |   |   LRS-name = 16229-4947: 32 (0.0)
|   |   |   LRS-name = 16235+1900: 32 (0.0)
|   |   |   LRS-name = 16260+3454: 32 (0.0)
|   |   |   LRS-name = 16263-5533: 32 (0.0)
|   |   |   LRS-name = 16269+4159: 32 (0.0)
|   |   |   LRS-name = 16270-5213: 32 (0.0)
|   |   |   LRS-name = 16279-4709: 32 (0.0)
|   |   |   LRS-name = 16280-4154: 32 (0.0)
|   |   |   LRS-name = 16296-4417: 32 (0.0)
|   |   |   LRS-name = 16306+7223: 32 (0.0)
|   |   |   LRS-name = 16316-5026: 32 (0.0)
|   |   |   LRS-name = 16327-4848: 32 (0.0)
|   |   |   LRS-name = 16328-4656: 32 (0.0)
|   |   |   LRS-name = 16334-3107: 32 (0.0)
|   |   |   LRS-name = 16337-4525: 32 (0.0)
|   |   |   LRS-name = 16340-4634: 32 (0.0)
|   |   |   LRS-name = 16387-2700: 32 (0.0)
|   |   |   LRS-name = 16396-4429: 32 (0.0)
|   |   |   LRS-name = 16407-5639: 32 (0.0)
|   |   |   LRS-name = 16418+5459: 32 (0.0)
|   |   |   LRS-name = 16433-6856: 32 (0.0)
|   |   |   LRS-name = 16438-1133: 32 (0.0)
|   |   |   LRS-name = 16446-4243: 32 (0.0)
|   |   |   LRS-name = 16451-4312: 32 (0.0)
|   |   |   LRS-name = 16460-4022: 32 (0.0)
|   |   |   LRS-name = 16473+5753: 32 (0.0)
|   |   |   LRS-name = 16478-4322: 32 (0.0)
|   |   |   LRS-name = 16490-4618: 32 (0.0)
|   |   |   LRS-name = 16494-1252: 32 (0.0)
|   |   |   LRS-name = 16498-4143: 32 (0.0)
|   |   |   LRS-name = 16534-3030: 32 (0.0)
|   |   |   LRS-name = 16541-4901: 32 (0.0)
|   |   |   LRS-name = 16545-4214: 32 (0.0)
|   |   |   LRS-name = 16546-4057: 32 (0.0)
|   |   |   LRS-name = 16559-2557: 32 (0.0)
|   |   |   LRS-name = 16571-7548: 32 (0.0)
|   |   |   LRS-name = 16581-4058: 32 (0.0)
|   |   |   LRS-name = 16586-4142: 32 (0.0)
|   |   |   LRS-name = 16589-3315: 32 (0.0)
|   |   |   LRS-name = 16598-4117: 32 (0.0)
|   |   |   LRS-name = 17001-3651: 32 (0.0)
|   |   |   LRS-name = 17010-4323: 32 (0.0)
|   |   |   LRS-name = 17025-4719: 32 (0.0)
|   |   |   LRS-name = 17047-5650: 32 (0.0)
|   |   |   LRS-name = 17048-1601: 32 (0.0)
|   |   |   LRS-name = 17049-2440: 32 (0.0)
|   |   |   LRS-name = 17050-4123: 32 (0.0)
|   |   |   LRS-name = 17066-4028: 32 (0.0)
|   |   |   LRS-name = 17079-3243: 32 (0.0)
|   |   |   LRS-name = 17080-3215: 32 (0.0)
|   |   |   LRS-name = 17081+6422: 32 (0.0)
|   |   |   LRS-name = 17102-1031: 32 (0.0)
|   |   |   LRS-name = 17103-0559: 32 (0.0)
|   |   |   LRS-name = 17103-3551: 32 (0.0)
|   |   |   LRS-name = 17103-3702: 32 (0.0)
|   |   |   LRS-name = 17104-3146: 32 (0.0)
|   |   |   LRS-name = 17105-3746: 32 (0.0)
|   |   |   LRS-name = 17109-3942: 32 (0.0)
|   |   |   LRS-name = 17115-3322: 32 (0.0)
|   |   |   LRS-name = 17119+0859: 32 (0.0)
|   |   |   LRS-name = 17122-2707: 32 (0.0)
|   |   |   LRS-name = 17123+1107: 32 (0.0)
|   |   |   LRS-name = 17125-4814: 32 (0.0)
|   |   |   LRS-name = 17139+0446: 32 (0.0)
|   |   |   LRS-name = 17139-3746: 32 (0.0)
|   |   |   LRS-name = 17162-1934: 32 (0.0)
|   |   |   LRS-name = 17174-4641: 32 (0.0)
|   |   |   LRS-name = 17187-3750: 32 (0.0)
|   |   |   LRS-name = 17190+2658: 32 (0.0)
|   |   |   LRS-name = 17199-3512: 32 (0.0)
|   |   |   LRS-name = 17201-4613: 32 (0.0)
|   |   |   LRS-name = 17213-2219: 32 (0.0)
|   |   |   LRS-name = 17217-3916: 32 (0.0)
|   |   |   LRS-name = 17237-3102: 32 (0.0)
|   |   |   LRS-name = 17239-2812: 32 (0.0)
|   |   |   LRS-name = 17265-0725: 32 (0.0)
|   |   |   LRS-name = 17297+1747: 32 (0.0)
|   |   |   LRS-name = 17309-1724: 32 (0.0)
|   |   |   LRS-name = 17315-3414: 32 (0.0)
|   |   |   LRS-name = 17317-3331: 32 (0.0)
|   |   |   LRS-name = 17318-2342: 32 (0.0)
|   |   |   LRS-name = 17319-6234: 32 (0.0)
|   |   |   LRS-name = 17328-3327: 32 (0.0)
|   |   |   LRS-name = 17334+1537: 32 (0.0)
|   |   |   LRS-name = 17341-3453: 32 (0.0)
|   |   |   LRS-name = 17343+1052: 32 (0.0)
|   |   |   LRS-name = 17361+5746: 32 (0.0)
|   |   |   LRS-name = 17375-3652: 32 (0.0)
|   |   |   LRS-name = 17381-3442: 32 (0.0)
|   |   |   LRS-name = 17382-1704: 32 (0.0)
|   |   |   LRS-name = 17387-4343: 32 (0.0)
|   |   |   LRS-name = 17389-2045: 32 (0.0)
|   |   |   LRS-name = 17389-5742: 32 (0.0)
|   |   |   LRS-name = 17398-4344: 32 (0.0)
|   |   |   LRS-name = 17433-2523: 32 (0.0)
|   |   |   LRS-name = 17434-3414: 32 (0.0)
|   |   |   LRS-name = 17443-2519: 32 (0.0)
|   |   |   LRS-name = 17446-7809: 32 (0.0)
|   |   |   LRS-name = 17462-8647: 32 (0.0)
|   |   |   LRS-name = 17479-2927: 32 (0.0)
|   |   |   LRS-name = 17484-0800: 32 (0.0)
|   |   |   LRS-name = 17488-2800: 32 (0.0)
|   |   |   LRS-name = 17504-0234: 32 (0.0)
|   |   |   LRS-name = 17505-3143: 32 (0.0)
|   |   |   LRS-name = 17508-3419: 32 (0.0)
|   |   |   LRS-name = 17513-2313: 32 (0.0)
|   |   |   LRS-name = 17534-3030: 32 (0.0)
|   |   |   LRS-name = 17540-1919: 32 (0.0)
|   |   |   LRS-name = 17541+1110: 32 (0.0)
|   |   |   LRS-name = 17554+5129: 32 (0.0)
|   |   |   LRS-name = 17556+5813: 32 (0.0)
|   |   |   LRS-name = 17570-3713: 32 (0.0)
|   |   |   LRS-name = 17579+2335: 32 (0.0)
|   |   |   LRS-name = 17581-1744: 32 (0.0)
|   |   |   LRS-name = 18018-2802: 32 (0.0)
|   |   |   LRS-name = 18027-2314: 32 (0.0)
|   |   |   LRS-name = 18039-0813: 32 (0.0)
|   |   |   LRS-name = 18040-0941: 32 (0.0)
|   |   |   LRS-name = 18041-3317: 32 (0.0)
|   |   |   LRS-name = 18057-2616: 32 (0.0)
|   |   |   LRS-name = 18076+3445: 32 (0.0)
|   |   |   LRS-name = 18076-1034: 32 (0.0)
|   |   |   LRS-name = 18083-2630: 32 (0.0)
|   |   |   LRS-name = 18092-0437: 32 (0.0)
|   |   |   LRS-name = 18095+2704: 32 (0.0)
|   |   |   LRS-name = 18135-1456: 32 (0.0)
|   |   |   LRS-name = 18135-1740: 32 (0.0)
|   |   |   LRS-name = 18136-1859: 32 (0.0)
|   |   |   LRS-name = 18142-3646: 32 (0.0)
|   |   |   LRS-name = 18156-0653: 32 (0.0)
|   |   |   LRS-name = 18157+1757: 32 (0.0)
|   |   |   LRS-name = 18162-0246: 32 (0.0)
|   |   |   LRS-name = 18176-1848: 32 (0.0)
|   |   |   LRS-name = 18177-2951: 32 (0.0)
|   |   |   LRS-name = 18186+3143: 32 (0.0)
|   |   |   LRS-name = 18213+0335: 32 (0.0)
|   |   |   LRS-name = 18222+3933: 32 (0.0)
|   |   |   LRS-name = 18230+0544: 32 (0.0)
|   |   |   LRS-name = 18239-0655: 32 (0.0)
|   |   |   LRS-name = 18240+2326: 32 (0.0)
|   |   |   LRS-name = 18257-1000: 32 (0.0)
|   |   |   LRS-name = 18267-0606: 32 (0.0)
|   |   |   LRS-name = 18273-0738: 32 (0.0)
|   |   |   LRS-name = 18276+8236: 32 (0.0)
|   |   |   LRS-name = 18276-4717: 32 (0.0)
|   |   |   LRS-name = 18280-5639: 32 (0.0)
|   |   |   LRS-name = 18281+2149: 32 (0.0)
|   |   |   LRS-name = 18301-0656: 32 (0.0)
|   |   |   LRS-name = 18303-0519: 32 (0.0)
|   |   |   LRS-name = 18306+3657: 32 (0.0)
|   |   |   LRS-name = 18314-1131: 32 (0.0)
|   |   |   LRS-name = 18316-0602: 32 (0.0)
|   |   |   LRS-name = 18320-0352: 32 (0.0)
|   |   |   LRS-name = 18325-1138: 32 (0.0)
|   |   |   LRS-name = 18333+0533: 32 (0.0)
|   |   |   LRS-name = 18349+1023: 32 (0.0)
|   |   |   LRS-name = 18359+0847: 32 (0.0)
|   |   |   LRS-name = 18367-0452: 32 (0.0)
|   |   |   LRS-name = 18373-0021: 32 (0.0)
|   |   |   LRS-name = 18378-3731: 32 (0.0)
|   |   |   LRS-name = 18397+1738: 32 (0.0)
|   |   |   LRS-name = 18398-0220: 32 (0.0)
|   |   |   LRS-name = 18401+2854: 32 (0.0)
|   |   |   LRS-name = 18413+1354: 32 (0.0)
|   |   |   LRS-name = 18414-0527: 32 (0.0)
|   |   |   LRS-name = 18421+1147: 32 (0.0)
|   |   |   LRS-name = 18429-1721: 32 (0.0)
|   |   |   LRS-name = 18450-0922: 32 (0.0)
|   |   |   LRS-name = 18451-0824: 32 (0.0)
|   |   |   LRS-name = 18464-0656: 32 (0.0)
|   |   |   LRS-name = 18467-4802: 32 (0.0)
|   |   |   LRS-name = 18475+0926: 32 (0.0)
|   |   |   LRS-name = 18476+0555: 32 (0.0)
|   |   |   LRS-name = 18527+3650: 32 (0.0)
|   |   |   LRS-name = 18530+0817: 32 (0.0)
|   |   |   LRS-name = 18531+0016: 32 (0.0)
|   |   |   LRS-name = 18535+0726: 32 (0.0)
|   |   |   LRS-name = 18537-1035: 32 (0.0)
|   |   |   LRS-name = 18550+0130: 32 (0.0)
|   |   |   LRS-name = 18551+0323: 32 (0.0)
|   |   |   LRS-name = 18551+1345: 32 (0.0)
|   |   |   LRS-name = 18556+0811: 32 (0.0)
|   |   |   LRS-name = 18560+0638: 32 (0.0)
|   |   |   LRS-name = 19007-2247: 32 (0.0)
|   |   |   LRS-name = 19007-3826: 32 (0.0)
|   |   |   LRS-name = 19008+0726: 32 (0.0)
|   |   |   LRS-name = 19017-0545: 32 (0.0)
|   |   |   LRS-name = 19029+0808: 32 (0.0)
|   |   |   LRS-name = 19032-4602: 32 (0.0)
|   |   |   LRS-name = 19042-4858: 32 (0.0)
|   |   |   LRS-name = 19043+1009: 32 (0.0)
|   |   |   LRS-name = 19059-2219: 32 (0.0)
|   |   |   LRS-name = 19075+0921: 32 (0.0)
|   |   |   LRS-name = 19093-3256: 32 (0.0)
|   |   |   LRS-name = 19099+6711: 32 (0.0)
|   |   |   LRS-name = 19135+0931: 32 (0.0)
|   |   |   LRS-name = 19143-5032: 32 (0.0)
|   |   |   LRS-name = 19157-1706: 32 (0.0)
|   |   |   LRS-name = 19161+2343: 32 (0.0)
|   |   |   LRS-name = 19178-2620: 32 (0.0)
|   |   |   LRS-name = 19188-1603: 32 (0.0)
|   |   |   LRS-name = 19192+0922: 32 (0.0)
|   |   |   LRS-name = 19194+1734: 32 (0.0)
|   |   |   LRS-name = 19229+1708: 32 (0.0)
|   |   |   LRS-name = 19232+5008: 32 (0.0)
|   |   |   LRS-name = 19240+3615: 32 (0.0)
|   |   |   LRS-name = 19247-1722: 32 (0.0)
|   |   |   LRS-name = 19282+2253: 32 (0.0)
|   |   |   LRS-name = 19283+1944: 32 (0.0)
|   |   |   LRS-name = 19287+4602: 32 (0.0)
|   |   |   LRS-name = 19296+4331: 32 (0.0)
|   |   |   LRS-name = 19314-1629: 32 (0.0)
|   |   |   LRS-name = 19321+2757: 32 (0.0)
|   |   |   LRS-name = 19324+3033: 32 (0.0)
|   |   |   LRS-name = 19327+3024: 32 (0.0)
|   |   |   LRS-name = 19352+2030: 32 (0.0)
|   |   |   LRS-name = 19354+5005: 32 (0.0)
|   |   |   LRS-name = 19361-1658: 32 (0.0)
|   |   |   LRS-name = 19396+1637: 32 (0.0)
|   |   |   LRS-name = 19412+0337: 32 (0.0)
|   |   |   LRS-name = 19422+3506: 32 (0.0)
|   |   |   LRS-name = 19451+1824: 32 (0.0)
|   |   |   LRS-name = 19472+2127: 32 (0.0)
|   |   |   LRS-name = 19474-0744: 32 (0.0)
|   |   |   LRS-name = 19480+2447: 32 (0.0)
|   |   |   LRS-name = 19495+0835: 32 (0.0)
|   |   |   LRS-name = 19500-1709: 32 (0.0)
|   |   |   LRS-name = 19503+2219: 32 (0.0)
|   |   |   LRS-name = 19510-5919: 32 (0.0)
|   |   |   LRS-name = 19528-2919: 32 (0.0)
|   |   |   LRS-name = 19536+3237: 32 (0.0)
|   |   |   LRS-name = 19537+2212: 32 (0.0)
|   |   |   LRS-name = 19548+3035: 32 (0.0)
|   |   |   LRS-name = 19550-0201: 32 (0.0)
|   |   |   LRS-name = 19575-5930: 32 (0.0)
|   |   |   LRS-name = 19585+5200: 32 (0.0)
|   |   |   LRS-name = 19586+3637: 32 (0.0)
|   |   |   LRS-name = 19594+4047: 32 (0.0)
|   |   |   LRS-name = 19595-2751: 32 (0.0)
|   |   |   LRS-name = 20010+3011: 32 (0.0)
|   |   |   LRS-name = 20015+3019: 32 (0.0)
|   |   |   LRS-name = 20024+3330: 32 (0.0)
|   |   |   LRS-name = 20028+3910: 32 (0.0)
|   |   |   LRS-name = 20038-2722: 32 (0.0)
|   |   |   LRS-name = 20042-4241: 32 (0.0)
|   |   |   LRS-name = 20052+0554: 32 (0.0)
|   |   |   LRS-name = 20072+3116: 32 (0.0)
|   |   |   LRS-name = 20075-6005: 32 (0.0)
|   |   |   LRS-name = 20094-1121: 32 (0.0)
|   |   |   LRS-name = 20111-4708: 32 (0.0)
|   |   |   LRS-name = 20113+4917: 32 (0.0)
|   |   |   LRS-name = 20124+6605: 32 (0.0)
|   |   |   LRS-name = 20135-7152: 32 (0.0)
|   |   |   LRS-name = 20161-1600: 32 (0.0)
|   |   |   LRS-name = 20165+3413: 32 (0.0)
|   |   |   LRS-name = 20171+3519: 32 (0.0)
|   |   |   LRS-name = 20193+3527: 32 (0.0)
|   |   |   LRS-name = 20194+3646: 32 (0.0)
|   |   |   LRS-name = 20200+3624: 32 (0.0)
|   |   |   LRS-name = 20215+6243: 32 (0.0)
|   |   |   LRS-name = 20248+7505: 32 (0.0)
|   |   |   LRS-name = 20248-2825: 32 (0.0)
|   |   |   LRS-name = 20253+3814: 32 (0.0)
|   |   |   LRS-name = 20255+4054: 32 (0.0)
|   |   |   LRS-name = 20267+2105: 32 (0.0)
|   |   |   LRS-name = 20275+4001: 32 (0.0)
|   |   |   LRS-name = 20297+3221: 32 (0.0)
|   |   |   LRS-name = 20310+4029: 32 (0.0)
|   |   |   LRS-name = 20318+3829: 32 (5.65)
|   |   |   LRS-name = 20340+5338: 32 (0.0)
|   |   |   LRS-name = 20350+3741: 32 (0.0)
|   |   |   LRS-name = 20356+1805: 32 (0.0)
|   |   |   LRS-name = 20365+1154: 32 (0.0)
|   |   |   LRS-name = 20396+4757: 32 (0.0)
|   |   |   LRS-name = 20403+3700: 32 (0.0)
|   |   |   LRS-name = 20417-0500: 32 (0.0)
|   |   |   LRS-name = 20431+1754: 32 (0.0)
|   |   |   LRS-name = 20435+3825: 32 (0.0)
|   |   |   LRS-name = 20440-0105: 32 (0.0)
|   |   |   LRS-name = 20479+0554: 32 (0.0)
|   |   |   LRS-name = 20484-7202: 32 (0.0)
|   |   |   LRS-name = 20491+4236: 32 (0.0)
|   |   |   LRS-name = 20502+4709: 32 (0.0)
|   |   |   LRS-name = 20529+3013: 32 (0.0)
|   |   |   LRS-name = 20532+5554: 32 (0.0)
|   |   |   LRS-name = 20541-6549: 32 (0.0)
|   |   |   LRS-name = 20549+5245: 32 (0.0)
|   |   |   LRS-name = 20570+2714: 32 (0.0)
|   |   |   LRS-name = 21003+4801: 32 (0.0)
|   |   |   LRS-name = 21032-0024: 32 (0.0)
|   |   |   LRS-name = 21035+5136: 32 (0.0)
|   |   |   LRS-name = 21044-1637: 32 (0.0)
|   |   |   LRS-name = 21069-3843: 32 (0.0)
|   |   |   LRS-name = 21086+5238: 32 (0.0)
|   |   |   LRS-name = 21088+6817: 32 (0.0)
|   |   |   LRS-name = 21190+5140: 32 (0.0)
|   |   |   LRS-name = 21206-4054: 32 (0.0)
|   |   |   LRS-name = 21243-6943: 32 (0.0)
|   |   |   LRS-name = 21245+6221: 32 (0.0)
|   |   |   LRS-name = 21270+7135: 32 (0.0)
|   |   |   LRS-name = 21286+1055: 32 (0.0)
|   |   |   LRS-name = 21305+2118: 32 (0.0)
|   |   |   LRS-name = 21312+5405: 32 (0.0)
|   |   |   LRS-name = 21318+5631: 32 (0.0)
|   |   |   LRS-name = 21320+3850: 32 (0.0)
|   |   |   LRS-name = 21341+4508: 32 (0.0)
|   |   |   LRS-name = 21368-3812: 32 (0.0)
|   |   |   LRS-name = 21373+4540: 32 (0.0)
|   |   |   LRS-name = 21377+5042: 32 (0.0)
|   |   |   LRS-name = 21377-0200: 32 (0.0)
|   |   |   LRS-name = 21383+4513: 32 (0.0)
|   |   |   LRS-name = 21389+5405: 32 (0.0)
|   |   |   LRS-name = 21399+3516: 32 (0.0)
|   |   |   LRS-name = 21401+7354: 32 (0.0)
|   |   |   LRS-name = 21417+0938: 32 (0.0)
|   |   |   LRS-name = 21449+4950: 32 (0.0)
|   |   |   LRS-name = 21453-4708: 32 (0.0)
|   |   |   LRS-name = 21456+6422: 32 (0.0)
|   |   |   LRS-name = 21489+5301: 32 (0.0)
|   |   |   LRS-name = 21543-1421: 32 (0.0)
|   |   |   LRS-name = 21552+6323: 32 (0.0)
|   |   |   LRS-name = 21554+6204: 32 (0.0)
|   |   |   LRS-name = 21558+5907: 32 (0.0)
|   |   |   LRS-name = 21563+5630: 32 (0.0)
|   |   |   LRS-name = 22017+2806: 32 (0.0)
|   |   |   LRS-name = 22035+3506: 32 (0.0)
|   |   |   LRS-name = 22091+5757: 32 (0.0)
|   |   |   LRS-name = 22097+5647: 32 (0.0)
|   |   |   LRS-name = 22142-8454: 32 (0.0)
|   |   |   LRS-name = 22150-6030: 32 (0.0)
|   |   |   LRS-name = 22165+4331: 32 (0.0)
|   |   |   LRS-name = 22177+5936: 32 (0.0)
|   |   |   LRS-name = 22190-0751: 32 (0.0)
|   |   |   LRS-name = 22196-4612: 32 (0.0)
|   |   |   LRS-name = 22212+5542: 32 (0.0)
|   |   |   LRS-name = 22230-4841: 32 (0.0)
|   |   |   LRS-name = 22231-4529: 32 (0.0)
|   |   |   LRS-name = 22241+6005: 32 (0.0)
|   |   |   LRS-name = 22264+5858: 32 (0.0)
|   |   |   LRS-name = 22267-4400: 32 (0.0)
|   |   |   LRS-name = 22272+5435: 72 (0.79)
|   |   |   LRS-name = 22280+1250: 32 (0.0)
|   |   |   LRS-name = 22282+5644: 32 (0.0)
|   |   |   LRS-name = 22303+5950: 32 (0.0)
|   |   |   LRS-name = 22306+5510: 32 (0.0)
|   |   |   LRS-name = 22317+5838: 32 (0.0)
|   |   |   LRS-name = 22345+5809: 32 (0.0)
|   |   |   LRS-name = 22456+5453: 32 (0.0)
|   |   |   LRS-name = 22476+4047: 32 (0.0)
|   |   |   LRS-name = 22512+6100: 32 (0.0)
|   |   |   LRS-name = 22516+0838: 32 (0.0)
|   |   |   LRS-name = 22518+6600: 32 (0.0)
|   |   |   LRS-name = 22525-2952: 32 (0.0)
|   |   |   LRS-name = 22526+8446: 32 (0.0)
|   |   |   LRS-name = 22540-5740: 32 (0.0)
|   |   |   LRS-name = 22585+6402: 32 (0.0)
|   |   |   LRS-name = 23000+5932: 32 (0.0)
|   |   |   LRS-name = 23013+2748: 32 (0.0)
|   |   |   LRS-name = 23095+5925: 32 (0.0)
|   |   |   LRS-name = 23134-7031: 32 (0.0)
|   |   |   LRS-name = 23138+6204: 32 (0.0)
|   |   |   LRS-name = 23151+5912: 32 (0.0)
|   |   |   LRS-name = 23166+1655: 2 (4.67)
|   |   |   LRS-name = 23202+5901: 32 (0.0)
|   |   |   LRS-name = 23213-4521: 32 (0.0)
|   |   |   LRS-name = 23284+5958: 32 (0.0)
|   |   |   LRS-name = 23309+2213: 32 (0.0)
|   |   |   LRS-name = 23320+4316: 32 (0.0)
|   |   |   LRS-name = 23365+5159: 32 (0.0)
|   |   |   LRS-name = 23416+6130: 32 (0.0)
|   |   |   LRS-name = 23439+5412: 32 (0.0)
|   |   |   LRS-name = 23491+6243: 32 (0.0)
|   |   |   LRS-name = 23496+6131: 32 (0.0)
|   |   |   LRS-name = 23528+4821: 32 (0.0)
|   |   |   LRS-name = 23541+7031: 32 (0.0)
|   |   |   LRS-name = 23564-5651: 32 (0.0)
|   |   blue-band-flux_8 > 8589.778
|   |   |   blue-band-flux_29 <= 6362.126
|   |   |   |   blue-band-flux_41 <= 4007.9377: 24 (10.7/1.36)
|   |   |   |   blue-band-flux_41 > 4007.9377
|   |   |   |   |   blue-band-flux_4 <= 13608.792
|   |   |   |   |   |   blue-band-flux_16 <= 6906.8496: 31 (2.88/0.96)
|   |   |   |   |   |   blue-band-flux_16 > 6906.8496: 21 (14.97/2.12)
|   |   |   |   |   blue-band-flux_4 > 13608.792: 15 (3.19/0.96)
|   |   |   blue-band-flux_29 > 6362.126
|   |   |   |   blue-band-flux_25 <= 7604.5967
|   |   |   |   |   blue-band-flux_32 <= 5879.564: 43 (8.36/1.36)
|   |   |   |   |   blue-band-flux_32 > 5879.564: 42 (4.64/0.1)
|   |   |   |   blue-band-flux_25 > 7604.5967: 44 (5.8/1.75)
|   blue-band-flux_15 > 9783.066
|   |   blue-band-flux_14 <= 10817.023
|   |   |   red-band-flux_18 <= 2020.8752: 22 (3.47)
|   |   |   red-band-flux_18 > 2020.8752: 23 (10.34/1.06)
|   |   blue-band-flux_14 > 10817.023
|   |   |   blue-band-flux_27 <= 6707.8584: 25 (4.24/1.92)
|   |   |   blue-band-flux_27 > 6707.8584
|   |   |   |   blue-band-flux_1 <= 7580.9927: 29 (5.45/1.95)
|   |   |   |   blue-band-flux_1 > 7580.9927
|   |   |   |   |   Blue_base_1 <= 1139: 27 (15.71/3.29)
|   |   |   |   |   Blue_base_1 > 1139: 28 (2.71/0.96)

Number of Leaves  : 	549

Size of the tree : 	568


Weight: 1.66

J48 pruned tree
------------------

blue-band-flux_28 <= 5932.377
|   blue-band-flux_3 <= 12907.365
|   |   Right-Ascension <= 22.576: 33 (6.76/4.29)
|   |   Right-Ascension > 22.576: 2 (5.78)
|   blue-band-flux_3 > 12907.365
|   |   ID-type = 0: 39 (3.35/0.57)
|   |   ID-type = 2: 16 (2.42/1.03)
|   |   ID-type = 3: 38 (1.71/0.57)
|   |   ID-type = 4
|   |   |   blue-band-flux_2 <= 23096.492: 17 (2.19/0.81)
|   |   |   blue-band-flux_2 > 23096.492: 18 (2.76)
blue-band-flux_28 > 5932.377
|   blue-band-flux_18 <= 8741.739
|   |   red-band-flux_4 <= 6768.9175
|   |   |   blue-band-flux_39 <= 4338.6523
|   |   |   |   Right-Ascension <= 20.496: 24 (3.47/0.69)
|   |   |   |   Right-Ascension > 20.496: 42 (15.72/5.86)
|   |   |   blue-band-flux_39 > 4338.6523
|   |   |   |   blue-band-flux_30 <= 6203.406
|   |   |   |   |   red-band-flux_49 <= 586.54535: 14 (4.86/0.06)
|   |   |   |   |   red-band-flux_49 > 586.54535: 21 (7.64/0.46)
|   |   |   |   blue-band-flux_30 > 6203.406: 41 (7.88/1.89)
|   |   red-band-flux_4 > 6768.9175
|   |   |   red-band-flux_21 <= 2418.7192: 45 (4.2/1.72)
|   |   |   red-band-flux_21 > 2418.7192: 32 (3.84/0.47)
|   blue-band-flux_18 > 8741.739
|   |   blue-band-flux_4 <= 9207.08
|   |   |   blue-band-flux_39 <= 3646.2778
|   |   |   |   red-band-flux_11 <= 2919.6433: 29 (3.71)
|   |   |   |   red-band-flux_11 > 2919.6433: 69 (2.48)
|   |   |   blue-band-flux_39 > 3646.2778
|   |   |   |   blue-band-flux_30 <= 6656.1216
|   |   |   |   |   Right-Ascension <= 22.402
|   |   |   |   |   |   red-band-flux_8 <= 3586.3875: 27 (2.54/0.59)
|   |   |   |   |   |   red-band-flux_8 > 3586.3875: 26 (10.85/0.31)
|   |   |   |   |   Right-Ascension > 22.402
|   |   |   |   |   |   red-band-flux_49 <= 1037.9974: 27 (4.11/0.06)
|   |   |   |   |   |   red-band-flux_49 > 1037.9974: 28 (7.81)
|   |   |   |   blue-band-flux_30 > 6656.1216: 25 (3.3)
|   |   blue-band-flux_4 > 9207.08
|   |   |   blue-band-flux_17 <= 10976.95
|   |   |   |   blue-band-flux_21 <= 8843.935
|   |   |   |   |   red-band-flux_18 <= 2084.123: 22 (2.07)
|   |   |   |   |   red-band-flux_18 > 2084.123: 23 (5.31/0.47)
|   |   |   |   blue-band-flux_21 > 8843.935: 24 (9.47/0.69)
|   |   |   blue-band-flux_17 > 10976.95: 25 (2.76/1.38)

Number of Leaves  : 	25

Size of the tree : 	47


Weight: 1.57

J48 pruned tree
------------------

blue-band-flux_29 <= 5465.184
|   red-band-flux_15 <= 3310.0837
|   |   red-band-flux_29 <= 911.2083: 18 (5.5/0.83)
|   |   red-band-flux_29 > 911.2083
|   |   |   ID-type = 0: 16 (0.0)
|   |   |   ID-type = 2: 2 (2.65/0.83)
|   |   |   ID-type = 3: 16 (0.0)
|   |   |   ID-type = 4: 16 (4.0)
|   red-band-flux_15 > 3310.0837
|   |   Blue_base_2 <= 1003: 38 (4.02/1.68)
|   |   Blue_base_2 > 1003: 82 (8.68/1.5)
blue-band-flux_29 > 5465.184
|   blue-band-flux_18 <= 8741.739
|   |   blue-band-flux_25 <= 7604.5967
|   |   |   blue-band-flux_26 <= 7080.9634
|   |   |   |   blue-band-flux_15 <= 6501.832: 31 (4.68/1.37)
|   |   |   |   blue-band-flux_15 > 6501.832
|   |   |   |   |   LRS-name = 12043-6225: 14 (0.0)
|   |   |   |   |   LRS-name = 12063-6259: 14 (0.0)
|   |   |   |   |   LRS-name = 12073-6233: 14 (0.0)
|   |   |   |   |   LRS-name = 12148-6741: 14 (0.0)
|   |   |   |   |   LRS-name = 12216-6218: 14 (0.0)
|   |   |   |   |   LRS-name = 12226+0102: 14 (0.0)
|   |   |   |   |   LRS-name = 12230-5943: 14 (0.0)
|   |   |   |   |   LRS-name = 12233-5920: 14 (0.0)
|   |   |   |   |   LRS-name = 12247-5842: 14 (0.0)
|   |   |   |   |   LRS-name = 12274-7647: 14 (0.0)
|   |   |   |   |   LRS-name = 12277+0441: 14 (0.0)
|   |   |   |   |   LRS-name = 12283-5650: 14 (0.0)
|   |   |   |   |   LRS-name = 12298-5754: 14 (0.0)
|   |   |   |   |   LRS-name = 12319-6728: 14 (0.0)
|   |   |   |   |   LRS-name = 12377-6102: 14 (0.0)
|   |   |   |   |   LRS-name = 12379-4959: 14 (0.0)
|   |   |   |   |   LRS-name = 12380+5607: 14 (0.0)
|   |   |   |   |   LRS-name = 12384-4536: 14 (0.0)
|   |   |   |   |   LRS-name = 12394-4338: 14 (0.0)
|   |   |   |   |   LRS-name = 12421-6217: 14 (0.0)
|   |   |   |   |   LRS-name = 12427+4542: 14 (0.0)
|   |   |   |   |   LRS-name = 12447+0425: 14 (0.0)
|   |   |   |   |   LRS-name = 12454-6659: 14 (0.0)
|   |   |   |   |   LRS-name = 12462-6418: 14 (0.0)
|   |   |   |   |   LRS-name = 12506-6004: 14 (0.0)
|   |   |   |   |   LRS-name = 12530+0340: 14 (0.0)
|   |   |   |   |   LRS-name = 12540-6845: 14 (0.0)
|   |   |   |   |   LRS-name = 12559-6041: 14 (0.0)
|   |   |   |   |   LRS-name = 12563-6100: 14 (0.0)
|   |   |   |   |   LRS-name = 13001+0527: 14 (0.0)
|   |   |   |   |   LRS-name = 13022-7650: 14 (0.0)
|   |   |   |   |   LRS-name = 13064-6103: 14 (0.0)
|   |   |   |   |   LRS-name = 13136-4426: 14 (0.0)
|   |   |   |   |   LRS-name = 13141-6119: 14 (0.0)
|   |   |   |   |   LRS-name = 13170-5404: 14 (0.0)
|   |   |   |   |   LRS-name = 13172+4547: 14 (0.0)
|   |   |   |   |   LRS-name = 13203-5536: 14 (0.0)
|   |   |   |   |   LRS-name = 13208-6027: 14 (0.0)
|   |   |   |   |   LRS-name = 13283-5839: 14 (0.0)
|   |   |   |   |   LRS-name = 13328-6244: 14 (0.0)
|   |   |   |   |   LRS-name = 13343-5807: 14 (0.0)
|   |   |   |   |   LRS-name = 13350-7221: 14 (0.0)
|   |   |   |   |   LRS-name = 13368-4941: 14 (0.0)
|   |   |   |   |   LRS-name = 13371-6249: 14 (0.0)
|   |   |   |   |   LRS-name = 13379-5426: 14 (0.0)
|   |   |   |   |   LRS-name = 13442-6109: 14 (0.0)
|   |   |   |   |   LRS-name = 13462-2807: 14 (0.0)
|   |   |   |   |   LRS-name = 13465-3412: 14 (0.0)
|   |   |   |   |   LRS-name = 13477-6532: 14 (0.0)
|   |   |   |   |   LRS-name = 13482-6716: 14 (0.0)
|   |   |   |   |   LRS-name = 13509-6348: 14 (0.0)
|   |   |   |   |   LRS-name = 13517-6515: 14 (0.0)
|   |   |   |   |   LRS-name = 13527-6117: 14 (0.0)
|   |   |   |   |   LRS-name = 13557-6442: 14 (0.0)
|   |   |   |   |   LRS-name = 13572-6347: 14 (0.0)
|   |   |   |   |   LRS-name = 13581-5930: 14 (0.0)
|   |   |   |   |   LRS-name = 14003-7633: 14 (0.0)
|   |   |   |   |   LRS-name = 14020-3515: 14 (0.0)
|   |   |   |   |   LRS-name = 14030-4629: 14 (0.0)
|   |   |   |   |   LRS-name = 14068-6158: 14 (0.0)
|   |   |   |   |   LRS-name = 14086-2839: 14 (0.0)
|   |   |   |   |   LRS-name = 14086-6907: 14 (0.0)
|   |   |   |   |   LRS-name = 14119-6453: 14 (0.0)
|   |   |   |   |   LRS-name = 14122-6133: 14 (0.0)
|   |   |   |   |   LRS-name = 14129-5940: 14 (0.0)
|   |   |   |   |   LRS-name = 14133+1925: 14 (0.0)
|   |   |   |   |   LRS-name = 14159-6038: 14 (0.0)
|   |   |   |   |   LRS-name = 14182-6144: 14 (0.0)
|   |   |   |   |   LRS-name = 14216-6152: 14 (0.0)
|   |   |   |   |   LRS-name = 14247+0454: 14 (0.0)
|   |   |   |   |   LRS-name = 14251-6256: 14 (0.0)
|   |   |   |   |   LRS-name = 14277+3904: 14 (0.0)
|   |   |   |   |   LRS-name = 14280-2952: 14 (0.0)
|   |   |   |   |   LRS-name = 14286-5905: 14 (0.0)
|   |   |   |   |   LRS-name = 14301-5734: 14 (0.0)
|   |   |   |   |   LRS-name = 14337-6215: 14 (0.0)
|   |   |   |   |   LRS-name = 14359-6037: 14 (0.0)
|   |   |   |   |   LRS-name = 14371+3245: 14 (0.0)
|   |   |   |   |   LRS-name = 14390+3147: 14 (0.0)
|   |   |   |   |   LRS-name = 14437+1520: 14 (0.0)
|   |   |   |   |   LRS-name = 14453-4920: 14 (0.0)
|   |   |   |   |   LRS-name = 14455-3625: 14 (0.0)
|   |   |   |   |   LRS-name = 14465-6000: 14 (0.0)
|   |   |   |   |   LRS-name = 14484-6152: 14 (0.0)
|   |   |   |   |   LRS-name = 14508+7421: 14 (0.0)
|   |   |   |   |   LRS-name = 14531-5337: 14 (0.0)
|   |   |   |   |   LRS-name = 14550-1214: 14 (0.0)
|   |   |   |   |   LRS-name = 14562-5406: 14 (0.0)
|   |   |   |   |   LRS-name = 14567+6607: 14 (0.0)
|   |   |   |   |   LRS-name = 14567-5846: 14 (0.0)
|   |   |   |   |   LRS-name = 14582-5926: 14 (0.0)
|   |   |   |   |   LRS-name = 14591-4438: 14 (0.0)
|   |   |   |   |   LRS-name = 15011-2505: 14 (0.0)
|   |   |   |   |   LRS-name = 15023-6916: 14 (0.0)
|   |   |   |   |   LRS-name = 15082-4808: 14 (0.0)
|   |   |   |   |   LRS-name = 15084-5702: 14 (0.0)
|   |   |   |   |   LRS-name = 15099-5509: 14 (0.0)
|   |   |   |   |   LRS-name = 15107-5726: 14 (0.0)
|   |   |   |   |   LRS-name = 15148-4940: 14 (0.0)
|   |   |   |   |   LRS-name = 15186-3604: 14 (0.0)
|   |   |   |   |   LRS-name = 15186-5730: 14 (0.0)
|   |   |   |   |   LRS-name = 15193+1429: 14 (0.0)
|   |   |   |   |   LRS-name = 15193+3132: 14 (0.0)
|   |   |   |   |   LRS-name = 15214-2244: 14 (0.0)
|   |   |   |   |   LRS-name = 15219-7545: 14 (0.0)
|   |   |   |   |   LRS-name = 15223-0203: 14 (0.0)
|   |   |   |   |   LRS-name = 15225-5605: 14 (0.0)
|   |   |   |   |   LRS-name = 15226-3603: 14 (0.0)
|   |   |   |   |   LRS-name = 15255+1944: 14 (0.0)
|   |   |   |   |   LRS-name = 15269-4400: 14 (0.0)
|   |   |   |   |   LRS-name = 15287-5811: 14 (0.0)
|   |   |   |   |   LRS-name = 15290-5546: 14 (0.0)
|   |   |   |   |   LRS-name = 15311-5538: 14 (0.0)
|   |   |   |   |   LRS-name = 15314+7847: 14 (0.0)
|   |   |   |   |   LRS-name = 15323-4920: 14 (0.0)
|   |   |   |   |   LRS-name = 15332-6430: 14 (0.0)
|   |   |   |   |   LRS-name = 15341+1515: 14 (0.0)
|   |   |   |   |   LRS-name = 15356-6722: 14 (0.0)
|   |   |   |   |   LRS-name = 15361+2441: 14 (0.0)
|   |   |   |   |   LRS-name = 15373-5308: 14 (0.0)
|   |   |   |   |   LRS-name = 15402-5449: 14 (0.0)
|   |   |   |   |   LRS-name = 15408-5413: 14 (0.0)
|   |   |   |   |   LRS-name = 15410-0133: 14 (0.0)
|   |   |   |   |   LRS-name = 15468-5018: 14 (0.0)
|   |   |   |   |   LRS-name = 15483+1517: 14 (0.0)
|   |   |   |   |   LRS-name = 15483-5514: 14 (0.0)
|   |   |   |   |   LRS-name = 15492+4837: 14 (0.0)
|   |   |   |   |   LRS-name = 15509-5207: 14 (0.0)
|   |   |   |   |   LRS-name = 15530-5201: 14 (0.0)
|   |   |   |   |   LRS-name = 15566+3609: 14 (0.0)
|   |   |   |   |   LRS-name = 15568-4513: 14 (0.0)
|   |   |   |   |   LRS-name = 15569-6135: 14 (0.0)
|   |   |   |   |   LRS-name = 15576-5400: 14 (0.0)
|   |   |   |   |   LRS-name = 16011+4722: 14 (0.0)
|   |   |   |   |   LRS-name = 16011-5424: 14 (0.0)
|   |   |   |   |   LRS-name = 16029-3041: 14 (0.0)
|   |   |   |   |   LRS-name = 16030-5156: 14 (0.0)
|   |   |   |   |   LRS-name = 16031-4856: 14 (0.0)
|   |   |   |   |   LRS-name = 16064-4200: 14 (0.0)
|   |   |   |   |   LRS-name = 16066-4427: 14 (0.0)
|   |   |   |   |   LRS-name = 16077-5830: 14 (0.0)
|   |   |   |   |   LRS-name = 16079-4812: 14 (0.0)
|   |   |   |   |   LRS-name = 16081+2511: 14 (0.0)
|   |   |   |   |   LRS-name = 16105-4205: 14 (0.0)
|   |   |   |   |   LRS-name = 16117-0334: 14 (0.0)
|   |   |   |   |   LRS-name = 16127-7834: 14 (0.0)
|   |   |   |   |   LRS-name = 16133-5151: 14 (0.0)
|   |   |   |   |   LRS-name = 16156-5613: 14 (0.0)
|   |   |   |   |   LRS-name = 16171-4759: 14 (0.0)
|   |   |   |   |   LRS-name = 16175-6120: 14 (0.0)
|   |   |   |   |   LRS-name = 16192-4900: 14 (0.0)
|   |   |   |   |   LRS-name = 16208-2215: 14 (0.0)
|   |   |   |   |   LRS-name = 16218-4701: 14 (0.0)
|   |   |   |   |   LRS-name = 16219-5048: 14 (0.0)
|   |   |   |   |   LRS-name = 16222-4738: 14 (0.0)
|   |   |   |   |   LRS-name = 16229-4947: 14 (0.0)
|   |   |   |   |   LRS-name = 16235+1900: 14 (0.0)
|   |   |   |   |   LRS-name = 16260+3454: 14 (0.0)
|   |   |   |   |   LRS-name = 16263-5533: 14 (0.0)
|   |   |   |   |   LRS-name = 16269+4159: 14 (0.0)
|   |   |   |   |   LRS-name = 16270-5213: 14 (0.0)
|   |   |   |   |   LRS-name = 16279-4709: 14 (0.0)
|   |   |   |   |   LRS-name = 16280-4154: 14 (0.0)
|   |   |   |   |   LRS-name = 16296-4417: 14 (0.0)
|   |   |   |   |   LRS-name = 16306+7223: 14 (0.0)
|   |   |   |   |   LRS-name = 16316-5026: 14 (0.0)
|   |   |   |   |   LRS-name = 16327-4848: 14 (0.0)
|   |   |   |   |   LRS-name = 16328-4656: 14 (0.0)
|   |   |   |   |   LRS-name = 16334-3107: 14 (0.0)
|   |   |   |   |   LRS-name = 16337-4525: 14 (0.0)
|   |   |   |   |   LRS-name = 16340-4634: 14 (0.0)
|   |   |   |   |   LRS-name = 16387-2700: 14 (0.0)
|   |   |   |   |   LRS-name = 16396-4429: 14 (0.0)
|   |   |   |   |   LRS-name = 16407-5639: 14 (0.0)
|   |   |   |   |   LRS-name = 16418+5459: 14 (0.0)
|   |   |   |   |   LRS-name = 16433-6856: 14 (0.0)
|   |   |   |   |   LRS-name = 16438-1133: 14 (0.0)
|   |   |   |   |   LRS-name = 16446-4243: 14 (0.0)
|   |   |   |   |   LRS-name = 16451-4312: 14 (0.0)
|   |   |   |   |   LRS-name = 16460-4022: 14 (0.0)
|   |   |   |   |   LRS-name = 16473+5753: 14 (0.0)
|   |   |   |   |   LRS-name = 16478-4322: 14 (0.0)
|   |   |   |   |   LRS-name = 16490-4618: 14 (0.0)
|   |   |   |   |   LRS-name = 16494-1252: 14 (0.0)
|   |   |   |   |   LRS-name = 16498-4143: 14 (0.0)
|   |   |   |   |   LRS-name = 16534-3030: 14 (0.0)
|   |   |   |   |   LRS-name = 16541-4901: 14 (0.0)
|   |   |   |   |   LRS-name = 16545-4214: 14 (0.0)
|   |   |   |   |   LRS-name = 16546-4057: 14 (0.0)
|   |   |   |   |   LRS-name = 16559-2557: 14 (0.0)
|   |   |   |   |   LRS-name = 16571-7548: 14 (0.0)
|   |   |   |   |   LRS-name = 16581-4058: 14 (0.0)
|   |   |   |   |   LRS-name = 16586-4142: 14 (0.0)
|   |   |   |   |   LRS-name = 16589-3315: 14 (0.0)
|   |   |   |   |   LRS-name = 16598-4117: 14 (0.0)
|   |   |   |   |   LRS-name = 17001-3651: 14 (0.0)
|   |   |   |   |   LRS-name = 17010-4323: 14 (0.0)
|   |   |   |   |   LRS-name = 17025-4719: 14 (0.0)
|   |   |   |   |   LRS-name = 17047-5650: 14 (0.0)
|   |   |   |   |   LRS-name = 17048-1601: 14 (0.0)
|   |   |   |   |   LRS-name = 17049-2440: 14 (0.0)
|   |   |   |   |   LRS-name = 17050-4123: 14 (0.0)
|   |   |   |   |   LRS-name = 17066-4028: 14 (0.0)
|   |   |   |   |   LRS-name = 17079-3243: 14 (0.0)
|   |   |   |   |   LRS-name = 17080-3215: 14 (0.0)
|   |   |   |   |   LRS-name = 17081+6422: 14 (0.0)
|   |   |   |   |   LRS-name = 17102-1031: 14 (0.0)
|   |   |   |   |   LRS-name = 17103-0559: 14 (0.0)
|   |   |   |   |   LRS-name = 17103-3551: 14 (0.0)
|   |   |   |   |   LRS-name = 17103-3702: 14 (0.0)
|   |   |   |   |   LRS-name = 17104-3146: 14 (0.0)
|   |   |   |   |   LRS-name = 17105-3746: 14 (0.0)
|   |   |   |   |   LRS-name = 17109-3942: 14 (0.0)
|   |   |   |   |   LRS-name = 17115-3322: 14 (0.0)
|   |   |   |   |   LRS-name = 17119+0859: 14 (0.0)
|   |   |   |   |   LRS-name = 17122-2707: 14 (0.0)
|   |   |   |   |   LRS-name = 17123+1107: 14 (0.0)
|   |   |   |   |   LRS-name = 17125-4814: 14 (0.0)
|   |   |   |   |   LRS-name = 17139+0446: 14 (0.0)
